tree
version=v4
num_class=1
num_tree_per_iteration=1
label_index=0
max_feature_idx=14
objective=binary sigmoid:1
feature_names=age edu_0 edu_1 day_cos day_sin AirConditioner_daytime AirConditioner_midnight ClothesWasher_daytime ClothesWasher_midnight Microwave_daytime RiceCooker_midnight TV_daytime IH_daytime day_sin_*_AirConditioner_daytime day_sin_*_Microwave_daytime
feature_infos=[0.041666666666666963:1] [0:1] [0:1] [-27579.396042201173:27982.443560236788] [-28033.352039369551:26583.535332413016] [0:16592] [21:3897] [39:600] [0:539] [0:15695] [17:8135] [0:8187] [0:7141] [-100205267.98173419:259896805.97288585] [-369956146.86355996:307767071.64104205]
tree_sizes=729 754 757 758 756 753 750 749 751 750 757 757 759 755 758 749 754 754 750

Tree=0
num_leaves=6
num_cat=0
split_feature=7 0 6 12 13
split_gain=2.07365 0.840119 1.01911 1.2162 0.664742
threshold=76.500000000000014 0.93750000000000033 263.50000000000006 3116.0000000000005 -64223506.806403972
decision_type=2 2 2 2 2
left_child=-1 2 -2 4 -4
right_child=1 -3 3 -5 -6
leaf_value=0.012681577657925295 0.0048402060761691462 0.0048402060761691462 0.00247938321712389 0.0048402060761691462 -0.029154521631874649
leaf_weight=1.9999999999999998 0.49999999999999989 0.49999999999999989 0.249999999999999 0.49999999999999989 4.7500000000000009
leaf_count=8 2 2 1 2 19
internal_value=0 -0.0153111 -0.018954 -0.0228346 -0.0269768
internal_weight=0 6.5 6 5.5 5
internal_count=34 26 24 22 20
is_linear=0
shrinkage=0.05


Tree=1
num_leaves=6
num_cat=0
split_feature=7 0 6 12 13
split_gain=2.00434 0.818909 0.995924 1.19085 0.652031
threshold=76.500000000000014 0.93750000000000033 263.50000000000006 3116.0000000000005 -64223506.806403972
decision_type=2 2 2 2 2
left_child=-1 2 -2 4 -4
right_child=1 -3 3 -5 -6
leaf_value=0.012574438987629008 0.0048284899357263367 0.0048284899357263367 0.0024763076938079474 0.0048284899357263367 -0.028681531042411813
leaf_weight=1.999919533729553 0.49999707937240589 0.49999707937240589 0.24999961256980796 0.49999707937240589 4.7489906698465356
leaf_count=8 2 2 1 2 19
internal_value=0 -0.0149121 -0.018535 -0.0223942 -0.0265138
internal_weight=0 6.49898 5.99898 5.49899 4.99899
internal_count=34 26 24 22 20
is_linear=0
shrinkage=0.05


Tree=2
num_leaves=6
num_cat=0
split_feature=7 0 6 12 3
split_gain=1.93721 0.798271 0.973375 1.1662 0.321401
threshold=76.500000000000014 0.93750000000000033 263.50000000000006 3116.0000000000005 -1.0000000180025095e-35
decision_type=2 2 2 2 2
left_child=4 2 -2 -4 -1
right_child=1 -3 3 -5 -6
leaf_value=-0.0025107204208004033 0.0048168053719282117 0.0048168053719282117 -0.026061818876984628 0.0048168053719282117 0.014924372027081887
leaf_weight=0.24996013939380657 0.49998831748962391 0.49998831748962391 4.9960285276174545 0.49998831748962391 1.7497209757566448
leaf_count=1 2 2 20 2 7
internal_value=0 -0.0145218 -0.0181254 -0.0219641 0.0124684
internal_weight=0 6.49599 5.99601 5.49602 1.99968
internal_count=34 26 24 22 8
is_linear=0
shrinkage=0.05


Tree=3
num_leaves=6
num_cat=0
split_feature=7 0 13 4 3
split_gain=1.87295 0.778611 0.43784 0.476068 0.318475
threshold=76.500000000000014 0.93750000000000033 -64223506.806403972 -26064.336566813636 -1.0000000180025095e-35
decision_type=2 2 2 2 2
left_child=4 2 -2 -4 -1
right_child=1 -3 3 -5 -6
leaf_value=-0.0025076046181658762 0.0025055702336703417 0.0048051517601176014 0.0024614181773169944 -0.021582528880686958 0.014812147100231654
leaf_weight=0.24996766448020946 0.24997216463088889 0.49997377395629872 0.2499868869781493 5.4916119575500497 1.7492938339710231
leaf_count=1 1 2 1 22 7
internal_value=0 -0.0141492 -0.0177343 -0.0196418 0.0123611
internal_weight=0 6.49154 5.99157 5.7416 1.99926
internal_count=34 26 24 23 8
is_linear=0
shrinkage=0.05


Tree=4
num_leaves=6
num_cat=0
split_feature=7 6 0 4 1
split_gain=1.81281 0.77198 0.933797 0.514059 0.315583
threshold=76.500000000000014 263.50000000000006 0.93750000000000033 -26064.336566813636 1.0000000180025095e-35
decision_type=2 2 2 2 2
left_child=4 -2 3 -3 -1
right_child=1 2 -4 -5 -6
leaf_value=0.014701034417021797 0.0048573897841922642 0.0024583662130397369 0.0047935293556069652 -0.023210345009183102 -0.0025044925654396553
leaf_weight=1.7486775815486906 0.49999371170997609 0.24998204410076041 0.4999534785747527 5.2367874085903177 0.24997439980506886
leaf_count=7 2 1 2 21 1
internal_value=0 -0.0138014 -0.0174108 -0.0212128 0.0122548
internal_weight=0 6.48672 5.98672 5.48677 1.99865
internal_count=34 26 24 22 8
is_linear=0
shrinkage=0.05


Tree=5
num_leaves=6
num_cat=0
split_feature=0 4 14 4 13
split_gain=1.65247 0.788026 0.759397 0.394748 0.436864
threshold=0.60416666666666685 13318.702323953696 91163623.493271902 -26064.336566813636 -64223506.806403972
decision_type=2 2 2 2 2
left_child=2 -2 3 -1 -5
right_child=1 -3 -4 4 -6
leaf_value=0.0024553184163271687 0.018811895064138606 -0.0035119814186120716 0.0045797925197423282 0.0023930386358669686 -0.020621449870080095
leaf_weight=0.24997647106647525 2.2458115816116333 1.9947808086872099 1.4972711652517317 0.24969667196273837 2.7396580129861832
leaf_count=1 9 8 6 1 11
internal_value=0 0.013192 -0.0108749 -0.0160914 -0.018337
internal_weight=0 4.24059 4.7366 3.23933 2.98935
internal_count=36 17 19 13 12
is_linear=0
shrinkage=0.05


Tree=6
num_leaves=6
num_cat=0
split_feature=0 4 9 6 5
split_gain=1.61247 0.773879 0.750095 0.394082 0.432454
threshold=0.60416666666666685 13318.702323953696 8225.0000000000018 263.50000000000006 14555.000000000002
decision_type=2 2 2 2 2
left_child=2 -2 3 -1 -5
right_child=1 -3 -4 4 -6
leaf_value=0.0024764803989414338 0.018636605634255621 -0.0034824431041212038 0.0045836713912911324 -0.0204510769339784 0.0023900788555166778
leaf_weight=0.24999965727329287 2.2460109889507294 1.9944785386323927 1.4964633882045744 2.7369731813669209 0.24967549741268147
leaf_count=1 9 8 6 11 1
internal_value=0 0.0130668 -0.0107113 -0.0159126 -0.0181718
internal_weight=0 4.24049 4.73311 3.23665 2.98665
internal_count=36 17 19 13 12
is_linear=0
shrinkage=0.05


Tree=7
num_leaves=6
num_cat=0
split_feature=9 6 13 6 8
split_gain=1.56765 1.1511 0.931227 0.700028 0.42599
threshold=7435.0000000000009 476.50000000000006 -41396628.112509251 3037.0000000000005 112.50000000000001
decision_type=2 2 2 2 2
left_child=1 4 -3 -2 -1
right_child=3 2 -4 -5 -6
leaf_value=-0.0045026117547384446 0.017401709177192651 0.0047555398061589829 -0.021677998016851677 -0.0044915859251428531 0.0110585533571225
leaf_weight=0.49755126237869252 3.2438682764768605 0.49965246021747622 2.9821836650371552 0.49739080667495716 1.2485557049512861
leaf_count=2 13 2 12 2 5
internal_value=0 -0.0101336 -0.0171731 0.0133449 0.00656495
internal_weight=0 5.22794 3.48184 3.74126 1.74611
internal_count=36 21 14 15 7
is_linear=0
shrinkage=0.05


Tree=8
num_leaves=6
num_cat=0
split_feature=0 4 9 6 5
split_gain=1.5476 0.750753 0.717428 0.382911 0.422066
threshold=0.60416666666666685 13318.702323953696 8225.0000000000018 263.50000000000006 14555.000000000002
decision_type=2 2 2 2 2
left_child=2 -2 3 -1 -5
right_child=1 -3 -4 4 -6
leaf_value=0.0024596950588229097 0.018328388856861482 -0.0034403967209566916 0.0044866906124187275 -0.020060856036775487 0.0023812433987607656
leaf_weight=0.24998424947261844 2.2454912662506104 1.9932541549205778 1.4959495365619657 2.7292683571577077 0.24960805475711811
leaf_count=1 9 8 6 11 1
internal_value=0 0.0128388 -0.0104633 -0.0155545 -0.0177949
internal_weight=0 4.23875 4.72481 3.22886 2.97888
internal_count=36 17 19 13 12
is_linear=0
shrinkage=0.05


Tree=9
num_leaves=6
num_cat=0
split_feature=0 4 14 4 5
split_gain=1.51016 0.737351 0.714081 0.372994 0.417385
threshold=0.60416666666666685 13318.702323953696 91163623.493271902 -26064.336566813636 14555.000000000002
decision_type=2 2 2 2 2
left_child=2 -2 3 -1 -5
right_child=1 -3 -4 4 -6
leaf_value=0.0024194755632301152 0.018159266261761228 -0.0034114845400266981 0.004519798646553822 -0.019876494055768523 0.002378299882913308
leaf_weight=0.24985405802726779 2.2446256726980209 1.9929294288158415 1.4955834150314329 2.7249253243207936 0.24958416819572438
leaf_count=1 9 8 6 11 1
internal_value=0 0.012718 -0.010306 -0.0154093 -0.0176157
internal_weight=0 4.23756 4.71995 3.22436 2.97451
internal_count=36 17 19 13 12
is_linear=0
shrinkage=0.05


Tree=10
num_leaves=6
num_cat=0
split_feature=1 0 3 3 4
split_gain=2.0462 0.729409 0.398973 0.337796 0.151738
threshold=1.0000000180025095e-35 0.43750000000000028 1.0000000180025095e-35 -22975.687986843182 23566.167630269174
decision_type=2 2 2 2 2
left_child=1 -1 -3 -2 -5
right_child=3 2 -4 4 -6
leaf_value=-0.0039800348975411416 0.002525734097044886 -0.0021943650667403214 0.020383667656389121 -0.016994129655107819 0.00033173355502071164
leaf_weight=0.9933100938796996 0.24991281330585513 0.24668362736701999 3.2384206205606461 2.230597704648972 0.99701948463916767
leaf_count=4 1 1 13 9 4
internal_value=0 0.014059 0.0183442 -0.0132162 -0.01542
internal_weight=0 4.47841 3.4851 3.47753 3.22762
internal_count=32 18 14 14 13
is_linear=0
shrinkage=0.05


Tree=11
num_leaves=6
num_cat=0
split_feature=1 6 6 3 3
split_gain=1.99426 1.16316 0.749996 0.440185 0.425686
threshold=1.0000000180025095e-35 3037.0000000000005 263.50000000000006 -22975.687986843182 -22975.687986843182
decision_type=2 2 2 2 2
left_child=1 4 -2 -4 -1
right_child=2 -3 3 -5 -6
leaf_value=-0.0021916921322847559 0.0048178420220197074 -0.0064192396303011517 0.002522599257996356 -0.019854307953123578 0.0216328858635952
leaf_weight=0.24662099778652224 0.49996502697467837 0.74303355813026417 0.24992421269416842 2.7241293340921402 3.4863249659538269
leaf_count=1 2 3 1 11 14
internal_value=0 0.0138464 -0.0130809 -0.0174797 0.0196101
internal_weight=0 4.47598 3.47402 2.97405 3.73295
internal_count=32 18 14 12 15
is_linear=0
shrinkage=0.05


Tree=12
num_leaves=6
num_cat=0
split_feature=1 6 6 3 3
split_gain=1.93092 1.14231 0.739183 0.434745 0.419217
threshold=1.0000000180025095e-35 3037.0000000000005 263.50000000000006 -22975.687986843182 -22975.687986843182
decision_type=2 2 2 2 2
left_child=1 4 -2 -4 -1
right_child=2 -3 3 -5 -6
leaf_value=-0.0021890234133189195 0.0048061862737688362 -0.0063969630975812602 0.0025194681799347984 -0.019647391315926455 0.021354538020318208
leaf_weight=0.24655787646770511 0.49995099008083377 0.74257270991802204 0.24993479251861606 2.7188028544187546 3.4833422154188156
leaf_count=1 2 3 1 11 14
internal_value=0 0.0136048 -0.0128944 -0.0172783 0.0193385
internal_weight=0 4.47247 3.46869 2.96874 3.7299
internal_count=32 18 14 12 15
is_linear=0
shrinkage=0.05


Tree=13
num_leaves=6
num_cat=0
split_feature=1 6 6 3 3
split_gain=1.86953 1.12191 0.728562 0.4294 0.412882
threshold=1.0000000180025095e-35 3037.0000000000005 263.50000000000006 -22975.687986843182 -22975.687986843182
decision_type=2 2 2 2 2
left_child=1 4 -2 -4 -1
right_child=2 -3 3 -5 -6
leaf_value=-0.0021863586136815407 0.0047945617276796276 -0.0063747847735901812 0.0025163411541117837 -0.019443683281618857 0.021081167236158702
leaf_weight=0.24649426341056857 0.49993121623992953 0.74209868907928456 0.24994456768035922 2.7130222916603088 3.4796098917722702
leaf_count=1 2 3 1 11 14
internal_value=0 0.0133673 -0.0127107 -0.0170799 0.0190716
internal_weight=0 4.4682 3.4629 2.96297 3.7261
internal_count=32 18 14 12 15
is_linear=0
shrinkage=0.05


Tree=14
num_leaves=6
num_cat=0
split_feature=1 6 6 6 12
split_gain=1.81004 1.10194 0.718128 0.424147 0.0499341
threshold=1.0000000180025095e-35 3037.0000000000005 263.50000000000006 2201.5000000000005 918.50000000000011
decision_type=2 2 2 2 2
left_child=1 4 -2 -4 -1
right_child=2 -3 3 -5 -6
leaf_value=0.00014117538043522315 0.0047829685019511146 -0.0063527050361522307 -0.019243127199034645 0.0025132181797664216 0.019410608327780979
leaf_weight=0.4955123066902164 0.49990572035312686 0.74161168932914723 2.7068068981170659 0.24995353817939747 3.2260785698890686
leaf_count=2 2 3 11 1 13
internal_value=0 0.0131339 -0.0125297 -0.0168846 0.0188094
internal_weight=0 4.4632 3.45667 2.95676 3.72159
internal_count=32 18 14 12 15
is_linear=0
shrinkage=0.05


Tree=15
num_leaves=6
num_cat=0
split_feature=8 8 5 13 4
split_gain=1.3586 0.98308 0.901112 0.37057 0.170117
threshold=112.50000000000001 251.50000000000003 7327.0000000000009 -64223506.806403972 13318.702323953696
decision_type=2 2 2 2 2
left_child=2 -2 3 -1 -3
right_child=1 4 -4 -5 -6
leaf_value=0.002329098012149105 0.018852015318033252 0.0026205787477055283 0.006268051653343056 -0.018145963365667796 -0.0072925234964275627
leaf_weight=0.24908001720905382 2.4795830696821213 0.7454788684844974 0.73970234394073475 2.468957930803299 1.4730678051710127
leaf_count=1 10 3 3 10 6
internal_value=0 0.0122067 -0.0100409 -0.0159137 -0.00453982
internal_weight=0 4.69813 3.45774 2.71804 2.21855
internal_count=33 19 14 11 9
is_linear=0
shrinkage=0.05


Tree=16
num_leaves=6
num_cat=0
split_feature=8 8 5 13 0
split_gain=1.32473 0.965092 0.88804 0.366305 0.169207
threshold=112.50000000000001 251.50000000000003 7327.0000000000009 -64223506.806403972 0.60416666666666685
decision_type=2 2 2 2 2
left_child=2 -2 3 -1 -3
right_child=1 4 -4 -5 -6
leaf_value=0.0023262275953185065 0.018667629676875713 -0.0072547973318675841 0.0062464440599148477 -0.017971274845369055 0.0026211613464246588
leaf_weight=0.24904449284076768 2.4760228842496872 1.4720664769411089 0.73915444314479817 2.4639565050601959 0.74527786672115315
leaf_count=1 10 6 3 10 3
internal_value=0 0.0120801 -0.00989622 -0.015744 -0.00450381
internal_weight=0 4.69337 3.45216 2.713 2.21734
internal_count=33 19 14 11 9
is_linear=0
shrinkage=0.05


Tree=17
num_leaves=6
num_cat=0
split_feature=8 8 5 13 4
split_gain=1.29172 0.947473 0.875192 0.362107 0.167637
threshold=112.50000000000001 251.50000000000003 7327.0000000000009 -64223506.806403972 13318.702323953696
decision_type=2 2 2 2 2
left_child=2 -2 3 -1 -3
right_child=1 4 -4 -5 -6
leaf_value=0.0023233612955325992 0.018485859803246931 0.0026136218230782878 0.00622493390890659 -0.017799059917480851 -0.0072099502721214952
leaf_weight=0.24900834262371141 2.4720763713121414 0.74529913067817721 0.73859462141990651 2.4586206823587418 1.4708199948072431
leaf_count=1 10 3 3 10 6
internal_value=0 0.0119553 -0.00975359 -0.0155766 -0.00446806
internal_weight=0 4.6882 3.44622 2.70763 2.21612
internal_count=33 19 14 11 9
is_linear=0
shrinkage=0.05


Tree=18
num_leaves=6
num_cat=0
split_feature=8 8 5 0 6
split_gain=1.25956 0.93022 0.862565 0.166742 0.196886
threshold=112.50000000000001 251.50000000000003 7327.0000000000009 0.60416666666666685 476.50000000000006
decision_type=2 2 2 2 2
left_child=2 -2 -1 4 -3
right_child=1 3 -4 -5 -6
leaf_value=-0.0154115502648365 0.018306667322993613 0.0024537991697355715 0.0062035197861148731 0.0026141655044477838 -0.0095748582601435303
leaf_weight=2.7019355893135075 2.4677579402923584 0.24997340142726932 0.7380230277776717 0.74509313702583302 1.219798222184181
leaf_count=11 10 1 3 3 5
internal_value=0 0.0118324 -0.00961296 -0.0044326 -0.00717279
internal_weight=0 4.68262 3.43996 2.21486 1.46977
internal_count=33 19 14 9 6
is_linear=0
shrinkage=0.05


end of trees

feature_importances:
AirConditioner_midnight=18
age=12
day_sin=11
day_cos=10
ClothesWasher_midnight=9
day_sin_*_AirConditioner_daytime=8
AirConditioner_daytime=7
edu_0=6
ClothesWasher_daytime=5
IH_daytime=4
Microwave_daytime=3
day_sin_*_Microwave_daytime=2

parameters:
[boosting: gbdt]
[objective: binary]
[metric: roc_auc]
[tree_learner: serial]
[device_type: cpu]
[data_sample_strategy: bagging]
[data: ]
[valid: ]
[num_iterations: 10000]
[learning_rate: 0.05]
[num_leaves: 6]
[num_threads: 0]
[seed: 0]
[deterministic: 0]
[force_col_wise: 0]
[force_row_wise: 0]
[histogram_pool_size: -1]
[max_depth: -1]
[min_data_in_leaf: 1]
[min_sum_hessian_in_leaf: 0.001]
[bagging_fraction: 0.862079]
[pos_bagging_fraction: 1]
[neg_bagging_fraction: 1]
[bagging_freq: 5]
[bagging_seed: 3]
[feature_fraction: 0.892269]
[feature_fraction_bynode: 1]
[feature_fraction_seed: 2]
[extra_trees: 0]
[extra_seed: 6]
[early_stopping_round: 0]
[early_stopping_min_delta: 0]
[first_metric_only: 0]
[max_delta_step: 0]
[lambda_l1: 0.00030644]
[lambda_l2: 9.82697]
[linear_lambda: 0]
[min_gain_to_split: 0]
[drop_rate: 0.1]
[max_drop: 50]
[skip_drop: 0.5]
[xgboost_dart_mode: 0]
[uniform_drop: 0]
[drop_seed: 4]
[top_rate: 0.2]
[other_rate: 0.1]
[min_data_per_group: 100]
[max_cat_threshold: 32]
[cat_l2: 10]
[cat_smooth: 10]
[max_cat_to_onehot: 4]
[top_k: 20]
[monotone_constraints: ]
[monotone_constraints_method: basic]
[monotone_penalty: 0]
[feature_contri: ]
[forcedsplits_filename: ]
[refit_decay_rate: 0.9]
[cegb_tradeoff: 1]
[cegb_penalty_split: 0]
[cegb_penalty_feature_lazy: ]
[cegb_penalty_feature_coupled: ]
[path_smooth: 0]
[interaction_constraints: ]
[verbosity: -1]
[saved_feature_importance_type: 0]
[use_quantized_grad: 0]
[num_grad_quant_bins: 4]
[quant_train_renew_leaf: 0]
[stochastic_rounding: 1]
[linear_tree: 0]
[max_bin: 255]
[max_bin_by_feature: ]
[min_data_in_bin: 3]
[bin_construct_sample_cnt: 200000]
[data_random_seed: 1]
[is_enable_sparse: 1]
[enable_bundle: 1]
[use_missing: 1]
[zero_as_missing: 0]
[feature_pre_filter: 1]
[pre_partition: 0]
[two_round: 0]
[header: 0]
[label_column: ]
[weight_column: ]
[group_column: ]
[ignore_column: ]
[categorical_feature: ]
[forcedbins_filename: ]
[precise_float_parser: 0]
[parser_config_file: ]
[objective_seed: 5]
[num_class: 1]
[is_unbalance: 0]
[scale_pos_weight: 1]
[sigmoid: 1]
[boost_from_average: 1]
[reg_sqrt: 0]
[alpha: 0.9]
[fair_c: 1]
[poisson_max_delta_step: 0.7]
[tweedie_variance_power: 1.5]
[lambdarank_truncation_level: 30]
[lambdarank_norm: 1]
[label_gain: ]
[lambdarank_position_bias_regularization: 0]
[eval_at: ]
[multi_error_top_k: 1]
[auc_mu_weights: ]
[num_machines: 1]
[local_listen_port: 12400]
[time_out: 120]
[machine_list_filename: ]
[machines: ]
[gpu_platform_id: -1]
[gpu_device_id: -1]
[gpu_use_dp: 0]
[num_gpu: 1]

end of parameters

pandas_categorical:null
