tree
version=v4
num_class=1
num_tree_per_iteration=1
label_index=0
max_feature_idx=14
objective=binary sigmoid:1
feature_names=age edu_0 edu_1 day_cos day_sin AirConditioner_daytime AirConditioner_midnight ClothesWasher_daytime ClothesWasher_midnight Microwave_daytime RiceCooker_midnight TV_daytime IH_daytime day_sin_*_AirConditioner_daytime day_sin_*_Microwave_daytime
feature_infos=[0.083333333333333481:1] [0:1] [0:1] [-28016.901329359454:28233.366375315662] [-26325.235972451366:28284.42604292812] [0:13674] [144:2909] [3:571] [0:1222] [1959:21058] [173:8144] [0:5143] [52:7270] [-27079255.567558542:307484242.99469119] [-170534878.62953994:524151953.01477665]
tree_sizes=760 956 1053 1044 1045 945 1164 1373 1055 958 1055 1256 1157 1158 1050 1061 1050 1160 1162 1166 1155 1267

Tree=0
num_leaves=7
num_cat=0
split_feature=9 14 12 12 7 0
split_gain=11.1664 6.21666 2.25914 6.97582 1.69115 1.19733
threshold=5874.5000000000009 383840175.78208584 2457.5000000000005 1021.0000000000001 96.500000000000014 0.77083333333333359
decision_type=2 2 2 2 2 2
left_child=4 2 3 -2 -1 -5
right_child=1 -3 -4 5 -6 -7
leaf_value=0 0.099932982388173219 -0.099866041065523672 0.099942551658913747 -0.0998660410655237 -0.099963435473831491 0
leaf_weight=0.50000000000000033 1.5000000000000002 0.74999999999999989 1.7499999999999998 0.74999999999999978 2.75 0.5
leaf_count=2 6 3 7 3 11 2
internal_value=0 0.033325 0.0555416 0.0272588 -0.0845885 -0.0599469
internal_weight=0 5.25 4.5 2.75 3.25 1.25
internal_count=34 21 18 11 13 5
is_linear=0
shrinkage=0.05


Tree=1
num_leaves=8
num_cat=0
split_feature=9 3 0 13 7 3 13
split_gain=10.1003 3.37547 4.81851 1.62775 1.02826 1.87547 1.52493
threshold=5874.5000000000009 1.0000000180025095e-35 0.77083333333333359 -1.0000000180025095e-35 106.50000000000001 27570.202409448288 147618725.46564922
decision_type=2 2 2 2 2 2 2
left_child=3 2 -2 -1 5 -3 -6
right_child=1 4 -4 -5 6 -7 -8
leaf_value=0.0024656442146271263 -0.095151247262781291 -0.030002675019860744 0.095051709747732957 -0.095641617674368046 0.09519621594510147 0.095051709747732957 -0.0024651245721278889
leaf_weight=0.49937649071216617 0.99751085042953469 0.74875542521476768 0.49875375628471375 2.7437649071216583 1.9950143098831179 0.49875375628471375 0.49937675893306721
leaf_count=2 4 3 2 11 8 2 2
internal_value=0 0.0317315 -0.0317222 -0.0805338 0.0571101 0.0200128 0.0756442
internal_weight=0 5.23816 1.49626 3.24314 3.7419 1.24751 2.49439
internal_count=34 21 6 13 15 5 10
is_linear=0
shrinkage=0.05


Tree=2
num_leaves=9
num_cat=0
split_feature=9 5 14 14 14 1 1 1
split_gain=8.72256 6.62102 5.69202 1.85631 4.84086 2.33683 0.0141765 0.011586
threshold=5874.5000000000009 6295.5000000000009 383840175.78208584 142498837.99829853 289338320.32946205 1.0000000180025095e-35 1.0000000180025095e-35 1.0000000180025095e-35
decision_type=2 2 2 2 2 2 2 2
left_child=1 -1 3 7 5 -5 -6 -2
right_child=2 -3 -4 4 6 -7 -8 -9
leaf_value=-0.091803115610030558 0.10131939717772198 0.10510262422065196 -0.091941549585228419 0.03032145486434841 0.10282672183974013 -0.094860940647415196 0.09104220724507564 0.091076760790144429
leaf_weight=2.9750743061304097 0.49988749623298612 0.49762345850467671 0.74422484636306752 0.74290838837623618 0.4970450699329374 0.74658647179603577 0.99054032564163208 1.4858220666646957
leaf_count=12 2 2 3 3 2 3 4 6
internal_value=0 -0.0635641 0.0369259 0.0562665 0.0312701 -0.0324326 0.0950467 0.0937054
internal_weight=0 3.4727 5.70701 4.96279 2.97708 1.48949 1.48759 1.98571
internal_count=37 14 23 20 12 6 6 8
is_linear=0
shrinkage=0.05


Tree=3
num_leaves=9
num_cat=0
split_feature=9 10 14 4 14 4 4 3
split_gain=7.94004 6.02292 5.18131 2.09897 4.00036 2.26541 0.0070133 0.00491273
threshold=5874.5000000000009 463.00000000000006 383840175.78208584 24082.671518483359 289338320.32946205 27361.594089127833 -6868.865004167269 11237.71104736157
decision_type=2 2 2 2 2 2 2 2
left_child=1 -1 3 6 5 -5 -2 -6
right_child=2 -3 -4 4 7 -7 -8 -9
leaf_value=0.099619549038172772 0.096363142748493558 -0.088136780416420063 -0.088250954785263888 -0.092451858117043179 0.096074798890341817 0.031067545695641702 0.087990612361384848 0.087434073576117655
leaf_weight=0.49876698851585421 0.499364793300629 2.9446658939123154 0.7367965281009673 0.7445911765098574 0.49441990256309487 0.73852051794528961 1.7172206938266752 0.73485101759433746
leaf_count=2 2 12 3 3 2 3 7 3
internal_value=0 -0.0609187 0.0353422 0.0538325 0.0243167 -0.0309523 0.0899201 0.090986
internal_weight=0 3.44343 5.66576 4.92897 2.71238 1.48311 2.21659 1.22927
internal_count=37 14 23 20 11 6 9 5
is_linear=0
shrinkage=0.05


Tree=4
num_leaves=9
num_cat=0
split_feature=14 9 9 14 14 5 10 8
split_gain=5.61688 5.61794 3.52892 1.98024 2.52128 2.12756 0.010248 0.00314092
threshold=12394410.401047321 5874.5000000000009 14235.000000000002 289338320.32946205 142498837.99829853 230.50000000000003 1202.0000000000002 128.50000000000003
decision_type=2 2 2 2 2 2 2 2
left_child=6 -2 3 4 -3 -6 -1 -5
right_child=1 2 -4 7 5 -7 -8 -9
leaf_value=0.094045767612501732 -0.084305620908820114 0.084274981726118747 -0.085013142611899295 0.084291776988179024 0.030600881085849463 -0.089420264120539716 0.084273437526194983 0.091912744704163385
leaf_weight=0.74558186531066872 2.172496497631073 0.72435893118381578 0.72689336538314808 0.724424287676811 0.73568005859851815 0.7395346462726593 0.72435291111469269 0.49108448624610901
leaf_count=3 9 3 3 3 3 3 3 2
internal_value=0 -0.0192014 0.014953 0.0362509 0.00793035 -0.0295732 0.0892922 0.0874456
internal_weight=0 6.31447 4.14198 3.41508 2.19957 1.47521 1.46993 1.21551
internal_count=32 26 17 14 9 6 6 5
is_linear=0
shrinkage=0.05


Tree=5
num_leaves=8
num_cat=0
split_feature=0 9 9 12 12 0 8
split_gain=4.22448 5.67593 3.44623 1.88276 3.77253 1.02129 0.00507293
threshold=0.85416666666666707 5874.5000000000009 14235.000000000002 2457.5000000000005 1021.0000000000001 0.3541666666666668 128.50000000000003
decision_type=2 2 2 2 2 2 2
left_child=1 -1 3 4 -3 -6 -2
right_child=6 2 -4 -5 5 -7 -8
leaf_value=-0.08152918198257067 0.081434017201440057 0.083038272017742498 -0.082152398611355426 0.082491505579238331 0.0062853737570091276 -0.086788773258857338 0.090098414142379485
leaf_weight=2.1351223289966583 0.47461944818496682 0.95686978101730424 0.71492473781108845 1.4307039082050321 0.49199883639812447 0.73276796936988831 0.739516481757164
leaf_count=9 2 4 3 6 2 3 3
internal_value=0 -0.0148355 0.018078 0.0379337 0.00868519 -0.0494095 0.0867835
internal_weight=0 6.46239 4.32727 3.61234 2.18164 1.22477 1.21414
internal_count=32 27 18 15 9 5 5
is_linear=0
shrinkage=0.05


Tree=6
num_leaves=10
num_cat=0
split_feature=9 14 14 12 3 1 5 1 1
split_gain=6.04226 3.97043 1.62803 4.61709 1.10256 0.862183 0.010586 0.0105622 0.00207517
threshold=5874.5000000000009 383840175.78208584 142498837.99829853 2457.5000000000005 -14687.180308512043 1.0000000180025095e-35 1827.0000000000002 1.0000000180025095e-35 1.0000000180025095e-35
decision_type=2 2 2 2 2 2 2 2 2
left_child=4 2 8 5 -1 -4 -6 -5 -2
right_child=1 -3 3 7 6 -7 -8 -9 -10
leaf_value=0.0037155184523220012 0.084989201965227856 -0.07960905910839039 0.0015460005235065639 0.08931037184655588 -0.079037986202916535 -0.084752364195407492 -0.088819065642502817 0.078919901841028553 0.079060673761360917
leaf_weight=0.47320859134197268 0.48484116792678844 0.7012483924627303 0.48024876415729545 0.49073725938796975 1.3952447175979612 0.72612963616847992 0.4876636117696761 0.92939424514770508 1.6279954016208649
leaf_count=2 2 3 2 2 6 3 2 4 7
internal_value=0 0.0313598 0.0477937 0.021491 -0.0644782 -0.0504084 -0.0816184 0.0825726 0.0804621
internal_weight=0 5.44059 4.73935 2.62651 2.35612 1.20638 1.88291 1.42013 2.11284
internal_count=33 23 20 11 10 5 8 6 9
is_linear=0
shrinkage=0.05


Tree=7
num_leaves=12
num_cat=0
split_feature=5 13 8 11 3 6 6 11 2 12 10
split_gain=2.67701 3.36932 3.35361 1.55889 2.29241 1.48598 2.69399 0.885134 0.00989418 0.00155321 0.00132574
threshold=3437.0000000000005 970568.14181587379 15.500000000000002 981.00000000000011 27570.202409448288 368.50000000000006 277.50000000000006 497.00000000000006 1.0000000180025095e-35 737.00000000000011 788.00000000000011
decision_type=2 2 2 2 2 2 2 2 2 2 2
left_child=1 2 -1 8 -5 6 -4 10 -2 -7 -3
right_child=3 7 5 4 -6 9 -8 -9 -10 -11 -12
leaf_value=-0.078969065247170692 0.076821982973707667 -0.076819775156768272 0.082125727414312844 -0.08047407400361023 0.076747703238944129 0.076797011875328905 -0.085453847477044945 -0.00030600591237643117 0.086960842709169928 0.082871324800887783 -0.082370838725639106
leaf_weight=0.69631421566009555 0.90987496078014396 1.3643277883529665 0.47688773274421725 0.47093994915485371 0.45501017570495605 0.90962129831314065 0.48070706427097321 0.45365846157073964 0.48774679005146027 0.47884488105773926 0.47765620052814473
leaf_count=3 4 6 2 2 2 4 2 2 2 2 2
internal_value=0 -0.0171831 0.0173185 0.0471031 -0.00319975 0.0459215 -0.00198367 -0.0629035 0.0804221 0.0789525 -0.078305
internal_weight=0 5.33802 3.04238 2.32357 0.92595 2.34606 0.957595 2.29564 1.39762 1.38847 1.84198
internal_count=33 23 13 10 4 10 4 10 6 6 8
is_linear=0
shrinkage=0.05


Tree=8
num_leaves=9
num_cat=0
split_feature=9 10 9 4 4 13 4 2
split_gain=6.50897 4.32279 2.58048 0.689819 0.502215 0.473468 0.00516944 0.00304692
threshold=5874.5000000000009 463.00000000000006 14235.000000000002 24082.671518483359 27923.294109468749 51453486.645347543 9202.1141336872533 1.0000000180025095e-35
decision_type=2 2 2 2 2 2 2 2
left_child=1 -1 4 -4 5 7 -3 -2
right_child=2 6 3 -5 -6 -7 -8 -9
leaf_value=0.086245559875164718 0.075066680614380918 -0.081464380630950517 0.010039768913070636 -0.0764785269649495 0.012114899690459098 0.034858795102278239 -0.07512824348311839 0.080002828597034295
leaf_weight=0.48398287594318423 1.7800711095333106 0.70554906129837069 0.46635454893112172 0.45362183451652527 0.48443287611007679 0.89916130900382985 1.7811758518218992 0.93782502412796009
leaf_count=2 8 3 2 2 2 4 8 4
internal_value=0 -0.0503481 0.0430112 -0.0326356 0.059986 0.0663888 -0.0769594 0.0768001
internal_weight=0 2.97071 5.02147 0.919976 4.10149 3.61706 2.48672 2.7179
internal_count=35 13 22 4 18 16 11 12
is_linear=0
shrinkage=0.05


Tree=9
num_leaves=8
num_cat=0
split_feature=9 14 5 13 4 5 1
split_gain=5.9969 4.16217 3.9947 0.651755 0.674165 0.00411224 0.00190807
threshold=5874.5000000000009 383840175.78208584 6295.5000000000009 147618725.46564922 27923.294109468749 1827.0000000000002 1.0000000180025095e-35
decision_type=2 2 2 2 2 2 2
left_child=2 3 5 4 6 -1 -2
right_child=1 -3 -4 -5 -6 -7 -8
leaf_value=-0.073245572931133138 0.077690524157014509 -0.074713981799987908 0.083268875074651041 0.0046891767238267188 0.011494386927394625 -0.079162444063901924 0.073476408015408487
leaf_weight=1.7339525222778327 0.91797703504562456 0.66514210402965535 0.47643910348415364 0.47939725220203389 0.48508392274379719 0.69277274608612049 2.3922735452651978
leaf_count=8 4 3 2 2 2 3 11
internal_value=0 0.0415589 -0.0489778 0.0596657 0.0666033 -0.0749682 0.0746694
internal_weight=0 4.93987 2.90316 4.27473 3.79533 2.42673 3.31025
internal_count=35 22 13 19 17 11 15
is_linear=0
shrinkage=0.05


Tree=10
num_leaves=9
num_cat=0
split_feature=9 10 4 3 9 10 1 4
split_gain=4.5313 3.69995 1.7431 1.81303 2.06132 1.05661 0.00617241 0.00255828
threshold=5874.5000000000009 463.00000000000006 11992.515897085845 1.0000000180025095e-35 8096.5000000000009 788.00000000000011 1.0000000180025095e-35 9202.1141336872533
decision_type=2 2 2 2 2 2 2 2
left_child=1 -1 -2 5 -5 -4 -6 -3
right_child=2 7 3 4 6 -7 -8 -9
leaf_value=0.080624897401752896 0.072459095617954439 -0.076867189861398968 0.018095477822409719 -0.030614737528516026 0.080818134116327614 -0.07918096333570851 0.072172807425771743 -0.071645179759003003
leaf_weight=0.4677076339721683 1.7078960239887235 0.67639598250389132 0.46667771041393302 0.70423714816570315 0.46575899422168709 0.69205674529075623 0.85246710479259491 1.6875268816947935
leaf_count=2 8 3 2 3 2 3 4 8
internal_value=0 -0.0477478 0.0317254 0.00983834 0.0384078 -0.0400056 0.0752892 -0.073173
internal_weight=0 2.83163 4.88909 3.1812 2.02246 1.15873 1.31823 2.36392
internal_count=35 13 22 14 9 5 6 11
is_linear=0
shrinkage=0.05


Tree=11
num_leaves=11
num_cat=0
split_feature=7 5 6 0 7 8 7 0 6 6
split_gain=2.43069 2.34771 2.00654 2.99161 1.37946 2.0881 0.660911 0.535287 0.025053 0.00515537
threshold=260.00000000000006 785.50000000000011 741.50000000000011 0.77083333333333359 134.50000000000003 78.500000000000014 230.00000000000003 0.43750000000000028 1223.5000000000002 456.50000000000006
decision_type=2 2 2 2 2 2 2 2 2 2
left_child=2 -2 3 4 9 -6 -5 -3 -4 -1
right_child=1 7 8 6 5 -7 -8 -9 -10 -11
leaf_value=-0.069797433544677406 -0.071746412768431342 0.070626912671836836 0.085912241091685437 0.071191469282064865 0.08073755922333592 -0.071980783505602705 0.0018084485531828416 -0.0083185878543304004 0.070642213170833898 -0.078635420737789535
leaf_weight=0.40799427032470725 1.6786874979734423 0.41502317786216725 0.46898503601551034 1.2518458962440489 0.47058507800102223 0.42526240646839142 0.4734346717596053 0.44296544790267944 0.82729209959506989 0.68631453812122345
leaf_count=2 8 2 2 6 2 2 2 2 4 3
internal_value=0 -0.0373674 0.0226909 0.00399388 -0.0377682 0.00822519 0.0521711 0.0298833 0.0762314 -0.0754112
internal_weight=0 2.53668 5.01171 3.71544 1.99016 0.895847 1.72528 0.857989 1.29628 1.09431
internal_count=35 12 23 17 9 4 8 4 6 5
is_linear=0
shrinkage=0.05


Tree=12
num_leaves=10
num_cat=0
split_feature=14 9 9 14 8 10 0 4 10
split_gain=3.16046 2.83253 1.93643 1.82797 1.32236 1.42994 0.869214 0.0164173 0.00471217
threshold=12394410.401047321 5874.5000000000009 14235.000000000002 289338320.32946205 15.500000000000002 788.00000000000011 0.97916666666666685 27361.594089127833 1202.0000000000002
decision_type=2 2 2 2 2 2 2 2 2
left_child=6 -2 3 4 -3 -6 8 -5 -1
right_child=1 2 -4 7 5 -7 -8 -9 -10
leaf_value=0.075640536189295546 -0.069119555679417896 -0.079727261455364754 -0.072719486046878126 0.069266784667930972 0.071946355180993515 -0.033397139815835225 -0.0078440575749652245 0.082846204516435609 0.068510559013324021
leaf_weight=0.66312941908836343 2.000378206372261 0.46832816302776414 0.64163674414157856 0.60405077040195443 0.6318375766277311 0.65534034371376038 0.44724814593791951 0.45848408341407776 0.79055958986282349
leaf_count=3 10 2 3 3 3 3 2 2 4
internal_value=0 -0.0217717 0.00561063 0.0234675 -0.00785818 0.0183146 0.0530707 0.0752024 0.071816
internal_weight=0 5.46006 3.45968 2.81804 1.75551 1.28718 1.90094 1.06253 1.45369
internal_count=35 26 16 13 8 6 9 5 7
is_linear=0
shrinkage=0.05


Tree=13
num_leaves=10
num_cat=0
split_feature=9 5 9 6 10 9 10 10 1
split_gain=2.90116 3.13934 2.49437 0.689791 2.21025 1.00325 2.22316 0.00389458 3.46035e-05
threshold=5874.5000000000009 6295.5000000000009 14235.000000000002 1223.5000000000002 541.00000000000011 8096.5000000000009 788.00000000000011 870.50000000000011 1.0000000180025095e-35
decision_type=2 2 2 2 2 2 2 2 2
left_child=1 7 3 4 -2 8 -7 -1 -6
right_child=2 -3 -4 -5 5 6 -8 -9 -10
leaf_value=-0.067769346234922992 -0.077436259891833586 0.076157784936471407 -0.07112516839234663 0.06840466582681036 0.071534009948453908 0.08035025956801882 -0.076448776114546424 -0.074547904621797195 0.067277006446519724
leaf_weight=1.7407924085855491 0.45835189521312791 0.4475710242986678 0.62369249761104573 1.1805225163698194 0.63081640005111717 0.44934688508510578 0.45319122076034546 0.43135276436805714 0.76545429229736328
leaf_count=9 2 2 3 6 3 2 2 2 4
internal_value=0 -0.0443031 0.0217076 0.0364275 0.0227135 0.04271 0.00160224 -0.0691512 0.0692537
internal_weight=0 2.61972 4.56138 3.93768 2.75716 2.29881 0.902538 2.17215 1.39627
internal_count=35 13 22 19 13 11 4 11 7
is_linear=0
shrinkage=0.05


Tree=14
num_leaves=9
num_cat=0
split_feature=9 14 14 4 14 4 6 1
split_gain=2.87453 2.4107 1.54231 1.1544 2.31068 1.19631 0.0101158 0.00832222
threshold=5874.5000000000009 383840175.78208584 12394410.401047321 24082.671518483359 289338320.32946205 27361.594089127833 1223.5000000000002 1.0000000180025095e-35
decision_type=2 2 2 2 2 2 2 2
left_child=2 3 -1 7 5 -5 -6 -2
right_child=1 -3 -4 4 6 -7 -8 -9
leaf_value=0.021866604994374247 0.075298465537396095 -0.069672729696158717 -0.066660573667265674 -0.07545348336487212 0.078105837812087381 0.020438977840020606 0.066768544769693641 0.066875213602513819
leaf_weight=0.66618789732456241 0.6424202620983126 0.60534268617629994 1.8744996041059492 0.67158341407775901 0.43942174315452553 0.62902060151100159 0.56633676588535309 0.94414821267127991
leaf_count=3 3 3 10 3 2 3 3 5
internal_value=0 0.0230766 -0.0434426 0.0375149 0.0149141 -0.0290817 0.071799 0.0703341
internal_weight=0 4.49827 2.54069 3.89293 2.30636 1.3006 1.00576 1.58657
internal_count=35 22 13 19 11 6 5 8
is_linear=0
shrinkage=0.05


Tree=15
num_leaves=9
num_cat=0
split_feature=4 14 14 4 0 0 1 14
split_gain=2.17633 2.17642 3.16205 1.14391 0.751834 0.733546 0.03237 0.00703171
threshold=3632.9725405198546 289338320.32946205 383840175.78208584 27361.594089127833 0.77083333333333359 0.97916666666666685 1.0000000180025095e-35 142498837.99829853
decision_type=2 2 2 2 2 2 2 2
left_child=5 3 6 4 7 -1 -3 -2
right_child=1 2 -4 -5 -6 -7 -8 -9
leaf_value=0.066325727859761249 -0.065583763477331455 0.083322324940563811 -0.068345459943714201 0.019480687842624633 0.0038716400140126786 -0.0085868784449392044 0.065969558705063311 -0.073736002519890681
leaf_weight=1.2981065511703489 1.8116210699081432 0.48047801852226235 0.58673201501369465 0.62705829739570607 0.44518615305423725 0.43592579662799824 0.73587693274021149 0.43771544098854054
leaf_count=7 10 2 3 3 2 2 4 2
internal_value=0 -0.0172996 0.0269126 -0.041305 -0.0554581 0.0474895 0.0728903 -0.0672043
internal_weight=0 5.12467 1.80309 3.32158 2.69452 1.73403 1.21635 2.24934
internal_count=35 26 9 17 14 9 6 12
is_linear=0
shrinkage=0.05


Tree=16
num_leaves=9
num_cat=0
split_feature=7 8 12 7 4 7 4 4
split_gain=1.8935 1.61991 1.26174 1.24184 0.69777 0.292535 0.018727 0.00132853
threshold=260.00000000000006 1.0000000180025095e-35 2000.5000000000002 106.50000000000001 -6868.865004167269 106.50000000000001 3632.9725405198546 27923.294109468749
decision_type=2 2 2 2 2 2 2 2
left_child=2 -2 4 -4 -1 -6 -7 -3
right_child=1 7 3 -5 5 6 -8 -9
leaf_value=-0.013439771789106833 0.024506335196567183 -0.064570291314616987 -0.069124480314299547 0.032830392053775019 0.027313181976100238 0.064114693352162327 0.076594995530472193 -0.070166087652228287
leaf_weight=0.41711036860942896 0.74577176570892367 1.0486688017845152 0.59500548243522622 0.59786863625049591 0.56002387404441845 0.68948101997375466 0.67438271641731262 0.39853547513484944
leaf_count=2 4 6 3 3 3 4 3 2
internal_value=0 -0.0353239 0.023811 -0.0180251 0.0451342 0.0578415 0.0703409 -0.0661622
internal_weight=0 2.19298 3.53387 1.19287 2.341 1.92389 1.36386 1.4472
internal_count=30 12 18 6 12 10 7 8
is_linear=0
shrinkage=0.05


Tree=17
num_leaves=10
num_cat=0
split_feature=5 7 7 4 11 3 5 5 3
split_gain=2.28036 2.79782 1.24292 1.61125 0.685866 1.73952 0.00892026 0.00870074 0.00709985
threshold=3437.0000000000005 230.00000000000003 106.50000000000001 9202.1141336872533 981.00000000000011 27570.202409448288 6295.5000000000009 230.50000000000003 -5621.4086207261198
decision_type=2 2 2 2 2 2 2 2 2
left_child=1 2 3 -1 6 -6 -2 -3 -4
right_child=4 7 8 -5 5 -7 -8 -9 -10
leaf_value=0.065828279026232089 0.064645815212200641 -0.063937530530027417 0.063115331780672496 -0.067940141308276622 -0.069510140225326492 0.067945278074705795 0.074903335192853832 -0.072172702262398372 0.074385357210843023
leaf_weight=0.36716271936893485 0.70301282405853294 1.1922984868288038 0.33226323127746582 0.57875263690948486 0.39183619618415821 0.55520999431610107 0.43690186738967896 0.61609052121639241 0.43520252406597137
leaf_count=2 4 7 2 3 2 3 2 3 2
internal_value=0 -0.0234173 0.0223561 -0.0159886 0.0425289 0.0110464 0.0686437 -0.0667843 0.0696015
internal_weight=0 3.52177 1.71338 0.945915 2.08696 0.947046 1.13991 1.80839 0.767466
internal_count=30 19 9 5 11 5 6 10 4
is_linear=0
shrinkage=0.05


Tree=18
num_leaves=10
num_cat=0
split_feature=4 5 4 2 11 0 4 7 3
split_gain=2.08002 2.27088 1.90796 1.76947 1.01478 0.672592 0.00394061 0.00231216 0.000711911
threshold=3632.9725405198546 3437.0000000000005 27361.594089127833 1.0000000180025095e-35 981.00000000000011 0.97916666666666685 25221.003793887819 230.00000000000003 26537.779279305701
decision_type=2 2 2 2 2 2 2 2 2
left_child=5 2 7 -4 6 -1 -3 8 -2
right_child=1 4 3 -5 -6 -7 -8 -9 -10
leaf_value=0.063758433483569507 -0.069160708608675625 0.071767373325567166 -0.06751628625549172 0.070643648406977053 -0.016674475926260399 -0.0085669256055737903 0.063395952358789934 -0.063070659911967128 -0.06346439823009363
leaf_weight=1.3489151298999784 0.80034212768077917 0.40431630611419656 0.37350746989250172 0.60739855468273163 0.59712326526641846 0.4212227165699004 0.50292165577411652 1.1493517160415647 0.33720973134040833
leaf_count=8 4 2 2 3 3 2 3 7 2
internal_value=0 -0.0169049 -0.0403061 0.018007 0.0339117 0.0465435 0.0672074 -0.065322 -0.0675343
internal_weight=0 4.77217 3.26781 0.980906 1.50436 1.77014 0.907238 2.2869 1.13755
internal_count=36 26 18 5 8 10 5 13 6
is_linear=0
shrinkage=0.05


Tree=19
num_leaves=10
num_cat=0
split_feature=4 13 4 1 7 0 0 0 7
split_gain=1.9353 1.48629 1.72379 1.65117 1.37922 0.643398 0.474218 0.00291174 0.000951198
threshold=3632.9725405198546 29988478.040100347 27361.594089127833 1.0000000180025095e-35 106.50000000000001 0.97916666666666685 0.77083333333333359 0.52083333333333359 96.500000000000014
decision_type=2 2 2 2 2 2 2 2 2
left_child=5 2 8 -4 -3 -1 7 -6 -2
right_child=1 4 3 -5 6 -7 -8 -9 -10
leaf_value=0.062906629945977996 -0.067993591686396376 -0.065524182095733408 0.069252492027625887 -0.06638008773180562 0.062560876181995004 -0.0081362169042807995 0.0020233258969864581 0.070297800112711542 -0.063007328141466423
leaf_weight=1.3000707328319547 0.38861922919750291 0.35883270204067219 0.58910126984119404 0.36123153567314148 0.48462800681591012 0.42138586938381184 0.43097330629825592 0.39244894683361053 1.6244392246007917
leaf_count=8 2 2 3 2 3 2 2 2 10
internal_value=0 -0.0165673 -0.0378112 0.0176679 0.0211911 0.0455123 0.0450182 0.0661051 -0.0640059
internal_weight=0 4.63027 2.96339 0.950333 1.66688 1.72146 1.30805 0.877077 2.01306
internal_count=36 26 17 5 9 10 7 5 12
is_linear=0
shrinkage=0.05


Tree=20
num_leaves=10
num_cat=0
split_feature=14 9 5 9 1 3 3 3 7
split_gain=1.74873 1.31578 1.4481 1.06756 1 0.219929 0.373263 0.00655032 0.00132193
threshold=32647770.331871714 8096.5000000000009 3437.0000000000005 5332.5000000000009 1.0000000180025095e-35 7100.6222587634174 -14687.180308512043 22549.60336077616 439.50000000000006
decision_type=2 2 2 2 2 2 2 2 2
left_child=3 5 4 -1 -3 6 -2 -7 -4
right_child=1 2 8 -5 -6 7 -8 -9 -10
leaf_value=-0.017381847836140028 -0.064589063332913796 0.024524881970621203 0.068951062629819565 0.063241019326843645 -0.064690405406855722 -0.070260362717919703 0.0093850471761681639 -0.061189209091529834 0.061713930138418138
leaf_weight=0.59866018593311299 0.34906956553459167 0.57499249279499032 0.38043001294136036 1.3022768050432203 0.69001072645187378 0.41060239076614358 0.3316559046506885 0.74995212256908417 0.31108888983726501
leaf_count=3 2 3 2 8 4 2 2 5 2
internal_value=0 -0.0208875 0.00765646 0.0378462 -0.0241375 -0.0512157 -0.0285594 -0.0644609 0.0657974
internal_weight=0 3.7978 1.95652 1.90094 1.265 1.84128 0.680725 1.16055 0.691519
internal_count=33 22 11 11 7 11 4 7 4
is_linear=0
shrinkage=0.05


Tree=21
num_leaves=11
num_cat=0
split_feature=7 9 4 4 7 5 5 2 4 5
split_gain=1.60464 1.78805 1.02847 2.00793 0.752451 0.715414 0.00316583 0.00311833 0.0013501 0.000997927
threshold=260.00000000000006 5332.5000000000009 24082.671518483359 27361.594089127833 439.50000000000006 3437.0000000000005 1827.0000000000002 1.0000000180025095e-35 -6868.865004167269 414.50000000000006
decision_type=2 2 2 2 2 2 2 2 2 2
left_child=1 5 7 -4 9 6 -1 -3 -9 -2
right_child=4 2 3 -5 -6 -7 -8 8 -10 -11
leaf_value=-0.061718169380819338 -0.060722957425062542 0.061050254627983795 -0.066211842733545231 0.067618975308332538 0.010806144011302005 0.018612399672276805 -0.07055490620121517 0.062733814771160856 0.069855033852280951 -0.066261574541242929
leaf_weight=0.31114287674427055 0.87433139979839303 0.89051306247711204 0.55406434834003426 0.56541077792644501 0.49161663651466359 0.37229889631271362 0.40271234512329102 0.32671082019805908 0.40549668669700623 0.35112279653549194
leaf_count=2 6 6 3 3 3 2 2 2 2 2
internal_value=0 0.0167482 0.0382536 0.00136832 -0.0414132 -0.0375197 -0.0668029 0.0636765 0.066775 -0.0623673
internal_weight=0 3.82835 2.7422 1.11948 1.71707 1.08615 0.713855 1.62272 0.732208 1.22545
internal_count=33 22 16 6 11 6 4 10 4 8
is_linear=0
shrinkage=0.05


end of trees

feature_importances:
day_sin=26
Microwave_daytime=23
day_sin_*_Microwave_daytime=21
AirConditioner_daytime=16
ClothesWasher_daytime=16
age=13
edu_0=13
day_cos=12
RiceCooker_midnight=11
AirConditioner_midnight=7
IH_daytime=7
ClothesWasher_midnight=6
day_sin_*_AirConditioner_daytime=6
edu_1=4
TV_daytime=4

parameters:
[boosting: gbdt]
[objective: binary]
[metric: roc_auc]
[tree_learner: serial]
[device_type: cpu]
[data_sample_strategy: bagging]
[data: ]
[valid: ]
[num_iterations: 10000]
[learning_rate: 0.05]
[num_leaves: 30]
[num_threads: 0]
[seed: 0]
[deterministic: 0]
[force_col_wise: 0]
[force_row_wise: 0]
[histogram_pool_size: -1]
[max_depth: -1]
[min_data_in_leaf: 2]
[min_sum_hessian_in_leaf: 0.001]
[bagging_fraction: 0.891603]
[pos_bagging_fraction: 1]
[neg_bagging_fraction: 1]
[bagging_freq: 2]
[bagging_seed: 3]
[feature_fraction: 0.586841]
[feature_fraction_bynode: 1]
[feature_fraction_seed: 2]
[extra_trees: 0]
[extra_seed: 6]
[early_stopping_round: 0]
[early_stopping_min_delta: 0]
[first_metric_only: 0]
[max_delta_step: 0]
[lambda_l1: 0.00030221]
[lambda_l2: 0.000854732]
[linear_lambda: 0]
[min_gain_to_split: 0]
[drop_rate: 0.1]
[max_drop: 50]
[skip_drop: 0.5]
[xgboost_dart_mode: 0]
[uniform_drop: 0]
[drop_seed: 4]
[top_rate: 0.2]
[other_rate: 0.1]
[min_data_per_group: 100]
[max_cat_threshold: 32]
[cat_l2: 10]
[cat_smooth: 10]
[max_cat_to_onehot: 4]
[top_k: 20]
[monotone_constraints: ]
[monotone_constraints_method: basic]
[monotone_penalty: 0]
[feature_contri: ]
[forcedsplits_filename: ]
[refit_decay_rate: 0.9]
[cegb_tradeoff: 1]
[cegb_penalty_split: 0]
[cegb_penalty_feature_lazy: ]
[cegb_penalty_feature_coupled: ]
[path_smooth: 0]
[interaction_constraints: ]
[verbosity: -1]
[saved_feature_importance_type: 0]
[use_quantized_grad: 0]
[num_grad_quant_bins: 4]
[quant_train_renew_leaf: 0]
[stochastic_rounding: 1]
[linear_tree: 0]
[max_bin: 255]
[max_bin_by_feature: ]
[min_data_in_bin: 3]
[bin_construct_sample_cnt: 200000]
[data_random_seed: 1]
[is_enable_sparse: 1]
[enable_bundle: 1]
[use_missing: 1]
[zero_as_missing: 0]
[feature_pre_filter: 1]
[pre_partition: 0]
[two_round: 0]
[header: 0]
[label_column: ]
[weight_column: ]
[group_column: ]
[ignore_column: ]
[categorical_feature: ]
[forcedbins_filename: ]
[precise_float_parser: 0]
[parser_config_file: ]
[objective_seed: 5]
[num_class: 1]
[is_unbalance: 0]
[scale_pos_weight: 1]
[sigmoid: 1]
[boost_from_average: 1]
[reg_sqrt: 0]
[alpha: 0.9]
[fair_c: 1]
[poisson_max_delta_step: 0.7]
[tweedie_variance_power: 1.5]
[lambdarank_truncation_level: 30]
[lambdarank_norm: 1]
[label_gain: ]
[lambdarank_position_bias_regularization: 0]
[eval_at: ]
[multi_error_top_k: 1]
[auc_mu_weights: ]
[num_machines: 1]
[local_listen_port: 12400]
[time_out: 120]
[machine_list_filename: ]
[machines: ]
[gpu_platform_id: -1]
[gpu_device_id: -1]
[gpu_use_dp: 0]
[num_gpu: 1]

end of parameters

pandas_categorical:null
