tree
version=v4
num_class=1
num_tree_per_iteration=1
label_index=0
max_feature_idx=14
objective=binary sigmoid:1
feature_names=age edu_0 edu_1 day_cos day_sin AirConditioner_daytime AirConditioner_midnight ClothesWasher_daytime ClothesWasher_midnight Microwave_daytime RiceCooker_midnight TV_daytime IH_daytime day_sin_*_AirConditioner_daytime day_sin_*_Microwave_daytime
feature_infos=[0.041666666666666963:1] [0:1] [0:1] [-27579.396042201173:28296.944342176786] [-28282.330682659041:27845.534718124763] [0:17936] [0:8759] [5:628] [0:1445] [374:17980] [167:7806] [0:7354] [6:6829] [-245737424.48279321:191466023.27585536] [-139028034.97479254:476969871.83649975]
tree_sizes=713 642 745 745 947 947 946 949 948 1039 845 846 651 646 645 650 749 644 851 852 853 747 849 852 842 750 1056 852 749 756 752 962 837 842 754 649 753 647 754 655 853 853 861 868 851 854 854 754 1168 1054 1068 947 758 747 760 948 763 651 752 754 744 740 745 648 845 973 844 975 944 941 1044 1018 746 1075 831 924 656 656 653 654 1012 835 838 1160 658 902 804 637 761 760 749 743 629 643 642 646 629 807 631 634 528 526 615 532 640 642 639 737 824 638 832 855 837 837 826 830 723 624 626 626 637

Tree=0
num_leaves=6
num_cat=0
split_feature=7 0 0 5 5
split_gain=8.03139 4.67066 4.78533 4.87167 2.83569
threshold=238.00000000000003 0.77083333333333359 0.52083333333333359 3605.0000000000005 155.00000000000003
decision_type=2 2 2 2 2
left_child=1 2 3 4 -1
right_child=-2 -3 -4 -5 -6
leaf_value=0.094193822517903703 -0.09916650250750822 0.099027717921260583 -0.098542267689062671 0.098833482626650371 -0.098057277122825248
leaf_weight=0.25000000000000067 1.7499999999999998 1.4999999999999998 0.99999999999999989 1.2499999999999998 0.75
leaf_count=1 7 6 4 5 3
internal_value=0 0.0260306 -0.00728373 0.0327271 -0.0486133
internal_weight=0 4.75 3.25 2.25 1
internal_count=26 19 13 9 4
is_linear=0
shrinkage=0.05


Tree=1
num_leaves=5
num_cat=0
split_feature=7 4 0 12
split_gain=7.26778 4.23127 5.91677 5.48604
threshold=238.00000000000003 -8621.726669974847 0.77083333333333359 5936.0000000000009
decision_type=2 2 2 2
left_child=1 -1 3 -3
right_child=-2 2 -4 -5
leaf_value=0.094356675697752287 -0.094447891468302195 -0.094485590289882501 0.093831287016921311 0.092389643573535615
leaf_weight=1.4963939338922498 1.7457046955823896 1.7457763105630881 0.99755239486694325 0.4987809658050536
leaf_count=6 7 7 4 2
internal_value=0 0.0247916 -0.00693729 -0.0523397
internal_weight=0 4.7385 3.24211 2.24456
internal_count=26 19 13 9
is_linear=0
shrinkage=0.05


Tree=2
num_leaves=6
num_cat=0
split_feature=7 0 0 5 5
split_gain=6.60935 3.84148 3.93594 4.00521 2.33068
threshold=238.00000000000003 0.77083333333333359 0.52083333333333359 3605.0000000000005 155.00000000000003
decision_type=2 2 2 2 2
left_child=1 2 3 4 -1
right_child=-2 -3 -4 -5 -6
leaf_value=0.085599356370524904 -0.090364668494605463 0.090249728053609549 -0.089764203349852772 0.090081432731326391 -0.089298938941521439
leaf_weight=0.24779114127159196 1.7337015420198438 1.4861130118370054 0.99074262380599964 1.2385022789239881 0.74309156835079193
leaf_count=1 7 6 4 5 3
internal_value=0 0.0237339 -0.00658099 0.0298289 -0.0441742
internal_weight=0 4.70624 3.22013 2.22938 0.990883
internal_count=26 19 13 9 4
is_linear=0
shrinkage=0.05


Tree=3
num_leaves=6
num_cat=0
split_feature=7 4 0 11 0
split_gain=6.03323 3.51298 4.90764 2.60871 1.85298
threshold=238.00000000000003 -8621.726669974847 0.77083333333333359 5173.0000000000009 0.56250000000000033
decision_type=2 2 2 2 2
left_child=1 -1 3 -3 -5
right_child=-2 2 -4 4 -6
leaf_value=0.08673896146108076 -0.086798965829632202 -0.086721865157830383 0.086202666278169485 0.084806269138613458 -0.081832568806734077
leaf_weight=1.4705915302038191 1.7151870578527448 1.4705039262771613 0.98022705316543568 0.49023747444152821 0.24506765604019165
leaf_count=6 7 6 4 2 1
internal_value=0 0.0227946 -0.00633262 -0.0480798 0.0274286
internal_weight=0 4.65663 3.18604 2.20581 0.735305
internal_count=26 19 13 9 3
is_linear=0
shrinkage=0.05


Tree=4
num_leaves=8
num_cat=0
split_feature=4 11 0 11 0 9 0
split_gain=5.45197 2.54876 3.08074 2.30902 0.992255 2.02525 1.68973
threshold=-6513.8827305000468 2.5000000000000004 0.85416666666666707 5173.0000000000009 0.56250000000000033 3397.0000000000005 0.3541666666666668
decision_type=2 2 2 2 2 2 2
left_child=4 2 -2 -3 5 6 -1
right_child=1 3 -4 -5 -6 -7 -8
leaf_value=0.078620879209313752 0.087880971665868501 -0.083688630605869035 -0.11620089874976586 0.07875920781373881 0.091406736393557564 0.083130672611406178 -0.081565204202440414
leaf_weight=0.24163478612899802 0.73333120346069369 1.6914573311805723 0.24166566133499146 0.24180632829666127 1.6998320817947385 0.96693779528141022 0.48325756192207336
leaf_count=1 3 7 1 1 7 4 2
internal_value=0 -0.0291705 0.0358517 -0.0626462 0.0639243 0.0354801 -0.0263056
internal_weight=0 2.90826 0.974997 1.93326 3.39166 1.69183 0.724892
internal_count=26 12 4 8 14 7 3
is_linear=0
shrinkage=0.05


Tree=5
num_leaves=8
num_cat=0
split_feature=4 11 0 11 0 9 0
split_gain=4.99318 2.33676 2.78501 2.1249 0.893814 1.85921 1.55326
threshold=-6513.8827305000468 2.5000000000000004 0.85416666666666707 5173.0000000000009 0.56250000000000033 3397.0000000000005 0.3541666666666668
decision_type=2 2 2 2 2 2 2
left_child=4 2 -2 -3 5 6 -1
right_child=1 3 -4 -5 -6 -7 -8
leaf_value=0.075931078148102016 0.084561815352546935 -0.080903673033583867 -0.10841933509334863 0.076055597781912399 0.087859210112664746 0.080348482174608285 -0.078819220345253516
leaf_weight=0.23783086240291618 0.72428917884826693 1.6629621982574461 0.24603831768035889 0.23802751302719105 1.6805744022130964 0.95085139572620392 0.47533753514289856
leaf_count=1 3 7 1 1 7 4 2
internal_value=0 -0.0280526 0.0341862 -0.0605157 0.0616253 0.0342868 -0.0253202
internal_weight=0 2.87132 0.970327 1.90099 3.34459 1.66402 0.713168
internal_count=26 12 4 8 14 7 3
is_linear=0
shrinkage=0.05


Tree=6
num_leaves=8
num_cat=0
split_feature=4 6 9 6 9 6 3
split_gain=4.58689 2.88215 2.00111 1.85506 1.7327 0.509384 1.57739
threshold=-6513.8827305000468 709.50000000000011 5129.5000000000009 1.0000000180025095e-35 1798.5000000000002 1391.0000000000002 -11452.052149099392
decision_type=2 2 2 2 2 2 2
left_child=3 2 4 -1 -2 -5 -7
right_child=1 -3 -4 5 -6 6 -8
leaf_value=-0.073298161249256796 0.072973492427857709 -0.078278183748926811 0.081813967316574004 0.081822880972530265 -0.090991188711640497 -0.073337101276861952 0.083052819220680141
leaf_weight=0.23316384851932559 0.23251776397228263 1.397796645760536 0.7144768238067627 2.3407113254070286 0.48160448670387268 0.23324026167392731 0.48172007501125325
leaf_count=1 1 6 3 10 2 1 2
internal_value=0 -0.0270597 0.0221611 0.0595834 -0.0357242 0.0701833 0.0301506
internal_weight=0 2.8264 1.4286 3.28884 0.714122 3.05567 0.71496
internal_count=26 12 6 14 3 13 3
is_linear=0
shrinkage=0.05


Tree=7
num_leaves=8
num_cat=0
split_feature=13 11 8 6 6 11 3
split_gain=3.35546 2.72586 2.48097 1.80353 1.68319 0.620522 1.30233
threshold=-6551662.1442041704 2.5000000000000004 29.000000000000004 517.50000000000011 1.0000000180025095e-35 3303.5000000000005 -26264.746499163699
decision_type=2 2 2 2 2 2 2
left_child=4 2 -2 -3 -1 -6 -7
right_child=1 3 -4 -5 5 6 -8
leaf_value=-0.071109346805875315 -0.096932434549433927 0.071159222280733958 0.078621504660228284 -0.07614778780763326 0.081045607040360096 -0.071144838897644003 0.073453563992442461
leaf_weight=0.22848610579967532 0.2498198598623278 0.2286013364791869 0.92940014600753784 1.5945837646722791 2.0869190543890004 0.22856816649436951 0.45329156517982472
leaf_count=1 1 1 4 7 9 1 2
internal_value=0 -0.0183158 0.0402422 -0.0569144 0.0562321 0.0672473 0.0230069
internal_weight=0 3.00241 1.17922 1.82319 2.99726 2.76878 0.68186
internal_count=26 13 5 8 13 12 3
is_linear=0
shrinkage=0.05


Tree=8
num_leaves=8
num_cat=0
split_feature=12 6 10 0 6 6 0
split_gain=4.32282 2.54617 1.61194 1.904 1.68366 1.23625 1.03953
threshold=246.50000000000003 1391.0000000000002 1358.5000000000002 0.85416666666666707 1.0000000180025095e-35 2177.5000000000005 0.56250000000000033
decision_type=2 2 2 2 2 2 2
left_child=-1 2 3 4 -2 -3 -7
right_child=1 5 -4 -5 -6 6 -8
leaf_value=0.078570075907315962 -0.069108789389739453 -0.083736548322718124 -0.071728539875312511 -0.092087539497769599 0.076082241951369589 -0.068722171115880179 0.079837967284249897
leaf_weight=1.3564113825559614 0.22351267933845553 1.6387033909559252 0.44399552047252644 0.2498832195997237 1.3575536161661146 0.22247001528739918 0.24306845664978027
leaf_count=6 1 7 2 1 6 1 1
internal_value=0 -0.0235316 0.0126539 0.0338751 0.0546806 -0.0632604 0.00603001
internal_weight=0 4.37919 2.27495 1.83095 1.58107 2.10424 0.465538
internal_count=25 19 10 8 7 9 2
is_linear=0
shrinkage=0.05


Tree=9
num_leaves=9
num_cat=0
split_feature=12 6 14 14 6 4 9 0
split_gain=3.99646 2.33784 1.51564 1.76492 1.1364 0.957392 0.645744 0.784574
threshold=246.50000000000003 1391.0000000000002 86707057.324667349 -37231024.413377158 2177.5000000000005 26656.815715437748 1798.5000000000002 0.77083333333333359
decision_type=2 2 2 2 2 2 2 2
left_child=-1 2 3 -2 -3 -6 7 -5
right_child=1 4 -4 6 5 -7 -8 -9
leaf_value=0.076413007344491593 0.069957214045183638 -0.081058323821798228 0.074935582063921882 -0.067270815503982284 0.077025299011243525 -0.066914549584617428 -0.078575985233491186 0.06663629353703715
leaf_weight=1.3257817924022672 0.4331664741039275 1.6089996099472048 0.6756928265094756 0.21830955147743247 0.23948889970779408 0.21722741425037384 0.6818327009677887 0.21636521816253662
leaf_count=6 2 7 3 1 1 1 3 1
internal_value=0 -0.0228559 0.0122087 -0.0143359 -0.0612502 0.0056924 -0.0482646 0
internal_weight=0 4.29108 2.22537 1.54967 2.06572 0.456716 1.11651 0.434675
internal_count=25 19 10 7 9 2 5 2
is_linear=0
shrinkage=0.05


Tree=10
num_leaves=7
num_cat=0
split_feature=8 4 1 11 1 0
split_gain=2.31305 3.29294 3.16747 2.03149 0.789384 0.706625
threshold=116.50000000000001 23417.88255533154 1.0000000180025095e-35 7292.0000000000009 1.0000000180025095e-35 0.85416666666666707
decision_type=2 2 2 2 2 2
left_child=2 3 -1 4 5 -2
right_child=1 -3 -4 -5 -6 -7
leaf_value=0.073280550823439858 -0.064911329262623246 -0.074299175796955552 -0.076658984962716503 -0.085387245761102196 0.074407618312531662 0.064415789535136922
leaf_weight=0.44640807807445493 0.21068049967289093 0.66340631246566761 1.546403706073761 0.24767087399959553 2.1659103780984879 0.20893724262714386
leaf_count=2 1 3 7 1 10 1
internal_value=0 0.025085 -0.0423822 0.0488466 0.0622543 0
internal_weight=0 3.49661 1.99281 2.8332 2.58553 0.419618
internal_count=25 16 9 13 12 2
is_linear=0
shrinkage=0.05


Tree=11
num_leaves=7
num_cat=0
split_feature=12 6 7 0 7 11
split_gain=3.43806 1.99229 2.23009 1.95404 0.986593 0.800707
threshold=246.50000000000003 1391.0000000000002 238.00000000000003 0.85416666666666707 99.000000000000014 152.00000000000003
decision_type=2 2 2 2 2 2
left_child=-1 2 3 -2 5 -3
right_child=1 4 -4 -5 -6 -7
leaf_value=0.072712881645919866 0.07064114737240583 0.072198536359992238 -0.067810298289140911 -0.081536414952637068 -0.076595368772652161 -0.062814956717833798
leaf_weight=1.2605679035186765 1.2565335780382159 0.23090942203998555 0.61365783214569081 0.2447969764471053 1.5449753254652021 0.20296323299407959
leaf_count=6 6 1 3 1 7 1
internal_value=0 -0.0216714 0.0115496 0.0448976 -0.0578261 0.0060144
internal_weight=0 4.09384 2.11499 1.50133 1.97885 0.433873
internal_count=25 19 10 7 9 2
is_linear=0
shrinkage=0.05


Tree=12
num_leaves=5
num_cat=0
split_feature=6 0 6 4
split_gain=6.41563 2.30579 1.41108 1.35241
threshold=1391.0000000000002 0.31250000000000028 1.0000000180025095e-35 -25851.372458078349
decision_type=2 2 2 2
left_child=1 -1 -3 -2
right_child=3 2 -4 -5
leaf_value=-0.065119125527176511 0.061449160104099169 -0.062202038547979122 0.071705678192393957 -0.071372078372549899
leaf_weight=0.39601916074752841 0.19744952023029361 0.20053635537624392 2.6986189633607864 2.2782293409109116
leaf_count=2 1 1 13 11
internal_value=0 0.0462689 0.061963 -0.0602177
internal_weight=0 3.29517 2.89916 2.47568
internal_count=28 16 14 12
is_linear=0
shrinkage=0.05


Tree=13
num_leaves=5
num_cat=0
split_feature=6 0 6 9
split_gain=5.96335 2.14813 1.31672 1.2622
threshold=1391.0000000000002 0.31250000000000028 1.0000000180025095e-35 1798.5000000000002
decision_type=2 2 2 2
left_child=1 -1 -3 -2
right_child=3 2 -4 -5
leaf_value=-0.063835840407270736 0.060143679759109558 -0.060850962697005961 0.070192810554687207 -0.06987544291613057
leaf_weight=0.38411235809326205 0.1918226778507236 0.19491408765316043 2.6209439486265182 2.212375283241272
leaf_count=2 1 1 13 11
internal_value=0 0.0452547 0.0606281 -0.0589245
internal_weight=0 3.19997 2.81586 2.4042
internal_count=28 16 14 12
is_linear=0
shrinkage=0.05


Tree=14
num_leaves=5
num_cat=0
split_feature=6 0 6 4
split_gain=5.55013 2.004 1.23056 1.17979
threshold=1391.0000000000002 0.31250000000000028 1.0000000180025095e-35 -25851.372458078349
decision_type=2 2 2 2
left_child=1 -1 -3 -2
right_child=3 2 -4 -5
leaf_value=-0.06264068480878536 0.058913532402503757 -0.059580598111910681 0.06880754542772663 -0.068504174675978968
leaf_weight=0.3721987605094913 0.18620923161506686 0.18928998708725009 2.54205422103405 2.1455516368150711
leaf_count=2 1 1 13 11
internal_value=0 0.0443189 0.0594014 -0.0577345
internal_weight=0 3.10354 2.73134 2.33176
internal_count=28 16 14 12
is_linear=0
shrinkage=0.05


Tree=15
num_leaves=5
num_cat=0
split_feature=6 0 6 4
split_gain=5.17158 1.87188 1.15167 1.1043
threshold=1391.0000000000002 0.31250000000000028 1.0000000180025095e-35 -25851.372458078349
decision_type=2 2 2 2
left_child=1 -1 -3 -2
right_child=3 2 -4 -5
leaf_value=-0.061523667522194882 0.057749902457648154 -0.058381440653027784 0.067535263197773907 -0.067243943364382677
leaf_weight=0.36033573746681247 0.18063378334045443 0.18369084596633944 2.4624913185834885 2.078208714723587
leaf_count=2 1 1 13 11
internal_value=0 0.0434524 0.0582702 -0.0566355
internal_weight=0 3.00652 2.64618 2.25884
internal_count=28 16 14 12
is_linear=0
shrinkage=0.05


Tree=16
num_leaves=6
num_cat=0
split_feature=6 3 13 3 0
split_gain=3.65699 2.50843 1.51308 0.922191 1.07139
threshold=1391.0000000000002 27337.872559598127 167390474.90858895 28178.939188251064 0.77083333333333359
decision_type=2 2 2 2 2
left_child=1 2 -1 -3 -5
right_child=-2 3 -4 4 -6
leaf_value=0.066923973803173803 -0.067057682769014734 -0.089017285971704607 -0.068003351921122654 -0.077040430504036195 0.060118050616006315
leaf_weight=2.0535229742527017 1.6799143999814985 0.49505414068698861 0.22045865654945362 0.23951072990894318 0.34441223740577698
leaf_count=11 9 2 1 1 2
internal_value=0 0.0232042 0.0532296 -0.0388428 0.00155771
internal_weight=0 3.35296 2.27398 1.07898 0.583923
internal_count=26 17 12 5 3
is_linear=0
shrinkage=0.05


Tree=17
num_leaves=5
num_cat=0
split_feature=6 3 9 13
split_gain=3.41238 2.33581 1.91273 1.41574
threshold=1391.0000000000002 27337.872559598127 4557.5000000000009 167390474.90858895
decision_type=2 2 2 2
left_child=1 3 -3 -1
right_child=-2 2 -4 -5
leaf_value=0.065789050787289527 -0.065904625124653268 0.059152604266224443 -0.083856939220589344 -0.066251228620140365
leaf_weight=1.9862321764230735 1.6252522170543668 0.33284875750541665 0.72560106217861176 0.2151471972465514
leaf_count=11 9 2 3 1
internal_value=0 0.0226623 -0.0376229 0.0522518
internal_weight=0 3.25983 1.05845 2.20138
internal_count=26 17 5 12
is_linear=0
shrinkage=0.05


Tree=18
num_leaves=7
num_cat=0
split_feature=6 3 3 0 4 0
split_gain=3.18914 2.17487 0.764724 0.91724 0.646735 0.61148
threshold=1391.0000000000002 27337.872559598127 28178.939188251064 0.77083333333333359 23417.88255533154 0.77083333333333359
decision_type=2 2 2 2 2 2
left_child=1 4 -3 -4 -1 -6
right_child=-2 2 3 -5 5 -7
leaf_value=0.064557499089137729 -0.064837260125612015 -0.082334631800009883 -0.071930177587478036 0.058240039034697544 -0.064629168023172812 0.058906787099272689
leaf_weight=1.7330598682165153 1.5708115398883817 0.48390334844589211 0.23033028841018677 0.32147222757339478 0.20969398319721211 0.18617767095565796
leaf_count=10 9 2 1 2 1 1
internal_value=0 0.0221851 -0.0364697 0.00147837 0.0513438 -0.00321136
internal_weight=0 3.16464 1.03571 0.551803 2.12893 0.395872
internal_count=26 17 5 3 12 2
is_linear=0
shrinkage=0.05


Tree=19
num_leaves=7
num_cat=0
split_feature=0 14 5 4 7 3
split_gain=1.58712 2.02878 1.67939 0.956846 0.782718 0.696193
threshold=0.77083333333333359 86707057.324667349 1.0000000180025095e-35 -8621.726669974847 344.00000000000006 16056.888968583016
decision_type=2 2 2 2 2 2
left_child=1 3 -2 4 -1 -3
right_child=2 5 -4 -5 -6 -7
leaf_value=0.058161975834803231 -0.079369715358735937 -0.052162969895712008 0.063229759371230182 -0.06739885734107727 -0.06492835280684392 0.062370233414973747
leaf_weight=0.31978997588157687 0.24253687262535084 0.15101739764213551 1.1610083132982252 1.818378806114197 0.21073947846889496 0.68304571509361267
leaf_count=2 1 1 7 10 1 4
internal_value=0 -0.0260668 0.037595 -0.0500974 0.00674781 0.0400021
internal_weight=0 3.18297 1.40355 2.34891 0.530529 0.834063
internal_count=26 18 8 13 3 5
is_linear=0
shrinkage=0.05


Tree=20
num_leaves=7
num_cat=0
split_feature=14 7 14 6 9 5
split_gain=2.08556 1.59006 0.614194 0.839091 0.301733 0.46496
threshold=-37231024.413377158 58.500000000000007 148000782.83293435 1619.5000000000002 1798.5000000000002 520.50000000000011
decision_type=2 2 2 2 2 2
left_child=-1 -2 4 -4 5 -3
right_child=1 2 3 -5 -6 -7
leaf_value=0.068201476650961157 0.060217867546516451 0.051826717072297634 0.058609816033192132 -0.05685288187369128 -0.067560935682424633 -0.062523306735717751
leaf_weight=0.86023688316345248 0.47990152239799533 0.14913713932037387 0.32296393811702717 0.30290654301643372 1.2449007183313368 0.20181810855865479
leaf_count=5 3 1 2 2 7 1
internal_value=0 -0.0211224 -0.0393122 0.000626091 -0.0557868 -0.0101787
internal_weight=0 2.70163 2.22173 0.62587 1.59586 0.350955
internal_count=21 16 13 4 9 2
is_linear=0
shrinkage=0.05


Tree=21
num_leaves=6
num_cat=0
split_feature=4 6 11 5 6
split_gain=1.89733 1.14054 0.716485 1.10923 0.715593
threshold=-8621.726669974847 797.00000000000011 2.5000000000000004 1.0000000180025095e-35 517.50000000000011
decision_type=2 2 2 2 2
left_child=1 -1 3 -2 -4
right_child=2 -3 4 -5 -6
leaf_value=-0.061152310242844357 -0.074397506855422388 0.066022159787112858 0.050713657602675877 0.058442197630822326 -0.062489735936272509
leaf_weight=0.19620047509670291 0.23523376882076297 1.1573725193738935 0.14288912713527668 0.45104672014713287 1.2614263892173765
leaf_count=1 1 7 1 3 8
internal_value=0 0.046571 -0.0293699 0.0109337 -0.0499944
internal_weight=0 1.35357 2.0906 0.68628 1.40432
internal_count=21 8 13 4 9
is_linear=0
shrinkage=0.05


Tree=22
num_leaves=7
num_cat=0
split_feature=14 7 14 6 9 7
split_gain=1.82695 1.3885 0.539028 0.736041 0.262143 0.40325
threshold=-37231024.413377158 58.500000000000007 148000782.83293435 1619.5000000000002 1798.5000000000002 238.00000000000003
decision_type=2 2 2 2 2 2
left_child=-1 -2 4 -4 5 -3
right_child=1 2 3 -5 -6 -7
leaf_value=0.065949172115282936 0.058455284586581419 0.04998633489523735 0.056917195015648715 -0.055202912026282913 -0.06529390121338019 -0.059864378190023271
leaf_weight=0.8056871592998508 0.44450975954532657 0.13880285620689425 0.30148038268089283 0.28047704696655273 1.1659667640924452 0.1905742734670639
leaf_count=5 3 1 2 2 7 1
internal_value=0 -0.0204676 -0.0380181 0.000619155 -0.0539215 -0.0095735
internal_weight=0 2.52181 2.0773 0.581957 1.49534 0.329377
internal_count=21 16 13 4 9 2
is_linear=0
shrinkage=0.05


Tree=23
num_leaves=7
num_cat=0
split_feature=14 9 14 6 9 4
split_gain=1.70915 1.30228 0.503416 0.690519 0.246071 0.376767
threshold=-37231024.413377158 891.00000000000011 148000782.83293435 1619.5000000000002 1798.5000000000002 -1945.4064530580547
decision_type=2 2 2 2 2 2
left_child=-1 -2 4 -4 5 -3
right_child=1 2 3 -5 -6 -7
leaf_value=0.064913998896680133 0.057689313751911935 -0.058649719142647251 0.056114467689196847 -0.054473070989329533 -0.064280526682135186 0.049165229657514346
leaf_weight=0.7783259600400928 0.4283208400011066 0.1849672794342041 0.2907951921224593 0.27030067145824432 1.1261630803346632 0.13420581817626986
leaf_count=5 3 1 2 2 7 1
internal_value=0 -0.02013 -0.0374277 0.000495168 -0.0530464 -0.00918917
internal_weight=0 2.43475 2.00643 0.561096 1.44534 0.319173
internal_count=21 16 13 4 9 2
is_linear=0
shrinkage=0.05


Tree=24
num_leaves=7
num_cat=0
split_feature=6 13 0 3 9 0
split_gain=1.73149 2.40946 0.275878 0.244523 0.188989 0.36539
threshold=709.50000000000011 -6551662.1442041704 0.56250000000000033 26049.220414766918 4557.5000000000009 0.4791666666666668
decision_type=2 2 2 2 2 2
left_child=-1 2 3 -2 5 -3
right_child=1 4 -4 -5 -6 -7
leaf_value=0.06504228799221265 -0.047177379123489849 0.047304562473450544 0.063650272073130496 0.04938580886172389 -0.064000052411864003 -0.053683406845256111
leaf_weight=1.0228922367095949 0.12326014041900668 0.12394917011260975 0.72472032904624939 0.13543803989887238 1.0934155061841009 0.25924873352050781
leaf_count=6 1 1 5 1 7 2
internal_value=0 -0.0120739 0.0478209 0 -0.0528626 -0.0175382
internal_weight=0 2.46003 0.983419 0.258698 1.47661 0.383198
internal_count=23 17 7 2 10 3
is_linear=0
shrinkage=0.05


Tree=25
num_leaves=6
num_cat=0
split_feature=0 3 0 10 9
split_gain=1.58405 1.69885 0.519167 0.353003 0.791301
threshold=0.31250000000000028 27337.872559598127 0.77083333333333359 726.00000000000011 5795.5000000000009
decision_type=2 2 2 2 2
left_child=-1 3 -3 -2 -5
right_child=1 2 -4 4 -6
leaf_value=-0.062585106355234052 0.065872851560722187 -0.060272857943714689 0.047306184224241044 -0.052263367970376388 0.056219214068665049
leaf_weight=0.60340988636016879 1.3059675991535193 0.58088718354701985 0.12395799160003662 0.23944313824176777 0.50809063017368317
leaf_count=4 8 4 1 2 4
internal_value=0 0.0264556 -0.0394308 0.0497233 0.0196787
internal_weight=0 2.75835 0.704845 2.0535 0.747534
internal_count=23 19 5 14 6
is_linear=0
shrinkage=0.05


Tree=26
num_leaves=9
num_cat=0
split_feature=0 4 4 5 4 5 5 4
split_gain=1.49454 1.0605 0.469243 0.4287 0.237727 0.233087 0.145745 0.399746
threshold=0.56250000000000033 18308.942430389961 26656.815715437748 1.0000000180025095e-35 1.0000000180025095e-35 1007.0000000000001 3605.0000000000005 -8621.726669974847
decision_type=2 2 2 2 2 2 2 2
left_child=1 3 -3 -1 -2 -6 -5 -8
right_child=4 2 -4 6 5 -7 7 -9
leaf_value=0.04546669539491148 0.063691885735198253 0.060879343073357566 -0.045775602295089896 -0.063710111661729171 0.050386262189426372 -0.044734760899506412 0.047664329529905625 -0.053123322050714877
leaf_weight=0.11420119553804431 1.0081085786223409 0.4805365502834319 0.11580523103475571 0.81286783516406991 0.14104902744293202 0.11046410351991653 0.12590797245502472 0.33335017412900925
leaf_count=1 7 3 1 5 1 1 1 3
internal_value=0 -0.0166544 0.037904 -0.0410875 0.0527121 0.0033838 -0.0499342 -0.0225701
internal_weight=0 1.98267 0.596342 1.38633 1.25962 0.251513 1.27213 0.459258
internal_count=23 14 4 10 9 2 9 4
is_linear=0
shrinkage=0.05


Tree=27
num_leaves=7
num_cat=0
split_feature=6 0 3 5 5 5
split_gain=1.43 1.48982 0.456128 0.413282 0.135813 0.377004
threshold=709.50000000000011 0.56250000000000033 28178.939188251064 1.0000000180025095e-35 3605.0000000000005 7682.0000000000009
decision_type=2 2 2 2 2 2
left_child=-1 3 -3 -2 -5 -6
right_child=1 2 -4 4 5 -7
leaf_value=0.062169694268349653 0.044724415236259758 0.061054391354628694 -0.044000131882904636 -0.062077786729735289 0.046890976470246148 -0.052577923398361308
leaf_weight=0.92348578572273288 0.11041197180748019 0.64874383807182301 0.10680995136499405 0.8967553377151487 0.12171561270952225 0.32031307369470596
leaf_count=6 1 5 1 6 1 3
internal_value=0 -0.0116249 0.0444079 -0.0417613 -0.049917 -0.0221549
internal_weight=0 2.20475 0.755554 1.4492 1.33878 0.442029
internal_count=23 17 6 11 10 4
is_linear=0
shrinkage=0.05


Tree=28
num_leaves=6
num_cat=0
split_feature=14 12 6 9 9
split_gain=1.56672 1.40973 1.1747 1.10299 0.520723
threshold=-71476486.074209839 246.50000000000003 709.50000000000011 5129.5000000000009 1798.5000000000002
decision_type=2 2 2 2 2
left_child=-1 -2 3 4 -3
right_child=1 2 -4 -5 -6
leaf_value=0.060741717327279635 0.055948216228472125 0.044488078537271124 -0.062503684687176111 0.057061088833773525 -0.071562062078008831
leaf_weight=0.6738713160157207 0.47052755951881442 0.10922587662935279 1.6987310126423834 0.51351410150527954 0.42386893928050995
leaf_count=5 4 1 12 4 2
internal_value=0 -0.0228004 -0.0367989 0.00369327 -0.0452645
internal_weight=0 3.21587 2.74534 1.04661 0.533095
internal_count=28 23 19 7 3
is_linear=0
shrinkage=0.05


Tree=29
num_leaves=6
num_cat=0
split_feature=14 12 6 14 13
split_gain=1.46952 1.32393 1.10818 1.03001 0.485569
threshold=-71476486.074209839 246.50000000000003 709.50000000000011 86707057.324667349 -1.0000000180025095e-35
decision_type=2 2 2 2 2
left_child=-1 -2 3 4 -3
right_child=1 2 -4 -5 -6
leaf_value=0.059984376629014707 0.055360706737460456 0.04375575241160156 -0.061737950908597253 0.056425186711470857 -0.069826460273548038
leaf_weight=0.64891153573989901 0.45222410559654269 0.10561712086200714 1.6354326531291006 0.49385087192058563 0.41299581527709983
leaf_count=5 4 1 12 4 2
internal_value=0 -0.0224452 -0.0362533 0.00364157 -0.0441052
internal_weight=0 3.10012 2.6479 1.01246 0.518613
internal_count=28 23 19 7 3
is_linear=0
shrinkage=0.05


Tree=30
num_leaves=6
num_cat=0
split_feature=4 11 12 0 0
split_gain=2.10889 0.74904 0.901915 0.741014 0.58288
threshold=-8621.726669974847 2.5000000000000004 5936.0000000000009 0.85416666666666707 0.31250000000000028
decision_type=2 2 2 2 2
left_child=-1 3 -3 4 -2
right_child=1 2 -4 -5 -6
leaf_value=0.059385110416469711 -0.051740596016431974 -0.06137091761700323 0.04901382541085092 -0.071147615078698809 0.055808281479795586
leaf_weight=0.87451556324958835 0.14865481853485141 1.5982229858636854 0.19474631547927845 0.22857454419136047 0.56673858314752579
leaf_count=7 1 12 2 1 5
internal_value=0 -0.0295715 -0.0486177 0.00522981 0.0315639
internal_weight=0 2.73694 1.79297 0.943968 0.715393
internal_count=28 21 14 7 6
is_linear=0
shrinkage=0.05


Tree=31
num_leaves=8
num_cat=0
split_feature=13 11 6 0 7 10 0
split_gain=0.901014 1.04842 0.652071 0.651351 0.663292 0.394316 0.351337
threshold=-6551662.1442041704 3303.5000000000005 709.50000000000011 0.85416666666666707 272.00000000000006 337.50000000000006 0.85416666666666707
decision_type=2 2 2 2 2 2 2
left_child=1 -1 3 4 -2 -4 -3
right_child=2 6 5 -5 -6 -7 -8
leaf_value=0.058711494403138088 0.055414689113567062 -0.064686176889666852 0.040958942863936317 -0.069143851372400381 -0.055157305032227433 -0.058039197431003157 0.040176516021385236
leaf_weight=0.83491069078445457 0.55509294569492373 0.31328285485506058 0.092845581471919902 0.2236059159040451 0.16738225519657135 1.2005639821290968 0.089576475322246552
leaf_count=7 5 2 1 1 1 10 1
internal_value=0 0.0261471 -0.0267446 0.00351865 0.0279194 -0.049878 -0.0380516
internal_weight=0 1.23777 2.23949 0.946081 0.722475 1.29341 0.402859
internal_count=28 10 18 7 6 11 3
is_linear=0
shrinkage=0.05


Tree=32
num_leaves=7
num_cat=0
split_feature=3 4 9 9 3 3
split_gain=0.879445 0.860547 0.217964 0.171883 0.129206 0.110343
threshold=27337.872559598127 23417.88255533154 4557.5000000000009 3397.0000000000005 28258.499601179294 -26264.746499163699
decision_type=2 2 2 2 2 2
left_child=1 3 4 5 -2 -1
right_child=2 -3 -4 -5 -6 -7
leaf_value=-0.039561695185611326 0.041147525532592072 -0.055170835905569961 -0.062331480804372674 0.054845327286266413 -0.041217556190972206 0.03946646640581962
leaf_weight=0.087102741003036499 0.093653760850429646 0.26671541482210159 0.56148715317249298 0.77888856083154678 0.093955866992473602 0.086727060377597587
leaf_count=1 1 2 4 8 1 1
internal_value=0 0.021839 -0.0467758 0.044829 0 0
internal_weight=0 1.21943 0.749097 0.952718 0.18761 0.17383
internal_count=18 12 6 10 2 2
is_linear=0
shrinkage=0.05


Tree=33
num_leaves=7
num_cat=0
split_feature=3 4 9 7 0 3
split_gain=0.823594 0.810773 0.204735 0.163582 0.120817 0.103117
threshold=27337.872559598127 23417.88255533154 4557.5000000000009 129.50000000000003 0.77083333333333359 -26264.746499163699
decision_type=2 2 2 2 2 2
left_child=1 3 4 5 -2 -1
right_child=2 -3 -4 -5 -6 -7
leaf_value=-0.038852751269747916 -0.040504710821350633 -0.054432722974751047 -0.061428826887738534 0.054421556712057076 0.040434910554471376 0.038757662363657637
leaf_weight=0.084353715181350708 0.090931221842765919 0.25707955658435822 0.54177233576774597 0.7465360164642334 0.090641096234321594 0.083993367850780265
leaf_count=1 1 2 4 8 1 1
internal_value=0 0.0215568 -0.0460645 0.0443989 0 0
internal_weight=0 1.17196 0.723345 0.914883 0.181572 0.168347
internal_count=18 12 6 10 2 2
is_linear=0
shrinkage=0.05


Tree=34
num_leaves=6
num_cat=0
split_feature=3 4 6 3 3
split_gain=0.771484 0.764083 0.30228 0.106046 0.196351
threshold=27337.872559598127 23417.88255533154 1391.0000000000002 28178.939188251064 28258.499601179294
decision_type=2 2 2 2 2
left_child=1 2 -1 -2 -5
right_child=3 -3 -4 4 -6
leaf_value=0.054105281222248093 -0.061618775084718851 -0.053720683848817563 -0.038144677083725757 0.039724286648932981 -0.047435542784971245
leaf_weight=0.79672770202159859 0.43566299229860317 0.24771927297115326 0.081717401742935181 0.087748788297176361 0.17482453584671021
leaf_count=9 3 2 1 1 2
internal_value=0 0.0212788 0.0439785 -0.0453804 -0.0132601
internal_weight=0 1.12616 0.878445 0.698236 0.262573
internal_count=18 12 10 6 3
is_linear=0
shrinkage=0.05


Tree=35
num_leaves=5
num_cat=0
split_feature=7 7 4 5
split_gain=0.69049 0.778951 0.321536 0.274747
threshold=229.50000000000003 129.50000000000003 -6513.8827305000468 17465.500000000004
decision_type=2 2 2 2
left_child=1 3 -2 -1
right_child=2 -3 -4 -5
leaf_value=-0.060565776447467135 0.039360353136383676 0.053605840498548191 -0.05554992010487169 0.037039680443313128
leaf_weight=0.28217333555221535 0.086310781538486481 0.68394151329994202 0.6245863363146783 0.077816970646381378
leaf_count=2 1 8 6 1
internal_value=0 0.0215222 -0.0421216 -0.0357588
internal_weight=0 1.04393 0.710897 0.35999
internal_count=18 11 7 3
is_linear=0
shrinkage=0.05


Tree=36
num_leaves=6
num_cat=0
split_feature=6 13 5 3 4
split_gain=0.880618 0.954246 0.810186 0.535556 0.302604
threshold=709.50000000000011 -6551662.1442041704 7682.0000000000009 -11452.052149099392 -8621.726669974847
decision_type=2 2 2 2 2
left_child=3 2 -2 -1 -4
right_child=1 -3 4 -5 -6
leaf_value=-0.050429725347569357 0.057914755073807722 -0.059580423226481882 0.036332431319563506 0.054264671685185097 -0.06616001860648299
leaf_weight=0.1412932425737381 0.42290901392698343 1.240846067667007 0.07545335590839386 0.57625021785497699 0.30119888484477997
leaf_count=1 4 11 1 6 2
internal_value=0 -0.0320059 0.00917212 0.0317575 -0.0420838
internal_weight=0 2.04041 0.799561 0.717543 0.376652
internal_count=25 18 7 7 3
is_linear=0
shrinkage=0.05


Tree=37
num_leaves=5
num_cat=0
split_feature=7 6 4 12
split_gain=0.847926 0.807679 1.11803 0.553484
threshold=238.00000000000003 709.50000000000011 -8621.726669974847 246.50000000000003
decision_type=2 2 2 2
left_child=1 -1 -3 -4
right_child=-2 2 3 -5
leaf_value=0.053816306867537966 -0.059732890181763809 0.057904164217965182 0.043571770548582106 -0.06043251616303319
leaf_weight=0.552609242498875 0.75116948038339604 0.34640941023826588 0.13377282023429848 0.86964945495128632
leaf_count=6 7 3 2 7
internal_value=0 0.00237624 -0.0177423 -0.0452138
internal_weight=0 1.90244 1.34983 1.00342
internal_count=25 18 12 9
is_linear=0
shrinkage=0.05


Tree=38
num_leaves=6
num_cat=0
split_feature=7 6 4 9 5
split_gain=0.799393 0.759406 1.04983 0.356329 0.120204
threshold=238.00000000000003 709.50000000000011 -8621.726669974847 6378.5000000000009 7682.0000000000009
decision_type=2 2 2 2 2
left_child=1 -1 -3 4 -4
right_child=-2 2 3 -5 -6
leaf_value=0.053383274540762873 -0.059084418838517644 0.057145118561383004 0.043019114778021339 -0.060249667501955699 -0.033754859670229891
leaf_weight=0.52982580661773715 0.72219344228506077 0.33379927277565002 0.12886010110378243 0.76893752813339233 0.067661464214324951
leaf_count=6 7 3 2 6 1
internal_value=0 0.00238998 -0.0174273 -0.0446189 0.00987763
internal_weight=0 1.82908 1.29926 0.965459 0.196522
internal_count=25 18 12 9 3
is_linear=0
shrinkage=0.05


Tree=39
num_leaves=5
num_cat=0
split_feature=7 6 14 0
split_gain=0.753205 0.714998 0.749369 0.729491
threshold=238.00000000000003 709.50000000000011 -71476486.074209839 0.77083333333333359
decision_type=2 2 2 2
left_child=1 -1 -3 -4
right_child=-2 2 3 -5
leaf_value=0.052964032398807995 -0.058463261865736055 0.057078452487506516 -0.059074223635861435 0.046400835681283899
leaf_weight=0.50788561254739795 0.69410061836242665 0.25516577064990997 0.80566718429326989 0.19053491204977036
leaf_count=6 7 2 7 3
internal_value=0 0.00236671 -0.0171541 -0.0375429
internal_weight=0 1.75925 1.25137 0.996202
internal_count=25 18 12 10
is_linear=0
shrinkage=0.05


Tree=40
num_leaves=7
num_cat=0
split_feature=12 7 3 9 4 12
split_gain=0.781138 0.76464 0.579587 0.493596 0.348169 0.227818
threshold=246.50000000000003 238.00000000000003 27337.872559598127 4557.5000000000009 26656.815715437748 418.00000000000006
decision_type=2 2 2 2 2 2
left_child=-1 2 4 -4 5 -2
right_child=1 -3 3 -5 -6 -7
leaf_value=0.055705305126813875 -0.031773472033759922 -0.057860585866512486 0.04380485405625064 -0.061902962775322604 -0.044220413481370235 0.055872575500699531
leaf_weight=0.49421824887394938 0.062469020485878213 0.67693392187356938 0.13591600954532623 0.40371651202440262 0.10789504647254944 0.66617151349782944
leaf_count=6 1 7 2 3 1 7
internal_value=0 -0.01421 0.00634284 -0.0327983 0.0331771 0.0465064
internal_weight=0 2.0531 1.37617 0.539633 0.836536 0.728641
internal_count=27 21 14 5 9 8
is_linear=0
shrinkage=0.05


Tree=41
num_leaves=7
num_cat=0
split_feature=13 6 5 3 11 0
split_gain=1.425 0.513557 0.516522 0.376895 0.0753042 0.103243
threshold=-6551662.1442041704 709.50000000000011 1.0000000180025095e-35 -11452.052149099392 3303.5000000000005 0.85416666666666707
decision_type=2 2 2 2 2 2
left_child=4 2 -2 -4 -1 -6
right_child=1 -3 3 -5 5 -7
leaf_value=0.057226253944272457 -0.064967382250553748 -0.056917922791280211 -0.045771273827649915 0.051925266339881308 -0.031067747475239188 0.042143469655636617
leaf_weight=0.71940659359097514 0.21087452769279458 0.81772534176707268 0.11578267067670822 0.40356406196951866 0.06076958030462265 0.12155094742774963
leaf_count=8 1 9 1 5 1 2
internal_value=0 -0.0297345 0 0.0275494 0.0492728 0.0105193
internal_weight=0 1.54795 0.730221 0.519347 0.901727 0.182321
internal_count=27 16 7 6 11 3
is_linear=0
shrinkage=0.05


Tree=42
num_leaves=7
num_cat=0
split_feature=13 14 5 11 11 3
split_gain=1.342 0.359652 0.795219 0.18805 0.0715421 0.0972671
threshold=-6551662.1442041704 -4792524.3490685411 155.00000000000003 5173.0000000000009 3303.5000000000005 -26264.746499163699
decision_type=2 2 2 2 2 2
left_child=4 -2 -3 -4 -1 -6
right_child=1 2 3 -5 5 -7
leaf_value=0.056687278826351342 -0.063920459315840575 0.0512163364811484 -0.052568644150565218 0.029340338014292894 -0.030363120767975357 0.041582372708777023
leaf_weight=0.6906758435070518 0.51077631115913402 0.32999482005834546 0.59099262580275536 0.056910671293735504 0.059145580977201462 0.11716252565383911
leaf_count=8 3 4 8 1 1 2
internal_value=0 -0.0294474 -0.0100293 -0.0432963 0.0487389 0.00998425
internal_weight=0 1.48867 0.977898 0.647903 0.866984 0.176308
internal_count=27 16 13 9 11 3
is_linear=0
shrinkage=0.05


Tree=43
num_leaves=7
num_cat=0
split_feature=13 7 5 11 11 3
split_gain=1.26083 0.416537 0.632821 0.204447 0.0680882 0.0916124
threshold=-6551662.1442041704 186.50000000000003 1.0000000180025095e-35 5173.0000000000009 3303.5000000000005 -26264.746499163699
decision_type=2 2 2 2 2 2
left_child=4 2 -2 -3 -1 -6
right_child=1 3 -4 -5 5 -7
leaf_value=0.056169235245791406 -0.061996019804350683 -0.056040469246065455 0.050772088117046893 0.028640019544854591 -0.029659943392330246 0.041017131571835896
leaf_weight=0.66291020065546069 0.19970326125621773 0.8602311871945858 0.31659034639596939 0.055459268391132355 0.057594005018472672 0.11296479403972626
leaf_count=8 1 10 4 1 1 2
internal_value=0 -0.0290662 0.00455784 -0.0494387 0.0482176 0.00944236
internal_weight=0 1.43198 0.516294 0.91569 0.833469 0.170559
internal_count=27 16 5 11 11 3
is_linear=0
shrinkage=0.05


Tree=44
num_leaves=7
num_cat=0
split_feature=7 0 3 3 0 5
split_gain=1.3854 0.468407 0.201203 0.122911 0.0900404 0.0318585
threshold=238.00000000000003 0.31250000000000028 27337.872559598127 -26264.746499163699 0.77083333333333359 7682.0000000000009
decision_type=2 2 2 2 2 2
left_child=1 -1 3 5 -4 -3
right_child=-2 2 4 -5 -6 -7
leaf_value=-0.04781200830669996 -0.061214180932855522 0.024997977629250226 -0.042597842089280774 0.053978782629445936 0.029506024784224989 -0.028958632931938174
leaf_weight=0.17938036471605334 0.80162599310278881 0.048820815980434418 0.10012851655483246 0.75685992836952187 0.057263243943452835 0.056111909449100494
leaf_count=2 8 1 1 10 1 1
internal_value=0 0.0233042 0.037161 0.046942 -0.00803939 0
internal_weight=0 1.19856 1.01918 0.861793 0.157392 0.104933
internal_count=24 16 14 12 2 2
is_linear=0
shrinkage=0.05


Tree=45
num_leaves=7
num_cat=0
split_feature=7 0 3 3 0 9
split_gain=1.3011 0.441861 0.190044 0.117793 0.0845065 0.0295591
threshold=238.00000000000003 0.31250000000000028 27337.872559598127 -26264.746499163699 0.77083333333333359 5795.5000000000009
decision_type=2 2 2 2 2 2
left_child=1 -1 3 5 -4 -3
right_child=-2 2 4 -5 -6 -7
leaf_value=-0.04725513719248256 -0.060495911399240349 -0.028259621009788724 -0.041879039053993233 0.053608926079614774 0.028805178554188265 0.024321768274113503
leaf_weight=0.17260840535163857 0.77137089893221866 0.054696455597877391 0.096862532198429108 0.72479876875877391 0.055795997381210327 0.047736760228872299
leaf_count=2 8 1 1 10 1 1
internal_value=0 0.0229933 0.0367607 0.0465112 -0.00746615 0
internal_weight=0 1.1525 0.979891 0.827232 0.152659 0.102433
internal_count=24 16 14 12 2 2
is_linear=0
shrinkage=0.05


Tree=46
num_leaves=7
num_cat=0
split_feature=7 0 3 3 0 9
split_gain=1.22228 0.416861 0.179558 0.112968 0.0792876 0.027412
threshold=238.00000000000003 0.31250000000000028 27337.872559598127 -26264.746499163699 0.77083333333333359 5795.5000000000009
decision_type=2 2 2 2 2 2
left_child=1 -1 3 5 -4 -3
right_child=-2 2 4 -5 -6 -7
leaf_value=-0.046702067780655783 -0.059809079721837868 -0.02756338125700912 -0.041163691439473099 0.053250758933110258 0.028106733550056356 0.02365132890960131
leaf_weight=0.16610211133956887 0.74197943508625042 0.053344875574111827 0.093723401427268982 0.69397961348295223 0.054394781589508057 0.046702466905117035
leaf_count=2 8 1 1 10 1 1
internal_value=0 0.0226827 0.0363637 0.0460863 -0.00688919 0
internal_weight=0 1.10825 0.942145 0.794027 0.148118 0.100047
internal_count=24 16 14 12 2 2
is_linear=0
shrinkage=0.05


Tree=47
num_leaves=6
num_cat=0
split_feature=7 6 3 3 3
split_gain=1.14853 0.195955 0.334941 0.19234 0.0743636
threshold=238.00000000000003 1391.0000000000002 18253.470012531794 27337.872559598127 28178.939188251064
decision_type=2 2 2 2 2
left_child=1 3 -3 -1 -5
right_child=-2 2 -4 4 -6
leaf_value=0.051086656801400565 -0.059151573320028905 -0.047801981144000347 0.050274940802757066 -0.040451024292043225 0.027411165409092931
leaf_weight=0.56966290250420548 0.71345481276512157 0.21190916001796722 0.14042353630065918 0.090707972645759583 0.05305684357881546
leaf_count=10 8 3 1 1 1
internal_value=0 0.022372 -0.00494372 0.0376882 -0.0063086
internal_weight=0 1.06576 0.352333 0.713428 0.143765
internal_count=24 16 4 12 2
is_linear=0
shrinkage=0.05


Tree=48
num_leaves=10
num_cat=0
split_feature=12 1 10 3 7 0 12 13 4
split_gain=1.29072 0.436909 0.244346 0.224515 0.203953 0.156785 0.129075 0.0849557 0.0588579
threshold=246.50000000000003 1.0000000180025095e-35 203.50000000000003 28178.939188251064 238.00000000000003 0.77083333333333359 418.00000000000006 65532609.258439168 23417.88255533154
decision_type=2 2 2 2 2 2 2 2 2
left_child=-1 4 -3 7 6 -5 -2 -4 -9
right_child=1 2 3 5 -6 -7 -8 8 -10
leaf_value=0.057421250506027401 -0.025634684513621771 0.033956683349755677 -0.064091537376871593 -0.044891414756216719 -0.041494083745580917 0.039630939078806826 0.048503530717211217 0.022291856982505177 -0.039092910312799045
leaf_weight=0.45576712116599116 0.049880933016538731 0.06822742521762859 1.1752170398831365 0.11125612258911122 0.12709730863571167 0.10355908423662186 0.25340221077203751 0.044721093028783687 0.085272610187530518
leaf_count=5 1 1 10 1 3 2 4 1 1
internal_value=0 -0.0349465 -0.0471721 -0.0517079 0.00712574 0 0.0319234 -0.0595218 -0.00793691
internal_weight=0 2.01863 1.58825 1.52003 0.43038 0.214815 0.303283 1.30521 0.129994
internal_count=29 24 16 15 8 3 5 12 2
is_linear=0
shrinkage=0.05


Tree=49
num_leaves=9
num_cat=0
split_feature=12 2 6 10 3 3 4 4
split_gain=1.21243 0.405561 0.354075 0.231624 0.210651 0.14684 0.0413273 0.093111
threshold=246.50000000000003 1.0000000180025095e-35 1391.0000000000002 203.50000000000003 28178.939188251064 28258.499601179294 18308.942430389961 23417.88255533154
decision_type=2 2 2 2 2 2 2 2
left_child=-1 3 -3 -2 6 -6 -5 -8
right_child=1 2 -4 4 5 -7 7 -9
leaf_value=0.056771318689751819 0.033249427970735511 0.04808738009488147 -0.044298946835598034 -0.063833114061662935 0.039048993782279121 -0.044155253326962081 0.021642376376670568 -0.045918900022274972
leaf_weight=0.43839266523718867 0.066275082528591045 0.24308926612138737 0.17112131044268608 1.0585132986307142 0.099960289895534404 0.10757309943437576 0.043825827538967022 0.1571248397231102
leaf_count=5 1 4 4 9 2 1 1 2
internal_value=0 -0.0344455 0.00672929 -0.0464232 -0.0509486 0 -0.0586572 -0.0246255
internal_weight=0 1.94748 0.414211 1.53327 1.467 0.207533 1.25946 0.200951
internal_count=29 24 8 16 15 3 12 3
is_linear=0
shrinkage=0.05


Tree=50
num_leaves=9
num_cat=0
split_feature=12 1 6 10 3 4 13 14
split_gain=1.13868 0.378055 0.334141 0.219725 0.197823 0.137498 0.0774674 0.0514513
threshold=246.50000000000003 1.0000000180025095e-35 1391.0000000000002 203.50000000000003 28178.939188251064 -1.0000000180025095e-35 65532609.258439168 148000782.83293435
decision_type=2 2 2 2 2 2 2 2
left_child=-1 2 -2 -3 6 -6 -5 -8
right_child=1 3 -4 4 5 -7 7 -9
leaf_value=0.056145598176561423 0.047672088550511686 0.032542419362718476 -0.043867775226815724 -0.062374312896571631 0.038461661951812921 -0.043425824245432745 -0.037536466361301077 0.021000799169044813
leaf_weight=0.42155735194683108 0.23320954293012586 0.06440800428390514 0.16434906795620918 1.0924301818013189 0.096521854400634766 0.10402541607618321 0.079538740217685588 0.042972005903720856
leaf_count=5 4 1 4 10 2 1 1 1
internal_value=0 -0.0339426 0.00650623 -0.0456939 -0.0502128 0 -0.057824 -0.00636778
internal_weight=0 1.87745 0.397559 1.4799 1.41549 0.200547 1.21494 0.122511
internal_count=29 24 8 16 15 3 12 2
is_linear=0
shrinkage=0.05


Tree=51
num_leaves=8
num_cat=0
split_feature=12 2 6 3 3 12 4
split_gain=1.06976 0.352623 0.315297 0.149632 0.128721 0.0771438 0.0286278
threshold=246.50000000000003 1.0000000180025095e-35 1391.0000000000002 28178.939188251064 28258.499601179294 4253.0000000000009 18308.942430389961
decision_type=2 2 2 2 2 2 2
left_child=-1 3 -3 5 -5 -2 -7
right_child=1 2 -4 4 -6 6 -8
leaf_value=0.055542027363735813 -0.055280129481894251 0.047256810453877258 -0.043430666201691732 0.037868826218664636 -0.042701947920381192 -0.029299350123294862 0.020367627074903083
leaf_weight=0.40526029467582736 1.1308891698718069 0.22374846041202534 0.15788162499666214 0.093237355351447948 0.10061065107584 0.060887172818183788 0.042157776653766632
leaf_count=5 10 4 4 2 1 2 1
internal_value=0 -0.0334556 0.00627765 -0.0449934 0 -0.0514283 0
internal_weight=0 1.80941 0.38163 1.42778 0.193848 1.23393 0.103045
internal_count=29 24 8 16 3 13 3
is_linear=0
shrinkage=0.05


Tree=52
num_leaves=6
num_cat=0
split_feature=14 8 10 11 3
split_gain=0.567189 0.436953 0.766684 0.493198 0.20669
threshold=-71476486.074209839 29.000000000000004 639.00000000000011 2.5000000000000004 -26264.746499163699
decision_type=2 2 2 2 2
left_child=-1 -2 4 -4 -3
right_child=1 2 3 -5 -6
leaf_value=0.05312748411676628 -0.059515940982301466 -0.031098445140313576 0.042907949766124144 -0.057788169892216579 0.054492972601826062
leaf_weight=0.34123410284519229 0.44646132364869107 0.060841958969831467 0.13819525390863419 0.5687595009803772 0.48550500720739342
leaf_count=5 4 1 3 8 7
internal_value=0 -0.0170572 -0.000831859 -0.0361976 0.0425002
internal_weight=0 1.69976 1.2533 0.706955 0.546347
internal_count=28 23 19 11 8
is_linear=0
shrinkage=0.05


Tree=53
num_leaves=6
num_cat=0
split_feature=12 12 5 7 7
split_gain=0.737377 0.569375 0.369746 0.398165 0.246178
threshold=246.50000000000003 1413.5000000000002 155.00000000000003 149.50000000000003 344.00000000000006
decision_type=2 2 2 2 2
left_child=-1 2 3 -2 -3
right_child=1 4 -4 -5 -6
leaf_value=0.054184584481539289 -0.055570377428542865 0.052358778551594647 -0.058644752060256891 0.046655142456350149 -0.036468138939437934
leaf_weight=0.40885213017463695 0.16956211626529671 0.30426814779639233 0.78047572821378708 0.21330514550209045 0.085718948394060135
leaf_count=6 1 5 10 4 2
internal_value=0 -0.0209101 -0.0389244 0 0.029407
internal_weight=0 1.55333 1.16334 0.382867 0.389987
internal_count=28 22 15 5 7
is_linear=0
shrinkage=0.05


Tree=54
num_leaves=6
num_cat=0
split_feature=14 8 10 11 3
split_gain=0.504259 0.384418 0.678977 0.438314 0.183584
threshold=-71476486.074209839 29.000000000000004 639.00000000000011 2.5000000000000004 -26264.746499163699
decision_type=2 2 2 2 2
left_child=-1 -2 4 -4 -3
right_child=1 2 3 -5 -6
leaf_value=0.052135228948202897 -0.057964709406630711 -0.029023457464825334 0.041800259424226861 -0.056671326673668289 0.053557893457068843
leaf_weight=0.3149220533668996 0.41500131785869587 0.056246254593133926 0.12708155810832977 0.52550376020371914 0.44737285375595071
leaf_count=5 4 1 3 8 7
internal_value=0 -0.0167015 -0.000699544 -0.0354317 0.0416704
internal_weight=0 1.57121 1.1562 0.652585 0.503619
internal_count=28 23 19 11 8
is_linear=0
shrinkage=0.05


Tree=55
num_leaves=8
num_cat=0
split_feature=14 14 13 0 9 14 6
split_gain=0.475181 0.329464 0.51577 0.230705 0.162097 0.167183 0.0933858
threshold=-71476486.074209839 -21148788.104642067 -6551662.1442041704 0.77083333333333359 1798.5000000000002 86707057.324667349 1855.0000000000002
decision_type=2 2 2 2 2 2 2
left_child=-1 3 -3 -2 -4 -6 -7
right_child=1 2 4 -5 5 6 -8
leaf_value=0.051649241966641557 -0.059699363442268755 0.05348484196891954 0.034657062210178495 0.029850141226003851 -0.053137687757082969 0.038532773254533442 -0.034068453629684102
leaf_weight=0.30232389643788349 0.49136658757925022 0.31512804329395283 0.0782431960105896 0.062344599515199661 0.39218679815530777 0.095737632364034653 0.075432293117046356
leaf_count=5 5 4 2 2 6 2 2
internal_value=0 -0.016522 0 -0.0471926 -0.0244338 -0.0350402 0
internal_weight=0 1.51044 0.956728 0.553711 0.6416 0.563357 0.17117
internal_count=28 23 16 7 12 10 4
is_linear=0
shrinkage=0.05


Tree=56
num_leaves=6
num_cat=0
split_feature=12 14 0 12 5
split_gain=0.614804 0.730746 0.232967 0.121496 0.0625896
threshold=246.50000000000003 -71476486.074209839 0.77083333333333359 5936.0000000000009 1007.0000000000001
decision_type=2 2 2 2 2
left_child=-1 -2 3 -3 -4
right_child=1 2 4 -5 -6
leaf_value=0.052703623547407201 0.0511132328726751 -0.056876993250304632 0.038657621202978776 0.013070523224598653 -0.022628978940035099
leaf_weight=0.36385389789938938 0.25918005406856526 0.78707662411034096 0.096757177263498306 0.034451588988304138 0.045198548585176468
leaf_count=6 4 11 2 1 1
internal_value=0 -0.0209813 -0.0417871 -0.0523252 0.00992414
internal_weight=0 1.22266 0.963484 0.821528 0.141956
internal_count=25 19 15 12 3
is_linear=0
shrinkage=0.05


Tree=57
num_leaves=5
num_cat=0
split_feature=12 10 3 11
split_gain=0.577441 0.260181 0.64595 0.196598
threshold=246.50000000000003 1015.0000000000001 16056.888968583016 2.5000000000000004
decision_type=2 2 2 2
left_child=-1 2 -2 -3
right_child=1 3 -4 -5
leaf_value=0.052233779415433418 -0.053115876192220246 0.029336060298216754 0.050884419603887593 -0.055114343170336366
leaf_weight=0.34915582090616237 0.27638016641139962 0.056901615113019943 0.31960940361022949 0.52300394512712955
leaf_count=6 3 1 6 9
internal_value=0 -0.020636 0.000439034 -0.04451
internal_weight=0 1.1759 0.59599 0.579906
internal_count=25 19 9 10
is_linear=0
shrinkage=0.05


Tree=58
num_leaves=6
num_cat=0
split_feature=12 14 11 12 4
split_gain=0.543476 0.648294 0.169512 0.110515 0.0856624
threshold=246.50000000000003 -71476486.074209839 2.5000000000000004 5936.0000000000009 26656.815715437748
decision_type=2 2 2 2 2
left_child=-1 -2 4 -4 -3
right_child=1 2 3 -5 -6
leaf_value=0.051773177793029701 0.050084285098706327 0.0374717352372562 -0.055887591401624671 0.010681942676061554 -0.034566377252868673
leaf_weight=0.33501999638974678 0.23917133733630169 0.09033452346920956 0.69746978394687176 0.032460760325193405 0.06998123973608017
leaf_count=6 4 2 11 1 1
internal_value=0 -0.0203763 -0.0408334 -0.0511107 0
internal_weight=0 1.12942 0.890246 0.729931 0.160316
internal_count=25 19 15 12 3
is_linear=0
shrinkage=0.05


Tree=59
num_leaves=6
num_cat=0
split_feature=12 14 11 12 6
split_gain=0.510384 0.609957 0.159993 0.107855 0.0800591
threshold=246.50000000000003 -71476486.074209839 2.5000000000000004 5936.0000000000009 1619.5000000000002
decision_type=2 2 2 2 2
left_child=-1 -2 4 -4 -3
right_child=1 2 3 -5 -6
leaf_value=0.051320673729513655 0.049580470612271048 0.03686342791280655 -0.055424333157185937 0.010270406755556049 -0.033859045446384017
leaf_weight=0.32143224962055694 0.22977455332875241 0.087334044277667888 0.66887081786990166 0.032138798385858536 0.067952729761600494
leaf_count=6 4 2 11 1 1
internal_value=0 -0.0200324 -0.0402993 -0.0505221 0
internal_weight=0 1.08607 0.856296 0.70101 0.155287
internal_count=25 19 15 12 3
is_linear=0
shrinkage=0.05


Tree=60
num_leaves=6
num_cat=0
split_feature=12 10 6 4 4
split_gain=0.673144 0.153958 0.104792 0.0579751 0.00881723
threshold=841.50000000000011 639.00000000000011 797.00000000000011 18308.942430389961 23417.88255533154
decision_type=2 2 2 2 2
left_child=1 -1 -3 -2 -5
right_child=3 2 -4 4 -6
leaf_value=0.051154434048701319 -0.056062540554953078 0.035336090115590371 -0.039019746449930698 0.0098712392408407418 -0.020677662586097934
leaf_weight=0.32005134597420692 0.46763824298977852 0.079567886888980865 0.1042229812592268 0.031832028180360794 0.042553022503852844
leaf_count=5 6 2 3 1 1
internal_value=0 0.0300525 0 -0.0494581 0
internal_weight=0 0.503842 0.183791 0.542023 0.0743851
internal_count=18 10 5 8 2
is_linear=0
shrinkage=0.05


Tree=61
num_leaves=6
num_cat=0
split_feature=12 10 6 4 4
split_gain=0.632392 0.145633 0.0981556 0.056286 0.00812889
threshold=841.50000000000011 639.00000000000011 797.00000000000011 18308.942430389961 23417.88255533154
decision_type=2 2 2 2 2
left_child=1 -1 -3 -2 -5
right_child=3 2 -4 4 -6
leaf_value=0.050711822047077026 -0.0554848115139219 0.034701775684996598 -0.038464162178464011 0.0094843250277429486 -0.020048945308441004
leaf_weight=0.30704466253519058 0.44936036877334118 0.07706131599843502 0.1005560364574194 0.031539745628833771 0.041758246719837189
leaf_count=5 6 2 3 1 1
internal_value=0 0.0297149 0 -0.0487801 0
internal_weight=0 0.484662 0.177617 0.522658 0.073298
internal_count=18 10 5 8 2
is_linear=0
shrinkage=0.05


Tree=62
num_leaves=6
num_cat=0
split_feature=12 10 6 4 4
split_gain=0.594153 0.137792 0.0919031 0.0546889 0.00749084
threshold=841.50000000000011 639.00000000000011 797.00000000000011 18308.942430389961 23417.88255533154
decision_type=2 2 2 2 2
left_child=1 -1 -3 -2 -5
right_child=3 2 -4 4 -6
leaf_value=0.050275259906305485 -0.054927330783306007 0.034063140728701334 -0.037901567441144368 0.0091095472263051785 -0.019429342131244257
leaf_weight=0.29455432295799255 0.43168759718537331 0.074668707326054573 0.097056599333882332 0.031261265277862549 0.04100041463971138
leaf_count=5 6 2 3 1 1
internal_value=0 0.0293771 0 -0.0481153 0
internal_weight=0 0.46628 0.171725 0.503949 0.0722617
internal_count=18 10 5 8 2
is_linear=0
shrinkage=0.05


Tree=63
num_leaves=5
num_cat=0
split_feature=12 8 12 12
split_gain=0.558254 0.102358 0.110731 0.0979866
threshold=841.50000000000011 238.50000000000003 246.50000000000003 5936.0000000000009
decision_type=2 2 2 2
left_child=1 -1 -3 -2
right_child=3 2 -4 -5
leaf_value=0.049214343528947005 -0.054194622081380588 0.038873550367039246 -0.037331959298384759 0.0087467575271740535
leaf_weight=0.26092779263854027 0.45489281602203846 0.094023102894425392 0.09371752105653286 0.030995938926935196
leaf_count=5 7 2 3 1
internal_value=0 0.0290385 0 -0.047462
internal_weight=0 0.448668 0.187741 0.485889
internal_count=18 10 5 8
is_linear=0
shrinkage=0.05


Tree=64
num_leaves=7
num_cat=0
split_feature=8 0 1 4 8 7
split_gain=0.375275 0.423659 0.270735 0.269268 0.0902093 0.0277153
threshold=116.50000000000001 0.77083333333333359 1.0000000180025095e-35 -8621.726669974847 176.00000000000003 238.00000000000003
decision_type=2 2 2 2 2 2
left_child=2 3 5 -2 -5 -1
right_child=1 -3 -4 4 -6 -7
leaf_value=0.035725886724098925 0.040530816299549931 0.049376241216833455 -0.060990853621479629 0.0083957926153578194 -0.052136137603992973 0
leaf_weight=0.082472026348114014 0.1073710173368454 0.32816199027001858 0.52795908972620964 0.030743151903152466 0.36161434464156628 0.019917510449886322
leaf_count=2 2 9 5 1 7 1
internal_value=0 0.0040315 -0.0458857 -0.0231722 -0.0440342 0.0190794
internal_weight=0 0.827891 0.630349 0.499729 0.392357 0.10239
internal_count=27 19 8 10 8 3
is_linear=0
shrinkage=0.05


Tree=65
num_leaves=8
num_cat=0
split_feature=12 2 3 6 12 13 12
split_gain=0.620295 0.219869 0.159437 0.136885 0.124803 0.0318682 0.0347044
threshold=246.50000000000003 1.0000000180025095e-35 28178.939188251064 1391.0000000000002 418.00000000000006 65532609.258439168 5936.0000000000009
decision_type=2 2 2 2 2 2 2
left_child=-1 2 4 -3 -2 -6 -7
right_child=1 3 -4 -5 5 6 -8
leaf_value=0.04895762412803964 0.015610420704750581 0.042369660159770665 0.025048036545274856 -0.035083183621193968 -0.059685541401481947 -0.034952595832744869 0.0080564695521689843
leaf_weight=0.27468549273908149 0.036825291812419669 0.13481972739100456 0.051433824002742767 0.085239553824067116 0.71138489991426468 0.079382441937923431 0.030502311885356903
leaf_count=7 1 3 2 4 7 2 1
internal_value=0 -0.033442 -0.0445199 0.00638722 -0.0502571 -0.0548339 -0.011227
internal_weight=0 1.12959 0.909529 0.220059 0.858095 0.82127 0.109885
internal_count=27 20 13 7 11 10 3
is_linear=0
shrinkage=0.05


Tree=66
num_leaves=7
num_cat=0
split_feature=8 10 5 1 4 7
split_gain=0.333057 0.246397 0.289834 0.238798 0.15049 0.0249908
threshold=116.50000000000001 579.50000000000011 2660.5000000000005 1.0000000180025095e-35 26656.815715437748 238.00000000000003
decision_type=2 2 2 2 2 2
left_child=3 4 -3 5 -2 -1
right_child=1 2 -4 -5 -6 -7
leaf_value=0.034349076285534921 0.049206660539733736 0.039714392134114603 -0.050872976966892504 -0.059312891011511618 -0.028006330432417299 0
leaf_weight=0.076786085963249207 0.32081500068306923 0.11232982575893402 0.27945708110928535 0.49110539816319942 0.054198175668716431 0.019257841631770134
leaf_count=2 8 4 6 5 1 1
internal_value=0 0.00417773 -0.0215002 -0.0445001 0.0344839 0.0174852
internal_weight=0 0.7668 0.391787 0.587149 0.375013 0.0960439
internal_count=27 19 10 8 9 3
is_linear=0
shrinkage=0.05


Tree=67
num_leaves=8
num_cat=0
split_feature=12 2 3 6 12 13 12
split_gain=0.549685 0.194489 0.141853 0.121384 0.112691 0.0275994 0.0298243
threshold=246.50000000000003 1.0000000180025095e-35 28178.939188251064 1391.0000000000002 418.00000000000006 65532609.258439168 5936.0000000000009
decision_type=2 2 2 2 2 2 2
left_child=-1 2 4 -3 -2 -6 -7
right_child=1 3 -4 -5 5 6 -8
leaf_value=0.048168499429379091 0.013329254557290879 0.04142628258420241 0.023088274487584701 -0.033848821004835904 -0.058299196589666702 -0.033389040363217881 0.0056769763468569202
leaf_weight=0.25292813777923595 0.034680586308240668 0.12552962824702263 0.047934029251337051 0.07942257821559906 0.66081183217465878 0.073355834931135178 0.028905965387821198
leaf_count=7 1 3 2 4 7 2 1
internal_value=0 -0.0324637 -0.043296 0.00583958 -0.0489674 -0.0535416 -0.00971322
internal_weight=0 1.05064 0.845688 0.204952 0.797754 0.763074 0.102262
internal_count=27 20 13 7 11 10 3
is_linear=0
shrinkage=0.05


Tree=68
num_leaves=8
num_cat=0
split_feature=6 6 3 1 13 8 0
split_gain=0.371532 0.27466 0.311959 0.0956286 0.0908131 0.0245484 0.0065773
threshold=2177.5000000000005 1391.0000000000002 27337.872559598127 1.0000000180025095e-35 167390474.90858895 116.50000000000001 0.77083333333333359
decision_type=2 2 2 2 2 2 2
left_child=1 2 4 -2 -1 -4 -7
right_child=3 -3 5 -5 -6 6 -8
leaf_value=0.045990191997215497 -0.01288171480956587 -0.054376499779961666 -0.054533189956213403 0.052746978028404362 -0.017164755329169987 -0.019631121993560454 0
leaf_weight=0.24371846020221688 0.035124164074659459 0.517314737662673 0.17954093124717474 0.21184032782912254 0.038428422063589096 0.0412445068359375 0.023446286097168922
leaf_count=9 2 10 2 2 1 1 1
internal_value=0 -0.0284725 -0.000440361 0.0380885 0.0326994 -0.0440557 0
internal_weight=0 1.04369 0.526379 0.246964 0.282147 0.244232 0.0646908
internal_count=28 24 14 4 10 4 2
is_linear=0
shrinkage=0.05


Tree=69
num_leaves=8
num_cat=0
split_feature=8 10 9 0 5 0 5
split_gain=0.34717 0.218626 0.227364 0.171783 0.0955188 0.0592577 0.000565358
threshold=116.50000000000001 639.00000000000011 12247.500000000002 0.77083333333333359 8441.0000000000018 0.3541666666666668 3605.0000000000005
decision_type=2 2 2 2 2 2 2
left_child=4 2 -2 5 -1 6 -3
right_child=1 3 -4 -5 -6 -7 -8
leaf_value=-0.056298176709126638 0.051785525350239031 0 -0.034927536866055278 0.035225617762079726 0.0056261189344583608 -0.049603893003207992 0.0067491421466450907
leaf_weight=0.42664431780576706 0.3205063883215189 0.01832900382578373 0.07888285256922245 0.082068074494600296 0.028873519971966743 0.25885295122861862 0.02960585430264473
leaf_count=7 7 1 2 3 1 6 1
internal_value=0 0.00401719 0.0313087 -0.0206497 -0.0494844 -0.0399651 0
internal_weight=0 0.788245 0.399389 0.388856 0.455518 0.306788 0.0479349
internal_count=28 20 9 11 8 8 2
is_linear=0
shrinkage=0.05


Tree=70
num_leaves=9
num_cat=0
split_feature=13 11 12 10 0 0 9 3
split_gain=0.324325 0.334447 0.075932 0.0909481 0.0804917 0.069329 0.0340527 0.00333551
threshold=-6551662.1442041704 3303.5000000000005 3587.5000000000005 203.50000000000003 0.4791666666666668 0.85416666666666707 3397.0000000000005 28178.939188251064
decision_type=2 2 2 2 2 2 2 2
left_child=1 -1 3 -2 -4 -3 7 -5
right_child=2 5 4 6 -6 -7 -8 -9
leaf_value=0.05134476432291013 0.0091212313076482095 -0.047650906510666141 -0.036542610466675111 -0.014900863534410514 0.033161537963646466 0.0078634581304244233 -0.055177263467659589 0
leaf_weight=0.2885552179068327 0.031269878149032593 0.15797638520598412 0.08879112359136343 0.036132995039224625 0.072016676887869835 0.030946562066674232 0.47046065703034401 0.022317091003060341
leaf_count=6 1 3 3 1 2 2 9 1
internal_value=0 0.0157608 -0.0360155 -0.0447945 0 -0.0316449 -0.0504822 0
internal_weight=0 0.477478 0.720988 0.560181 0.160808 0.188923 0.528911 0.0584501
internal_count=28 11 17 12 5 5 11 2
is_linear=0
shrinkage=0.05


Tree=71
num_leaves=9
num_cat=0
split_feature=7 6 3 7 3 8 6 3
split_gain=0.405215 0.196586 0.227831 0.0756719 0.0326382 0.0221324 0.0037076 0.000731487
threshold=99.000000000000014 1391.0000000000002 27337.872559598127 272.00000000000006 -11452.052149099392 116.50000000000001 797.00000000000011 -26264.746499163699
decision_type=2 2 2 2 2 2 2 2
left_child=4 2 3 -2 7 -4 -7 -1
right_child=1 -3 5 -5 -6 6 -8 -9
leaf_value=0 0.044269570259713176 -0.053013301053423029 -0.051855485165492647 -0.014378428160903081 0.050698620386601383 0 -0.015574449407537719 0.0075437239760316925
leaf_weight=0.023781906813383102 0.18825170584022999 0.46733453776687384 0.16180376522243023 0.035638138651847839 0.18961610272526741 0.022317091003060341 0.036789622157812119 0.030711730942130089
leaf_count=1 7 11 2 1 2 1 1 2
internal_value=0 -0.0301446 -0.0030724 0.0290549 0.0408358 -0.0415363 0 0
internal_weight=0 0.912135 0.4448 0.22389 0.24411 0.22091 0.0591067 0.0544936
internal_count=28 23 12 8 5 4 2 3
is_linear=0
shrinkage=0.05


Tree=72
num_leaves=6
num_cat=0
split_feature=8 9 4 10 14
split_gain=0.456849 0.270762 0.140315 0.137594 0.0758645
threshold=116.50000000000001 12247.500000000002 18308.942430389961 639.00000000000011 -37231024.413377158
decision_type=2 2 2 2 2
left_child=2 3 -1 -2 -5
right_child=1 -3 -4 4 -6
leaf_value=-0.055234228179359739 0.051373473285451443 -0.04254216550451316 0.020459139923317986 0.032312564740618756 -0.035602495007138184
leaf_weight=0.46326039172708988 0.35744450986385345 0.134322265163064 0.042273759841918945 0.072870549745857716 0.08700919896364212
leaf_count=7 8 3 1 4 4
internal_value=0 0.016225 -0.0462661 0.0340985 0
internal_weight=0 0.651647 0.505534 0.517324 0.15988
internal_count=27 19 8 16 8
is_linear=0
shrinkage=0.05


Tree=73
num_leaves=9
num_cat=0
split_feature=5 12 10 1 4 10 10 4
split_gain=0.409914 0.178064 0.096836 0.0774547 0.0741455 0.0110011 0.0761469 0.00735802
threshold=2660.5000000000005 418.00000000000006 1015.0000000000001 1.0000000180025095e-35 23417.88255533154 395.00000000000006 579.50000000000011 18308.942430389961
decision_type=2 2 2 2 2 2 2 2
left_child=1 -1 4 7 -2 -5 -7 -3
right_child=2 3 -4 5 -6 6 -8 -9
leaf_value=0.032350675913383323 0.050928204596024866 -0.0069123636915822519 -0.020078765846508573 -0.055042417136913172 -0.001706747120771263 0.019455753392239282 -0.042396481337035524 0.019833524107529619
leaf_weight=0.072909289970993996 0.29792345408350229 0.030256020836532116 0.043843691237270832 0.41975496709346771 0.026559697464108467 0.042496223002672195 0.13796966336667538 0.041491959244012833
leaf_count=4 6 2 3 4 1 2 4 1
internal_value=0 -0.0320026 0.0315173 -0.0409951 0.0425887 -0.0469346 -0.0205498 0
internal_weight=0 0.744878 0.368327 0.671969 0.324483 0.600221 0.180466 0.071748
internal_count=27 17 10 13 7 10 6 3
is_linear=0
shrinkage=0.05


Tree=74
num_leaves=7
num_cat=0
split_feature=8 9 4 10 0 0
split_gain=0.399451 0.241807 0.130236 0.12573 0.0164232 0.016014
threshold=116.50000000000001 12247.500000000002 18308.942430389961 639.00000000000011 0.77083333333333359 0.3541666666666668
decision_type=2 2 2 2 2 2
left_child=2 3 -1 -2 5 -5
right_child=1 -3 -4 4 -6 -7
leaf_value=-0.054148421736746992 0.050569531906994786 -0.041557263917624376 0.019217172976093107 0 0.019591338677749537 -0.030762753784119502
leaf_weight=0.42866860795766115 0.3302519042044878 0.12499804608523846 0.040746521204710007 0.040694605559110641 0.043190466240048409 0.066173132508993149
leaf_count=7 8 3 1 2 3 3
internal_value=0 0.0156009 -0.044943 0.0332897 0 -0.0148667
internal_weight=0 0.605308 0.469415 0.48031 0.150058 0.106868
internal_count=27 19 8 16 8 5
is_linear=0
shrinkage=0.05


Tree=75
num_leaves=8
num_cat=0
split_feature=8 9 1 0 8 0 13
split_gain=0.373334 0.22784 0.106126 0.0915438 0.0358553 0.0152818 0.00568692
threshold=116.50000000000001 12247.500000000002 1.0000000180025095e-35 0.56250000000000033 238.50000000000003 0.3541666666666668 1607376.2518523012
decision_type=2 2 2 2 2 2 2
left_child=2 3 6 4 -2 -6 -1
right_child=1 -3 -4 -5 5 -7 -8
leaf_value=0 0.031274083457679104 -0.041037847249146088 -0.053739384838837792 0.0500084432412225 0 -0.030127284496835067 0.018610518240462857
leaf_weight=0.013478145934641361 0.06832362525165081 0.12038655206561089 0.39806492254137993 0.29064459260553122 0.040694605559110641 0.064269300550222397 0.040035795420408249
leaf_count=1 3 3 6 8 2 3 1
internal_value=0 0.0152989 -0.0442877 0.0328297 0 -0.0141899 0.00160778
internal_weight=0 0.584319 0.451579 0.463932 0.173288 0.104964 0.0535139
internal_count=27 19 8 16 8 5 2
is_linear=0
shrinkage=0.05


Tree=76
num_leaves=5
num_cat=0
split_feature=5 4 2 3
split_gain=0.678528 0.124875 0.0812179 0.00567422
threshold=2660.5000000000005 23417.88255533154 1.0000000180025095e-35 28258.499601179294
decision_type=2 2 2 2
left_child=2 -2 -1 -4
right_child=1 -3 3 -5
leaf_value=-0.050351010049554196 0.050204359200032002 -0.020982465725302792 0.018013964013201999 -0.0055640257007391267
leaf_weight=0.51101975049823523 0.37402090989053249 0.044311909005045891 0.039358217269182205 0.029325651936233044
leaf_count=9 10 2 1 2
internal_value=0 0.0394796 -0.0434302 0
internal_weight=0 0.418333 0.579704 0.0686839
internal_count=24 12 12 3
is_linear=0
shrinkage=0.05


Tree=77
num_leaves=5
num_cat=0
split_feature=5 4 1 4
split_gain=0.634843 0.120451 0.0775752 0.00522334
threshold=2660.5000000000005 23417.88255533154 1.0000000180025095e-35 18308.942430389961
decision_type=2 2 2 2
left_child=2 -2 3 -1
right_child=1 -3 -4 -5
leaf_value=-0.0053267621454446161 0.049861792821167317 -0.020364052642925758 -0.049725151887021896 0.017427890290872949
leaf_weight=0.029167786240577698 0.35817217081785202 0.043440421111881733 0.49207901582121849 0.038712278008460999
leaf_count=2 10 2 9 1
internal_value=0 0.0389518 -0.0427569 0
internal_weight=0 0.401613 0.559959 0.0678801
internal_count=24 12 12 3
is_linear=0
shrinkage=0.05


Tree=78
num_leaves=5
num_cat=0
split_feature=5 4 2 3
split_gain=0.593699 0.116237 0.0740838 0.00480612
threshold=2660.5000000000005 23417.88255533154 1.0000000180025095e-35 28258.499601179294
decision_type=2 2 2 2
left_child=2 -2 -1 -4
right_child=1 -3 3 -5
leaf_value=-0.049092757810467992 0.049520992933879883 -0.019753187089113038 0.016852637005282039 -0.0050985289281983565
leaf_weight=0.47397615853697062 0.34299929812550545 0.042610096745193005 0.038096535950899124 0.029017424210906029
leaf_count=9 10 2 1 2
internal_value=0 0.0384175 -0.042078 0
internal_weight=0 0.385609 0.54109 0.067114
internal_count=24 12 12 3
is_linear=0
shrinkage=0.05


Tree=79
num_leaves=5
num_cat=0
split_feature=13 6 14 6
split_gain=0.374367 0.22183 0.125794 0.0501885
threshold=-6551662.1442041704 1.0000000180025095e-35 86707057.324667349 1619.5000000000002
decision_type=2 2 2 2
left_child=1 -1 -2 -4
right_child=2 -3 3 -5
leaf_value=-0.037403792358084262 -0.051299543175080987 0.049064339464051865 0.032780124802187206 -0.027748633173819256
leaf_weight=0.079073883593082428 0.37496176455169916 0.30862995143979788 0.072908971458673477 0.057797097600996494
leaf_count=1 8 9 3 3
internal_value=0 0.0279707 -0.0365123 0
internal_weight=0 0.387704 0.505668 0.130706
internal_count=24 10 14 6
is_linear=0
shrinkage=0.05


Tree=80
num_leaves=9
num_cat=0
split_feature=12 9 8 4 9 0 14 4
split_gain=0.213447 0.172887 0.122872 0.113151 0.033268 0.0273909 0.0043243 0.0164835
threshold=1413.5000000000002 12247.500000000002 455.50000000000006 -1945.4064530580547 6378.5000000000009 0.31250000000000028 86707057.324667349 1.0000000180025095e-35
decision_type=2 2 2 2 2 2 2 2
left_child=2 4 3 -1 -2 -6 7 -5
right_child=1 -3 -4 6 5 -7 -8 -9
leaf_value=-0.053560763325881659 0 -0.038163343073493838 0.023787334445600952 0 0 0.047163934104544759 0.015168695042828841 -0.027265433005761341
leaf_weight=0.4856770895421505 0.014847340062260628 0.099439302459359169 0.050274761393666267 0.022944256663322449 0.010459913872182369 0.21267987787723541 0.036391526460647583 0.056847826577723026
leaf_count=7 1 3 4 1 1 6 1 3
internal_value=0 0.0107684 -0.0357773 -0.0429811 0.0368223 0.0426133 0 -0.00509712
internal_weight=0 0.337426 0.652135 0.601861 0.237987 0.22314 0.116184 0.0797921
internal_count=27 11 16 12 8 7 5 4
is_linear=0
shrinkage=0.05


Tree=81
num_leaves=7
num_cat=0
split_feature=12 9 8 14 3 6
split_gain=0.196526 0.161467 0.11705 0.110665 0.0595243 0.0357668
threshold=1413.5000000000002 12247.500000000002 455.50000000000006 -4792524.3490685411 27337.872559598127 517.50000000000011
decision_type=2 2 2 2 2 2
left_child=2 4 3 -1 -2 -5
right_child=1 -3 -4 5 -6 -7
leaf_value=-0.053114749317406333 0.046734700075909359 -0.037602416487829374 0.023159819280559348 0.02856355792635927 0 -0.026621353212780065
leaf_weight=0.46578352712094784 0.20413156598806381 0.095985863357782364 0.049123343080282211 0.058828789740800858 0.025307253934442997 0.055384106002748013
leaf_count=7 6 3 4 2 2 3
internal_value=0 0.0102308 -0.0350788 -0.042322 0.0360571 0
internal_weight=0 0.325425 0.62912 0.579996 0.229439 0.114213
internal_count=27 11 16 12 8 5
is_linear=0
shrinkage=0.05


Tree=82
num_leaves=7
num_cat=0
split_feature=12 9 8 14 7 6
split_gain=0.181871 0.150687 0.112106 0.105624 0.058385 0.0332439
threshold=1413.5000000000002 12247.500000000002 455.50000000000006 -4792524.3490685411 238.00000000000003 517.50000000000011
decision_type=2 2 2 2 2 2
left_child=2 4 3 -1 -2 -5
right_child=1 -3 -4 5 -6 -7
leaf_value=-0.052681484815717883 0.046303166202256003 -0.037034273536094175 0.022535842929170841 0.027907252151648333 0 -0.025977675405531909
leaf_weight=0.44663041457533836 0.19595315679907799 0.092691363766789436 0.048026978969573975 0.057275064289569855 0.025307253934442997 0.053989725187420845
leaf_count=7 6 3 4 2 2 3
internal_value=0 0.00968329 -0.0345333 -0.0418465 0.0352825 0
internal_weight=0 0.313952 0.605922 0.557895 0.22126 0.111265
internal_count=27 11 16 12 8 5
is_linear=0
shrinkage=0.05


Tree=83
num_leaves=10
num_cat=0
split_feature=6 1 6 3 4 4 4 4 0
split_gain=0.123025 0.188799 0.0684135 0.0376819 0.0334954 0.0166623 0.000930541 0.0110102 0.000125719
threshold=2177.5000000000005 1.0000000180025095e-35 1391.0000000000002 -11452.052149099392 -1945.4064530580547 1.0000000180025095e-35 18308.942430389961 23417.88255533154 0.77083333333333359
decision_type=2 2 2 2 2 2 2 2 2
left_child=1 2 -1 8 -5 -6 -7 -8 -3
right_child=-2 3 -4 4 5 6 7 -9 -10
leaf_value=0.04009553141960448 0.027307797843168915 -0.0012852533600303244 -0.019787828919143293 -0.052374497027739143 0 -0.031288143346922287 0.0064707420712025584 -0.023066128449112027 0.0030348500656324257
leaf_weight=0.12225780636072159 0.10408543236553669 0.02633107453584671 0.043446525931358337 0.39643353410065174 0.021740538999438286 0.066818511113524437 0.029947519302368164 0.047843242064118385 0.027723871171474457
leaf_count=6 2 1 3 5 1 3 2 2 2
internal_value=0 -0.0254959 0.0164765 -0.038914 -0.0427358 -0.0116634 -0.0210128 0 0
internal_weight=0 0.782543 0.165704 0.616838 0.562783 0.16635 0.144609 0.0777908 0.0540549
internal_count=27 25 9 16 13 8 7 4 3
is_linear=0
shrinkage=0.05


Tree=84
num_leaves=5
num_cat=0
split_feature=10 8 11 0
split_gain=0.175802 0.257559 0.182176 0.0727601
threshold=1015.0000000000001 29.000000000000004 2.5000000000000004 0.31250000000000028
decision_type=2 2 2 2
left_child=1 -1 -2 -3
right_child=2 3 -4 -5
leaf_value=-0.042003610106369355 0.032524424313993321 -0.002536314038544141 -0.048601290306956452 0.049040627669549058
leaf_weight=0.10583811718970537 0.07326027937233448 0.027020473033189774 0.25740019697695971 0.34824758395552635
leaf_count=2 4 1 9 10
internal_value=0 0.0205906 -0.0265975 0.0418338
internal_weight=0 0.481106 0.33066 0.375268
internal_count=26 13 13 11
is_linear=0
shrinkage=0.05


Tree=85
num_leaves=8
num_cat=0
split_feature=3 9 7 9 6 0 7
split_gain=0.152628 0.262969 0.114926 0.0298897 0.0164647 0.0117442 0.00178866
threshold=26049.220414766918 3397.0000000000005 220.00000000000003 3397.0000000000005 517.50000000000011 0.52083333333333359 238.00000000000003
decision_type=2 2 2 2 2 2 2
left_child=2 -2 3 -1 -4 6 -3
right_child=1 5 4 -5 -6 -7 -8
leaf_value=0 0.040646931132192629 0 0 0.047216593982604652 -0.030659257994660433 -0.04988546830871491 -0.011253156066826699
leaf_weight=0.023689252324402332 0.11153625324368477 0.016487231478095055 0.014188485220074654 0.25334907975047827 0.066144227981567383 0.2611482935026288 0.033888728357851505
leaf_count=2 3 1 1 8 3 5 3
internal_value=0 -0.0190019 0.0252251 0.042088 -0.0165343 -0.0446559 0
internal_weight=0 0.423061 0.357371 0.277038 0.0803327 0.311524 0.050376
internal_count=26 12 14 10 4 9 4
is_linear=0
shrinkage=0.05


Tree=86
num_leaves=7
num_cat=0
split_feature=3 9 13 5 6 0
split_gain=0.141588 0.248004 0.108229 0.0294058 0.0158302 0.0115039
threshold=26049.220414766918 3397.0000000000005 4369174.2605428966 7682.0000000000009 517.50000000000011 0.52083333333333359
decision_type=2 2 2 2 2 2
left_child=2 -2 3 -1 -4 -3
right_child=1 5 4 -5 -6 -7
leaf_value=0.0468618127929155 0.04008391496752324 0 0 0 -0.030026216636045266 -0.049421219841238456
leaf_weight=0.24278240371495485 0.10756883770227432 0.050005677156150341 0.014188485220074654 0.023689252324402332 0.06424062792211771 0.25069978181272745
leaf_count=8 3 4 1 2 3 5
internal_value=0 -0.0186269 0.0247311 0.0415623 -0.015677 -0.0440796
internal_weight=0 0.408274 0.344901 0.266472 0.0784291 0.300705
internal_count=26 12 14 10 4 9
is_linear=0
shrinkage=0.05


Tree=87
num_leaves=5
num_cat=0
split_feature=10 8 11 0
split_gain=0.149826 0.215194 0.153316 0.066399
threshold=1015.0000000000001 29.000000000000004 2.5000000000000004 0.31250000000000028
decision_type=2 2 2 2
left_child=1 -1 -2 -3
right_child=2 3 -4 -5
leaf_value=-0.039767852271263893 0.03004324510296353 0 -0.047460452067580802 0.048176730239598453
leaf_weight=0.094120997004210949 0.064890886656939983 0.025451671332120895 0.23190874326974154 0.31107296328991652
leaf_count=2 4 1 9 10
internal_value=0 0.0199765 -0.0260351 0.0406817
internal_weight=0 0.430646 0.2968 0.336525
internal_count=26 13 13 11
is_linear=0
shrinkage=0.05


Tree=88
num_leaves=6
num_cat=0
split_feature=8 10 0 4 4
split_gain=0.183107 0.136856 0.0969829 0.0792311 0.0718996
threshold=116.50000000000001 1015.0000000000001 0.77083333333333359 23417.88255533154 18308.942430389961
decision_type=2 2 2 2 2
left_child=4 3 -3 -2 -1
right_child=1 2 -4 -5 -6
leaf_value=-0.049064894414045448 0.046780199673120519 -0.044635225717196164 0.024632922994872023 -0.011475352665941249 0.0032304215083483801
leaf_weight=0.27514870371669531 0.22671131510287523 0.13973986823111773 0.05117831751704216 0.033817528747022152 0.027417425066232681
leaf_count=7 7 4 3 2 1
internal_value=0 0.00871145 -0.0191722 0.0341676 -0.0399991
internal_weight=0 0.451447 0.190918 0.260529 0.302566
internal_count=24 16 7 9 8
is_linear=0
shrinkage=0.05


Tree=89
num_leaves=6
num_cat=0
split_feature=8 10 0 4 4
split_gain=0.170135 0.12626 0.0920193 0.076897 0.0705047
threshold=116.50000000000001 1015.0000000000001 0.77083333333333359 23417.88255533154 18308.942430389961
decision_type=2 2 2 2 2
left_child=4 3 -3 -2 -1
right_child=1 2 -4 -5 -6
leaf_value=-0.048659553465399547 0.046393482659976615 -0.044074875931770195 0.023993674601443925 -0.011044408784738292 0.0030860341113529595
leaf_weight=0.26386658102273941 0.21741858962923288 0.13458978291600943 0.049983430653810501 0.033445417881011963 0.027333972975611687
leaf_count=7 7 4 3 2 1
internal_value=0 0.00844412 -0.0185155 0.0334945 -0.0393086
internal_weight=0 0.435437 0.184573 0.250864 0.291201
internal_count=24 16 7 9 8
is_linear=0
shrinkage=0.05


Tree=90
num_leaves=6
num_cat=0
split_feature=8 11 4 4 0
split_gain=0.157954 0.17826 0.069128 0.0556616 0.0155798
threshold=116.50000000000001 3303.5000000000005 18308.942430389961 -1945.4064530580547 0.77083333333333359
decision_type=2 2 2 2 2
left_child=2 3 -1 -2 -5
right_child=1 -3 -4 4 -6
leaf_value=-0.04825563606562204 0.045947523968751153 -0.037084890741145717 0.002947730707271418 -0.021329310317964589 0.019863286220261303
leaf_weight=0.25305745843797922 0.20673460699617863 0.1247337469831109 0.02725447341799736 0.045692176558077335 0.042969299480319023
leaf_count=7 7 4 1 3 2
internal_value=0 0.00817254 -0.038611 0.0318078 0
internal_weight=0 0.42013 0.280312 0.295396 0.0886615
internal_count=24 16 8 12 5
is_linear=0
shrinkage=0.05


Tree=91
num_leaves=6
num_cat=0
split_feature=8 11 4 13 3
split_gain=0.146532 0.166923 0.067767 0.0665428 0.0148189
threshold=116.50000000000001 3303.5000000000005 18308.942430389961 65532609.258439168 28178.939188251064
decision_type=2 2 2 2 2
left_child=2 3 -1 4 -2
right_child=1 -3 -4 -5 -6
leaf_value=-0.047852304680618886 0.046213908601416921 -0.036223995328025858 0.0028152862176931575 -0.0098050382332098389 0
leaf_weight=0.24270537868142128 0.22405779175460339 0.12143199145793915 0.02717873826622963 0.032416765578091145 0.028777537867426872
leaf_count=7 8 4 1 2 2
internal_value=0 0.0078756 -0.0379057 0.0313313 0.0418126
internal_weight=0 0.406684 0.269884 0.285252 0.252835
internal_count=24 16 8 12 10
is_linear=0
shrinkage=0.05


Tree=92
num_leaves=5
num_cat=0
split_feature=2 3 4 4
split_gain=0.108013 0.0659169 0.070402 0.00950001
threshold=1.0000000180025095e-35 1.0000000180025095e-35 -1945.4064530580547 23417.88255533154
decision_type=2 2 2 2
left_child=1 3 -3 -1
right_child=-2 2 -4 -5
leaf_value=0.022223490556298822 0.031421599769331156 -0.049419922966429858 0 0
leaf_weight=0.046873427927494049 0.069901986047625542 0.28288597613573074 0.079865016508847475 0.019405921921133995
leaf_count=3 5 4 6 1
internal_value=0 -0.0286644 -0.0377282 0.00123218
internal_weight=0 0.42903 0.362751 0.0662793
internal_count=19 14 10 4
is_linear=0
shrinkage=0.05


Tree=93
num_leaves=5
num_cat=0
split_feature=1 12 12 3
split_gain=0.101315 0.0897733 0.0622013 0.0357744
threshold=1.0000000180025095e-35 418.00000000000006 5936.0000000000009 28178.939188251064
decision_type=2 2 2 2
left_child=-1 -2 3 -3
right_child=1 2 -4 -5
leaf_value=0.030806672107051333 0.021599500515052748 -0.049282311241364875 0.0010238073728525364 0
leaf_weight=0.067814325913786888 0.045882858335971832 0.31773547129705548 0.02656065858900547 0.0262947678565979
leaf_count=5 3 7 2 2
internal_value=0 -0.0280107 -0.0377536 -0.0445531
internal_weight=0 0.416474 0.370591 0.34403
internal_count=19 14 11 9
is_linear=0
shrinkage=0.05


Tree=94
num_leaves=5
num_cat=0
split_feature=1 8 12 3
split_gain=0.0944388 0.0851453 0.0609137 0.0352165
threshold=1.0000000180025095e-35 455.50000000000006 5936.0000000000009 28178.939188251064
decision_type=2 2 2 2
left_child=-1 2 3 -2
right_child=1 -3 -4 -5
leaf_value=0.030187141299477818 -0.048920569807279234 0.020981275506694912 0.0009761664465218194 0
leaf_weight=0.065825947560369968 0.3044283832423389 0.044939372688531876 0.02653421089053154 0.0262947678565979
leaf_count=5 7 3 2 2
internal_value=0 -0.0272275 -0.037024 -0.0440306
internal_weight=0 0.402197 0.357257 0.330723
internal_count=19 14 11 9
is_linear=0
shrinkage=0.05


Tree=95
num_leaves=5
num_cat=0
split_feature=1 12 12 3
split_gain=0.0879394 0.0807324 0.0596289 0.0346611
threshold=1.0000000180025095e-35 418.00000000000006 5936.0000000000009 28178.939188251064
decision_type=2 2 2 2
left_child=-1 -2 3 -3
right_child=1 2 -4 -5
leaf_value=0.029563590170620588 0.020369420762378323 -0.048559981767493758 0.00093070426206476623 0
leaf_weight=0.06393220741301775 0.044040750712156296 0.29168788902461529 0.026509016752243042 0.0262947678565979
leaf_count=5 3 7 2 2
internal_value=0 -0.0264352 -0.0362868 -0.0435046
internal_weight=0 0.388532 0.344492 0.317983
internal_count=19 14 11 9
is_linear=0
shrinkage=0.05


Tree=96
num_leaves=5
num_cat=0
split_feature=6 7 10 0
split_gain=0.15306 0.24999 0.0436299 0.000495026
threshold=797.00000000000011 129.50000000000003 1358.5000000000002 0.77083333333333359
decision_type=2 2 2 2
left_child=2 -2 -1 -4
right_child=1 -3 3 -5
leaf_value=0.044600954017082486 0.040578701762212455 -0.047038441048281213 -0.006284871794872306 0
leaf_weight=0.198186538182199 0.10674879001453519 0.2446304289624095 0.029908069409430027 0.021923083811998367
leaf_count=10 3 9 3 1
internal_value=0 -0.0166297 0.0338436 0
internal_weight=0 0.351379 0.250018 0.0518312
internal_count=26 12 14 4
is_linear=0
shrinkage=0.05


Tree=97
num_leaves=7
num_cat=0
split_feature=6 6 10 3 0 0
split_gain=0.142418 0.172713 0.0422948 0.0184077 0.00199648 0.000451672
threshold=797.00000000000011 2177.5000000000005 1358.5000000000002 -11452.052149099392 0.56250000000000033 0.77083333333333359
decision_type=2 2 2 2 2 2
left_child=2 3 -1 -2 -3 -4
right_child=1 4 5 -5 -6 -7
leaf_value=0.044238183264434176 0 0 -0.0060209321346345697 -0.046429289450579656 0.035483790341981611 0
leaf_weight=0.19003951922059059 0.0070317415520548812 0.036851939745247364 0.029725356958806515 0.22086870297789574 0.072749108076095581 0.021923083811998367
leaf_count=10 1 2 3 8 1 1
internal_value=0 -0.0162763 0.0332614 -0.0434615 0.0282173 0
internal_weight=0 0.337501 0.241688 0.2279 0.109601 0.0516484
internal_count=26 12 14 9 3 4
is_linear=0
shrinkage=0.05


Tree=98
num_leaves=5
num_cat=0
split_feature=6 7 10 0
split_gain=0.13161 0.226574 0.0409861 0.000412018
threshold=797.00000000000011 129.50000000000003 1358.5000000000002 0.77083333333333359
decision_type=2 2 2 2
left_child=2 -2 -1 -4
right_child=1 -3 3 -5
leaf_value=0.043867964142874749 0.0395838195142462 -0.046324564901238638 -0.0057666971680302914 0
leaf_weight=0.18227032758295536 0.1008794354274869 0.22542145289480686 0.029551335610449314 0.021923083811998367
leaf_count=10 3 9 3 1
internal_value=0 -0.0156883 0.0326721 0
internal_weight=0 0.326301 0.233745 0.0514744
internal_count=26 12 14 4
is_linear=0
shrinkage=0.05


Tree=99
num_leaves=5
num_cat=0
split_feature=6 7 10 7
split_gain=0.122261 0.214275 0.0397027 0.000375763
threshold=797.00000000000011 129.50000000000003 1358.5000000000002 238.00000000000003
decision_type=2 2 2 2
left_child=2 -2 -1 -4
right_child=1 -3 3 -5
leaf_value=0.043489947892904376 0.038986578279262753 -0.045954772969679987 0 -0.0055219290472888448
leaf_weight=0.17486229725182056 0.097413796000182629 0.21612093830481172 0.021923083811998367 0.029385596513748169
leaf_count=10 3 9 1 3
internal_value=0 -0.0153239 0.032076 0
internal_weight=0 0.313535 0.226171 0.0513087
internal_count=26 12 14 4
is_linear=0
shrinkage=0.05


Tree=100
num_leaves=4
num_cat=0
split_feature=6 3 3
split_gain=0.20274 0.0586332 0.00125607
threshold=1391.0000000000002 27337.872559598127 28178.939188251064
decision_type=2 2 2
left_child=1 -1 -3
right_child=-2 2 -4
leaf_value=0.04528121335633447 -0.040687852238382796 -0.0096378540575519679 0
leaf_weight=0.22790057398378849 0.12333874776959419 0.032382999546825886 0.013855238445103168
leaf_count=13 6 3 1
internal_value=0 0.0342695 0
internal_weight=0 0.274139 0.0462382
internal_count=23 17 4
is_linear=0
shrinkage=0.05


Tree=101
num_leaves=4
num_cat=0
split_feature=6 3 0
split_gain=0.190164 0.0569509 0.00114942
threshold=1391.0000000000002 27337.872559598127 0.77083333333333359
decision_type=2 2 2
left_child=1 -1 -3
right_child=-2 2 -4
leaf_value=0.044958463244182095 -0.040191830367001947 -0.0092610156549570635 0
leaf_weight=0.2183130718767643 0.1187521917745471 0.0320814223960042 0.013855238445103168
leaf_count=13 6 3 1
internal_value=0 0.0337025 0
internal_weight=0 0.26425 0.0459367
internal_count=23 17 4
is_linear=0
shrinkage=0.05


Tree=102
num_leaves=5
num_cat=0
split_feature=0 3 9 9
split_gain=0.128862 0.054724 0.0312338 0.00382727
threshold=0.31250000000000028 27337.872559598127 12247.500000000002 4557.5000000000009
decision_type=2 2 2 2
left_child=-1 2 -2 -3
right_child=1 3 -4 -5
leaf_value=-0.037475523805738917 0.044628537931763967 0 0 -0.015564965873075834
leaf_weight=0.095052820630371571 0.20917290821671486 0.013855238445103168 0.013047742657363415 0.038071082904934883
leaf_count=5 13 1 1 3
internal_value=0 0.0272449 0.0390687 0
internal_weight=0 0.274147 0.222221 0.0519263
internal_count=23 18 14 4
is_linear=0
shrinkage=0.05


Tree=103
num_leaves=4
num_cat=0
split_feature=6 3 0
split_gain=0.169129 0.0528805 0.000817142
threshold=1391.0000000000002 27337.872559598127 0.77083333333333359
decision_type=2 2 2
left_child=1 -1 -3
right_child=-2 2 -4
leaf_value=0.044291073065228247 -0.039295394675086012 -0.0079311667141354052 0
leaf_weight=0.20046012382954359 0.11129534104838967 0.031053053215146065 0.013855238445103168
leaf_count=13 6 3 1
internal_value=0 0.0326964 0
internal_weight=0 0.245368 0.0449083
internal_count=23 17 4
is_linear=0
shrinkage=0.05


Tree=104
num_leaves=5
num_cat=0
split_feature=6 12 1 0
split_gain=0.13626 0.102051 0.0440698 0.000301195
threshold=2177.5000000000005 246.50000000000003 1.0000000180025095e-35 0.52083333333333359
decision_type=2 2 2 2
left_child=1 -1 3 -3
right_child=-2 2 -4 -5
leaf_value=0.02671241262657105 0.039009747184455441 0.0049810179013231506 -0.043215761194231414 0
leaf_weight=0.054128984920680523 0.095481691882014275 0.028926446102559566 0.30017687845975161 0.020769176539033651
leaf_count=3 2 2 12 2
internal_value=0 -0.0242088 -0.0359135 0
internal_weight=0 0.404001 0.349873 0.0496956
internal_count=21 19 16 4
is_linear=0
shrinkage=0.05


Tree=105
num_leaves=5
num_cat=0
split_feature=6 12 1 0
split_gain=0.126798 0.0962827 0.0424435 0.000274498
threshold=2177.5000000000005 246.50000000000003 1.0000000180025095e-35 0.52083333333333359
decision_type=2 2 2 2
left_child=1 -1 3 -3
right_child=-2 2 -4 -5
leaf_value=0.026052275990804338 0.038391570788802232 0.0047661027027974092 -0.04256882708605219 0
leaf_weight=0.052795887924730778 0.092272987589240074 0.028787072747945786 0.28978884173557162 0.020769176539033651
leaf_count=3 2 2 12 2
internal_value=0 -0.0235186 -0.0351738 0
internal_weight=0 0.392141 0.339345 0.0495562
internal_count=21 19 16 4
is_linear=0
shrinkage=0.05


Tree=106
num_leaves=5
num_cat=0
split_feature=6 12 2 0
split_gain=0.117886 0.0908007 0.0408361 0.000250121
threshold=2177.5000000000005 246.50000000000003 1.0000000180025095e-35 0.52083333333333359
decision_type=2 2 2 2
left_child=1 -1 -3 -4
right_child=-2 2 3 -5
leaf_value=0.025394338826285497 0.037769167441820156 -0.041902573373672494 0.0045595810179476807 0
leaf_weight=0.05152516346424818 0.089205658063292503 0.27995080919936299 0.028654320165514946 0.020769176539033651
leaf_count=3 2 12 2 2
internal_value=0 -0.02282 -0.034422 0
internal_weight=0 0.380899 0.329374 0.0494235
internal_count=21 19 16 4
is_linear=0
shrinkage=0.05


Tree=107
num_leaves=6
num_cat=0
split_feature=6 0 8 1 0
split_gain=0.109495 0.0391302 0.0519352 0.0425644 0.000227868
threshold=2177.5000000000005 0.77083333333333359 116.50000000000001 1.0000000180025095e-35 0.52083333333333359
decision_type=2 2 2 2 2
left_child=1 3 -3 4 -1
right_child=-2 2 -4 -5 -6
leaf_value=0.0043612042380523275 0.037142460789917668 -0.031720123462054536 0.030803414116803651 -0.044797282160486111 0
leaf_weight=0.028527876362204552 0.08627418614923954 0.064040472265332937 0.065996179357171059 0.19091821508482099 0.020769176539033651
leaf_count=2 2 2 4 9 2
internal_value=0 -0.0221136 0 -0.0340149 0
internal_weight=0 0.370252 0.130037 0.240215 0.0492971
internal_count=21 19 6 13 4
is_linear=0
shrinkage=0.05


Tree=108
num_leaves=7
num_cat=0
split_feature=3 7 11 9 9 0
split_gain=0.0771551 0.0663974 0.0871967 0.0671789 0.030778 0.00208648
threshold=27337.872559598127 344.00000000000006 7292.0000000000009 8902.5000000000018 3397.0000000000005 0.4791666666666668
decision_type=2 2 2 2 2 2
left_child=1 2 3 -1 -2 -5
right_child=4 -3 -4 5 -6 -7
leaf_value=0.045980281037505913 0 -0.029408868740308899 -0.025723807297360901 -0.012033940046188608 -0.041421957714477639 0
leaf_weight=0.23700632341206074 0.01522121112793684 0.060908008832484484 0.050032474100589752 0.034596547484397888 0.13246549712494016 0.011079003103077412
leaf_count=12 1 3 1 3 8 1
internal_value=0 0.0100763 0.0213421 0.0343969 -0.0320094 0
internal_weight=0 0.393622 0.332714 0.282682 0.147687 0.0456756
internal_count=29 20 17 16 9 4
is_linear=0
shrinkage=0.05


Tree=109
num_leaves=5
num_cat=0
split_feature=3 6 7 9
split_gain=0.0700334 0.106881 0.112727 0.0301179
threshold=27337.872559598127 1391.0000000000002 129.50000000000003 3397.0000000000005
decision_type=2 2 2 2
left_child=1 -1 -3 -2
right_child=3 2 -4 -5
leaf_value=0.042401157281279481 0 0.026769322073783422 -0.041511380641944567 -0.040946691132405989
leaf_weight=0.15802404703572392 0.01522121112793684 0.08955166582018137 0.13290644064545631 0.12744705472141504
leaf_count=11 1 3 6 8
internal_value=0 0.00947845 -0.00814435 -0.0312565
internal_weight=0 0.380482 0.222458 0.142668
internal_count=29 20 9 9
is_linear=0
shrinkage=0.05


Tree=110
num_leaves=7
num_cat=0
split_feature=13 11 9 4 1 4
split_gain=0.0736084 0.0923465 0.0375272 0.0576668 0.00876028 0.00585314
threshold=-6551662.1442041704 7292.0000000000009 4557.5000000000009 18308.942430389961 1.0000000180025095e-35 23417.88255533154
decision_type=2 2 2 2 2 2
left_child=1 -1 4 -4 -2 -5
right_child=2 -3 3 5 -6 -7
leaf_value=0.043152687422984684 0 -0.023913431829606955 -0.043633219163236828 0.018440121773804035 0.021664340497777393 0
leaf_weight=0.15812054602429271 0.018520908430218697 0.047102142125368118 0.17082293471321464 0.04160991869866848 0.045445174910128117 0.023774946108460426
leaf_count=9 2 1 10 3 2 2
internal_value=0 0.0213255 -0.0172787 -0.0278086 0.00121533 0
internal_weight=0 0.205223 0.300174 0.236208 0.0639661 0.0653849
internal_count=29 10 19 15 4 5
is_linear=0
shrinkage=0.05


Tree=111
num_leaves=7
num_cat=0
split_feature=13 11 9 14 1 6
split_gain=0.0673893 0.0880286 0.035393 0.0497436 0.00812931 0.00571414
threshold=-6551662.1442041704 7292.0000000000009 4557.5000000000009 86707057.324667349 1.0000000180025095e-35 1619.5000000000002
decision_type=2 2 2 2 2 2
left_child=1 -1 4 -4 -2 -5
right_child=2 -3 3 5 -6 -7
leaf_value=0.042722547309489767 0 -0.023246759666513406 -0.042993028077890412 0.017863163593657343 0.021039746898323747 -0.0050834543657423212
leaf_weight=0.15189930889755487 0.018520908430218697 0.046097029000520706 0.15863150358200073 0.040871256031095982 0.044520687311887741 0.029130804352462292
leaf_count=9 2 1 9 3 2 3
internal_value=0 0.0207007 -0.0168298 -0.0273021 0.000476922 0
internal_weight=0 0.197996 0.291675 0.228634 0.0630416 0.0700021
internal_count=29 10 19 15 4 6
is_linear=0
shrinkage=0.05


Tree=112
num_leaves=7
num_cat=0
split_feature=8 2 4 2 14 0
split_gain=0.083736 0.0853715 0.0614439 0.034401 0.0119269 5.22495e-05
threshold=116.50000000000001 1.0000000180025095e-35 1.0000000180025095e-35 1.0000000180025095e-35 148000782.83293435 0.4791666666666668
decision_type=2 2 2 2 2 2
left_child=1 -1 3 -2 -4 -6
right_child=2 -3 4 -5 5 -7
leaf_value=-0.044090798659774465 0.043543638135659563 0.019533868168794617 -0.025321965275573829 0 0 0.0021374215783473982
leaf_weight=0.16372328344732523 0.16702976357191801 0.043106748722493649 0.052800028584897518 0.050638989079743624 0.013638362288475037 0.027168820612132549
leaf_count=7 7 3 3 5 1 2
internal_value=0 -0.0244611 0.0164613 0.0326385 -0.00721768 0
internal_weight=0 0.20683 0.311276 0.217669 0.0936072 0.0408072
internal_count=28 10 18 12 6 3
is_linear=0
shrinkage=0.05


Tree=113
num_leaves=7
num_cat=0
split_feature=7 3 5 13 3 4
split_gain=0.0794761 0.0664313 0.0574029 0.0284367 0.0269958 0.0318122
threshold=238.00000000000003 27337.872559598127 8441.0000000000018 -1.0000000180025095e-35 -26264.746499163699 26656.815715437748
decision_type=2 2 2 2 2 2
left_child=1 4 -2 -3 -1 -6
right_child=2 3 -4 -5 5 -7
leaf_value=0 -0.042589033747059024 0.0034865875298193149 0.0074450836334568702 -0.033139816332336272 0.044163246836105945 0
leaf_weight=0.021467044949531555 0.14688279246911407 0.027998363599181175 0.030076978728175163 0.072408711072057486 0.19043436972424388 0.013638362288475037
leaf_count=2 8 2 1 3 11 1
internal_value=0 0.0147735 -0.0267076 -0.0100823 0.0316377 0.0378673
internal_weight=0 0.325947 0.17696 0.100407 0.22554 0.204073
internal_count=28 19 9 5 14 12
is_linear=0
shrinkage=0.05


Tree=114
num_leaves=7
num_cat=0
split_feature=3 3 13 0 9 9
split_gain=0.0451435 0.102465 0.0422805 0.0426451 0.0355084 0.00184699
threshold=16056.888968583016 27337.872559598127 -62225304.1564124 0.77083333333333359 4557.5000000000009 10242.000000000002
decision_type=2 2 2 2 2 2
left_child=2 5 -1 -4 -3 -2
right_child=1 4 3 -5 -6 -7
leaf_value=0.01086805074158431 0.042644032292758156 0.0033316934961501706 -0.042634729836361546 0 -0.036068967411289191 0
leaf_weight=0.033454438671469688 0.15307461284101009 0.027903672307729721 0.14869399275630713 0.021025575697422028 0.088087442796677351 0.014693812467157841
leaf_count=3 7 2 6 2 6 2
internal_value=0 0.0129982 -0.0177796 -0.0311682 -0.015444 0.040414
internal_weight=0 0.28376 0.203174 0.16972 0.115991 0.167768
internal_count=28 17 11 8 8 9
is_linear=0
shrinkage=0.05


Tree=115
num_leaves=7
num_cat=0
split_feature=7 3 10 9 3 4
split_gain=0.0691463 0.0577844 0.0523777 0.0255518 0.0248962 0.029835
threshold=238.00000000000003 27337.872559598127 337.50000000000006 4557.5000000000009 -26264.746499163699 26656.815715437748
decision_type=2 2 2 2 2 2
left_child=1 4 -2 -3 -1 -6
right_child=2 3 -4 -5 5 -7
leaf_value=0 0.0053436481883556292 0.003183239183744844 -0.041689676360513961 -0.031788783245334677 0.043524685387482775 0
leaf_weight=0.020796142518520355 0.028694521635770798 0.02781347930431366 0.13602692354470491 0.067911545746028423 0.17745471931993961 0.013084216043353081
leaf_count=2 1 2 8 3 11 1
internal_value=0 0.0144102 -0.025591 -0.00816785 0.0308158 0.0371042
internal_weight=0 0.30706 0.164721 0.095725 0.211335 0.190539
internal_count=28 19 9 5 14 12
is_linear=0
shrinkage=0.05


Tree=116
num_leaves=6
num_cat=0
split_feature=7 12 12 4 3
split_gain=0.0889038 0.0489997 0.0317112 0.0268287 3.95413e-05
threshold=99.000000000000014 246.50000000000003 1413.5000000000002 -1945.4064530580547 16056.888968583016
decision_type=2 2 2 2 2
left_child=-1 -2 3 -3 -5
right_child=1 2 -4 4 -6
leaf_value=0.032337057912488969 0.01140481372222125 -0.046000423024167895 0 -0.0018642935712849589 0
leaf_weight=0.069725281093269587 0.033405177295207977 0.22294598817825317 0.05510674649849534 0.027019153349101543 0.036894675809890032
leaf_count=4 2 7 7 2 4
internal_value=0 -0.0236334 -0.030926 -0.0376064 0
internal_weight=0 0.375372 0.341967 0.28686 0.0639138
internal_count=26 22 20 13 6
is_linear=0
shrinkage=0.05


Tree=117
num_leaves=5
num_cat=0
split_feature=7 12 12 3
split_gain=0.0827871 0.0469246 0.0306893 0.0207863
threshold=99.000000000000014 246.50000000000003 1413.5000000000002 28178.939188251064
decision_type=2 2 2 2
left_child=-1 -2 3 -3
right_child=1 2 -4 -5
leaf_value=0.031695093203511715 0.010974076854876563 -0.041293768210634393 0 0
leaf_weight=0.067662334535270929 0.033045732881873846 0.25362706370651722 0.05510674649849534 0.023966476786881685
leaf_count=4 2 10 7 3
internal_value=0 -0.0229302 -0.0302734 -0.0370467
internal_weight=0 0.365746 0.3327 0.277594
internal_count=26 22 20 13
is_linear=0
shrinkage=0.05


Tree=118
num_leaves=5
num_cat=0
split_feature=7 12 12 4
split_gain=0.0766686 0.0446724 0.0294291 0.0274433
threshold=99.000000000000014 246.50000000000003 1413.5000000000002 -1945.4064530580547
decision_type=2 2 2 2
left_child=-1 -2 3 -3
right_child=1 2 -4 -5
leaf_value=0.031049760114568104 0.010555617768472338 -0.045304652771807161 0 0
leaf_weight=0.065695188473910093 0.032703318633139133 0.20575121324509382 0.05510674649849534 0.063333931844681501
leaf_count=4 2 7 7 6
internal_value=0 -0.0221102 -0.0294833 -0.0363088
internal_weight=0 0.356895 0.324192 0.269085
internal_count=26 22 20 13
is_linear=0
shrinkage=0.05


Tree=119
num_leaves=5
num_cat=0
split_feature=7 12 12 14
split_gain=0.071275 0.0427536 0.0284324 0.0266131
threshold=99.000000000000014 246.50000000000003 1413.5000000000002 -4792524.3490685411
decision_type=2 2 2 2
left_child=-1 -2 3 -3
right_child=1 2 -4 -5
leaf_value=0.030401551043356526 0.010149380043953226 -0.044931501191112638 0 0
leaf_weight=0.063819565810263157 0.032377128954976797 0.19731284584850073 0.05510674649849534 0.063333931844681501
leaf_count=4 2 7 7 6
internal_value=0 -0.0214079 -0.0288286 -0.0357362
internal_weight=0 0.348131 0.315754 0.260647
internal_count=26 22 20 13
is_linear=0
shrinkage=0.05


Tree=120
num_leaves=5
num_cat=0
split_feature=12 4 6 12
split_gain=0.0447011 0.0417809 0.0513915 0.0415759
threshold=246.50000000000003 -1945.4064530580547 709.50000000000011 1413.5000000000002
decision_type=2 2 2 2
left_child=-1 3 -3 -2
right_child=1 2 -4 -5
leaf_value=0.027931235441172625 -0.042604023880842799 0.032598414050182233 -0.027766784738859907 0
leaf_weight=0.059042509645223618 0.15351228695362806 0.075476559810340405 0.059227106394246221 0.020320221781730652
leaf_count=6 7 6 6 2
internal_value=0 -0.0153288 0 -0.0318052
internal_weight=0 0.308536 0.134704 0.173833
internal_count=27 21 12 9
is_linear=0
shrinkage=0.05


end of trees

feature_importances:
age=82
day_cos=76
AirConditioner_midnight=76
day_sin=72
IH_daytime=60
ClothesWasher_daytime=45
Microwave_daytime=45
AirConditioner_daytime=31
day_sin_*_Microwave_daytime=31
TV_daytime=30
RiceCooker_midnight=29
ClothesWasher_midnight=27
day_sin_*_AirConditioner_daytime=25
edu_0=19
edu_1=10

parameters:
[boosting: gbdt]
[objective: binary]
[metric: roc_auc]
[tree_learner: serial]
[device_type: cpu]
[data_sample_strategy: bagging]
[data: ]
[valid: ]
[num_iterations: 10000]
[learning_rate: 0.05]
[num_leaves: 17]
[num_threads: 0]
[seed: 0]
[deterministic: 0]
[force_col_wise: 0]
[force_row_wise: 0]
[histogram_pool_size: -1]
[max_depth: -1]
[min_data_in_leaf: 1]
[min_sum_hessian_in_leaf: 0.001]
[bagging_fraction: 0.666699]
[pos_bagging_fraction: 1]
[neg_bagging_fraction: 1]
[bagging_freq: 4]
[bagging_seed: 3]
[feature_fraction: 0.706744]
[feature_fraction_bynode: 1]
[feature_fraction_seed: 2]
[extra_trees: 0]
[extra_seed: 6]
[early_stopping_round: 0]
[early_stopping_min_delta: 0]
[first_metric_only: 0]
[max_delta_step: 0]
[lambda_l1: 0.0263501]
[lambda_l2: 0.00142302]
[linear_lambda: 0]
[min_gain_to_split: 0]
[drop_rate: 0.1]
[max_drop: 50]
[skip_drop: 0.5]
[xgboost_dart_mode: 0]
[uniform_drop: 0]
[drop_seed: 4]
[top_rate: 0.2]
[other_rate: 0.1]
[min_data_per_group: 100]
[max_cat_threshold: 32]
[cat_l2: 10]
[cat_smooth: 10]
[max_cat_to_onehot: 4]
[top_k: 20]
[monotone_constraints: ]
[monotone_constraints_method: basic]
[monotone_penalty: 0]
[feature_contri: ]
[forcedsplits_filename: ]
[refit_decay_rate: 0.9]
[cegb_tradeoff: 1]
[cegb_penalty_split: 0]
[cegb_penalty_feature_lazy: ]
[cegb_penalty_feature_coupled: ]
[path_smooth: 0]
[interaction_constraints: ]
[verbosity: -1]
[saved_feature_importance_type: 0]
[use_quantized_grad: 0]
[num_grad_quant_bins: 4]
[quant_train_renew_leaf: 0]
[stochastic_rounding: 1]
[linear_tree: 0]
[max_bin: 255]
[max_bin_by_feature: ]
[min_data_in_bin: 3]
[bin_construct_sample_cnt: 200000]
[data_random_seed: 1]
[is_enable_sparse: 1]
[enable_bundle: 1]
[use_missing: 1]
[zero_as_missing: 0]
[feature_pre_filter: 1]
[pre_partition: 0]
[two_round: 0]
[header: 0]
[label_column: ]
[weight_column: ]
[group_column: ]
[ignore_column: ]
[categorical_feature: ]
[forcedbins_filename: ]
[precise_float_parser: 0]
[parser_config_file: ]
[objective_seed: 5]
[num_class: 1]
[is_unbalance: 0]
[scale_pos_weight: 1]
[sigmoid: 1]
[boost_from_average: 1]
[reg_sqrt: 0]
[alpha: 0.9]
[fair_c: 1]
[poisson_max_delta_step: 0.7]
[tweedie_variance_power: 1.5]
[lambdarank_truncation_level: 30]
[lambdarank_norm: 1]
[label_gain: ]
[lambdarank_position_bias_regularization: 0]
[eval_at: ]
[multi_error_top_k: 1]
[auc_mu_weights: ]
[num_machines: 1]
[local_listen_port: 12400]
[time_out: 120]
[machine_list_filename: ]
[machines: ]
[gpu_platform_id: -1]
[gpu_device_id: -1]
[gpu_use_dp: 0]
[num_gpu: 1]

end of parameters

pandas_categorical:null
