tree
version=v4
num_class=1
num_tree_per_iteration=1
label_index=0
max_feature_idx=14
objective=binary sigmoid:1
feature_names=age edu_0 edu_1 day_cos day_sin AirConditioner_daytime AirConditioner_midnight ClothesWasher_daytime ClothesWasher_midnight Microwave_daytime RiceCooker_midnight TV_daytime IH_daytime day_sin_*_AirConditioner_daytime day_sin_*_Microwave_daytime
feature_infos=[0.083333333333333481:0.95833333333333348] [0:1] [0:1] [-27866.643298010902:28309.074453867612] [-26583.535332411931:28271.854657414911] [0:14825] [144:2696] [24:461] [0:495] [584:17857] [127:2117] [0:3594] [56:6166] [-100950673.32885282:216395539.37001306] [-352976182.14376563:255510616.229931]
tree_sizes=813 845 954 949 946 1051

Tree=0
num_leaves=7
num_cat=0
split_feature=13 0 5 5 12 7
split_gain=7.46442 3.99698 3.40436 3.32791 2.00057 1.90111
threshold=19871236.921378002 0.43750000000000028 6360.0000000000009 6360.0000000000009 2463.0000000000005 268.50000000000006
decision_type=2 2 2 2 2 2
left_child=1 4 -2 5 -1 -3
right_child=2 3 -4 -5 -6 -7
leaf_value=-0.043928693418057253 -0.065284059213813389 0.070155465601297443 0.023854033665916929 -0.023854033665916929 0.023854033665916929 -0.013535335126989548
leaf_weight=1.2499999999999998 3.0000000000000004 3.75 0.49999999999999989 0.49999999999999989 0.49999999999999989 0.24999999999999989
leaf_count=5 12 15 2 2 2 1
internal_value=0 0.0286775 -0.0490634 0.049217 -0.0224137 0.0625523
internal_weight=0 6.25 3.5 4.5 1.75 4
internal_count=39 25 14 18 7 16
is_linear=0
shrinkage=0.05


Tree=1
num_leaves=7
num_cat=0
split_feature=13 5 0 5 12 7
split_gain=5.84901 4.77533 3.71365 3.15918 1.93216 1.81348
threshold=19871236.921378002 6360.0000000000009 0.43750000000000028 6360.0000000000009 2463.0000000000005 268.50000000000006
decision_type=2 2 2 2 2 2
left_child=2 -2 4 5 -1 -4
right_child=1 -3 3 -5 -6 -7
leaf_value=-0.042972864314229975 -0.063197535769630706 0.031592415848342284 0.067753834253838949 -0.023570172550782559 0.023570172550782559 -0.013443709757504148
leaf_weight=1.2493971735239027 2.996805846691132 0.74989333748817433 3.745389506220818 0.49992889165878285 0.49992889165878285 0.24998855590820301
leaf_count=5 12 3 15 2 2 1
internal_value=0 -0.0404519 0.0273916 0.0472217 -0.0217757 0.0602821
internal_weight=0 3.7467 6.24463 4.49531 1.74933 3.99538
internal_count=40 15 25 18 7 16
is_linear=0
shrinkage=0.05


Tree=2
num_leaves=8
num_cat=0
split_feature=14 5 9 11 5 1 0
split_gain=4.10595 3.39265 3.34485 2.49303 2.40755 1.22059 1.20663
threshold=35431924.319178648 6360.0000000000009 15841.500000000002 130.00000000000003 954.50000000000011 1.0000000180025095e-35 0.75000000000000033
decision_type=2 2 2 2 2 2 2
left_child=2 4 3 6 5 -2 -1
right_child=1 -3 -4 -5 -6 -7 -8
leaf_value=-0.030701935982031459 0.030284090953513854 0.031093588352579856 -0.031013906624417904 0.061210197805501056 -0.061365741950711095 -0.022827875413303531 0.022235981690908978
leaf_weight=0.7484542131423948 0.74748963117599465 0.74942386150360096 0.74924756586551655 2.9868253022432327 2.9882107526063919 0.49905720353126526 0.49763014912605286
leaf_count=3 3 3 3 12 12 2 2
internal_value=0 -0.0281478 0.0277179 0.0437612 -0.0442752 0.00813223 -0.00893591
internal_weight=0 4.98418 4.98216 4.23291 4.23476 1.24655 1.24608
internal_count=40 20 20 17 17 5 5
is_linear=0
shrinkage=0.05


Tree=3
num_leaves=8
num_cat=0
split_feature=14 5 9 11 5 1 0
split_gain=3.79211 3.23582 3.19006 2.35172 2.26949 1.18724 1.17359
threshold=35431924.319178648 6360.0000000000009 15841.500000000002 130.00000000000003 954.50000000000011 1.0000000180025095e-35 0.75000000000000033
decision_type=2 2 2 2 2 2 2
left_child=2 4 3 6 5 -2 -1
right_child=1 -3 -4 -5 -6 -7 -8
leaf_value=-0.030226175469489608 0.029818953702805091 0.030607626810790142 -0.030530028146103519 0.059409460774827796 -0.059554291484013748 -0.022562011456576079 0.02198042727426924
leaf_weight=0.74735270440578438 0.74610343575477578 0.74859751760959614 0.74836473166942585 2.9721846431493759 2.9740002304315567 0.49849793314933777 0.49680784344673157
leaf_count=3 3 3 3 12 12 2 2
internal_value=0 -0.0270896 0.026669 0.042419 -0.0429212 0.00794004 -0.00873227
internal_weight=0 4.9672 4.96471 4.21635 4.2186 1.2446 1.24416
internal_count=40 20 20 17 17 5 5
is_linear=0
shrinkage=0.05


Tree=4
num_leaves=8
num_cat=0
split_feature=7 6 0 3 0 4 14
split_gain=3.54116 3.49198 3.86114 2.63803 1.50792 1.26552 1.14662
threshold=268.50000000000006 991.00000000000011 0.75000000000000033 26974.926138748309 0.43750000000000028 21064.513521022898 -16891451.73094685
decision_type=2 2 2 2 2 2 2
left_child=1 2 5 4 -3 -1 -2
right_child=6 3 -4 -5 -6 -7 -8
leaf_value=-0.052816666069696719 0.012411226282033295 -0.012540698350464381 0.035729660429038509 -0.022346383246278283 0.061110629942100626 0.012812483142235079 -0.049973398991679956
leaf_weight=2.2239923030138025 0.24824334681034121 0.24862778186798129 0.9941650629043578 0.49789844453334797 3.4488314837217331 0.24927875399589527 1.9753705412149427
leaf_count=9 1 1 4 2 14 1 8
internal_value=0 0.0164992 -0.0168911 0.0411522 0.0538659 -0.043765 -0.0407262
internal_weight=0 7.66279 3.46744 4.19536 3.69746 2.47327 2.22361
internal_count=40 31 14 17 15 10 9
is_linear=0
shrinkage=0.05


Tree=5
num_leaves=9
num_cat=0
split_feature=13 0 9 13 12 10 0 4
split_gain=4.38192 2.9617 2.62259 2.28923 1.67644 1.50829 0.601521 0.213076
threshold=19871236.921378002 0.43750000000000028 15841.500000000002 190570268.39488918 2463.0000000000005 1536.5000000000002 0.81250000000000033 16412.54429575647
decision_type=2 2 2 2 2 2 2 2
left_child=1 4 5 6 -1 -3 -2 -8
right_child=3 2 -4 -5 -6 -7 7 -9
leaf_value=-0.039893570751997204 -0.054751975196549285 0.060727410699274301 -0.022136900745211581 0.02191862089792183 0.022093840650038509 -0.012610684630863279 -0.01155647534331764 0.01251137941471181
leaf_weight=1.2382190525531767 2.6906403750181207 3.6667514294385914 0.49729658663272847 0.49656942486762989 0.49707281589508046 0.24881556630134571 0.24448104202747334 0.24854496121406555
leaf_count=5 11 15 2 2 2 1 1 1
internal_value=0 0.023647 0.0415967 -0.0354424 -0.0200512 0.0537608 -0.0487247 0.000851558
internal_weight=0 6.14816 4.41286 3.68024 1.73529 3.91557 3.18367 0.493026
internal_count=40 25 18 15 7 16 13 2
is_linear=0
shrinkage=0.05


end of trees

feature_importances:
age=8
AirConditioner_daytime=8
day_sin_*_AirConditioner_daytime=4
ClothesWasher_daytime=3
Microwave_daytime=3
IH_daytime=3
day_sin_*_Microwave_daytime=3
edu_0=2
day_sin=2
TV_daytime=2
day_cos=1
AirConditioner_midnight=1
RiceCooker_midnight=1

parameters:
[boosting: gbdt]
[objective: binary]
[metric: roc_auc]
[tree_learner: serial]
[device_type: cpu]
[data_sample_strategy: bagging]
[data: ]
[valid: ]
[num_iterations: 10000]
[learning_rate: 0.05]
[num_leaves: 11]
[num_threads: 0]
[seed: 0]
[deterministic: 0]
[force_col_wise: 0]
[force_row_wise: 0]
[histogram_pool_size: -1]
[max_depth: -1]
[min_data_in_leaf: 1]
[min_sum_hessian_in_leaf: 0.001]
[bagging_fraction: 0.934954]
[pos_bagging_fraction: 1]
[neg_bagging_fraction: 1]
[bagging_freq: 1]
[bagging_seed: 3]
[feature_fraction: 0.767048]
[feature_fraction_bynode: 1]
[feature_fraction_seed: 2]
[extra_trees: 0]
[extra_seed: 6]
[early_stopping_round: 0]
[early_stopping_min_delta: 0]
[first_metric_only: 0]
[max_delta_step: 0]
[lambda_l1: 0.000585675]
[lambda_l2: 1.59485]
[linear_lambda: 0]
[min_gain_to_split: 0]
[drop_rate: 0.1]
[max_drop: 50]
[skip_drop: 0.5]
[xgboost_dart_mode: 0]
[uniform_drop: 0]
[drop_seed: 4]
[top_rate: 0.2]
[other_rate: 0.1]
[min_data_per_group: 100]
[max_cat_threshold: 32]
[cat_l2: 10]
[cat_smooth: 10]
[max_cat_to_onehot: 4]
[top_k: 20]
[monotone_constraints: ]
[monotone_constraints_method: basic]
[monotone_penalty: 0]
[feature_contri: ]
[forcedsplits_filename: ]
[refit_decay_rate: 0.9]
[cegb_tradeoff: 1]
[cegb_penalty_split: 0]
[cegb_penalty_feature_lazy: ]
[cegb_penalty_feature_coupled: ]
[path_smooth: 0]
[interaction_constraints: ]
[verbosity: -1]
[saved_feature_importance_type: 0]
[use_quantized_grad: 0]
[num_grad_quant_bins: 4]
[quant_train_renew_leaf: 0]
[stochastic_rounding: 1]
[linear_tree: 0]
[max_bin: 255]
[max_bin_by_feature: ]
[min_data_in_bin: 3]
[bin_construct_sample_cnt: 200000]
[data_random_seed: 1]
[is_enable_sparse: 1]
[enable_bundle: 1]
[use_missing: 1]
[zero_as_missing: 0]
[feature_pre_filter: 1]
[pre_partition: 0]
[two_round: 0]
[header: 0]
[label_column: ]
[weight_column: ]
[group_column: ]
[ignore_column: ]
[categorical_feature: ]
[forcedbins_filename: ]
[precise_float_parser: 0]
[parser_config_file: ]
[objective_seed: 5]
[num_class: 1]
[is_unbalance: 0]
[scale_pos_weight: 1]
[sigmoid: 1]
[boost_from_average: 1]
[reg_sqrt: 0]
[alpha: 0.9]
[fair_c: 1]
[poisson_max_delta_step: 0.7]
[tweedie_variance_power: 1.5]
[lambdarank_truncation_level: 30]
[lambdarank_norm: 1]
[label_gain: ]
[lambdarank_position_bias_regularization: 0]
[eval_at: ]
[multi_error_top_k: 1]
[auc_mu_weights: ]
[num_machines: 1]
[local_listen_port: 12400]
[time_out: 120]
[machine_list_filename: ]
[machines: ]
[gpu_platform_id: -1]
[gpu_device_id: -1]
[gpu_use_dp: 0]
[num_gpu: 1]

end of parameters

pandas_categorical:null
