tree
version=v4
num_class=1
num_tree_per_iteration=1
label_index=0
max_feature_idx=14
objective=binary sigmoid:1
feature_names=age edu_0 edu_1 day_cos day_sin AirConditioner_daytime AirConditioner_midnight ClothesWasher_daytime ClothesWasher_midnight Microwave_daytime RiceCooker_midnight TV_daytime IH_daytime day_sin_*_AirConditioner_daytime day_sin_*_Microwave_daytime
feature_infos=[0:0.91666666666666696] [0:1] [0:1] [-27779.11630598129:28283.640276768856] [-28209.025665662542:27999.931731549215] [0:13835] [107:7462] [30:485] [0:572] [875:17355] [93:2616] [0:3075] [53:5861] [-390271870.0844413:79515439.669198886] [-439023717.54391038:339751171.63061816]
tree_sizes=732 747 745 741 740 746 750 749 740 743 743 744 846 746 751 749 745 744 845 745 856 754 744 755 745 756 747 856 851 865 849 853 754

Tree=0
num_leaves=6
num_cat=0
split_feature=13 1 4 9 3
split_gain=8.57343 5.97889 6.93584 4.01917 0.431749
threshold=1787579.693786015 1.0000000180025095e-35 -9198.0241329183264 6333.0000000000009 1.0000000180025095e-35
decision_type=2 2 2 2 2
left_child=1 4 -3 -4 -1
right_child=-2 2 3 -5 -6
leaf_value=0.059939039556742561 -0.099953011039371042 -0.099945180332660699 0.074960767831697944 -0.03328521079484114 0.099945180332660699
leaf_weight=1.2500000000000002 1.7499999999999998 1.4999999999999998 2.0000000000000004 1.4999999999999998 1.4999999999999998
leaf_count=5 7 6 8 6 6
internal_value=0 0.0225715 -0.00998627 0.028551 0.0817893
internal_weight=0 7.75 5 3.5 2.75
internal_count=38 31 20 14 11
is_linear=0
shrinkage=0.05


Tree=1
num_leaves=6
num_cat=0
split_feature=13 1 4 9 4
split_gain=7.75617 5.40646 6.27433 3.63246 0.452116
threshold=1787579.693786015 1.0000000180025095e-35 -9198.0241329183264 6333.0000000000009 -20287.238233211428
decision_type=2 2 2 2 2
left_child=1 4 -3 -4 -1
right_child=-2 2 3 -5 -6
leaf_value=0.055466468440742191 -0.095197302752330432 -0.095189869440590158 0.071314846388553274 -0.031630030123305883 0.096421625215375173
leaf_weight=1.2472825050354006 1.7456363737583158 1.4962603747844694 1.9971930980682375 1.4995846152305601 1.4978558123111723
leaf_count=5 7 6 8 6 6
internal_value=0 0.0214764 -0.00950086 0.0271485 0.0778418
internal_weight=0 7.73818 4.99304 3.49678 2.74514
internal_count=38 31 20 14 11
is_linear=0
shrinkage=0.05


Tree=2
num_leaves=6
num_cat=0
split_feature=13 1 4 9 6
split_gain=7.04769 4.90435 5.70054 3.29134 0.442838
threshold=1787579.693786015 1.0000000180025095e-35 -9198.0241329183264 6333.0000000000009 1236.5000000000002
decision_type=2 2 2 2 2
left_child=1 4 -3 -4 -1
right_child=-2 2 3 -5 -6
leaf_value=0.092735177941431962 -0.091088881277767639 -0.091081731336907223 0.068023093279547697 -0.030072569524653231 0.052112764856306538
leaf_weight=1.4909423291683199 1.7334435880184171 1.4858110249042509 1.9893397092819216 1.4984208941459654 1.2413365840911863
leaf_count=6 7 6 8 6 5
internal_value=0 0.0204899 -0.00906335 0.0258602 0.074308
internal_weight=0 7.70585 4.97357 3.48776 2.73228
internal_count=38 31 20 14 11
is_linear=0
shrinkage=0.05


Tree=3
num_leaves=6
num_cat=0
split_feature=13 1 4 9 8
split_gain=6.42832 4.4617 5.19865 2.9888 0.435576
threshold=1787579.693786015 1.0000000180025095e-35 -9198.0241329183264 6333.0000000000009 246.50000000000003
decision_type=2 2 2 2 2
left_child=1 4 -3 -4 -1
right_child=-2 2 3 -5 -6
leaf_value=0.089477314699037233 -0.087507286361048695 -0.087500313605776328 0.065028308089853812 -0.028604284794387508 0.049049148527303438
leaf_weight=1.4793298840522768 1.7146381884813306 1.4696946144104002 1.9772126674652102 1.4966215789318082 1.2329776883125303
leaf_count=6 7 6 8 6 5
internal_value=0 0.0195954 -0.0086659 0.02467 0.0711277
internal_weight=0 7.65584 4.94353 3.47383 2.71231
internal_count=38 31 20 14 11
is_linear=0
shrinkage=0.05


Tree=4
num_leaves=6
num_cat=0
split_feature=13 4 7 1 4
split_gain=5.88284 4.09967 5.35165 3.01624 1.87656
threshold=1787579.693786015 11352.17697001618 228.00000000000003 1.0000000180025095e-35 27551.106867528226
decision_type=2 2 2 2 2
left_child=1 2 3 -1 -3
right_child=-2 4 -4 -5 -6
leaf_value=0.086490227400766895 -0.08436030573737259 0.092169854418873723 -0.090697399821398461 -0.016364481526783988 0.013362402328768881
leaf_weight=1.2196853756904602 1.690282344818115 1.9663362652063372 1.4620200395584104 1.7127331346273422 1.2301560938358305
leaf_count=5 7 8 6 7 5
internal_value=0 0.0187785 -0.0125476 0.0263954 0.0618642
internal_weight=0 7.59093 4.39444 2.93242 3.19649
internal_count=38 31 18 12 13
is_linear=0
shrinkage=0.05


Tree=5
num_leaves=6
num_cat=0
split_feature=13 1 11 5 4
split_gain=5.397 3.84774 5.03999 7.98182 0.430579
threshold=1787579.693786015 1.0000000180025095e-35 1.0000000180025095e-35 2432.5000000000005 -20287.238233211428
decision_type=2 2 2 2 2
left_child=1 4 -3 -4 -1
right_child=-2 2 3 -5 -6
leaf_value=0.044186905527915057 -0.0815761689441033 -0.095923378021435662 0.08980565793215127 -0.058615297076378928 0.084762626979203046
leaf_weight=1.2092259228229525 1.6613038778305051 1.2299816012382505 1.9576074481010439 1.6853013634681699 1.4509936124086378
leaf_count=5 7 5 8 7 6
internal_value=0 0.0179826 -0.00840829 0.0211244 0.0663474
internal_weight=0 7.53311 4.87289 3.64291 2.66022
internal_count=38 31 20 15 11
is_linear=0
shrinkage=0.05


Tree=6
num_leaves=6
num_cat=0
split_feature=13 1 11 5 8
split_gain=4.96618 3.52103 4.58628 7.29381 0.407264
threshold=1787579.693786015 1.0000000180025095e-35 1.0000000180025095e-35 2432.5000000000005 246.50000000000003
decision_type=2 2 2 2 2
left_child=1 4 -3 -4 -1
right_child=-2 2 3 -5 -6
leaf_value=0.081972121382719129 -0.079098085499198806 -0.091821412290886611 0.086430415815753378 -0.056227910716808417 0.042267383361516489
leaf_weight=1.4270315766334536 1.6285145133733747 1.2209031134843824 1.9329669773578646 1.6694240123033521 1.1991584002971647
leaf_count=6 7 5 8 7 5
internal_value=0 0.0172848 -0.00806797 0.0203013 0.0638714
internal_weight=0 7.44948 4.82329 3.60239 2.62619
internal_count=38 31 20 15 11
is_linear=0
shrinkage=0.05


Tree=7
num_leaves=6
num_cat=0
split_feature=13 1 11 5 3
split_gain=4.58107 3.22736 4.18946 6.6836 0.412168
threshold=1787579.693786015 1.0000000180025095e-35 1.0000000180025095e-35 2432.5000000000005 1.0000000180025095e-35
decision_type=2 2 2 2 2
left_child=1 4 -3 -4 -1
right_child=-2 2 3 -5 -6
leaf_value=0.039719599045772831 -0.076880578391290047 -0.088237153788779166 0.083451852207708982 -0.053999106994125558 0.079943042400054551
leaf_weight=1.1826341003179552 1.5926233381032942 1.207311615347862 1.9026243984699251 1.6518663018941877 1.4056499600410459
leaf_count=5 7 5 8 7 6
internal_value=0 0.016653 -0.0077616 0.0195563 0.0615936
internal_weight=0 7.35009 4.7618 3.55449 2.58828
internal_count=38 31 20 15 11
is_linear=0
shrinkage=0.05


Tree=8
num_leaves=6
num_cat=0
split_feature=13 4 7 1 7
split_gain=4.23511 3.00039 4.38147 2.18614 1.437
threshold=1787579.693786015 11352.17697001618 228.00000000000003 1.0000000180025095e-35 143.50000000000003
decision_type=2 2 2 2 2
left_child=1 2 3 -1 -3
right_child=-2 4 -4 -5 -6
leaf_value=0.077666774549438433 -0.074886743958342883 0.010250897147240846 -0.084084727122206715 -0.011966833703330208 0.081065999259780142
leaf_weight=1.1468500047922134 1.5542501509189603 1.1640564650297167 1.3853224813938139 1.6691762953996658 1.8726176917552946
leaf_count=5 7 5 6 7 8
internal_value=0 0.0160762 -0.0112793 0.0245155 0.0539442
internal_weight=0 7.23802 4.20135 2.81603 3.03667
internal_count=38 31 18 12 13
is_linear=0
shrinkage=0.05


Tree=9
num_leaves=6
num_cat=0
split_feature=13 6 1 11 11
split_gain=3.92018 2.75335 2.71137 5.44794 1.62814
threshold=1787579.693786015 2008.5000000000002 1.0000000180025095e-35 1.0000000180025095e-35 269.50000000000006
decision_type=2 2 2 2 2
left_child=1 2 -1 -4 -5
right_child=-2 -3 3 4 -6
leaf_value=0.076156942638553993 -0.073086324227717367 -0.05498524147093891 -0.084740135062660593 0.081087573625266585 0.004378581876891486
leaf_weight=2.0285262912511826 1.5139356851577757 1.160193398594856 1.1834993213415148 1.4088957309722903 1.362671226263046
leaf_count=9 7 5 5 6 6
internal_value=0 0.015484 0.02916 0.00503657 0.0433993
internal_weight=0 7.14379 5.98359 3.95507 2.77157
internal_count=38 31 26 17 12
is_linear=0
shrinkage=0.05


Tree=10
num_leaves=6
num_cat=0
split_feature=13 4 7 1 7
split_gain=3.63569 2.60645 3.86456 1.93129 1.26978
threshold=1787579.693786015 11352.17697001618 228.00000000000003 1.0000000180025095e-35 143.50000000000003
decision_type=2 2 2 2 2
left_child=1 2 3 -1 -3
right_child=-2 4 -4 -5 -6
leaf_value=0.074400119175436305 -0.071454271363713143 0.0094059425286442521 -0.080283872961779246 -0.011075998497091878 0.076936193570433853
leaf_weight=1.1011048853397369 1.4721514135599134 1.137276887893677 1.3452202528715131 1.6497084200382233 1.8044575303792951
leaf_count=5 7 5 6 7 8
internal_value=0 0.0149457 -0.0108276 0.0231165 0.0508536
internal_weight=0 7.03777 4.09603 2.75081 2.94173
internal_count=38 31 18 12 13
is_linear=0
shrinkage=0.05


Tree=11
num_leaves=6
num_cat=0
split_feature=13 4 7 1 4
split_gain=3.37635 2.39155 3.56858 1.79912 1.21728
threshold=1787579.693786015 11352.17697001618 228.00000000000003 1.0000000180025095e-35 27551.106867528226
decision_type=2 2 2 2 2
left_child=1 2 3 -1 -3
right_child=-2 4 -4 -5 -6
leaf_value=0.072646868267560907 -0.069969678678159966 0.075073594092908022 -0.078093530343790879 -0.010527040368223587 0.0085836981030808623
leaf_weight=1.0720349997282028 1.4293069541454313 1.7636983245611193 1.3145823329687116 1.6489763706922531 1.1330433934926984
leaf_count=5 7 8 6 7 5
internal_value=0 0.0144254 -0.0104421 0.0222197 0.0490915
internal_weight=0 6.93234 4.03559 2.72101 2.89674
internal_count=38 31 18 12 13
is_linear=0
shrinkage=0.05


Tree=12
num_leaves=7
num_cat=0
split_feature=13 1 11 4 4 8
split_gain=3.14 2.28855 3.42822 5.36457 0.394092 0.28771
threshold=1787579.693786015 1.0000000180025095e-35 1.0000000180025095e-35 -9198.0241329183264 -20287.238233211428 264.00000000000006
decision_type=2 2 2 2 2 2
left_child=1 4 -3 -4 -1 -5
right_child=-2 2 3 5 -6 -7
leaf_value=0.031344044936863116 -0.06861493190969746 -0.081544490356553145 -0.07318552209794893 0.08036380534515894 0.072547285744575932 0.044316861034439541
leaf_weight=1.0748212784528735 1.3857582062482832 1.1485769450664518 1.0738423168659208 1.1413673162460334 1.2825490385293958 1.1010055094957349
leaf_count=5 7 5 5 5 6 5
internal_value=0 0.0139368 -0.00709292 0.0186758 0.0537927 0.0626989
internal_weight=0 6.82216 4.46479 3.31622 2.35737 2.24237
internal_count=38 31 20 15 11 10
is_linear=0
shrinkage=0.05


Tree=13
num_leaves=6
num_cat=0
split_feature=13 6 1 11 11
split_gain=2.92516 2.2264 2.14764 4.50888 1.26301
threshold=1787579.693786015 2008.5000000000002 1.0000000180025095e-35 1.0000000180025095e-35 269.50000000000006
decision_type=2 2 2 2 2
left_child=1 2 -1 -4 -5
right_child=-2 -3 3 4 -6
leaf_value=0.070414301566389975 -0.06737510651199044 -0.051343475091136528 -0.079147060198726082 0.074893060943284073 0.0052425452127226671
leaf_weight=1.8493406772613523 1.341812878847122 1.1038875877857206 1.1248045265674593 1.3232899308204653 1.2851629257202146
leaf_count=9 7 5 5 6 6
internal_value=0 0.013514 0.0263518 0.00450471 0.0406049
internal_weight=0 6.68649 5.5826 3.73326 2.60845
internal_count=38 31 26 17 12
is_linear=0
shrinkage=0.05


Tree=14
num_leaves=6
num_cat=0
split_feature=13 6 1 11 11
split_gain=2.72797 2.04042 2.01499 4.15403 1.19258
threshold=1787579.693786015 2008.5000000000002 1.0000000180025095e-35 1.0000000180025095e-35 269.50000000000006
decision_type=2 2 2 2 2
left_child=1 2 -1 -4 -5
right_child=-2 -3 3 4 -6
leaf_value=0.069025178467521806 -0.066237441564494959 -0.049162602378090545 -0.076991447931227322 0.073102101068436093 0.0049792915526763182
leaf_weight=1.7936456799507139 1.2977363318204878 1.0954368114471433 1.0991355478763583 1.2888016402721407 1.2854534834623335
leaf_count=9 7 5 5 6 6
internal_value=0 0.0130963 0.0255845 0.00435299 0.0391134
internal_weight=0 6.56247 5.46704 3.67339 2.57426
internal_count=38 31 26 17 12
is_linear=0
shrinkage=0.05


Tree=15
num_leaves=6
num_cat=0
split_feature=13 6 1 11 11
split_gain=2.54699 1.87169 1.89327 3.83321 1.12896
threshold=1787579.693786015 2008.5000000000002 1.0000000180025095e-35 1.0000000180025095e-35 269.50000000000006
decision_type=2 2 2 2 2
left_child=1 2 -1 -4 -5
right_child=-2 -3 3 4 -6
leaf_value=0.06775469567331327 -0.065190991132220474 -0.047100303135656121 -0.075044767443851843 0.071477317163550769 0.0047293509199539579
leaf_weight=1.7373451888561247 1.2537566870450971 1.086467772722244 1.0719572752714159 1.2531013488769533 1.2857198417186735
leaf_count=9 7 5 5 6 6
internal_value=0 0.0127041 0.0248669 0.00421064 0.0377033
internal_weight=0 6.43459 5.34812 3.61078 2.53882
internal_count=38 31 26 17 12
is_linear=0
shrinkage=0.05


Tree=16
num_leaves=6
num_cat=0
split_feature=13 4 7 2 7
split_gain=2.3805 1.79026 2.90183 1.39702 0.948993
threshold=1787579.693786015 11352.17697001618 228.00000000000003 1.0000000180025095e-35 143.50000000000003
decision_type=2 2 2 2 2
left_child=1 2 3 -1 -3
right_child=-2 4 -4 -5 -6
leaf_value=-0.0084781701083788564 -0.064226292923094425 0.0063952475338217799 -0.073351894071402343 0.068191303008893117 0.068656844452148078
leaf_weight=1.5525621175765998 1.2100686877965925 1.0066237747669222 1.2125032097101209 0.96106331050395954 1.5712438672780988
leaf_count=7 7 5 6 5 8
internal_value=0 0.0123343 -0.00981359 0.0208114 0.0443723
internal_weight=0 6.304 3.72613 2.51363 2.57787
internal_count=38 31 18 12 13
is_linear=0
shrinkage=0.05


Tree=17
num_leaves=6
num_cat=0
split_feature=13 1 4 9 4
split_gain=2.22601 1.65909 2.48865 1.7277 0.36721
threshold=1787579.693786015 1.0000000180025095e-35 -9198.0241329183264 6333.0000000000009 -20287.238233211428
decision_type=2 2 2 2 2
left_child=1 4 -3 -4 -1
right_child=-2 2 3 -5 -6
leaf_value=0.02528084455287348 -0.063335124806290541 -0.068764724049741155 0.051161125172769363 -0.026245187097373279 0.067470813498099427
leaf_weight=0.95897756516933474 1.166838079690933 1.1542670428752897 1.675931587815285 1.2635171562433241 1.1335973590612409
leaf_count=5 7 6 8 6 6
internal_value=0 0.0119526 -0.00654593 0.0178657 0.0481715
internal_weight=0 6.18629 4.09372 2.93945 2.09257
internal_count=38 31 20 14 11
is_linear=0
shrinkage=0.05


Tree=18
num_leaves=7
num_cat=0
split_feature=13 6 12 8 9 5
split_gain=2.08275 1.58892 1.62368 2.51019 1.91989 0.164371
threshold=1787579.693786015 2008.5000000000002 1139.5000000000002 384.00000000000006 2293.5000000000005 1.0000000180025095e-35
decision_type=2 2 2 2 2 2
left_child=1 2 3 4 -1 -4
right_child=-2 -3 5 -5 -6 -7
leaf_value=0.018643978612462666 -0.062510316587319273 -0.044767726713151677 0.043636121421207465 0.06821491587700361 -0.075045673554685527 0.073610974638888868
leaf_weight=1.0862988531589515 1.1242047399282453 1.0367804318666456 0.85984186828136433 0.96951375901699055 1.0990060418844221 1.0213851630687711
leaf_count=6 7 5 5 5 5 5
internal_value=0 0.0115732 0.0231865 0.0012407 -0.0284444 0.0599508
internal_weight=0 6.07283 5.03605 3.15482 2.1853 1.88123
internal_count=38 31 26 16 11 10
is_linear=0
shrinkage=0.05


Tree=19
num_leaves=6
num_cat=0
split_feature=13 4 7 2 4
split_gain=1.95058 1.51612 2.55896 1.25794 0.854779
threshold=1787579.693786015 11352.17697001618 228.00000000000003 1.0000000180025095e-35 27551.106867528226
decision_type=2 2 2 2 2
left_child=1 2 3 -1 -3
right_child=-2 4 -4 -5 -6
leaf_value=-0.0083275916872217626 -0.06174556877552189 0.066002263913306602 -0.070936621946758288 0.066268120843943609 0.0049904062478090573
leaf_weight=1.4967655390501029 1.0822859108448026 1.4530762881040575 1.1482828110456464 0.90660582482814778 0.95310454070568074
leaf_count=7 7 8 6 5 5
internal_value=0 0.011217 -0.0095283 0.019786 0.0418648
internal_weight=0 5.95784 3.55165 2.40337 2.40618
internal_count=38 31 18 12 13
is_linear=0
shrinkage=0.05


Tree=20
num_leaves=7
num_cat=0
split_feature=13 1 11 4 3 7
split_gain=1.8284 1.44306 2.26162 3.84119 0.356063 0.218409
threshold=1787579.693786015 1.0000000180025095e-35 1.0000000180025095e-35 -9198.0241329183264 -1.0000000180025095e-35 261.00000000000006
decision_type=2 2 2 2 2 2
left_child=1 4 -3 -4 -1 -5
right_child=-2 2 3 5 -6 -7
leaf_value=0.02254683207248381 -0.061035353978119627 -0.071539242157337896 -0.067321902125109592 0.072285066883476037 0.065469166088583705 0.038489364061152234
leaf_weight=0.8976741135120393 1.0411784946918485 1.0004163533449175 0.93810041248798381 0.99655571579933167 1.0626380294561382 0.94471217691898346
leaf_count=5 7 5 5 5 6 5
internal_value=0 0.010883 -0.00676901 0.0157142 0.0458515 0.0558774
internal_weight=0 5.8401 3.87978 2.87937 1.96031 1.94127
internal_count=38 31 20 15 11 10
is_linear=0
shrinkage=0.05


Tree=21
num_leaves=6
num_cat=0
split_feature=13 6 1 11 11
split_gain=1.71601 1.38736 1.43372 2.99374 0.858394
threshold=1787579.693786015 2008.5000000000002 1.0000000180025095e-35 1.0000000180025095e-35 269.50000000000006
decision_type=2 2 2 2 2
left_child=1 2 -1 -4 -5
right_child=-2 -3 3 4 -6
leaf_value=0.062961589588441211 -0.060374756193854719 -0.043123526719528814 -0.070095206532071172 0.066360778735235465 0.0047260721454700279
leaf_weight=1.4664500802755354 1.0009621828794477 0.99120220541954029 0.97073067724704776 1.1057989895343783 1.1599344462156294
leaf_count=9 7 5 5 6 6
internal_value=0 0.0106088 0.0219489 0.00334306 0.0348392
internal_weight=0 5.69412 4.70291 3.23646 2.26573
internal_count=38 31 26 17 12
is_linear=0
shrinkage=0.05


Tree=22
num_leaves=6
num_cat=0
split_feature=13 4 7 7 10
split_gain=1.6115 1.32978 2.2343 0.749602 0.709083
threshold=1787579.693786015 11352.17697001618 228.00000000000003 143.50000000000003 420.50000000000006
decision_type=2 2 2 2 2
left_child=1 2 4 -3 -1
right_child=-2 3 -4 -5 -6
leaf_value=-0.008989581681561179 -0.059759442496333498 0.0045405058360151237 -0.068954608459013786 0.063804698055600836 0.047049510841613421
leaf_weight=1.1436317861080176 0.96170081198215474 0.89004658162593875 1.0759432464838026 1.3417352139949796 1.1113629192113874
leaf_count=6 7 5 6 8 6
internal_value=0 0.0103315 -0.00966278 0.0402018 0.0186005
internal_weight=0 5.56272 3.33094 2.23178 2.25499
internal_count=38 31 18 13 12
is_linear=0
shrinkage=0.05


Tree=23
num_leaves=6
num_cat=0
split_feature=1 8 8 11 10
split_gain=1.546 1.59252 0.804853 1.90923 0.765613
threshold=1.0000000180025095e-35 384.00000000000006 145.50000000000003 1.0000000180025095e-35 464.50000000000006
decision_type=2 2 2 2 2
left_child=4 2 3 -2 -1
right_child=1 -3 -4 -5 -6
leaf_value=0.063588375454558296 -0.068697763224419728 0.045494539306913412 -0.063064466033526653 0.023746053964692645 0.00023406971901594474
leaf_weight=1.1353680342435835 0.93388682603836137 0.84120145440101612 1.2625520080327985 1.3878114670515058 0.82580263912677754
leaf_count=7 5 5 8 8 5
internal_value=0 -0.0163809 -0.0309227 -0.0134119 0.0369477
internal_weight=0 4.42545 3.58425 2.3217 1.96117
internal_count=38 26 21 13 12
is_linear=0
shrinkage=0.05


Tree=24
num_leaves=6
num_cat=0
split_feature=13 4 7 7 10
split_gain=1.49625 1.21646 1.98235 0.684749 0.646123
threshold=1787579.693786015 11352.17697001618 228.00000000000003 143.50000000000003 420.50000000000006
decision_type=2 2 2 2 2
left_child=1 2 4 -3 -1
right_child=-2 3 -4 -5 -6
leaf_value=-0.0091836840369295906 -0.059080027110420187 0.0049160925142148135 -0.067307549759601071 0.062622065787335632 0.045164239905444721
leaf_weight=1.1168056130409247 0.91495704650878895 0.86633673310279879 1.010765843093395 1.2738946378231046 1.068372771143913
leaf_count=6 7 5 6 8 6
internal_value=0 0.0101197 -0.00939929 0.0392968 0.0173585
internal_weight=0 5.33618 3.19594 2.14023 2.18518
internal_count=38 31 18 13 12
is_linear=0
shrinkage=0.05


Tree=25
num_leaves=6
num_cat=0
split_feature=1 8 11 8 11
split_gain=1.41445 1.40794 1.04121 0.727692 1.74712
threshold=1.0000000180025095e-35 384.00000000000006 51.500000000000007 145.50000000000003 1.0000000180025095e-35
decision_type=2 2 2 2 2
left_child=2 3 -1 4 -2
right_child=1 -3 -4 -5 -6
leaf_value=0.062667782687505849 -0.067433169105378665 0.043573875286493924 -0.015882585860388248 -0.061823497887094285 0.022459633252063679
leaf_weight=1.2448201328516004 0.89746651053428728 0.80194720625877369 0.63622334599494923 1.1790079548954961 1.3571671843528745
leaf_count=8 5 5 4 8 8
internal_value=0 -0.0160365 0.0360649 -0.0299797 -0.0132949
internal_weight=0 4.23559 1.88104 3.43364 2.25463
internal_count=38 26 12 21 13
is_linear=0
shrinkage=0.05


Tree=26
num_leaves=6
num_cat=0
split_feature=13 4 7 14 4
split_gain=1.3892 1.07643 1.77794 1.05258 0.653123
threshold=1787579.693786015 11352.17697001618 228.00000000000003 -36294912.679737441 27551.106867528226
decision_type=2 2 2 2 2
left_child=1 2 3 -1 -3
right_child=-2 4 -4 -5 -6
leaf_value=0.044787810294828645 -0.058469696699098767 0.061599325750651371 -0.065756400089916373 -0.027182495200373542 0.0038186285495983904
leaf_weight=1.2966737598180773 0.86865863204002369 1.2070529460906985 0.94634181261062611 0.83393120765686068 0.82651592791080464
leaf_count=8 7 8 6 4 5
internal_value=0 0.00991871 -0.00871875 0.0165868 0.0381502
internal_weight=0 5.11052 3.07695 2.1306 2.03357
internal_count=38 31 18 12 13
is_linear=0
shrinkage=0.05


Tree=27
num_leaves=7
num_cat=0
split_feature=13 1 11 4 9 7
split_gain=1.30631 1.04547 1.64078 2.96903 0.417307 0.166155
threshold=1787579.693786015 1.0000000180025095e-35 1.0000000180025095e-35 -9198.0241329183264 9686.5000000000018 261.00000000000006
decision_type=2 2 2 2 2 2
left_child=1 4 -3 -4 -1 -5
right_child=-2 2 3 5 -6 -7
leaf_value=0.061627055550064973 -0.057980924521063654 -0.066117599197315802 -0.064341452486946712 0.067588522009655524 0.010160623944936612 0.035618525285783645
leaf_weight=1.0298869013786314 0.83308369666337956 0.85824488848447833 0.80928274989128146 0.87113010883331277 0.64340955764055241 0.787613645195961
leaf_count=7 7 5 5 5 4 5
internal_value=0 0.00963989 -0.00655973 0.0141268 0.0418802 0.0524535
internal_weight=0 4.99957 3.32627 2.46803 1.6733 1.65874
internal_count=38 31 20 15 11 10
is_linear=0
shrinkage=0.05


Tree=28
num_leaves=7
num_cat=0
split_feature=13 6 12 8 9 0
split_gain=1.22997 1.0217 1.20955 1.60456 1.27965 0.077671
threshold=1787579.693786015 2008.5000000000002 1139.5000000000002 384.00000000000006 2293.5000000000005 0.4791666666666668
decision_type=2 2 2 2 2 2
left_child=1 2 3 4 -1 -4
right_child=-2 -3 5 -5 -6 -7
leaf_value=0.018362534368760296 -0.057523132165701124 -0.039172285483534325 0.066419597201981179 0.061071360406679577 -0.067033446786149684 0.042928007071878993
leaf_weight=0.82541075348854132 0.79860155284404744 0.88367397338151921 0.82227198779582955 0.73394082486629475 0.93379791080951691 0.66046606749296188
leaf_count=6 7 5 5 5 5 5
internal_value=0 0.00942757 0.0202473 -0.000994702 -0.0269298 0.0560063
internal_weight=0 4.85956 3.97589 2.49315 1.75921 1.48274
internal_count=38 31 26 16 11 10
is_linear=0
shrinkage=0.05


Tree=29
num_leaves=7
num_cat=0
split_feature=1 11 5 11 3 10
split_gain=1.16302 1.12601 1.95751 0.900368 0.419822 0.00111409
threshold=1.0000000180025095e-35 1.0000000180025095e-35 1549.5000000000002 51.500000000000007 6395.3747098498134 385.50000000000006
decision_type=2 2 2 2 2 2
left_child=3 -2 5 -1 -4 -3
right_child=1 2 4 -5 -6 -7
leaf_value=0.060787053843929774 -0.06335787280045968 0.039916598831429728 -0.062232268179113162 -0.015383057147925056 -0.0080585384465785455 0.044933990711638332
leaf_weight=1.1134438812732694 0.92610939592123065 0.67645478993654273 0.87212670594453789 0.59344424307346333 0.61148912459611893 0.71806524693965912
leaf_count=8 6 5 6 4 4 5
internal_value=0 -0.0154081 7.17099e-08 0.0342662 -0.0399523 0.0425529
internal_weight=0 3.80425 2.87814 1.70689 1.48362 1.39452
internal_count=38 26 20 12 10 10
is_linear=0
shrinkage=0.05


Tree=30
num_leaves=7
num_cat=0
split_feature=13 6 12 8 9 0
split_gain=1.14962 0.936086 1.05977 1.39943 1.16949 0.0762521
threshold=1787579.693786015 2008.5000000000002 1139.5000000000002 384.00000000000006 2293.5000000000005 0.4791666666666668
decision_type=2 2 2 2 2 2
left_child=1 2 3 4 -1 -4
right_child=-2 -3 5 -5 -6 -7
leaf_value=0.018510412431799319 -0.057025270156962841 -0.037814348854830267 0.065273666969737826 0.05995289975287596 -0.064961657858407296 0.041283481934240272
leaf_weight=0.80592197179794378 0.75942604988813389 0.85560888797044743 0.7748552933335302 0.68460757285356511 0.87307341396808624 0.62086416780948639
leaf_count=6 7 5 5 5 5 5
internal_value=0 0.00935633 0.0201112 -0.000261351 -0.0248568 0.0546557
internal_weight=0 4.61493 3.75932 2.3636 1.679 1.39572
internal_count=38 31 26 16 11 10
is_linear=0
shrinkage=0.05


Tree=31
num_leaves=7
num_cat=0
split_feature=13 6 12 8 9 0
split_gain=1.08285 0.862069 0.987018 1.31018 1.09833 0.076855
threshold=1787579.693786015 2008.5000000000002 1139.5000000000002 384.00000000000006 2293.5000000000005 0.4791666666666668
decision_type=2 2 2 2 2 2
left_child=1 2 3 4 -1 -4
right_child=-2 -3 5 -5 -6 -7
leaf_value=0.017658783845773549 -0.056626663934799842 -0.036330081680754744 0.064388112940731962 0.059366345484238803 -0.064021590724456942 0.039991710448444885
leaf_weight=0.80264309048652716 0.72734557837247837 0.84628494083881367 0.7469462454318998 0.65749105066061009 0.84237885475158691 0.60918030887842178
leaf_count=6 7 5 5 5 5 5
internal_value=0 0.00911561 0.0196471 -0.000255182 -0.0241291 0.0534843
internal_weight=0 4.50492 3.65864 2.30251 1.64502 1.35613
internal_count=38 31 26 16 11 10
is_linear=0
shrinkage=0.05


Tree=32
num_leaves=6
num_cat=0
split_feature=1 8 11 8 10
split_gain=1.03187 0.955762 0.789446 0.600625 0.741482
threshold=1.0000000180025095e-35 384.00000000000006 51.500000000000007 145.50000000000003 385.50000000000006
decision_type=2 2 2 2 2
left_child=2 3 -1 4 -2
right_child=1 -3 -4 -5 -6
leaf_value=0.059861235116416403 -0.035043533184718721 0.040230122942054025 -0.013434206740439967 -0.059277569321867965 0.029772764624403026
leaf_weight=1.0162839666008947 1.1886192485690124 0.63589920848608006 0.57319080084562291 0.97933017462491978 0.70065347850322712
leaf_count=8 8 5 4 8 5
internal_value=0 -0.0151797 0.0333887 -0.0274876 -0.0109698
internal_weight=0 3.5045 1.58947 2.8686 1.88927
internal_count=38 26 12 21 13
is_linear=0
shrinkage=0.05


end of trees

feature_importances:
day_sin_*_AirConditioner_daytime=29
day_sin=25
edu_0=24
TV_daytime=22
ClothesWasher_daytime=16
ClothesWasher_midnight=13
AirConditioner_midnight=10
Microwave_daytime=10
AirConditioner_daytime=5
RiceCooker_midnight=5
day_cos=4
IH_daytime=4
age=3
edu_1=2
day_sin_*_Microwave_daytime=1

parameters:
[boosting: gbdt]
[objective: binary]
[metric: roc_auc]
[tree_learner: serial]
[device_type: cpu]
[data_sample_strategy: bagging]
[data: ]
[valid: ]
[num_iterations: 10000]
[learning_rate: 0.05]
[num_leaves: 7]
[num_threads: 0]
[seed: 0]
[deterministic: 0]
[force_col_wise: 0]
[force_row_wise: 0]
[histogram_pool_size: -1]
[max_depth: -1]
[min_data_in_leaf: 5]
[min_sum_hessian_in_leaf: 0.001]
[bagging_fraction: 0.953804]
[pos_bagging_fraction: 1]
[neg_bagging_fraction: 1]
[bagging_freq: 3]
[bagging_seed: 3]
[feature_fraction: 0.983238]
[feature_fraction_bynode: 1]
[feature_fraction_seed: 2]
[extra_trees: 0]
[extra_seed: 6]
[early_stopping_round: 0]
[early_stopping_min_delta: 0]
[first_metric_only: 0]
[max_delta_step: 0]
[lambda_l1: 0.00134335]
[lambda_l2: 0.000150701]
[linear_lambda: 0]
[min_gain_to_split: 0]
[drop_rate: 0.1]
[max_drop: 50]
[skip_drop: 0.5]
[xgboost_dart_mode: 0]
[uniform_drop: 0]
[drop_seed: 4]
[top_rate: 0.2]
[other_rate: 0.1]
[min_data_per_group: 100]
[max_cat_threshold: 32]
[cat_l2: 10]
[cat_smooth: 10]
[max_cat_to_onehot: 4]
[top_k: 20]
[monotone_constraints: ]
[monotone_constraints_method: basic]
[monotone_penalty: 0]
[feature_contri: ]
[forcedsplits_filename: ]
[refit_decay_rate: 0.9]
[cegb_tradeoff: 1]
[cegb_penalty_split: 0]
[cegb_penalty_feature_lazy: ]
[cegb_penalty_feature_coupled: ]
[path_smooth: 0]
[interaction_constraints: ]
[verbosity: -1]
[saved_feature_importance_type: 0]
[use_quantized_grad: 0]
[num_grad_quant_bins: 4]
[quant_train_renew_leaf: 0]
[stochastic_rounding: 1]
[linear_tree: 0]
[max_bin: 255]
[max_bin_by_feature: ]
[min_data_in_bin: 3]
[bin_construct_sample_cnt: 200000]
[data_random_seed: 1]
[is_enable_sparse: 1]
[enable_bundle: 1]
[use_missing: 1]
[zero_as_missing: 0]
[feature_pre_filter: 1]
[pre_partition: 0]
[two_round: 0]
[header: 0]
[label_column: ]
[weight_column: ]
[group_column: ]
[ignore_column: ]
[categorical_feature: ]
[forcedbins_filename: ]
[precise_float_parser: 0]
[parser_config_file: ]
[objective_seed: 5]
[num_class: 1]
[is_unbalance: 0]
[scale_pos_weight: 1]
[sigmoid: 1]
[boost_from_average: 1]
[reg_sqrt: 0]
[alpha: 0.9]
[fair_c: 1]
[poisson_max_delta_step: 0.7]
[tweedie_variance_power: 1.5]
[lambdarank_truncation_level: 30]
[lambdarank_norm: 1]
[label_gain: ]
[lambdarank_position_bias_regularization: 0]
[eval_at: ]
[multi_error_top_k: 1]
[auc_mu_weights: ]
[num_machines: 1]
[local_listen_port: 12400]
[time_out: 120]
[machine_list_filename: ]
[machines: ]
[gpu_platform_id: -1]
[gpu_device_id: -1]
[gpu_use_dp: 0]
[num_gpu: 1]

end of parameters

pandas_categorical:null
