tree
version=v4
num_class=1
num_tree_per_iteration=1
label_index=0
max_feature_idx=14
objective=binary sigmoid:1
feature_names=age edu_0 edu_1 day_cos day_sin AirConditioner_daytime AirConditioner_midnight ClothesWasher_daytime ClothesWasher_midnight Microwave_daytime RiceCooker_midnight TV_daytime IH_daytime day_sin_*_AirConditioner_daytime day_sin_*_Microwave_daytime
feature_infos=[0.041666666666666963:0.95833333333333348] [0:1] [0:1] [-27779.116305995773:28167.66828165152] [-27185.256032231919:28271.854657414911] [0:18450] [51:13567] [42:603] [0:1028] [1787:18774] [145:7069] [0:7818] [244:9965] [-294814450.51317573:222960457.31156704] [-422550862.85317016:325953479.29557574]
tree_sizes=539 547 442 444 640 647 544 543 444 442

Tree=0
num_leaves=4
num_cat=0
split_feature=1 9 0
split_gain=9.34465 0.8948 0.716959
threshold=1.0000000180025095e-35 5410.5000000000009 0.52083333333333359
decision_type=2 2 2
left_child=2 -2 -1
right_child=1 -3 -4
leaf_value=0.032131431480907711 -0.032131431480907684 -0.099441541631077615 0.099023169467109123
leaf_weight=0.74999999999999989 0.75000000000000033 1.7499999999999998 0.99999999999999989
leaf_count=3 3 7 4
internal_value=0 -0.079618 0.0708885
internal_weight=0 2.5 1.75
internal_count=17 10 7
is_linear=0
shrinkage=0.05


Tree=1
num_leaves=4
num_cat=0
split_feature=1 9 7
split_gain=8.45491 0.810242 0.732978
threshold=1.0000000180025095e-35 5410.5000000000009 259.50000000000006
decision_type=2 2 2
left_child=2 -2 -1
right_child=1 -3 -4
leaf_value=0.095879637760663883 -0.030535278707852533 -0.094710363138496012 0.028352257451397384
leaf_weight=0.99864727258682229 0.74980643391609225 1.7456808090209959 0.74871179461479187
leaf_count=4 3 7 3
internal_value=0 -0.075797 0.0674771
internal_weight=0 2.49549 1.74736
internal_count=17 10 7
is_linear=0
shrinkage=0.05


Tree=2
num_leaves=3
num_cat=0
split_feature=1 5
split_gain=7.13589 10.6957
threshold=1.0000000180025095e-35 30.500000000000004
decision_type=2 2
left_child=-1 -2
right_child=1 -3
leaf_value=0.09230354188697093 0.10783809072849058 -0.092869919132641199
leaf_weight=2.2354762852191925 0.9927310794591907 1.9875580817461012
leaf_count=9 4 8
internal_value=0 -0.0257086
internal_weight=0 2.98029
internal_count=21 12
is_linear=0
shrinkage=0.05


Tree=3
num_leaves=3
num_cat=0
split_feature=1 5
split_gain=6.50423 9.68276
threshold=1.0000000180025095e-35 30.500000000000004
decision_type=2 2
left_child=-1 -2
right_child=1 -3
leaf_value=0.088535148267602726 0.10184527601829507 -0.089029969127246908
leaf_weight=2.2146463394165039 0.99847736954689059 1.9700874537229536
leaf_count=9 4 8
internal_value=0 -0.0245234
internal_weight=0 2.96856
internal_count=21 12
is_linear=0
shrinkage=0.05


Tree=4
num_leaves=5
num_cat=0
split_feature=7 10 0 5
split_gain=4.97973 2.19485 0.827596 0.78135
threshold=259.50000000000006 368.00000000000006 0.68750000000000033 210.50000000000003
decision_type=2 2 2 2
left_child=1 -1 -3 -2
right_child=3 2 -4 -5
leaf_value=0.091960282840148747 -0.10077408896873004 -0.031920749315670342 0.04281214772646369 -0.025638519780631058
leaf_weight=1.4673064798116686 0.7364150136709211 0.73548245429992654 0.7376493513584137 0.7268870621919632
leaf_count=6 3 3 3 3
internal_value=0 0.0486656 0.00491791 -0.0640902
internal_weight=0 2.94044 1.47313 1.4633
internal_count=18 12 6 6
is_linear=0
shrinkage=0.05


Tree=5
num_leaves=5
num_cat=0
split_feature=7 5 3 9
split_gain=4.51343 2.07947 5.5649 0.743017
threshold=259.50000000000006 638.00000000000011 1.0000000180025095e-35 9234.0000000000018
decision_type=2 2 2 2
left_child=1 -1 -3 -2
right_child=3 2 -4 -5
leaf_value=0.095852996237633353 -0.096645223053619334 0.089058749324110106 -0.093791298797875761 -0.023300424374357021
leaf_weight=1.2344117462635043 0.73881626129150368 0.96472953259944894 0.72833272814750671 0.72156699001789093
leaf_count=5 3 4 3 3
internal_value=0 0.0464492 0.00987835 -0.0610439
internal_weight=0 2.92747 1.69306 1.46038
internal_count=18 12 7 6
is_linear=0
shrinkage=0.05


Tree=6
num_leaves=4
num_cat=0
split_feature=10 12 5
split_gain=4.82574 2.52378 0.893574
threshold=368.00000000000006 2016.5000000000002 3588.5000000000005
decision_type=2 2 2
left_child=1 -1 -2
right_child=2 -3 -4
leaf_value=-0.030578009967458266 -0.019165295585733187 0.082841734628977148 -0.091444910138117022
leaf_weight=0.73200598359108004 0.71841831505298603 1.4292001128196714 1.1994202733039854
leaf_count=3 3 6 5
internal_value=0 0.0440301 -0.0648472
internal_weight=0 2.16121 1.91784
internal_count=17 9 8
is_linear=0
shrinkage=0.05


Tree=7
num_leaves=4
num_cat=0
split_feature=10 11 5
split_gain=4.40326 2.32798 0.824896
threshold=368.00000000000006 16.500000000000004 3588.5000000000005
decision_type=2 2 2
left_child=1 -1 -2
right_child=2 -3 -4
leaf_value=-0.029077800943826289 -0.018258017435215702 0.080197360935630041 -0.087987688765819472
leaf_weight=0.73135751485824618 0.71651755273342121 1.4032004475593565 1.1846305578947065
leaf_count=3 3 6 5
internal_value=0 0.042356 -0.0621887
internal_weight=0 2.13456 1.90115
internal_count=17 9 8
is_linear=0
shrinkage=0.05


Tree=8
num_leaves=3
num_cat=0
split_feature=3 9
split_gain=5.34859 3.08418
threshold=-10728.448824883571 14208.000000000002
decision_type=2 2
left_child=-1 -2
right_child=1 -3
leaf_value=0.079664455229767075 -0.084999853832756378 0.033179988499603172
leaf_weight=0.91518767178058613 2.3793146014213566 0.70599547028541554
leaf_count=4 10 3
internal_value=0 -0.0576748
internal_weight=0 3.08531
internal_count=17 13
is_linear=0
shrinkage=0.05


Tree=9
num_leaves=3
num_cat=0
split_feature=3 9
split_gain=4.91326 2.84542
threshold=-10728.448824883571 14208.000000000002
decision_type=2 2
left_child=-1 -2
right_child=1 -3
leaf_value=0.077384896291146865 -0.082188198376598701 0.03154056644565989
leaf_weight=0.89556857943534884 2.3387323766946797 0.70562420785427082
leaf_count=4 10 3
internal_value=0 -0.055542
internal_weight=0 3.04436
internal_count=17 13
is_linear=0
shrinkage=0.05


end of trees

feature_importances:
AirConditioner_daytime=6
Microwave_daytime=5
edu_0=4
day_cos=3
ClothesWasher_daytime=3
RiceCooker_midnight=3
age=2
TV_daytime=1
IH_daytime=1

parameters:
[boosting: gbdt]
[objective: binary]
[metric: roc_auc]
[tree_learner: serial]
[device_type: cpu]
[data_sample_strategy: bagging]
[data: ]
[valid: ]
[num_iterations: 10000]
[learning_rate: 0.05]
[num_leaves: 14]
[num_threads: 0]
[seed: 0]
[deterministic: 0]
[force_col_wise: 0]
[force_row_wise: 0]
[histogram_pool_size: -1]
[max_depth: -1]
[min_data_in_leaf: 3]
[min_sum_hessian_in_leaf: 0.001]
[bagging_fraction: 0.427213]
[pos_bagging_fraction: 1]
[neg_bagging_fraction: 1]
[bagging_freq: 2]
[bagging_seed: 3]
[feature_fraction: 0.950188]
[feature_fraction_bynode: 1]
[feature_fraction_seed: 2]
[extra_trees: 0]
[extra_seed: 6]
[early_stopping_round: 0]
[early_stopping_min_delta: 0]
[first_metric_only: 0]
[max_delta_step: 0]
[lambda_l1: 0.0173041]
[lambda_l2: 0.00112726]
[linear_lambda: 0]
[min_gain_to_split: 0]
[drop_rate: 0.1]
[max_drop: 50]
[skip_drop: 0.5]
[xgboost_dart_mode: 0]
[uniform_drop: 0]
[drop_seed: 4]
[top_rate: 0.2]
[other_rate: 0.1]
[min_data_per_group: 100]
[max_cat_threshold: 32]
[cat_l2: 10]
[cat_smooth: 10]
[max_cat_to_onehot: 4]
[top_k: 20]
[monotone_constraints: ]
[monotone_constraints_method: basic]
[monotone_penalty: 0]
[feature_contri: ]
[forcedsplits_filename: ]
[refit_decay_rate: 0.9]
[cegb_tradeoff: 1]
[cegb_penalty_split: 0]
[cegb_penalty_feature_lazy: ]
[cegb_penalty_feature_coupled: ]
[path_smooth: 0]
[interaction_constraints: ]
[verbosity: -1]
[saved_feature_importance_type: 0]
[use_quantized_grad: 0]
[num_grad_quant_bins: 4]
[quant_train_renew_leaf: 0]
[stochastic_rounding: 1]
[linear_tree: 0]
[max_bin: 255]
[max_bin_by_feature: ]
[min_data_in_bin: 3]
[bin_construct_sample_cnt: 200000]
[data_random_seed: 1]
[is_enable_sparse: 1]
[enable_bundle: 1]
[use_missing: 1]
[zero_as_missing: 0]
[feature_pre_filter: 1]
[pre_partition: 0]
[two_round: 0]
[header: 0]
[label_column: ]
[weight_column: ]
[group_column: ]
[ignore_column: ]
[categorical_feature: ]
[forcedbins_filename: ]
[precise_float_parser: 0]
[parser_config_file: ]
[objective_seed: 5]
[num_class: 1]
[is_unbalance: 0]
[scale_pos_weight: 1]
[sigmoid: 1]
[boost_from_average: 1]
[reg_sqrt: 0]
[alpha: 0.9]
[fair_c: 1]
[poisson_max_delta_step: 0.7]
[tweedie_variance_power: 1.5]
[lambdarank_truncation_level: 30]
[lambdarank_norm: 1]
[label_gain: ]
[lambdarank_position_bias_regularization: 0]
[eval_at: ]
[multi_error_top_k: 1]
[auc_mu_weights: ]
[num_machines: 1]
[local_listen_port: 12400]
[time_out: 120]
[machine_list_filename: ]
[machines: ]
[gpu_platform_id: -1]
[gpu_device_id: -1]
[gpu_use_dp: 0]
[num_gpu: 1]

end of parameters

pandas_categorical:null
