tree
version=v4
num_class=1
num_tree_per_iteration=1
label_index=0
max_feature_idx=14
objective=binary sigmoid:1
feature_names=age edu_0 edu_1 day_cos day_sin AirConditioner_daytime AirConditioner_midnight ClothesWasher_daytime ClothesWasher_midnight Microwave_daytime RiceCooker_midnight TV_daytime IH_daytime day_sin_*_AirConditioner_daytime day_sin_*_Microwave_daytime
feature_infos=[0.16666666666666696:0.95833333333333348] [0:1] [0:1] [-27467.261951863988:28233.366375315662] [-27046.803692946673:28284.42604292812] [0:14184] [107:9652] [29:515] [0:926] [875:19243] [93:2256] [0:5143] [0:7141] [-363884884.36380106:151716714.44961724] [-352976182.14376563:452391419.10205978]
tree_sizes=836 1039 847 1038 844 1144 947 1050

Tree=0
num_leaves=8
num_cat=0
split_feature=5 5 8 9 3 5 3
split_gain=13.7626 2.96676 1.6952 1.59479 0.55439 0.51397 0.51397
threshold=5334.5000000000009 129.50000000000003 127.50000000000001 12523.500000000002 7337.7633337671514 3106.5000000000005 1.0000000180025095e-35
decision_type=2 2 2 2 2 2 2
left_child=1 2 4 -3 6 -5 -1
right_child=-2 3 -4 5 -6 -7 -8
leaf_value=-0.049289621111850354 0.093343012852430476 -0.095892062475029377 0.073932836372428548 -0.049289621111850375 -0.073932836372428534 0.049289621111850354 0.049289621111850354
leaf_weight=0.25 1.9999999999999998 3.2500000000000004 0.49999999999999989 0.24999999999999989 0.5 0.25 0.25
leaf_count=1 8 13 2 1 2 1 1
internal_value=0 -0.059462 0 -0.0831555 -0.0374928 0 0
internal_weight=0 5.25 1.5 3.75 1 0.5 0.5
internal_count=29 21 6 15 4 2 2
is_linear=0
shrinkage=0.05


Tree=1
num_leaves=9
num_cat=0
split_feature=0 12 7 3 7 11 11 3
split_gain=4.51893 4.36447 3.05143 2.26642 1.7302 2.10172 1.28996 0.529187
threshold=0.56250000000000033 2288.0000000000005 170.50000000000003 -12564.908179279601 461.50000000000006 4021.5000000000005 1.0000000180025095e-35 25896.300164518649
decision_type=2 2 2 2 2 2 2 2
left_child=1 -1 -3 -4 5 6 7 -2
right_child=4 2 3 -5 -6 -7 -8 -9
leaf_value=-0.068539719142573008 0.05393588575193127 -0.06943132564841388 -0.046987203700682371 0.088960287425910722 -0.044857737458857072 -0.044857737458857072 0.091725957842091602 -0.04585568925526106
leaf_weight=2.2459121495485306 0.24942617118358734 0.49885234236717257 0.24984821677207958 1.4974912852048869 0.24942617118358601 0.24942617118358601 2.7443933635950089 0.24965868890285492
leaf_count=9 1 2 1 6 1 1 11 1
internal_value=0 -0.0178507 0.0276532 0.0625038 0.0552532 0.065969 0.0783255 0
internal_weight=0 4.4921 2.24619 1.74734 3.74233 3.4929 3.24348 0.499085
internal_count=33 18 9 7 15 14 13 2
is_linear=0
shrinkage=0.05


Tree=2
num_leaves=7
num_cat=0
split_feature=5 14 10 5 14 3
split_gain=6.4066 2.65559 2.68127 1.59277 1.24818 2.87927
threshold=5334.5000000000009 11407988.329576949 637.50000000000011 386.00000000000006 147928343.3147935 1.0000000180025095e-35
decision_type=2 2 2 2 2 2
left_child=1 2 -1 -4 -3 -6
right_child=-2 4 3 -5 5 -7
leaf_value=0.079761757315673087 0.084943181009691518 -0.08589230878878551 0.051293875814518552 -0.074904109471987737 -0.075898026215494296 0.074572780691444324
leaf_weight=0.99420374631881692 1.9831604063510893 1.4940873086452486 0.24989001452922821 0.74495315551757812 0.74603879451751687 0.4999738335609436
leaf_count=4 8 6 1 3 3 2
internal_value=0 -0.0210463 0.0185318 -0.0310691 -0.0540666 -0.00586454
internal_weight=0 4.72915 1.98905 0.994843 2.7401 1.24601
internal_count=27 19 8 4 11 5
is_linear=0
shrinkage=0.05


Tree=3
num_leaves=9
num_cat=0
split_feature=0 10 11 0 4 0 4 4
split_gain=5.27871 3.34614 2.08764 1.81758 2.11368 1.20115 0.383517 0.455477
threshold=0.56250000000000033 201.50000000000003 4021.5000000000005 0.43750000000000028 -17255.368814769739 0.31250000000000028 26334.085646542091 27551.106867528226
decision_type=2 2 2 2 2 2 2 2
left_child=3 -2 -3 5 -5 -1 -7 -8
right_child=1 2 -4 4 -6 6 7 -9
leaf_value=-0.063003204446909933 -0.064194069639437898 0.085221139438890842 -0.039092727523131567 0.039464947910628864 -0.084869154994138746 0.062087225678048134 -0.046131545829742111 0.046709027873735147
leaf_weight=0.49257797002792336 0.49419136345386538 2.2187613844871525 0.24681687355041493 0.24705280363559756 2.4685825854539871 0.49117761850357056 0.24971207976341248 0.24980880320072174
leaf_count=2 2 9 1 1 10 2 1 1
internal_value=0 0.0415304 0.0677967 -0.0448197 -0.0690261 0 0.0313883 0
internal_weight=0 2.95977 2.46558 4.19891 2.71564 1.48328 0.990699 0.499521
internal_count=29 12 10 17 11 6 4 2
is_linear=0
shrinkage=0.05


Tree=4
num_leaves=7
num_cat=0
split_feature=9 9 2 14 7 8
split_gain=5.54756 2.26467 1.92069 2.26948 4.15008 0.80904
threshold=5235.5000000000009 3118.5000000000005 1.0000000180025095e-35 147928343.3147935 391.50000000000006 127.50000000000001
decision_type=2 2 2 2 2 2
left_child=1 5 3 -2 -5 -1
right_child=2 -3 -4 4 -6 -7
leaf_value=-0.037243233640928665 0.07352049510028684 -0.079967566449122576 0.081679215381580864 -0.077671979126911705 0.068229410908895949 0.059087332368414271
leaf_weight=0.24550266563892398 0.97635602951049838 1.9524779170751569 1.7168881595134733 1.2255849987268446 0.73002567887306202 0.48556588590145111
leaf_count=1 4 8 7 5 3 2
internal_value=0 -0.0509368 0.03875 0.00927346 -0.0170326 0.0105933
internal_weight=0 2.68355 4.64885 2.93197 1.95561 0.731069
internal_count=30 11 19 12 8 3
is_linear=0
shrinkage=0.05


Tree=5
num_leaves=10
num_cat=0
split_feature=12 13 10 10 8 8 13 8 8
split_gain=2.78076 1.40065 1.00123 1.00737 0.751655 0.727163 2.22845 0.408249 0.355319
threshold=369.50000000000006 40057081.935896516 371.00000000000006 1469.0000000000002 127.50000000000001 36.000000000000007 2337930.9464421109 127.50000000000001 145.00000000000003
decision_type=2 2 2 2 2 2 2 2 2
left_child=1 -1 4 5 -2 -4 -7 -8 -9
right_child=2 -3 3 -5 -6 6 7 8 -10
leaf_value=-0.073479011690958246 -0.058835101797311155 0.031211574867562888 0.076353597609356255 -0.031177011745754869 0.032225487573558871 0.075309663440088256 -0.057875842985876627 0.046908204117550104 -0.034511126755101207
leaf_weight=1.2062523216009138 0.4847726821899413 0.23957081139087666 1.683239400386811 0.23952965438365925 0.24074220657348633 0.98191297054290749 0.48275847733020782 0.24983750283718109 0.2431265264749527
leaf_count=5 2 1 7 1 1 4 2 1 1
internal_value=0 -0.0478007 0.0299457 0.0409535 -0.0124094 0.0490769 0.0191684 -0.0255191 0
internal_weight=0 1.44582 4.60592 3.8804 0.725515 3.64087 1.95764 0.975723 0.492964
internal_count=25 6 19 16 3 15 8 4 2
is_linear=0
shrinkage=0.05


Tree=6
num_leaves=8
num_cat=0
split_feature=5 14 2 12 6 5 14
split_gain=3.88885 4.87448 1.80478 1.83314 1.02197 0.790019 0.209909
threshold=5334.5000000000009 -35687840.80486732 1.0000000180025095e-35 5275.5000000000009 318.50000000000006 1306.5000000000002 11407988.329576949
decision_type=2 2 2 2 2 2 2
left_child=1 -1 3 4 6 -4 -3
right_child=-2 2 5 -5 -6 -7 -8
leaf_value=0.075530344910658131 0.071529964452023295 0.030897678013584558 0.061892170153289044 0.044766524776885482 -0.079694105953001429 -0.029897463441262231 -0.033210116002920481
leaf_weight=0.97600330412387837 1.4141087234020231 0.23919421434402544 0.49083966016769398 0.24940180778503407 3.1163246035575867 0.23795095086097717 0.24181322753429413
leaf_count=4 6 1 2 1 13 1 1
internal_value=0 -0.0208227 -0.0441557 -0.058635 -0.0692671 0.0158249 0
internal_weight=0 5.55153 4.57552 3.84673 3.59733 0.728791 0.481007
internal_count=29 23 19 16 15 3 2
is_linear=0
shrinkage=0.05


Tree=7
num_leaves=9
num_cat=0
split_feature=8 12 3 8 10 3 8 3
split_gain=1.58541 1.83284 2.92978 0.878122 1.06742 0.765553 0.705487 0.124436
threshold=434.00000000000006 369.50000000000006 -12564.908179279601 22.500000000000004 201.50000000000003 1.0000000180025095e-35 1.0000000180025095e-35 -8968.6659083694267
decision_type=2 2 2 2 2 2 2 2
left_child=1 -1 -3 6 -5 7 -4 -6
right_child=-2 2 3 4 5 -7 -8 -9
leaf_value=-0.072711534255056415 0.064595993984197103 -0.071180139996399897 0.02585964279579139 -0.03183599736312874 0.024263339468414857 0.072894493518644604 -0.059710141225727209 -0.02602666491270246
leaf_weight=1.4191405177116392 0.49224433302879322 1.1835477054119103 0.23229010403156358 0.24030038714408908 0.22978761792182922 1.4223853647708891 0.48398144543170929 0.23254369199275959
leaf_count=6 2 5 1 1 1 6 2 1
internal_value=0 -0.0235843 -0.00310189 0.0212829 0.0393365 0.0548846 -0.0156217 0
internal_weight=0 5.44398 4.02484 2.84129 2.12502 1.88472 0.716272 0.462331
internal_count=25 23 17 12 9 8 3 2
is_linear=0
shrinkage=0.05


end of trees

feature_importances:
ClothesWasher_midnight=9
day_cos=8
AirConditioner_daytime=7
RiceCooker_midnight=5
day_sin_*_Microwave_daytime=5
age=4
IH_daytime=4
day_sin=3
ClothesWasher_daytime=3
Microwave_daytime=3
TV_daytime=3
edu_1=2
day_sin_*_AirConditioner_daytime=2
AirConditioner_midnight=1

parameters:
[boosting: gbdt]
[objective: binary]
[metric: roc_auc]
[tree_learner: serial]
[device_type: cpu]
[data_sample_strategy: bagging]
[data: ]
[valid: ]
[num_iterations: 10000]
[learning_rate: 0.05]
[num_leaves: 15]
[num_threads: 0]
[seed: 0]
[deterministic: 0]
[force_col_wise: 0]
[force_row_wise: 0]
[histogram_pool_size: -1]
[max_depth: -1]
[min_data_in_leaf: 1]
[min_sum_hessian_in_leaf: 0.001]
[bagging_fraction: 0.725037]
[pos_bagging_fraction: 1]
[neg_bagging_fraction: 1]
[bagging_freq: 1]
[bagging_seed: 3]
[feature_fraction: 0.41425]
[feature_fraction_bynode: 1]
[feature_fraction_seed: 2]
[extra_trees: 0]
[extra_seed: 6]
[early_stopping_round: 0]
[early_stopping_min_delta: 0]
[first_metric_only: 0]
[max_delta_step: 0]
[lambda_l1: 0.239311]
[lambda_l2: 0.0144456]
[linear_lambda: 0]
[min_gain_to_split: 0]
[drop_rate: 0.1]
[max_drop: 50]
[skip_drop: 0.5]
[xgboost_dart_mode: 0]
[uniform_drop: 0]
[drop_seed: 4]
[top_rate: 0.2]
[other_rate: 0.1]
[min_data_per_group: 100]
[max_cat_threshold: 32]
[cat_l2: 10]
[cat_smooth: 10]
[max_cat_to_onehot: 4]
[top_k: 20]
[monotone_constraints: ]
[monotone_constraints_method: basic]
[monotone_penalty: 0]
[feature_contri: ]
[forcedsplits_filename: ]
[refit_decay_rate: 0.9]
[cegb_tradeoff: 1]
[cegb_penalty_split: 0]
[cegb_penalty_feature_lazy: ]
[cegb_penalty_feature_coupled: ]
[path_smooth: 0]
[interaction_constraints: ]
[verbosity: -1]
[saved_feature_importance_type: 0]
[use_quantized_grad: 0]
[num_grad_quant_bins: 4]
[quant_train_renew_leaf: 0]
[stochastic_rounding: 1]
[linear_tree: 0]
[max_bin: 255]
[max_bin_by_feature: ]
[min_data_in_bin: 3]
[bin_construct_sample_cnt: 200000]
[data_random_seed: 1]
[is_enable_sparse: 1]
[enable_bundle: 1]
[use_missing: 1]
[zero_as_missing: 0]
[feature_pre_filter: 1]
[pre_partition: 0]
[two_round: 0]
[header: 0]
[label_column: ]
[weight_column: ]
[group_column: ]
[ignore_column: ]
[categorical_feature: ]
[forcedbins_filename: ]
[precise_float_parser: 0]
[parser_config_file: ]
[objective_seed: 5]
[num_class: 1]
[is_unbalance: 0]
[scale_pos_weight: 1]
[sigmoid: 1]
[boost_from_average: 1]
[reg_sqrt: 0]
[alpha: 0.9]
[fair_c: 1]
[poisson_max_delta_step: 0.7]
[tweedie_variance_power: 1.5]
[lambdarank_truncation_level: 30]
[lambdarank_norm: 1]
[label_gain: ]
[lambdarank_position_bias_regularization: 0]
[eval_at: ]
[multi_error_top_k: 1]
[auc_mu_weights: ]
[num_machines: 1]
[local_listen_port: 12400]
[time_out: 120]
[machine_list_filename: ]
[machines: ]
[gpu_platform_id: -1]
[gpu_device_id: -1]
[gpu_use_dp: 0]
[num_gpu: 1]

end of parameters

pandas_categorical:null
