tree
version=v4
num_class=1
num_tree_per_iteration=1
label_index=0
max_feature_idx=14
objective=binary sigmoid:1
feature_names=age edu_0 edu_1 day_cos day_sin AirConditioner_daytime AirConditioner_midnight ClothesWasher_daytime ClothesWasher_midnight Microwave_daytime RiceCooker_midnight TV_daytime IH_daytime day_sin_*_AirConditioner_daytime day_sin_*_Microwave_daytime
feature_infos=[0.083333333333333481:1] [0:1] [0:1] [-27467.261951863988:28233.366375316866] [-27926.87089210856:28284.42604292812] [0:17035] [153:11144] [17:705] [0:1077] [1487:23382] [159:6705] [0:7230] [0:8210] [-237749513.56154338:307484242.99469119] [-441825756.21729302:544481575.94159627]
tree_sizes=607 550 545 548 546 848 845 959 642 848 539 541 646 642 647 647 644 641 645 647 851 854 968 855 861 646 854 647 648 650 851 756 653 655

Tree=0
num_leaves=5
num_cat=0
split_feature=7 8 3 3
split_gain=9.31699 3.27828 1.56345 1.79909
threshold=262.50000000000006 32.500000000000007 27073.141903632251 28233.366375316265
decision_type=2 2 2 2
left_child=1 -1 -2 -4
right_child=2 -3 3 -5
leaf_value=-0.090649497476879823 -0.098735474265085388 0.098320514799802083 0.090649497476879823 -0.090649497476879781
leaf_weight=0.24999999999999989 2.0000000000000004 1.4999999999999998 0.24999999999999989 0.25
leaf_count=1 8 6 1 1
internal_value=0 0.0703672 -0.0791736 0
internal_weight=0 1.75 2.5 0.5
internal_count=17 7 10 2
is_linear=0
shrinkage=0.05


Tree=1
num_leaves=4
num_cat=0
split_feature=1 12 3
split_gain=8.75821 3.56345 2.24253
threshold=1.0000000180025095e-35 3896.0000000000005 -1.0000000180025095e-35
decision_type=2 2 2
left_child=-1 -2 -3
right_child=1 2 -4
leaf_value=0.093459896477614934 -0.094300969142552621 -0.086335335474287817 0.090632184388086581
leaf_weight=1.2470742613077161 2.2447160631418233 0.24939168989658356 0.4987935721874236
leaf_count=5 9 1 2
internal_value=0 -0.0630298 0.0305568
internal_weight=0 2.9929 0.748185
internal_count=17 12 3
is_linear=0
shrinkage=0.05


Tree=2
num_leaves=4
num_cat=0
split_feature=1 10 3
split_gain=7.97228 3.24159 2.05102
threshold=1.0000000180025095e-35 535.00000000000011 18066.158880293315
decision_type=2 2 2
left_child=-1 2 -2
right_child=1 -3 -4
leaf_value=0.089473409101152479 -0.082869617027926931 -0.090252200053149143 0.0868554247932007
leaf_weight=1.2387545108795164 0.24787421524524722 2.2295438051223755 0.49556353688240051
leaf_count=5 1 9 2
internal_value=0 -0.0603214 0.0292055
internal_weight=0 2.97298 0.743438
internal_count=17 12 3
is_linear=0
shrinkage=0.05


Tree=3
num_leaves=4
num_cat=0
split_feature=2 10 0
split_gain=7.28532 2.96097 1.88222
threshold=1.0000000180025095e-35 535.00000000000011 0.68750000000000033
decision_type=2 2 2
left_child=1 2 -1
right_child=-2 -3 -4
leaf_value=0.083526892609811831 0.085983202690892865 -0.086715178454066497 -0.079780867550748952
leaf_weight=0.49061051011085544 1.2258616983890531 2.2060009688138962 0.24557007849216461
leaf_count=2 5 9 1
internal_value=0 -0.0579498 0.0280112
internal_weight=0 2.94218 0.736181
internal_count=17 12 3
is_linear=0
shrinkage=0.05


Tree=4
num_leaves=4
num_cat=0
split_feature=2 7 0
split_gain=6.68037 2.71428 1.73257
threshold=1.0000000180025095e-35 262.50000000000006 0.68750000000000033
decision_type=2 2 2
left_child=1 2 -1
right_child=-2 -3 -4
leaf_value=0.080571938876913246 0.082903992924044975 -0.083600644177533628 -0.077013856237419867
leaf_weight=0.48420089483261142 1.2091183364391325 2.1754182279109955 0.24259786307811737
leaf_count=2 5 9 1
internal_value=0 -0.0558571 0.026946
internal_weight=0 2.90222 0.726799
internal_count=17 12 3
is_linear=0
shrinkage=0.05


Tree=5
num_leaves=7
num_cat=0
split_feature=13 8 0 8 8 3
split_gain=3.4579 3.9752 3.59425 1.98161 2.98408 0.0410669
threshold=-8851756.6700471509 1.0000000180025095e-35 0.31250000000000028 56.000000000000007 317.50000000000006 27404.079745409323
decision_type=2 2 2 2 2 2
left_child=-1 -2 3 -3 -5 -4
right_child=1 2 5 4 -6 -7
leaf_value=-0.078877790195205313 -0.093534085558165669 0.10529439706625028 0.081809185950456942 -0.098474132828404698 0.09505071629003993 0.10949425826537469
leaf_weight=0.71270598471164692 0.48442207276821125 0.24511732161045097 2.1499931514263158 0.72487542033195496 0.24946743249893188 0.48806364834308613
leaf_count=3 2 1 9 3 1 2
internal_value=0 0.0382712 0.0553421 -0.0153363 -0.0476534 0.0879315
internal_weight=0 4.34194 3.85752 1.21946 0.974343 2.63806
internal_count=21 18 16 5 4 11
is_linear=0
shrinkage=0.05


Tree=6
num_leaves=7
num_cat=0
split_feature=14 5 8 3 5 6
split_gain=3.58239 6.35683 2.55245 2.18291 0.0318911 0.00448613
threshold=-40455697.321531624 1913.5000000000002 317.50000000000006 18066.158880293315 104.50000000000001 278.50000000000006
decision_type=2 2 2 2 2 2
left_child=-1 2 4 -3 -2 -5
right_child=1 3 -4 5 -6 -7
leaf_value=0.086723716327471917 -0.10907004253392885 -0.071284365365068492 0.077377774589323378 0.10320303662204196 -0.080058650815721291 0.077338663800772228
leaf_weight=1.4317671954631803 0.49088510870933566 0.23306332528591145 0.24304296076297749 0.49321913719177224 1.1790509670972822 0.9335416853427887
leaf_count=6 2 1 1 2 5 4
internal_value=0 -0.00625851 -0.0680419 0.0647897 -0.0901052 0.0879504
internal_weight=0 3.5728 1.91298 1.65982 1.66994 1.42676
internal_count=21 15 8 7 7 6
is_linear=0
shrinkage=0.05


Tree=7
num_leaves=8
num_cat=0
split_feature=13 8 3 12 10 2 12
split_gain=2.9153 3.32172 1.51322 2.22633 1.71683 1.68753 0.00772995
threshold=-8851756.6700471509 1.0000000180025095e-35 18066.158880293315 2694.0000000000005 358.00000000000006 1.0000000180025095e-35 3896.0000000000005
decision_type=2 2 2 2 2 2 2
left_child=-1 -2 3 -3 5 -4 -6
right_child=1 2 4 -5 6 -7 -8
leaf_value=-0.074247961154035716 -0.085815616419122817 0.072728189520795197 0.074848829073611928 -0.078410574508306422 0.095001770810820632 -0.10304758302004982 0.075560084767584523
leaf_weight=0.68382525444030751 0.47836393117904652 0.45504984259605441 0.23957861959934268 0.4723270982503891 1.2226511538028719 0.24635745584964752 1.1421224325895307
leaf_count=3 2 2 1 2 5 1 5
internal_value=0 0.0353287 0.0511567 -0.00408328 0.0690793 -0.0155616 0.0865342
internal_weight=0 4.25645 3.77809 0.927377 2.85071 0.485936 2.36477
internal_count=21 18 16 4 12 2 10
is_linear=0
shrinkage=0.05


Tree=8
num_leaves=5
num_cat=0
split_feature=4 0 6 4
split_gain=3.16352 3.93611 3.49695 1.81518
threshold=-9769.7434456559367 0.68750000000000033 554.50000000000011 23286.647271790171
decision_type=2 2 2 2
left_child=-1 2 -2 -3
right_child=1 3 -4 -5
leaf_value=0.081853318437650965 0.071136553333333977 0.083054364897144975 -0.083750041191673952 -0.067080859226766029
leaf_weight=1.4016599208116529 0.44641648232936937 1.1624476313591001 1.6305528134107588 0.2224607616662978
leaf_count=6 2 5 7 1
internal_value=0 -0.00657219 -0.0499415 0.0580797
internal_weight=0 3.46188 2.07697 1.38491
internal_count=21 15 9 6
is_linear=0
shrinkage=0.05


Tree=9
num_leaves=7
num_cat=0
split_feature=14 5 11 5 13 0
split_gain=2.79792 4.95228 1.04659 0.89412 0.502093 1.14794
threshold=-40455697.321531624 1913.5000000000002 833.00000000000011 965.50000000000011 135178390.56363988 0.68750000000000033
decision_type=2 2 2 2 2 2
left_child=-1 2 -2 -4 -3 -6
right_child=1 4 3 -5 5 -7
leaf_value=0.078538661151620795 -0.082394143526169292 0.082134953814306064 0.070215630169223373 -0.064570397924743686 0.069387927800846197 -0.065443689051399981
leaf_weight=1.360467344522476 1.3867581188678744 0.92540030181407906 0.23068949580192555 0.21437214314937592 0.43565255403518677 0.21734657883644104
leaf_count=6 6 4 1 1 2 1
internal_value=0 -0.00567274 -0.0612892 0.00490245 0.0587056 0.0235074
internal_weight=0 3.41022 1.83182 0.445062 1.5784 0.652999
internal_count=21 15 8 2 7 3
is_linear=0
shrinkage=0.05


Tree=10
num_leaves=4
num_cat=0
split_feature=4 13 10
split_gain=4.93312 2.59841 3.54405
threshold=-9769.7434456559367 33101262.776798129 1025.5000000000002
decision_type=2 2 2
left_child=-1 -2 -3
right_child=1 2 -4
leaf_value=0.080380062967578034 -0.08194864883435822 0.073572148829408379 -0.08995591310918899
leaf_weight=1.387281462550163 1.391538202762604 0.8859414607286451 0.49741673469543457
leaf_count=6 6 4 2
internal_value=0 -0.0342773 0.0141117
internal_weight=0 2.7749 1.38336
internal_count=18 12 6
is_linear=0
shrinkage=0.05


Tree=11
num_leaves=4
num_cat=0
split_feature=7 5 0
split_gain=5.80573 2.59604 1.80674
threshold=262.50000000000006 104.50000000000001 0.20833333333333351
decision_type=2 2 2
left_child=1 2 -1
right_child=-2 -3 -4
leaf_value=0.074502555482421684 -0.079271898008447861 0.075712343531971232 -0.086708639721506386
leaf_weight=0.23903366923332248 1.364759176969528 1.9842312484979627 0.49423648416996002
leaf_count=1 6 9 2
internal_value=0 0.0462168 -0.0332169
internal_weight=0 2.7175 0.73327
internal_count=18 12 3
is_linear=0
shrinkage=0.05


Tree=12
num_leaves=5
num_cat=0
split_feature=4 4 8 0
split_gain=4.22565 1.87012 1.74937 1.59108
threshold=-9769.7434456559367 17919.106368581728 116.50000000000001 0.56250000000000033
decision_type=2 2 2 2
left_child=-1 2 -2 -4
right_child=1 -3 3 -5
leaf_value=0.075951992571529375 -0.083032800708468246 0.064644575810207647 -0.063779801061797453 0.070940747061078821
leaf_weight=1.3300172984600069 1.4343104958534247 0.39872378110885609 0.39064496755599964 0.44122445583343506
leaf_count=6 6 2 2 2
internal_value=0 -0.0323621 -0.0500056 0.00743791
internal_weight=0 2.6649 2.26618 0.831869
internal_count=18 12 10 4
is_linear=0
shrinkage=0.05


Tree=13
num_leaves=5
num_cat=0
split_feature=5 10 5 10
split_gain=2.30826 1.59677 3.01214 1.77603
threshold=7627.5000000000009 535.00000000000011 104.50000000000001 4480.5000000000009
decision_type=2 2 2 2
left_child=1 2 -1 -3
right_child=-2 3 -4 -5
leaf_value=-0.080488009172899319 0.074507172037869759 -0.074907305988051079 0.068259662543722385 0.070084176467880593
leaf_weight=0.48269942402839738 0.8700767010450362 1.305922284722328 1.0149836689233778 0.23038305342197407
leaf_count=2 4 6 5 1
internal_value=0 -0.0168292 0.0196863 -0.0523081
internal_weight=0 3.03399 1.49768 1.53631
internal_count=18 14 7 7
is_linear=0
shrinkage=0.05


Tree=14
num_leaves=5
num_cat=0
split_feature=7 14 9 4
split_gain=4.61462 1.45966 0.603643 1.38037
threshold=262.50000000000006 316870385.37168115 2784.5000000000005 -1.0000000180025095e-35
decision_type=2 2 2 2
left_child=1 2 3 -1
right_child=-2 -3 -4 -5
leaf_value=-0.076641626780819427 -0.073064426290369772 -0.071199307488762423 0.07103189608311801 0.06752374185941433
leaf_weight=0.24212461709976196 1.2733408659696577 0.23288193345069874 1.6406435370445249 0.41843321919441345
leaf_count=1 6 1 8 2
internal_value=0 0.0427104 0.0549282 0.0135771
internal_weight=0 2.53408 2.3012 0.660558
internal_count=18 12 11 3
is_linear=0
shrinkage=0.05


Tree=15
num_leaves=5
num_cat=0
split_feature=4 3 0 1
split_gain=3.47288 1.81632 1.24166 1.22537
threshold=8387.4561613225833 27404.079745409323 0.85416666666666707 1.0000000180025095e-35
decision_type=2 2 2 2
left_child=1 -1 -3 -2
right_child=3 2 -4 -5
leaf_value=0.072010577861620115 0.056732416017906628 -0.074203204998371575 0.065154679613634706 -0.075243071822166788
leaf_weight=1.2478657364845278 0.17934121191501606 0.45837461948394764 0.21638160943984985 1.5259662568569181
leaf_count=6 1 2 1 7
internal_value=0 0.0367033 -0.0285457 -0.0606661
internal_weight=0 1.92262 0.674756 1.70531
internal_count=17 9 3 8
is_linear=0
shrinkage=0.05


Tree=16
num_leaves=5
num_cat=0
split_feature=4 8 4 1
split_gain=3.22333 1.29953 1.55285 1.14209
threshold=8387.4561613225833 116.50000000000001 -7803.4598328094735 1.0000000180025095e-35
decision_type=2 2 2 2
left_child=1 2 -1 -2
right_child=3 -3 -4 -5
leaf_value=0.078508040107413482 0.0557551077936769 0.067321675408357526 -0.072198464860788611 -0.073392413981402033
leaf_weight=0.24431827664375305 0.17391346395015705 1.1800681203603742 0.44845555722713504 1.4877870976924894
leaf_count=1 1 6 2 7
internal_value=0 0.0358502 -0.0179439 -0.0591688
internal_weight=0 1.87284 0.692774 1.6617
internal_count=17 9 3 8
is_linear=0
shrinkage=0.05


Tree=17
num_leaves=5
num_cat=0
split_feature=14 3 5 5
split_gain=2.9964 1.57692 1.07335 1.06641
threshold=33180544.926387396 27404.079745409323 7627.5000000000009 7627.5000000000009
decision_type=2 2 2 2
left_child=1 -1 -3 -2
right_child=3 2 -4 -5
leaf_value=0.068976907873797344 -0.071705610157698912 -0.070370665239757199 0.062191233984227635 0.054825903883379212
leaf_weight=1.1791959851980212 1.4482070058584211 0.43797883391380299 0.20535275340080261 0.1685553342103957
leaf_count=6 7 2 1 1
internal_value=0 0.0350595 -0.0270639 -0.0577964
internal_weight=0 1.82253 0.643332 1.61676
internal_count=17 9 3 8
is_linear=0
shrinkage=0.05


Tree=18
num_leaves=5
num_cat=0
split_feature=4 3 0 2
split_gain=2.78936 1.47146 1.00145 0.997411
threshold=8387.4561613225833 27404.079745409323 0.85416666666666707 1.0000000180025095e-35
decision_type=2 2 2 2
left_child=1 -1 -3 -2
right_child=3 2 -4 -5
leaf_value=0.067648766305260677 -0.070162584411273862 -0.068697063487439883 0.060898385985903414 0.053939949482636577
leaf_weight=1.1435977220535281 1.4076039195060728 0.42706981301307667 0.1998685896396637 0.16328051686286915
leaf_count=6 7 2 1 1
internal_value=0 0.03434 -0.0263748 -0.0565337
internal_weight=0 1.77054 0.626938 1.57088
internal_count=17 9 3 8
is_linear=0
shrinkage=0.05


Tree=19
num_leaves=5
num_cat=0
split_feature=4 3 0 1
split_gain=2.59996 1.37466 0.935698 0.93431
threshold=8387.4561613225833 27404.079745409323 0.85416666666666707 1.0000000180025095e-35
decision_type=2 2 2 2
left_child=1 -1 -3 -2
right_child=3 2 -4 -5
leaf_value=0.066421896219815812 0.053092916113413206 -0.067158524517150611 0.059687146267017911 -0.068746361604488437
leaf_weight=1.107829734683037 0.15810051560401905 0.41583818197250355 0.19434896111488342 1.3663068264722822
leaf_count=6 1 2 1 7
internal_value=0 0.0336758 -0.0257347 -0.0553676
internal_weight=0 1.71802 0.610187 1.52441
internal_count=17 9 3 8
is_linear=0
shrinkage=0.05


Tree=20
num_leaves=7
num_cat=0
split_feature=8 9 14 5 1 14
split_gain=2.85818 0.853425 1.17683 0.5447 0.497943 0.279446
threshold=116.50000000000001 5284.0000000000009 316870385.37168115 7627.5000000000009 1.0000000180025095e-35 -20638167.897137824
decision_type=2 2 2 2 2 2
left_child=3 -2 -3 5 -5 -1
right_child=1 2 -4 4 -6 -7
leaf_value=-0.13441977658049684 -0.062580398418405722 0.066888232181589249 -0.061091005165757939 0.052280954727462227 -0.060277592475386735 -0.069745902006191463
leaf_weight=0.2225327044725417 0.20692206919193257 0.91937740147113778 0.20071224868297577 0.15302479267120361 0.19708599150180806 1.4210638850927355
leaf_count=1 1 5 1 1 1 7
internal_value=0 0.0255848 0.0429979 -0.068465 -0.0103731 -0.0804016
internal_weight=0 1.32701 1.12009 1.99371 0.350111 1.6436
internal_count=17 7 6 10 2 8
is_linear=0
shrinkage=0.05


Tree=21
num_leaves=7
num_cat=0
split_feature=1 3 4 5 7 4
split_gain=2.09769 1.1376 0.734975 0.594048 0.937699 0.197565
threshold=1.0000000180025095e-35 27404.079745409323 -18805.053332961656 3486.5000000000005 376.50000000000006 -9769.7434456559367
decision_type=2 2 2 2 2 2
left_child=1 -1 -2 5 -5 -4
right_child=2 -3 3 4 -6 -7
leaf_value=0.064378134909361215 0.049863427876343527 -0.06314059163450042 -0.12360145702748751 0.062743116211531696 -0.063246023671039528 -0.068104997041620971
leaf_weight=0.69337862730026278 0.13745117187500078 0.20911580324172974 0.23172494769096452 0.20756718516349781 0.38540312647819519 1.3729671239852894
leaf_count=4 1 1 1 1 2 7
internal_value=0 0.0337654 -0.0551196 -0.0622334 -0.0181176 -0.0779171
internal_weight=0 0.902494 2.33511 2.19766 0.59297 1.60469
internal_count=17 5 12 11 3 8
is_linear=0
shrinkage=0.05


Tree=22
num_leaves=8
num_cat=0
split_feature=8 3 0 9 2 8 3
split_gain=2.46396 0.747001 1.03148 0.446984 0.439279 0.0329797 0.0560144
threshold=116.50000000000001 26784.260954505899 0.31250000000000028 15637.500000000002 1.0000000180025095e-35 1.0000000180025095e-35 -1.0000000180025095e-35
decision_type=2 2 2 2 2 2 2
left_child=3 2 -2 5 -5 6 -1
right_child=1 -3 -4 4 -6 -7 -8
leaf_value=-0.11475263819148536 -0.058564216647525785 -0.059893873253814636 0.064641909944679762 -0.058184062287673949 0.050563321512607208 -0.067163887397271679 -0.057923341782729842
leaf_weight=0.23874391615390778 0.18890075385570504 0.19531726837158192 0.86344097554683685 0.18698467314243306 0.14201182126998901 1.1511149257421491 0.18564981222152743
leaf_count=1 1 1 5 1 1 6 1
internal_value=0 0.0246954 0.0415458 -0.0650374 -0.0104566 -0.0759916 -0.0946943
internal_weight=0 1.24766 1.05234 1.90451 0.328996 1.57551 0.424394
internal_count=17 7 6 10 2 8 2
is_linear=0
shrinkage=0.05


Tree=23
num_leaves=7
num_cat=0
split_feature=8 9 0 9 1 4
split_gain=2.28589 0.700428 0.969323 0.411066 0.413491 0.0908461
threshold=116.50000000000001 5284.0000000000009 0.31250000000000028 15637.500000000002 1.0000000180025095e-35 -7803.4598328094735
decision_type=2 2 2 2 2 2
left_child=3 -2 -3 5 -5 -1
right_child=1 2 -4 4 -6 -7
leaf_value=-0.10738275237891054 -0.058743177093243441 -0.057489671727786344 0.06361124478097821 0.049843477668654199 -0.057130442295066003 -0.065878448336270976
leaf_weight=0.2438548058271407 0.18979026377201069 0.18339239060878731 0.83467288315296173 0.13732075691223145 0.18148773908615101 1.2951896786689761
leaf_count=1 1 1 5 1 1 7
internal_value=0 0.0241761 0.0408017 -0.0635126 -0.0102336 -0.0741044
internal_weight=0 1.20786 1.01807 1.85785 0.318808 1.53904
internal_count=17 7 6 10 2 8
is_linear=0
shrinkage=0.05


Tree=24
num_leaves=7
num_cat=0
split_feature=1 0 14 13 0 14
split_gain=1.70242 0.936436 0.586675 0.690157 0.540427 0.0629684
threshold=1.0000000180025095e-35 0.56250000000000033 -179101003.69303036 135178390.56363988 0.68750000000000033 -40455697.321531624
decision_type=2 2 2 2 2 2
left_child=1 -1 -2 5 -5 -4
right_child=2 -3 3 4 -6 -7
leaf_value=-0.059124733650636835 0.047419091089422584 0.06146649069926461 -0.10115120831466698 0.058877332669718542 -0.05574615627718188 -0.064669597760295947
leaf_weight=0.19165998697280917 0.12145810574293214 0.62705855071544647 0.24729508161544878 0.19045183062553395 0.1738627552986145 1.4255623221397389
leaf_count=1 1 4 1 1 1 8
internal_value=0 0.0321407 -0.0516212 -0.0580959 0.00361772 -0.0715118
internal_weight=0 0.818719 2.15863 2.03717 0.364315 1.67286
internal_count=17 5 12 11 2 9
is_linear=0
shrinkage=0.05


Tree=25
num_leaves=5
num_cat=0
split_feature=8 0 13 9
split_gain=2.01936 1.77634 1.00837 0.646755
threshold=116.50000000000001 0.85416666666666707 -8851756.6700471509 15637.500000000002
decision_type=2 2 2 2
left_child=1 3 -2 -1
right_child=2 -3 -4 -5
leaf_value=-0.062462476217897016 -0.056511127926026319 0.087520895410363148 0.064054112132073723 0.048301815905445411
leaf_weight=1.2829035222530367 0.17813159525394429 0.24968773126602162 1.3552444726228712 0.12722176313400257
leaf_count=8 1 1 8 1
internal_value=0 -0.0297094 0.0492788 -0.0517031
internal_weight=0 1.65981 1.53338 1.41013
internal_count=19 10 9 9
is_linear=0
shrinkage=0.05


Tree=26
num_leaves=7
num_cat=0
split_feature=2 4 12 10 12 4
split_gain=1.23847 1.29389 0.947122 0.694978 0.526775 0.294181
threshold=1.0000000180025095e-35 8387.4561613225833 3896.0000000000005 1801.5000000000002 1004.5000000000001 -7803.4598328094735
decision_type=2 2 2 2 2 2
left_child=1 3 -3 4 -1 -6
right_child=-2 2 -4 -5 5 -7
leaf_value=0.073393826395934503 0.061648915877418657 -0.061645542142362508 0.056643452722229232 -0.05554494370477097 0.04594420508985126 -0.052039767403390794
leaf_weight=0.60920962691307134 0.77983983606100071 1.0854040831327436 0.17885626852512349 0.17271798849105835 0.11196289211511612 0.15149877965450287
leaf_count=3 5 7 1 1 1 1
internal_value=0 -0.0103068 -0.0440287 0.030368 0.0486035 -0.0093775
internal_weight=0 2.30965 1.26426 1.04539 0.872671 0.263462
internal_count=19 14 8 6 5 2
is_linear=0
shrinkage=0.05


Tree=27
num_leaves=5
num_cat=0
split_feature=8 0 10 2
split_gain=1.76174 1.55107 0.894084 0.57096
threshold=116.50000000000001 0.85416666666666707 1801.5000000000002 1.0000000180025095e-35
decision_type=2 2 2 2
left_child=1 3 -2 -1
right_child=2 -3 -4 -5
leaf_value=-0.060844726715276576 0.062197016031722389 0.081101876084755581 -0.054625742777092867 0.046825536441824606
leaf_weight=1.1926136761903765 1.2628750652074812 0.24667653441429127 0.16737723350524891 0.11761069297790516
leaf_count=8 8 1 1 1
internal_value=0 -0.0285212 0.047727 -0.0503767
internal_weight=0 1.5569 1.43025 1.31022
internal_count=19 10 9 9
is_linear=0
shrinkage=0.05


Tree=28
num_leaves=5
num_cat=0
split_feature=7 1 7 9
split_gain=2.41993 0.912367 0.750291 0.372777
threshold=262.50000000000006 1.0000000180025095e-35 129.00000000000003 10304.000000000002
decision_type=2 2 2 2
left_child=2 -2 3 -1
right_child=1 -3 -4 -5
leaf_value=0.046027106066213817 0.056639302481413072 -0.059174412024475424 0.06555203402349187 -0.059556029387178647
leaf_weight=0.11249014735221896 0.17883361876010884 1.1167277023196218 1.2837093248963354 0.1937292069196701
leaf_count=1 1 8 8 1
internal_value=0 -0.0423132 0.0489719 -0.0196695
internal_weight=0 1.29556 1.58993 0.306219
internal_count=19 9 10 2
is_linear=0
shrinkage=0.05


Tree=29
num_leaves=5
num_cat=0
split_feature=7 2 7 14
split_gain=2.26805 0.861649 0.704348 0.350978
threshold=262.50000000000006 1.0000000180025095e-35 129.00000000000003 218637427.78976431
decision_type=2 2 2 2
left_child=2 -2 3 -1
right_child=1 -3 -4 -5
leaf_value=0.045426081832889029 -0.058529960134927728 0.055666691217374754 0.064568981259552988 -0.058425116143695992
leaf_weight=0.10868939012289081 1.0739176794886587 0.17341171205043782 1.2395712360739706 0.18820382654666901
leaf_count=1 8 1 8 1
internal_value=0 -0.0417617 0.048201 -0.0192616
internal_weight=0 1.24733 1.53646 0.296893
internal_count=19 9 10 2
is_linear=0
shrinkage=0.05


Tree=30
num_leaves=7
num_cat=0
split_feature=3 7 0 7 4 4
split_gain=1.7483 1.11756 0.684803 0.252668 0.330723 0.0324903
threshold=20715.296603446204 262.50000000000006 0.68750000000000033 168.00000000000003 17919.106368581728 23286.647271790171
decision_type=2 2 2 2 2 2
left_child=3 -2 -3 4 -1 -5
right_child=1 2 -4 5 -6 -7
leaf_value=0.044836702877187107 0.05754952480870984 -0.055903718227123124 0.054741713669305504 -0.098536404188148866 -0.057358269704359581 -0.061690643586570476
leaf_weight=0.10501676052808784 0.88146347552537896 0.50038637220859528 0.1680607795715332 0.24839891493320465 0.18269932270050049 0.50970901548862457
leaf_count=1 7 4 1 1 1 3
internal_value=0 0.021155 -0.0268875 -0.0616855 -0.0188687 -0.0766268
internal_weight=0 1.54991 0.668447 1.04582 0.287716 0.758108
internal_count=18 12 5 6 2 4
is_linear=0
shrinkage=0.05


Tree=31
num_leaves=6
num_cat=0
split_feature=1 11 12 0 10
split_gain=1.68889 0.795922 0.934069 0.46989 0.0398774
threshold=1.0000000180025095e-35 833.00000000000011 7847.5000000000009 0.68750000000000033 305.50000000000006
decision_type=2 2 2 2 2
left_child=-1 2 4 -3 -2
right_child=1 3 -4 -5 -6
leaf_value=0.056853241712454587 -0.093555781612198477 0.056102569651669501 0.048023905007793771 -0.049341803122781698 -0.060565838672595941
leaf_weight=0.63418900221586239 0.24976098537445057 0.29883164167404186 0.17811028659343708 0.13403752446174622 1.0167687088251112
leaf_count=5 1 2 2 1 7
internal_value=0 -0.03608 -0.0537393 0.0221666 -0.0688173
internal_weight=0 1.87751 1.44464 0.432869 1.26653
internal_count=18 13 10 3 8
is_linear=0
shrinkage=0.05


Tree=32
num_leaves=5
num_cat=0
split_feature=8 14 13 13
split_gain=1.79193 1.23525 0.64624 0.0267415
threshold=116.50000000000001 316870385.37168115 -8851756.6700471509 -2057336.6773373426
decision_type=2 2 2 2
left_child=3 2 -2 -1
right_child=1 -3 -4 -5
leaf_value=-0.089222415139959738 -0.050240959011803282 -0.060192368937194457 0.057244108016831101 -0.056909035961131407
leaf_weight=0.24993722140789032 0.13991481065750111 0.34709160029888142 1.0691567361354826 0.62160708010196719
leaf_count=1 1 2 9 5
internal_value=0 0.0200266 0.0439244 -0.0685042
internal_weight=0 1.55616 1.20907 0.871544
internal_count=18 12 10 6
is_linear=0
shrinkage=0.05


Tree=33
num_leaves=5
num_cat=0
split_feature=8 4 13 3
split_gain=1.67367 1.16245 0.612452 0.0125235
threshold=116.50000000000001 27653.199649769962 -8851756.6700471509 -1.0000000180025095e-35
decision_type=2 2 2 2
left_child=3 2 -2 -1
right_child=1 -3 -4 -5
leaf_value=-0.085417851993209851 -0.04953148965913258 -0.059241900625837431 0.056720886079120306 -0.056326585619350472
leaf_weight=0.24908840656280518 0.13527983427047718 0.33569635450839985 1.0263700410723684 0.59748907387256656
leaf_count=1 1 2 9 5
internal_value=0 0.0197323 0.0434435 -0.0671971
internal_weight=0 1.49735 1.16165 0.846577
internal_count=18 12 10 6
is_linear=0
shrinkage=0.05


end of trees

feature_importances:
day_sin=19
age=18
day_cos=16
ClothesWasher_midnight=16
edu_0=11
AirConditioner_daytime=11
ClothesWasher_daytime=11
day_sin_*_Microwave_daytime=10
RiceCooker_midnight=9
day_sin_*_AirConditioner_daytime=9
edu_1=8
Microwave_daytime=7
IH_daytime=6
AirConditioner_midnight=2
TV_daytime=2

parameters:
[boosting: gbdt]
[objective: binary]
[metric: roc_auc]
[tree_learner: serial]
[device_type: cpu]
[data_sample_strategy: bagging]
[data: ]
[valid: ]
[num_iterations: 10000]
[learning_rate: 0.05]
[num_leaves: 22]
[num_threads: 0]
[seed: 0]
[deterministic: 0]
[force_col_wise: 0]
[force_row_wise: 0]
[histogram_pool_size: -1]
[max_depth: -1]
[min_data_in_leaf: 1]
[min_sum_hessian_in_leaf: 0.001]
[bagging_fraction: 0.430768]
[pos_bagging_fraction: 1]
[neg_bagging_fraction: 1]
[bagging_freq: 5]
[bagging_seed: 3]
[feature_fraction: 0.507889]
[feature_fraction_bynode: 1]
[feature_fraction_seed: 2]
[extra_trees: 0]
[extra_seed: 6]
[early_stopping_round: 0]
[early_stopping_min_delta: 0]
[first_metric_only: 0]
[max_delta_step: 0]
[lambda_l1: 0.00383214]
[lambda_l2: 0.0236738]
[linear_lambda: 0]
[min_gain_to_split: 0]
[drop_rate: 0.1]
[max_drop: 50]
[skip_drop: 0.5]
[xgboost_dart_mode: 0]
[uniform_drop: 0]
[drop_seed: 4]
[top_rate: 0.2]
[other_rate: 0.1]
[min_data_per_group: 100]
[max_cat_threshold: 32]
[cat_l2: 10]
[cat_smooth: 10]
[max_cat_to_onehot: 4]
[top_k: 20]
[monotone_constraints: ]
[monotone_constraints_method: basic]
[monotone_penalty: 0]
[feature_contri: ]
[forcedsplits_filename: ]
[refit_decay_rate: 0.9]
[cegb_tradeoff: 1]
[cegb_penalty_split: 0]
[cegb_penalty_feature_lazy: ]
[cegb_penalty_feature_coupled: ]
[path_smooth: 0]
[interaction_constraints: ]
[verbosity: -1]
[saved_feature_importance_type: 0]
[use_quantized_grad: 0]
[num_grad_quant_bins: 4]
[quant_train_renew_leaf: 0]
[stochastic_rounding: 1]
[linear_tree: 0]
[max_bin: 255]
[max_bin_by_feature: ]
[min_data_in_bin: 3]
[bin_construct_sample_cnt: 200000]
[data_random_seed: 1]
[is_enable_sparse: 1]
[enable_bundle: 1]
[use_missing: 1]
[zero_as_missing: 0]
[feature_pre_filter: 1]
[pre_partition: 0]
[two_round: 0]
[header: 0]
[label_column: ]
[weight_column: ]
[group_column: ]
[ignore_column: ]
[categorical_feature: ]
[forcedbins_filename: ]
[precise_float_parser: 0]
[parser_config_file: ]
[objective_seed: 5]
[num_class: 1]
[is_unbalance: 0]
[scale_pos_weight: 1]
[sigmoid: 1]
[boost_from_average: 1]
[reg_sqrt: 0]
[alpha: 0.9]
[fair_c: 1]
[poisson_max_delta_step: 0.7]
[tweedie_variance_power: 1.5]
[lambdarank_truncation_level: 30]
[lambdarank_norm: 1]
[label_gain: ]
[lambdarank_position_bias_regularization: 0]
[eval_at: ]
[multi_error_top_k: 1]
[auc_mu_weights: ]
[num_machines: 1]
[local_listen_port: 12400]
[time_out: 120]
[machine_list_filename: ]
[machines: ]
[gpu_platform_id: -1]
[gpu_device_id: -1]
[gpu_use_dp: 0]
[num_gpu: 1]

end of parameters

pandas_categorical:null
