tree
version=v4
num_class=1
num_tree_per_iteration=1
label_index=0
max_feature_idx=14
objective=binary sigmoid:1
feature_names=age edu_0 edu_1 day_cos day_sin AirConditioner_daytime AirConditioner_midnight ClothesWasher_daytime ClothesWasher_midnight Microwave_daytime RiceCooker_midnight TV_daytime IH_daytime day_sin_*_AirConditioner_daytime day_sin_*_Microwave_daytime
feature_infos=[0.083333333333333481:1] [0:1] [0:1] [-28280.49728486091:28258.499601179032] [-28121.143267302396:28263.474768540877] [0:15522] [0:24086] [0:607] [0:1298] [0:18697] [12:1415] [0:4079] [0:9339] [-294814450.51317573:263111782.1285826] [-422550862.85317016:436983891.58956188]
tree_sizes=977 848 1044 849 944 850 851 949 841 847 844 942 948 843 1039 844 851 848 947 853 957 856 853 948 960 953 951

Tree=0
num_leaves=9
num_cat=0
split_feature=7 12 3 3 3 0 8 0
split_gain=10.6942 4.96355 4.84496 3.3268 5.88708 3.12039 1.05812 2.57215
threshold=67.500000000000014 4885.0000000000009 -23324.219428429791 20019.496565362861 24656.793408197565 0.66666666666666685 656.50000000000011 0.4791666666666668
decision_type=2 2 2 2 2 2 2 2
left_child=-1 2 -2 6 -5 -3 -4 -8
right_child=1 5 3 4 -6 -7 7 -9
leaf_value=0.099615743774076781 0.098465703257571924 -0.096938651552602131 -0.099763480712342534 0.098976327958698915 -0.098976327958698873 0.09923194278037771 -0.098465703257571743 0.09693865155260209
leaf_weight=1.9999999999999998 0.499999999999999 0.24999999999999989 3.2500000000000009 0.74999999999999978 0.75 0.99999999999999989 0.49999999999999989 0.25
leaf_count=8 2 1 13 3 3 4 2 1
internal_value=0 -0.0309397 -0.0498817 -0.0635044 0 0.0594233 -0.0873115 -0.0324149
internal_weight=0 7.25 6 5.5 1.5 1.25 4 0.75
internal_count=37 29 24 22 6 5 16 3
is_linear=0
shrinkage=0.05


Tree=1
num_leaves=7
num_cat=0
split_feature=7 1 4 13 4 3
split_gain=9.05485 10.735 4.87506 3.23224 2.97503 3.3506
threshold=67.500000000000014 1.0000000180025095e-35 -24832.597084364959 44182914.608353108 -26346.320706518873 -23324.219428429791
decision_type=2 2 2 2 2 2
left_child=-1 2 -2 -4 -3 -6
right_child=1 4 3 -5 5 -7
leaf_value=0.094876868721808005 -0.093725731007922058 0.092333939263680137 0.096034282293188736 -0.092206113482497618 0.092264794120842514 -0.095083350776717007
leaf_weight=1.9950464963912962 0.49875795841217074 0.2494135946035384 2.2445170432329182 0.24937897920608509 0.24939501285552923 3.9901595860719685
leaf_count=8 2 1 9 1 1 16
internal_value=0 -0.024977 0.0482332 0.0769155 -0.0739287 -0.0838864
internal_weight=0 7.48162 2.99265 2.4939 4.48897 4.23955
internal_count=38 30 12 10 18 17
is_linear=0
shrinkage=0.05


Tree=2
num_leaves=9
num_cat=0
split_feature=7 1 10 3 10 0 3 0
split_gain=8.23109 9.75132 4.42984 2.70428 1.34074 1.54721 0.885003 2.11534
threshold=67.500000000000014 1.0000000180025095e-35 163.50000000000003 -23324.219428429791 1195.5000000000002 0.56250000000000033 9319.0894179122533 0.4791666666666668
decision_type=2 2 2 2 2 2 2 2
left_child=-1 2 -2 -3 -4 -6 7 -5
right_child=1 3 4 6 5 -7 -8 -9
leaf_value=0.090780001497210466 -0.089676281761149335 0.088269992258938307 0.091878108841860984 -0.089620314455450101 -0.088218712369112662 0.08809311683470443 -0.090952239838624716 0.088330404356947501
leaf_weight=1.9812048673629759 0.4953492879867557 0.24774007499217976 1.9834547787904742 0.49528419971466053 0.24771080911159504 0.24763816595077515 3.467175766825676 0.24777428805828094
leaf_count=8 2 1 8 2 1 1 14 1
internal_value=0 -0.0238864 0.0460887 -0.0707163 0.0735113 0 -0.0802481 -0.0293622
internal_weight=0 7.43213 2.97415 4.45797 2.4788 0.495349 4.21023 0.743058
internal_count=38 30 12 18 10 2 17 3
is_linear=0
shrinkage=0.05


Tree=3
num_leaves=7
num_cat=0
split_feature=7 1 4 13 4 3
split_gain=7.5128 8.89694 4.04256 2.68282 2.47285 2.78589
threshold=67.500000000000014 1.0000000180025095e-35 -24832.597084364959 44182914.608353108 -26346.320706518873 -23324.219428429791
decision_type=2 2 2 2 2 2
left_child=-1 2 -2 -4 -3 -6
right_child=1 4 3 -5 5 -7
leaf_value=0.087205850770614185 -0.086134338248220685 0.084817793444705927 0.088119026954581764 -0.084719365932863264 0.084764555460848198 -0.087402865911676911
leaf_weight=1.9598553180694578 0.49010959267616305 0.24524472653865803 2.2090022265911107 0.24515689909458149 0.24519735574722235 3.9197803139686589
leaf_count=8 2 1 9 1 1 16
internal_value=0 -0.022934 0.044228 0.070556 -0.0679186 -0.0770898
internal_weight=0 7.35449 2.94427 2.45416 4.41022 4.16498
internal_count=38 30 12 10 18 17
is_linear=0
shrinkage=0.05


Tree=4
num_leaves=8
num_cat=0
split_feature=7 1 4 4 3 3 0
split_gain=6.88161 8.14323 3.70178 2.26706 2.55455 1.1228 1.28899
threshold=67.500000000000014 1.0000000180025095e-35 -24832.597084364959 -26346.320706518873 -23324.219428429791 -13859.794526580254 0.72916666666666685
decision_type=2 2 2 2 2 2 2
left_child=-1 2 -2 -3 -5 6 -4
right_child=1 3 5 4 -6 -7 -8
leaf_value=0.084063028778322973 -0.083011620877602291 0.081711136266266998 -0.081623744864240261 0.081663876185704559 -0.084254646456162388 0.084940235833443997 0.08128868834432891
leaf_weight=1.9322030544281004 0.48333236575126681 0.24196712672710408 0.24185892939567644 0.24190871417522375 3.8643552660942082 1.9380167424678796 0.24143539369106293
leaf_count=8 2 1 1 1 16 8 1
internal_value=0 -0.0220964 0.0425797 -0.0654499 -0.0743009 0.0679466 0
internal_weight=0 7.25287 2.90464 4.34823 4.10626 2.42131 0.483294
internal_count=38 30 12 18 17 10 2
is_linear=0
shrinkage=0.05


Tree=5
num_leaves=7
num_cat=0
split_feature=7 1 4 13 4 3
split_gain=6.32247 7.47825 3.40098 2.25981 2.08492 2.34983
threshold=67.500000000000014 1.0000000180025095e-35 -24832.597084364959 44182914.608353108 -26346.320706518873 -23324.219428429791
decision_type=2 2 2 2 2 2
left_child=-1 2 -2 -4 -3 -6
right_child=1 4 3 -5 5 -7
leaf_value=0.081280354855985948 -0.08023917005947595 0.078943884037004808 0.082024266503360282 -0.078865774478685716 0.078901641779006867 -0.081468587311596993
leaf_weight=1.8993011713027952 0.47527417540550265 0.23806592822074879 2.1439073681831364 0.23794083297252644 0.23799838125705663 3.7983781248331074
leaf_count=8 2 1 9 1 1 16
internal_value=0 -0.0213487 0.041129 0.0656476 -0.063262 -0.0718311
internal_weight=0 7.13156 2.85712 2.38185 4.27444 4.03638
internal_count=38 30 12 10 18 17
is_linear=0
shrinkage=0.05


Tree=6
num_leaves=7
num_cat=0
split_feature=7 1 4 13 4 3
split_gain=5.82541 6.88474 3.1328 2.08312 1.92274 2.16759
threshold=67.500000000000014 1.0000000180025095e-35 -24832.597084364959 44182914.608353108 -26346.320706518873 -23324.219428429791
decision_type=2 2 2 2 2 2
left_child=-1 2 -2 -4 -3 -6
right_child=1 4 3 -5 5 -7
leaf_value=0.078801485742714214 -0.077762280107129975 0.076463109735569162 0.079474454889210233 -0.076392864481167486 0.076425118707126274 -0.078987997698264756
leaf_weight=1.8620707988739011 0.46615952253341708 0.23365010321140278 2.1031214594841008 0.23351114988327015 0.23357506096363057 3.7237003147602086
leaf_count=8 2 1 9 1 1 16
internal_value=0 -0.0206873 0.0398245 0.0635888 -0.061311 -0.0696304
internal_weight=0 6.99372 2.80279 2.33663 4.19093 3.95728
internal_count=38 30 12 10 18 17
is_linear=0
shrinkage=0.05


Tree=7
num_leaves=8
num_cat=0
split_feature=7 1 10 13 3 8 6
split_gain=5.3806 6.35371 2.89293 1.92513 1.77603 0.582055 1.3816
threshold=67.500000000000014 1.0000000180025095e-35 163.50000000000003 44182914.608353108 -23324.219428429791 656.50000000000011 1828.0000000000002
decision_type=2 2 2 2 2 2 2
left_child=-1 2 -2 -4 -3 -6 -7
right_child=1 4 3 -5 5 6 -8
leaf_value=0.076581248665911927 -0.075537000034311033 0.074191836930079844 0.0771935208294241 -0.074162663896680664 -0.076735888440688696 -0.075363770632442442 0.074226185490110883
leaf_weight=1.8213170766830442 0.45618480443954501 0.22873385250568379 2.0581719130277638 0.2286648005247115 3.1866096258163457 0.45533037185668934 0.22881495952606201
leaf_count=8 2 1 9 1 14 2 1
internal_value=0 -0.0200942 0.0386536 0.0617443 -0.0595615 -0.0676537 -0.024342
internal_weight=0 6.84251 2.74302 2.28684 4.09949 3.87075 0.684145
internal_count=38 30 12 10 18 17 3
is_linear=0
shrinkage=0.05


Tree=8
num_leaves=7
num_cat=0
split_feature=1 3 4 4 9 4
split_gain=4.44855 6.5996 3.05728 2.93036 0.861824 0.926343
threshold=1.0000000180025095e-35 9319.0894179122533 21920.608241444195 -24832.597084364959 4939.0000000000009 9191.8902679694511
decision_type=2 2 2 2 2 2
left_child=3 2 -2 -1 5 -5
right_child=1 -3 -4 4 -6 -7
leaf_value=-0.073527580335578699 0.074660888292991154 -0.074743684011598852 -0.073336634066054063 0.071656206618609247 0.075119684932899014 -0.072140630754928756
leaf_weight=0.44552156329155002 1.5582917034626009 3.1103323996067047 0.44441926479339589 0.22212357819080386 2.4544051438570023 0.2234848290681839
leaf_count=2 7 14 2 1 11 1
internal_value=0 -0.0290979 0.0414704 0.0450474 0.0635106 0
internal_weight=0 5.11304 2.00271 3.34554 2.90001 0.445608
internal_count=38 23 9 15 13 2
is_linear=0
shrinkage=0.05


Tree=9
num_leaves=7
num_cat=0
split_feature=7 1 4 13 4 3
split_gain=4.61984 5.45056 2.48318 1.65531 1.527 1.72273
threshold=67.500000000000014 1.0000000180025095e-35 -24832.597084364959 44182914.608353108 -26346.320706518873 -23324.219428429791
decision_type=2 2 2 2 2 2
left_child=-1 2 -2 -4 -3 -6
right_child=1 4 3 -5 5 -7
leaf_value=0.072770752472984243 -0.071704642170607361 0.070290079448061385 0.073300609876667408 -0.070298303555400024 0.070260861255377047 -0.072975140444121053
leaf_weight=1.731806233525276 0.43431967496871982 0.21801781654357943 1.9592334330081942 0.21804374456405629 0.21792556345462832 3.4631614089012146
leaf_count=8 2 1 9 1 1 16
internal_value=0 -0.0190878 0.0366506 0.0585909 -0.0565875 -0.0642988
internal_weight=0 6.5107 2.6116 2.17728 3.8991 3.68109
internal_count=38 30 12 10 18 17
is_linear=0
shrinkage=0.05


Tree=10
num_leaves=7
num_cat=0
split_feature=1 3 4 4 13 0
split_gain=3.82732 5.69204 2.63525 2.52591 0.745791 0.794798
threshold=1.0000000180025095e-35 9319.0894179122533 21920.608241444195 -24832.597084364959 44182914.608353108 0.56250000000000033
decision_type=2 2 2 2 2 2
left_child=3 2 -2 -1 -5 -6
right_child=1 -3 -4 4 5 -7
leaf_value=-0.070043801251481783 0.071208205823561216 -0.071301284579616223 -0.069853123514723461 0.071610133526687075 -0.068612007448929077 0.068088989339107939
leaf_weight=0.4227097034454349 1.4774528741836546 2.9466690719127655 0.42128515243530262 2.3273364901542668 0.21240480244159687 0.21051998436450958
leaf_count=2 7 14 2 11 1 1
internal_value=0 -0.027732 0.0395436 0.0428977 0.0605157 0
internal_weight=0 4.84541 1.89874 3.17297 2.75026 0.422925
internal_count=38 23 9 15 13 2
is_linear=0
shrinkage=0.05


Tree=11
num_leaves=8
num_cat=0
split_feature=7 1 4 4 3 10 0
split_gain=3.99674 4.70672 2.14642 1.32102 1.49115 0.659301 0.73668
threshold=67.500000000000014 1.0000000180025095e-35 -24832.597084364959 -26346.320706518873 -23324.219428429791 1195.5000000000002 0.56250000000000033
decision_type=2 2 2 2 2 2 2
left_child=-1 2 -2 -3 -5 -4 -7
right_child=1 3 5 4 -6 6 -8
leaf_value=0.069643436251679819 -0.06852462854327622 0.066997881682286195 0.070100282400241493 0.066972659073839577 -0.069852066185550704 -0.067061884650714762 0.066457272627174255
leaf_weight=1.6358422935009 0.41080531477928195 0.20637142658233676 1.6476873904466631 0.20627197623252902 3.2706216424703598 0.20662300288677204 0.20420448482036591
leaf_count=8 2 1 8 1 16 1 1
internal_value=0 -0.0182609 0.03498 -0.0541307 -0.0615277 0.0559791 0
internal_weight=0 6.15259 2.46932 3.68327 3.47689 2.05851 0.410827
internal_count=38 30 12 18 17 10 2
is_linear=0
shrinkage=0.05


Tree=12
num_leaves=8
num_cat=0
split_feature=7 1 4 4 3 10 3
split_gain=3.72435 4.38349 2.00046 1.23255 1.39181 0.614888 0.6858
threshold=67.500000000000014 1.0000000180025095e-35 -24832.597084364959 -26346.320706518873 -23324.219428429791 1195.5000000000002 -1.0000000180025095e-35
decision_type=2 2 2 2 2 2 2
left_child=-1 2 -2 -3 -5 -4 -7
right_child=1 3 5 4 -6 6 -8
leaf_value=0.068278858796868652 -0.067129897525398052 0.065571919901994222 0.068699360622903494 0.065548585257914682 -0.068491049124196055 -0.065631115000586923 0.0650715011918611
leaf_weight=1.5863863229751585 0.39870512485504184 0.20049145817756686 1.5984944552183149 0.20039080083370242 3.1713730841875076 0.20074616372585297 0.19830079376697529
leaf_count=8 2 1 8 1 16 1 1
internal_value=0 -0.0178859 0.0342574 -0.0530451 -0.0603117 0.0548473 0
internal_weight=0 5.9685 2.39625 3.57226 3.37176 1.99754 0.399047
internal_count=38 30 12 18 17 10 2
is_linear=0
shrinkage=0.05


Tree=13
num_leaves=7
num_cat=0
split_feature=1 3 4 4 9 0
split_gain=3.09023 4.61582 2.13297 2.04602 0.608871 0.638017
threshold=1.0000000180025095e-35 9319.0894179122533 21920.608241444195 -24832.597084364959 4939.0000000000009 0.72916666666666685
decision_type=2 2 2 2 2 2
left_child=3 2 -2 -1 5 -5
right_child=1 -3 -4 4 -6 -7
leaf_value=-0.065844943201239223 0.067096623581035561 -0.067203138265120366 -0.065640844294890519 -0.064305381844156462 0.067446061205495178 0.06371951481999763
leaf_weight=0.3864945471286777 1.3492627739906309 2.6867519319057465 0.38445699214935292 0.19481565058231387 2.1253098398447037 0.19204181432723999
leaf_count=2 7 14 2 1 11 1
internal_value=0 -0.0260855 0.0372621 0.0403314 0.0569487 0
internal_weight=0 4.42047 1.73372 2.89866 2.51217 0.386857
internal_count=38 23 9 15 13 2
is_linear=0
shrinkage=0.05


Tree=14
num_leaves=9
num_cat=0
split_feature=7 1 4 4 8 0 10 0
split_gain=3.24722 3.81896 1.74441 1.0753 0.588254 0.591313 0.538397 0.5952
threshold=67.500000000000014 1.0000000180025095e-35 -24832.597084364959 -26346.320706518873 43.500000000000007 0.89583333333333359 1195.5000000000002 0.56250000000000033
decision_type=2 2 2 2 2 2 2 2
left_child=-1 2 -2 -3 5 -5 -4 -8
right_child=1 3 6 4 -6 -7 7 -9
leaf_value=0.065874888577545629 -0.064657222138057677 0.062968150167297843 0.066244383031737006 0.062947601840233625 -0.066089230689874531 -0.062423024366236084 -0.063072390992245639 0.062520644170311598
leaf_weight=1.4862710088491438 0.37424716353416476 0.18834480643272433 1.4991229921579359 0.188241466879845 2.7855287343263626 0.18556365370750427 0.18886715173721302 0.18606781959533691
leaf_count=8 2 1 8 1 15 1 1 1
internal_value=0 -0.0172387 0.0329774 -0.0511578 -0.0581883 0 0.0528503 0
internal_weight=0 5.59598 2.24831 3.34768 3.15933 0.373805 1.87406 0.374935
internal_count=38 30 12 18 17 2 10 2
is_linear=0
shrinkage=0.05


Tree=15
num_leaves=7
num_cat=0
split_feature=1 3 4 4 13 0
split_gain=2.69704 4.03903 1.86456 1.78921 0.535084 0.55467
threshold=1.0000000180025095e-35 9319.0894179122533 21920.608241444195 -24832.597084364959 44182914.608353108 0.56250000000000033
decision_type=2 2 2 2 2 2
left_child=3 2 -2 -1 -5 -6
right_child=1 -3 -4 4 5 -7
leaf_value=-0.063555907188849889 0.064878957969804626 -0.065008525347410195 -0.063353752609239936 0.065207930922240337 -0.061921529914280619 0.061334796004446912
leaf_weight=0.36202630400657687 1.2624286711215971 2.5115117877721786 0.3596900701522826 1.9881975650787356 0.18293136358261097 0.17976194620132446
leaf_count=2 7 14 2 11 1 1
internal_value=0 -0.0252073 0.0360184 0.0389398 0.0550242 0
internal_weight=0 4.13363 1.62212 2.71292 2.35089 0.362693
internal_count=38 23 9 15 13 2
is_linear=0
shrinkage=0.05


Tree=16
num_leaves=7
num_cat=0
split_feature=7 1 4 13 4 3
split_gain=2.8459 3.34103 1.52766 1.02655 0.942387 1.06558
threshold=67.500000000000014 1.0000000180025095e-35 -24832.597084364959 44182914.608353108 -26346.320706518873 -23324.219428429791
decision_type=2 2 2 2 2 2
left_child=-1 2 -2 -4 -3 -6
right_child=1 4 3 -5 5 -7
leaf_value=0.063840957256014561 -0.062531629720137497 0.060700376080635714 0.06418640908870632 -0.060843579841935946 0.060682044985581343 -0.064084785498873351
leaf_weight=1.3869346082210539 0.34988602995872531 0.1762267351150516 1.5734156072139738 0.17703451216220845 0.17612294852733645 2.7719792574644089
leaf_count=8 2 1 9 1 1 16
internal_value=0 -0.0166992 0.0318677 0.0511374 -0.0495561 -0.0563892
internal_weight=0 5.22467 2.10034 1.75045 3.12433 2.9481
internal_count=38 30 12 10 18 17
is_linear=0
shrinkage=0.05


Tree=17
num_leaves=7
num_cat=0
split_feature=7 1 4 13 4 3
split_gain=2.6672 3.12726 1.43155 0.963374 0.88444 1.00056
threshold=67.500000000000014 1.0000000180025095e-35 -24832.597084364959 44182914.608353108 -26346.320706518873 -23324.219428429791
decision_type=2 2 2 2 2 2
left_child=-1 2 -2 -4 -3 -6
right_child=1 4 3 -5 5 -7
leaf_value=0.062934169586039132 -0.06157620271675255 0.059695628125817739 0.063260971366699323 -0.059830472489497181 0.059678364431371117 -0.063184948524602158
leaf_weight=1.3378341645002363 0.33787238597869906 0.17040114104747806 1.5180326402187345 0.17119893431663502 0.17029866576194796 2.6733985543251038
leaf_count=8 2 1 9 1 1 16
internal_value=0 -0.0164507 0.0313637 0.050368 -0.0488232 -0.0555767
internal_weight=0 5.0412 2.0271 1.68923 3.0141 2.8437
internal_count=38 30 12 10 18 17
is_linear=0
shrinkage=0.05


Tree=18
num_leaves=8
num_cat=0
split_feature=7 1 4 4 3 3 0
split_gain=2.50187 2.9295 1.34265 0.83082 0.940402 0.420433 0.451336
threshold=67.500000000000014 1.0000000180025095e-35 -24832.597084364959 -26346.320706518873 -23324.219428429791 -13859.794526580254 0.72916666666666685
decision_type=2 2 2 2 2 2 2
left_child=-1 2 -2 -3 -5 6 -4
right_child=1 3 5 4 -6 -7 -8
leaf_value=0.062092620864564942 -0.060682473062239506 0.058747745187538961 -0.05887514247543988 0.058731428629327356 -0.062351168492115278 0.062369238756431522 0.058214814028166931
leaf_weight=1.2894110530614851 0.32602420449256886 0.16465802490711201 0.16544348001480091 0.1645571589469913 2.5761704891920094 1.3020365387201307 0.16132830083370209
leaf_count=8 2 1 1 1 16 8 1
internal_value=0 -0.0162191 0.0308919 -0.0481403 -0.0548217 0.0496513 0
internal_weight=0 4.86022 1.95483 2.90539 2.74073 1.62881 0.326772
internal_count=38 30 12 18 17 10 2
is_linear=0
shrinkage=0.05


Tree=19
num_leaves=7
num_cat=0
split_feature=7 1 4 13 4 3
split_gain=2.34814 2.74741 1.26053 0.850916 0.781118 0.884644
threshold=67.500000000000014 1.0000000180025095e-35 -24832.597084364959 44182914.608353108 -26346.320706518873 -23324.219428429791
decision_type=2 2 2 2 2 2
left_child=-1 2 -2 -4 -3 -6
right_child=1 4 3 -5 5 -7
leaf_value=0.061310009918190245 -0.059844119173606325 0.057850585686348016 0.061611399147567206 -0.057971332211164697 0.057835117627530887 -0.061577115342157041
leaf_weight=1.2417983710765836 0.31437402963638295 0.1590127795934676 1.409995377063751 0.15978394448757161 0.15891377627849612 2.48056373000145
leaf_count=8 2 1 9 1 1 16
internal_value=0 -0.0159939 0.0304603 0.0489908 -0.0475024 -0.0541187
internal_weight=0 4.68264 1.88415 1.56978 2.79849 2.63948
internal_count=38 30 12 10 18 17
is_linear=0
shrinkage=0.05


Tree=20
num_leaves=8
num_cat=0
split_feature=7 1 10 13 3 8 3
split_gain=2.20593 2.57724 1.18404 0.800663 0.7343 0.244334 0.556333
threshold=67.500000000000014 1.0000000180025095e-35 163.50000000000003 44182914.608353108 -23324.219428429791 656.50000000000011 14894.425219457446
decision_type=2 2 2 2 2 2 2
left_child=-1 2 -2 -4 -3 -6 -7
right_child=1 4 3 -5 5 6 -8
leaf_value=0.060580768717435333 -0.059055559743162955 0.056983985729093689 0.060868604564712298 -0.057113514216088991 -0.060812617185386567 0.056998693997396238 -0.058757313316009301
leaf_weight=1.1951064914464948 0.30294886231422413 0.15338122844696034 1.3571940958499906 0.15423342585563649 2.0882882326841363 0.15347817540168751 0.29851245880126953
leaf_count=8 2 1 9 1 14 1 2
internal_value=0 -0.0157914 0.0300428 0.0483638 -0.0469051 -0.0534574 -0.0179697
internal_weight=0 4.50804 1.81438 1.51143 2.69366 2.54028 0.451991
internal_count=38 30 12 10 18 17 3
is_linear=0
shrinkage=0.05


Tree=21
num_leaves=7
num_cat=0
split_feature=7 1 4 13 4 3
split_gain=2.07411 2.41957 1.11296 0.753957 0.692135 0.784814
threshold=67.500000000000014 1.0000000180025095e-35 -24832.597084364959 44182914.608353108 -26346.320706518873 -23324.219428429791
decision_type=2 2 2 2 2 2
left_child=-1 2 -2 -4 -3 -6
right_child=1 4 3 -5 5 -7
leaf_value=0.059899973647852545 -0.058311815949324636 0.056187221071505124 0.060175766026740921 -0.056296743161947049 0.05617318788868926 -0.060189798219546897
leaf_weight=1.1494257003068922 0.29177081584930409 0.14806464314460743 1.3055023998022077 0.14880268275737751 0.14796991646289859 2.2955157607793812
leaf_count=8 2 1 9 1 1 16
internal_value=0 -0.0156077 0.0296484 0.0477754 -0.0463498 -0.0528534
internal_weight=0 4.33763 1.74608 1.45431 2.59155 2.44349
internal_count=38 30 12 10 18 17
is_linear=0
shrinkage=0.05


Tree=22
num_leaves=7
num_cat=0
split_feature=7 2 4 13 4 3
split_gain=1.95101 2.27231 1.04679 0.710488 0.652187 0.74001
threshold=67.500000000000014 1.0000000180025095e-35 -24832.597084364959 44182914.608353108 -26346.320706518873 -23324.219428429791
decision_type=2 2 2 2 2 2
left_child=-1 4 -3 -4 -2 -6
right_child=1 2 3 -5 5 -7
leaf_value=0.059263233555292262 0.05541180754600572 -0.057608458701075282 0.059528358580347475 -0.055516608813259552 0.055398374199948752 -0.059563773801012077
leaf_weight=1.1048289239406583 0.1427805721759795 0.28085768222808827 1.2550073117017744 0.14350034296512593 0.14268819987773929 2.2059405893087392
leaf_count=8 1 2 9 1 1 16
internal_value=0 -0.0154287 0.0292748 0.047222 -0.0458222 -0.0522782
internal_weight=0 4.17077 1.67937 1.39851 2.49141 2.34863
internal_count=38 30 12 10 18 17
is_linear=0
shrinkage=0.05


Tree=23
num_leaves=8
num_cat=0
split_feature=7 1 4 13 4 9 0
split_gain=1.83627 2.13507 0.98512 0.66998 0.614947 0.345973 0.321298
threshold=67.500000000000014 1.0000000180025095e-35 -24832.597084364959 44182914.608353108 -26346.320706518873 16957.500000000004 0.37500000000000028
decision_type=2 2 2 2 2 2 2
left_child=-1 2 -2 -4 -3 -6 -7
right_child=1 4 3 -5 5 6 -8
leaf_value=0.058666645833788639 -0.056941513232315812 0.054668558029433892 0.058922356867065553 -0.054769141939566057 -0.058955585631466516 -0.053933873403590994 0.054655665349405094
leaf_weight=1.0613733828067777 0.27022349834442128 0.13763253390789021 1.2057778835296629 0.1383332461118697 1.9861692786216743 0.13248436152935017 0.13754262030124664
leaf_count=8 2 1 9 1 15 1 1
internal_value=0 -0.0152599 0.0289199 0.0467001 -0.0453247 -0.0517381 0
internal_weight=0 4.00816 1.61433 1.34411 2.39383 2.2562 0.270027
internal_count=38 30 12 10 18 17 2
is_linear=0
shrinkage=0.05


Tree=24
num_leaves=8
num_cat=0
split_feature=7 1 10 13 3 3 0
split_gain=1.72957 2.00748 0.927579 0.632185 0.579722 0.194105 0.434314
threshold=67.500000000000014 1.0000000180025095e-35 163.50000000000003 44182914.608353108 -23324.219428429791 9319.0894179122533 0.4791666666666668
decision_type=2 2 2 2 2 2 2
left_child=-1 2 -2 -4 -3 6 -6
right_child=1 4 3 -5 5 -7 -8
leaf_value=0.058106694442089414 -0.056307387451325623 0.053941522188148905 0.058354142155868885 -0.054050776719762862 -0.056023018204725585 -0.058377157220778408 0.053953937281302225
leaf_weight=1.0191029906272886 0.25987899303436313 0.13253818452358279 1.1578676402568815 0.13330660760402668 0.25517359375953708 1.7790510505437849 0.13262556493282318
leaf_count=8 2 1 9 1 2 14 1
internal_value=0 -0.0151074 0.0285816 0.0462068 -0.0448601 -0.0512296 -0.0166896
internal_weight=0 3.85044 1.55105 1.29117 2.29939 2.16685 0.387799
internal_count=38 30 12 10 18 17 3
is_linear=0
shrinkage=0.05


Tree=25
num_leaves=8
num_cat=0
split_feature=7 1 10 13 3 8 3
split_gain=1.62988 1.8883 0.873828 0.596882 0.547331 0.184374 0.407975
threshold=67.500000000000014 1.0000000180025095e-35 163.50000000000003 44182914.608353108 -23324.219428429791 656.50000000000011 14894.425219457446
decision_type=2 2 2 2 2 2 2
left_child=-1 2 -2 -4 -3 -6 -7
right_child=1 4 3 -5 5 6 -8
leaf_value=0.05758023863743772 -0.055702859845996058 0.053252774323223277 0.057820478294094507 -0.053358277255264534 -0.057868708453133758 0.053264768305867044 -0.055379030751219742
leaf_weight=0.97804974019527424 0.24983200430870089 0.12767851352691684 1.1113160476088522 0.1284242421388625 1.707847446203232 0.12776330113410939 0.24438649415969849
leaf_count=8 2 1 9 1 14 1 2
internal_value=0 -0.0149634 0.0282584 0.0457394 -0.0444201 -0.0507551 -0.0162876
internal_weight=0 3.69725 1.48957 1.23974 2.20768 2.08 0.37215
internal_count=38 30 12 10 18 17 3
is_linear=0
shrinkage=0.05


Tree=26
num_leaves=8
num_cat=0
split_feature=7 2 4 13 4 8 0
split_gain=1.53665 1.77685 0.823565 0.563872 0.517501 0.294932 0.264071
threshold=67.500000000000014 1.0000000180025095e-35 -24832.597084364959 44182914.608353108 -26346.320706518873 43.500000000000007 0.89583333333333359
decision_type=2 2 2 2 2 2 2
left_child=-1 4 -3 -4 -2 6 -6
right_child=1 2 3 -5 5 -7 -8
leaf_value=0.057084425548100504 0.052598147199096258 -0.05512498030715466 0.057318442008419401 -0.052688716178915379 0.052586532077602367 -0.057418759664549991 -0.051755558558172467
leaf_weight=0.93823550641536702 0.12304819375276599 0.24008789658546437 1.0661508366465571 0.12368875741958607 0.12296602874994267 1.755620405077934 0.11710277944803238
leaf_count=8 1 2 9 1 1 15 1
internal_value=0 -0.0148271 0.0279486 0.0452956 -0.0440026 -0.0503121 0
internal_weight=0 3.54866 1.42993 1.18984 2.11874 1.99569 0.240069
internal_count=38 30 12 10 18 17 2
is_linear=0
shrinkage=0.05


end of trees

feature_importances:
day_sin=43
day_cos=33
edu_0=24
ClothesWasher_daytime=23
day_sin_*_AirConditioner_daytime=18
age=15
RiceCooker_midnight=9
ClothesWasher_midnight=6
Microwave_daytime=3
edu_1=2
AirConditioner_midnight=1
IH_daytime=1

parameters:
[boosting: gbdt]
[objective: binary]
[metric: roc_auc]
[tree_learner: serial]
[device_type: cpu]
[data_sample_strategy: bagging]
[data: ]
[valid: ]
[num_iterations: 10000]
[learning_rate: 0.05]
[num_leaves: 30]
[num_threads: 0]
[seed: 0]
[deterministic: 0]
[force_col_wise: 0]
[force_row_wise: 0]
[histogram_pool_size: -1]
[max_depth: -1]
[min_data_in_leaf: 1]
[min_sum_hessian_in_leaf: 0.001]
[bagging_fraction: 0.939714]
[pos_bagging_fraction: 1]
[neg_bagging_fraction: 1]
[bagging_freq: 1]
[bagging_seed: 3]
[feature_fraction: 0.846215]
[feature_fraction_bynode: 1]
[feature_fraction_seed: 2]
[extra_trees: 0]
[extra_seed: 6]
[early_stopping_round: 0]
[early_stopping_min_delta: 0]
[first_metric_only: 0]
[max_delta_step: 0]
[lambda_l1: 0.0130071]
[lambda_l2: 0.00118612]
[linear_lambda: 0]
[min_gain_to_split: 0]
[drop_rate: 0.1]
[max_drop: 50]
[skip_drop: 0.5]
[xgboost_dart_mode: 0]
[uniform_drop: 0]
[drop_seed: 4]
[top_rate: 0.2]
[other_rate: 0.1]
[min_data_per_group: 100]
[max_cat_threshold: 32]
[cat_l2: 10]
[cat_smooth: 10]
[max_cat_to_onehot: 4]
[top_k: 20]
[monotone_constraints: ]
[monotone_constraints_method: basic]
[monotone_penalty: 0]
[feature_contri: ]
[forcedsplits_filename: ]
[refit_decay_rate: 0.9]
[cegb_tradeoff: 1]
[cegb_penalty_split: 0]
[cegb_penalty_feature_lazy: ]
[cegb_penalty_feature_coupled: ]
[path_smooth: 0]
[interaction_constraints: ]
[verbosity: -1]
[saved_feature_importance_type: 0]
[use_quantized_grad: 0]
[num_grad_quant_bins: 4]
[quant_train_renew_leaf: 0]
[stochastic_rounding: 1]
[linear_tree: 0]
[max_bin: 255]
[max_bin_by_feature: ]
[min_data_in_bin: 3]
[bin_construct_sample_cnt: 200000]
[data_random_seed: 1]
[is_enable_sparse: 1]
[enable_bundle: 1]
[use_missing: 1]
[zero_as_missing: 0]
[feature_pre_filter: 1]
[pre_partition: 0]
[two_round: 0]
[header: 0]
[label_column: ]
[weight_column: ]
[group_column: ]
[ignore_column: ]
[categorical_feature: ]
[forcedbins_filename: ]
[precise_float_parser: 0]
[parser_config_file: ]
[objective_seed: 5]
[num_class: 1]
[is_unbalance: 0]
[scale_pos_weight: 1]
[sigmoid: 1]
[boost_from_average: 1]
[reg_sqrt: 0]
[alpha: 0.9]
[fair_c: 1]
[poisson_max_delta_step: 0.7]
[tweedie_variance_power: 1.5]
[lambdarank_truncation_level: 30]
[lambdarank_norm: 1]
[label_gain: ]
[lambdarank_position_bias_regularization: 0]
[eval_at: ]
[multi_error_top_k: 1]
[auc_mu_weights: ]
[num_machines: 1]
[local_listen_port: 12400]
[time_out: 120]
[machine_list_filename: ]
[machines: ]
[gpu_platform_id: -1]
[gpu_device_id: -1]
[gpu_use_dp: 0]
[num_gpu: 1]

end of parameters

pandas_categorical:null
