tree
version=v4
num_class=1
num_tree_per_iteration=1
label_index=0
max_feature_idx=14
objective=binary sigmoid:1
feature_names=age edu_0 edu_1 day_cos day_sin AirConditioner_daytime AirConditioner_midnight ClothesWasher_daytime ClothesWasher_midnight Microwave_daytime RiceCooker_midnight TV_daytime IH_daytime day_sin_*_AirConditioner_daytime day_sin_*_Microwave_daytime
feature_infos=[0.083333333333333481:0.95833333333333348] [0:1] [0:1] [-28133.953770688327:28199.866993667601] [-27552.127422669942:28263.474768540877] [0:17626] [124:22621] [5:748] [0:693] [1236:19259] [16:2719] [0:5998] [0:6243] [-321257805.74833155:85646083.724281937] [-397415392.36192471:292002872.83046496]
tree_sizes=1029 1245 1122 1244 1037 1340 1015 916 1055 1148 1028 944

Tree=0
num_leaves=10
num_cat=0
split_feature=5 8 14 0 11 9 5 0 3
split_gain=12.9013 5.51859 5.4587 2.82939 2.15024 1.6493 1.32833 1.30472 1.32833
threshold=1805.5000000000002 63.000000000000007 -56757375.630952992 0.12500000000000025 12.500000000000002 2664.5000000000005 10952.000000000002 0.31250000000000028 24758.357614314456
decision_type=2 2 2 2 2 2 2 2 2
left_child=1 -1 -3 -2 7 6 -5 8 -4
right_child=3 2 4 5 -6 -7 -8 -9 -10
leaf_value=-0.097858500022743225 -0.078160670988385486 -0.094190808398384299 -0.078160670988385625 0.078160670988385486 -0.078160670988385625 0.098035671269531388 -0.078160670988385583 0.095332737047864158 0.078160670988385583
leaf_weight=2.75 0.25000000000000033 1.0000000000000002 0.24999999999999989 0.25000000000000033 0.24999999999999989 3 0.25 1.2499999999999998 0.25
leaf_count=11 1 4 1 1 1 12 1 5 1
internal_value=0 -0.0469947 0 0.0719137 0.0476031 0.0841172 0 0.0684299 0
internal_weight=0 5.75 3 3.75 2 3.5 0.5 1.75 0.5
internal_count=38 23 12 15 8 14 2 7 2
is_linear=0
shrinkage=0.05


Tree=1
num_leaves=11
num_cat=0
split_feature=5 0 3 0 0 0 7 3 9 3
split_gain=11.6746 3.97824 3.20164 2.58033 2.21816 1.86924 1.51217 1.19647 0.826933 1.87234
threshold=1805.5000000000002 0.66666666666666685 24758.357614314456 0.12500000000000025 0.81250000000000033 0.56250000000000033 329.00000000000006 16684.015540711993 8832.5000000000018 -20717.598826379788
decision_type=2 2 2 2 2 2 2 2 2 2
left_child=1 2 8 -2 -3 -4 -5 -8 -1 -10
right_child=3 4 5 6 -6 -7 7 -9 9 -11
leaf_value=-0.093646029893842908 -0.074672624351679096 0.08787428704390926 0.084624596518664219 0.093471047024763262 -0.073982680701488626 -0.073825989965770639 -0.07467262435167922 0.073818429594408763 0.073933847637914732 -0.084649749824204756
leaf_weight=3.2425355464220051 0.24961857497692141 0.7482984960079192 0.49905140697956074 2.9930215775966649 0.2494463175535202 0.24940243363380432 0.24961857497692097 0.24940027296543121 0.24943283200263977 0.49906489253044117
leaf_count=13 1 3 2 12 1 1 1 1 1 2
internal_value=0 -0.0448114 -0.0642 0.0684283 0.0430075 0.0263533 0.0801261 0 -0.0821688 -0.0263294
internal_weight=0 5.73723 4.73949 3.74166 0.997745 0.748454 3.49204 0.499019 3.99103 0.748498
internal_count=38 23 19 15 4 3 14 2 16 3
is_linear=0
shrinkage=0.05


Tree=2
num_leaves=10
num_cat=0
split_feature=5 5 7 9 10 14 1 14 7
split_gain=10.5992 3.24905 5.00347 2.71005 2.36333 0.988978 1.08291 0.733299 0.359574
threshold=1805.5000000000002 27.500000000000004 65.500000000000014 15072.500000000002 2461.0000000000005 104567433.79048444 1.0000000180025095e-35 -264044980.02709788 360.50000000000006
decision_type=2 2 2 2 2 2 2 2 2
left_child=1 2 -1 -3 7 -4 -7 8 -2
right_child=4 3 5 -5 -6 6 -8 -9 -10
leaf_value=-0.085742312470077464 0 -0.089641987853524452 0.086199129739067348 0.070297895117155437 -0.071528109143944127 0.070859138635911784 -0.070756454916815786 0.089269015052397815 0.070754540168640231
leaf_weight=0.99117706716060672 0.49626755714416582 2.9744262546300893 0.99216569960117318 0.2479138821363448 0.2485457956790923 0.24821782112121582 0.24816419184207916 2.7253855317831039 0.24816317856311798
leaf_count=4 2 12 4 1 1 1 1 11 1
internal_value=0 -0.0428542 0 -0.0757894 0.0653775 0.0578902 0 0.0766452 0.0243021
internal_weight=0 5.70206 2.47972 3.22234 3.71836 1.48855 0.496382 3.46982 0.744431
internal_count=38 23 10 13 15 6 2 14 3
is_linear=0
shrinkage=0.05


Tree=3
num_leaves=11
num_cat=0
split_feature=8 11 14 10 0 0 3 0 3 4
split_gain=5.17549 6.70493 3.95869 2.14392 2.20041 1.57629 0.764848 1.081 0.674807 1.5199
threshold=63.000000000000007 785.50000000000011 -104874926.32248721 1411.0000000000002 0.31250000000000028 0.43750000000000028 -1.0000000180025095e-35 0.12500000000000025 21912.67438235052 -5069.3938073656691
decision_type=2 2 2 2 2 2 2 2 2 2
left_child=1 -1 6 4 -4 -5 7 -2 -6 -10
right_child=2 -3 3 5 8 -7 -8 -9 9 -11
leaf_value=-0.08576939359814624 -0.071528109143944099 0.080762316204089121 -0.067970067240100435 0.067724044344515094 0.08620013322233 -0.078315957856373283 -0.080811159615380601 0.069966431328143272 -0.066645465134982734 0.07696601577376018
leaf_weight=2.6974192112684254 0.24854579567909241 0.73663078248500813 0.24635845422744784 0.24616511166095723 2.945244207978249 0.49293875694274902 0.73681551218032815 0.24772176146507263 0.24524892866611481 0.4907611459493636
leaf_count=11 1 3 1 1 12 2 3 1 1 2
internal_value=0 -0.048676 0.0283241 0.0497523 0.0646752 -0.0241926 -0.0492351 0 0.0749143 0.0236152
internal_weight=0 3.43405 5.8998 4.66672 3.92761 0.739104 1.23308 0.496268 3.68125 0.73601
internal_count=38 14 24 19 16 3 5 2 15 3
is_linear=0
shrinkage=0.05


Tree=4
num_leaves=9
num_cat=0
split_feature=5 8 14 0 10 11 8 0
split_gain=8.85493 3.81428 3.78951 2.10004 2.35415 1.49037 0.945665 0.884969
threshold=1805.5000000000002 63.000000000000007 -56757375.630952992 0.12500000000000025 2461.0000000000005 12.500000000000002 502.00000000000006 0.66666666666666685
decision_type=2 2 2 2 2 2 2 2
left_child=1 -1 -3 -2 -5 6 -4 -8
right_child=3 2 5 4 -6 -7 7 -9
leaf_value=-0.082654823307232672 -0.068673497851333656 -0.079695338252088951 0.081178187020683329 0.083399421729190154 -0.065709048723452276 -0.064683724543599636 -0.065420366651982517 0.063792897171383506
leaf_weight=2.6608401536941528 0.24688008427619967 0.97054541110992465 1.2152630090713499 3.1505291610956196 0.24436046183109272 0.24328480660915364 0.24406862258911122 0.24226014316082001
leaf_count=11 1 4 5 13 1 1 1 1
internal_value=0 -0.0396291 0 0.0603559 0.0712166 0.0401548 0.0579522 0
internal_weight=0 5.57626 2.91542 3.64177 3.39489 1.94488 1.70159 0.486329
internal_count=38 23 12 15 14 8 7 2
is_linear=0
shrinkage=0.05


Tree=5
num_leaves=12
num_cat=0
split_feature=12 0 3 13 0 3 8 9 9 0 0
split_gain=4.33444 3.69402 3.45274 2.02255 1.97526 1.854 1.09258 1.069 0.810484 0.305448 0.858616
threshold=2998.5000000000005 0.56250000000000033 21912.67438235052 -12423010.287412411 0.31250000000000028 24758.357614314456 228.00000000000003 8832.5000000000018 12936.000000000002 0.12500000000000025 0.43750000000000028
decision_type=2 2 2 2 2 2 2 2 2 2 2
left_child=1 3 -3 6 -2 7 -1 -5 -9 -8 -11
right_child=4 2 -4 5 -6 -7 9 8 -10 10 -12
leaf_value=0.070816846506678771 -0.061375096317062589 0.078423710581438252 -0.071601698853148446 -0.080427806689089984 0.079433283664033738 0.062309045855948868 -0.066065479890896395 0.061977035370736448 -0.062393403453291307 0.064176089687088808 -0.063340121886907394
leaf_weight=0.47576320171356179 0.23903781175613437 1.4300341606140134 0.47817754745483387 3.0972832441329965 1.9074397981166837 0.24036072194576252 0.24470904469490051 0.23990191519260395 0.24047531187534332 0.24271133542060852 0.24170643091201782
leaf_count=2 1 6 2 13 8 1 1 1 1 1 1
internal_value=0 -0.0194079 0.0384986 -0.0422226 0.0615607 -0.0601368 0.011541 -0.0697343 0 -0.0230675 0
internal_weight=0 6.93112 1.90821 5.02291 2.14648 3.81802 1.20489 3.57766 0.480377 0.729127 0.484418
internal_count=38 29 8 21 9 16 5 15 2 3 2
is_linear=0
shrinkage=0.05


Tree=6
num_leaves=9
num_cat=0
split_feature=5 8 14 1 12 5 8 3
split_gain=7.46837 3.2292 3.20872 1.11271 1.9205 0.847536 1.37077 0.242394
threshold=1805.5000000000002 63.000000000000007 -56757375.630952992 1.0000000180025095e-35 2613.5000000000005 8322.0000000000018 228.00000000000003 -16829.194192402498
decision_type=2 2 2 2 2 2 2 2
left_child=1 -1 -3 -4 -5 -2 -7 -8
right_child=5 2 3 4 -6 6 7 -9
leaf_value=-0.077420056449598595 0.077104674997709108 -0.074611557660896013 0.075125873482703664 0.068924907407533778 -0.070506702182925318 0.072127358806180472 0 -0.061149600052312264
leaf_weight=2.5679723918437958 2.1036700457334523 0.94003872573375735 0.94370582699775674 0.46924608945846558 0.47476425766944885 0.70148058235645272 0.48193784058094025 0.23870331048965454
leaf_count=11 9 4 4 2 2 3 2 1
internal_value=0 -0.0370825 0 0.0373751 0 0.056241 0.0220791 -0.0222661
internal_weight=0 5.39573 2.82775 1.88772 0.94401 3.52579 1.42212 0.720641
internal_count=38 23 12 8 4 15 6 3
is_linear=0
shrinkage=0.05


Tree=7
num_leaves=8
num_cat=0
split_feature=5 8 3 3 10 10 6
split_gain=6.87743 2.98579 1.93305 2.25131 1.60143 1.58769 0.968476
threshold=1805.5000000000002 63.000000000000007 -20717.598826379788 24758.357614314456 284.50000000000006 2461.0000000000005 2250.0000000000005
decision_type=2 2 2 2 2 2 2
left_child=1 -1 -3 4 -4 6 -2
right_child=5 2 3 -5 -6 -7 -8
leaf_value=-0.075193087969085498 0.075562016472877067 0.070858245908100859 0.05620550542668809 0.067371770026688343 -0.074730051309989914 -0.05911391858284562 0
leaf_weight=2.5138394683599472 2.747778683900834 0.69368951022625003 0.22983092069625888 0.4630853384733199 1.3885823190212248 0.23541128635406483 0.48193784058094014
leaf_count=11 12 3 1 2 6 1 2
internal_value=0 -0.0359716 0 -0.0242833 -0.0533459 0.0544067 0.0641771
internal_weight=0 5.28903 2.77519 2.0815 1.61841 3.46513 3.22972
internal_count=38 23 12 9 7 15 14
is_linear=0
shrinkage=0.05


Tree=8
num_leaves=9
num_cat=0
split_feature=13 0 2 9 0 10 3 4
split_gain=3.33842 4.07364 1.93946 2.54862 1.37423 1.44208 1.6458 1.32637
threshold=-12423010.287412411 0.66666666666666685 1.0000000180025095e-35 3451.5000000000005 0.12500000000000025 2461.0000000000005 21912.67438235052 -5069.3938073656691
decision_type=2 2 2 2 2 2 2 2
left_child=4 2 -2 -4 -1 6 -6 -5
right_child=1 -3 3 7 5 -7 -8 -9
leaf_value=-0.063668736885851562 -0.073706207402504678 0.070257839469088604 -0.069410798556968953 -0.054084042595031717 0.074124180547923191 -0.05721333046735616 -0.054515563808335991 0.070626509096042261
leaf_weight=0.24211053550243411 2.4710203856229782 0.90153715014457692 0.89256441593170199 0.22509323060512554 2.4778238534927377 0.23188360035419453 0.22610275447368611 0.90504407882690396
leaf_count=1 11 4 4 1 11 1 1 4
internal_value=0 -0.0240397 -0.0440375 -0.00555622 0.0403731 0.0506293 0.0616393 0.0419732
internal_weight=0 5.39526 4.49372 2.0227 3.17792 2.93581 2.70393 1.13014
internal_count=38 24 20 9 14 13 12 5
is_linear=0
shrinkage=0.05


Tree=9
num_leaves=10
num_cat=0
split_feature=5 0 0 1 9 4 0 4 5
split_gain=5.84389 2.0462 1.58584 1.15857 1.86135 1.12196 1.11963 0.87035 0.564311
threshold=1805.5000000000002 0.66666666666666685 0.12500000000000025 1.0000000180025095e-35 3451.5000000000005 -5069.3938073656691 0.81250000000000033 -22756.978447664176 10952.000000000002
decision_type=2 2 2 2 2 2 2 2 2
left_child=1 3 -2 4 -1 -6 -3 8 -4
right_child=2 6 7 -5 5 -7 -8 -9 -10
leaf_value=-0.067615910851673691 -0.061454142424684811 0.06667800048675307 0.051664535860347041 -0.071831081662248844 -0.052480670016391895 0.067204147363602598 -0.052888732450870474 0.072310537610127248 -0.055431175663029165
leaf_weight=0.87155675888061501 0.23915368318557773 0.6625106781721114 0.21900354325771365 2.410843163728714 0.22113847732543945 0.66686449944972992 0.22217527031898499 2.6353701949119568 0.22816726565361023
leaf_count=4 1 3 1 11 1 3 1 12 1
internal_value=0 -0.0340059 0.0511242 -0.0489883 -0.0150859 0.0327271 0.0319571 0.0614386 0
internal_weight=0 5.05509 3.32169 4.1704 1.75956 0.888003 0.884686 3.08254 0.447171
internal_count=38 23 15 19 8 4 4 14 2
is_linear=0
shrinkage=0.05


Tree=10
num_leaves=9
num_cat=0
split_feature=8 11 4 10 4 1 9 3
split_gain=2.88213 3.82265 1.5944 1.89933 1.21184 1.36067 0.903265 0.589718
threshold=63.000000000000007 785.50000000000011 -11689.348216961132 284.50000000000006 17249.191490326521 1.0000000180025095e-35 2198.5000000000005 -16829.194192402498
decision_type=2 2 2 2 2 2 2 2
left_child=1 -1 3 -2 -4 -6 -5 -8
right_child=2 -3 4 6 5 -7 7 -9
leaf_value=-0.069731640307134746 0.064265086502916388 0.064324247504918705 0.069789412368938847 0.050185666521778249 0.060508421297130022 -0.061958813173691743 0 -0.068761923619931123
leaf_weight=2.3337135016918187 0.64001759886741671 0.64068073034286488 1.9261833727359774 0.21493056416511525 0.42717215418815602 0.43611955642700195 0.46756470203399647 1.0877964496612547
leaf_count=11 3 3 9 1 2 2 2 5
internal_value=0 -0.0393446 0.0221734 -0.00625233 0.0479295 0 -0.0343143 -0.0489049
internal_weight=0 2.97439 5.19978 2.41031 2.78948 0.863292 1.77029 1.55536
internal_count=38 14 24 11 13 4 8 7
is_linear=0
shrinkage=0.05


Tree=11
num_leaves=8
num_cat=0
split_feature=5 8 0 10 11 2 0
split_gain=5.03508 2.2321 1.45123 1.44845 1.4459 1.17174 1.62497
threshold=1805.5000000000002 63.000000000000007 0.12500000000000025 2461.0000000000005 12.500000000000002 1.0000000180025095e-35 0.66666666666666685
decision_type=2 2 2 2 2 2 2
left_child=1 -1 -2 -4 5 6 -3
right_child=2 4 3 -5 -6 -7 -8
leaf_value=-0.068200521642416051 -0.059397519732233339 -0.063297699061674526 0.069451458431900079 -0.051731641071267813 -0.06397706003807184 0.065609426539290805 0.059511339994533313
leaf_weight=2.2689336538314819 0.23589971661567721 0.62997879087924979 2.7165115028619771 0.21918213367462147 0.63722969591617573 0.84483224153518666 0.42073173820972443
leaf_count=11 1 3 13 1 3 4 2
internal_value=0 -0.0324355 0.0485046 0.0588191 0 0.0218733 -0.0104093
internal_weight=0 4.80171 3.17159 2.93569 2.53277 1.89554 1.05071
internal_count=38 23 15 14 12 9 5
is_linear=0
shrinkage=0.05


end of trees

feature_importances:
age=22
day_cos=13
AirConditioner_daytime=12
ClothesWasher_midnight=10
Microwave_daytime=8
RiceCooker_midnight=8
day_sin=6
day_sin_*_Microwave_daytime=6
TV_daytime=5
edu_0=4
ClothesWasher_daytime=3
edu_1=2
IH_daytime=2
day_sin_*_AirConditioner_daytime=2
AirConditioner_midnight=1

parameters:
[boosting: gbdt]
[objective: binary]
[metric: roc_auc]
[tree_learner: serial]
[device_type: cpu]
[data_sample_strategy: bagging]
[data: ]
[valid: ]
[num_iterations: 10000]
[learning_rate: 0.05]
[num_leaves: 32]
[num_threads: 0]
[seed: 0]
[deterministic: 0]
[force_col_wise: 0]
[force_row_wise: 0]
[histogram_pool_size: -1]
[max_depth: -1]
[min_data_in_leaf: 1]
[min_sum_hessian_in_leaf: 0.001]
[bagging_fraction: 0.988355]
[pos_bagging_fraction: 1]
[neg_bagging_fraction: 1]
[bagging_freq: 4]
[bagging_seed: 3]
[feature_fraction: 0.571074]
[feature_fraction_bynode: 1]
[feature_fraction_seed: 2]
[extra_trees: 0]
[extra_seed: 6]
[early_stopping_round: 0]
[early_stopping_min_delta: 0]
[first_metric_only: 0]
[max_delta_step: 0]
[lambda_l1: 0.0751281]
[lambda_l2: 0.0217939]
[linear_lambda: 0]
[min_gain_to_split: 0]
[drop_rate: 0.1]
[max_drop: 50]
[skip_drop: 0.5]
[xgboost_dart_mode: 0]
[uniform_drop: 0]
[drop_seed: 4]
[top_rate: 0.2]
[other_rate: 0.1]
[min_data_per_group: 100]
[max_cat_threshold: 32]
[cat_l2: 10]
[cat_smooth: 10]
[max_cat_to_onehot: 4]
[top_k: 20]
[monotone_constraints: ]
[monotone_constraints_method: basic]
[monotone_penalty: 0]
[feature_contri: ]
[forcedsplits_filename: ]
[refit_decay_rate: 0.9]
[cegb_tradeoff: 1]
[cegb_penalty_split: 0]
[cegb_penalty_feature_lazy: ]
[cegb_penalty_feature_coupled: ]
[path_smooth: 0]
[interaction_constraints: ]
[verbosity: -1]
[saved_feature_importance_type: 0]
[use_quantized_grad: 0]
[num_grad_quant_bins: 4]
[quant_train_renew_leaf: 0]
[stochastic_rounding: 1]
[linear_tree: 0]
[max_bin: 255]
[max_bin_by_feature: ]
[min_data_in_bin: 3]
[bin_construct_sample_cnt: 200000]
[data_random_seed: 1]
[is_enable_sparse: 1]
[enable_bundle: 1]
[use_missing: 1]
[zero_as_missing: 0]
[feature_pre_filter: 1]
[pre_partition: 0]
[two_round: 0]
[header: 0]
[label_column: ]
[weight_column: ]
[group_column: ]
[ignore_column: ]
[categorical_feature: ]
[forcedbins_filename: ]
[precise_float_parser: 0]
[parser_config_file: ]
[objective_seed: 5]
[num_class: 1]
[is_unbalance: 0]
[scale_pos_weight: 1]
[sigmoid: 1]
[boost_from_average: 1]
[reg_sqrt: 0]
[alpha: 0.9]
[fair_c: 1]
[poisson_max_delta_step: 0.7]
[tweedie_variance_power: 1.5]
[lambdarank_truncation_level: 30]
[lambdarank_norm: 1]
[label_gain: ]
[lambdarank_position_bias_regularization: 0]
[eval_at: ]
[multi_error_top_k: 1]
[auc_mu_weights: ]
[num_machines: 1]
[local_listen_port: 12400]
[time_out: 120]
[machine_list_filename: ]
[machines: ]
[gpu_platform_id: -1]
[gpu_device_id: -1]
[gpu_use_dp: 0]
[num_gpu: 1]

end of parameters

pandas_categorical:null
