tree
version=v4
num_class=1
num_tree_per_iteration=1
label_index=0
max_feature_idx=14
objective=binary sigmoid:1
feature_names=age edu_0 edu_1 day_cos day_sin AirConditioner_daytime AirConditioner_midnight ClothesWasher_daytime ClothesWasher_midnight Microwave_daytime RiceCooker_midnight TV_daytime IH_daytime day_sin_*_AirConditioner_daytime day_sin_*_Microwave_daytime
feature_infos=[0:0.95833333333333348] [0:1] [0:1] [-28267.926481430419:28233.366375315662] [-27999.931731543991:28284.42604292812] [0:13674] [74:2909] [25:443] [0:1222] [11:23382] [0:8144] [0:7230] [0:8210] [-98039966.845005125:215103514.01693732] [-441825756.21729302:524151953.01477665]
tree_sizes=816 752 741 741 746 840 842 845 842

Tree=0
num_leaves=7
num_cat=0
split_feature=14 14 3 3 11 8
split_gain=7.04537 4.92918 5.59294 3.06589 2.21696 1.59154
threshold=-112974424.11365533 -4911970.3749255734 17091.006263406376 18438.076696214968 667.00000000000011 263.00000000000006
decision_type=2 2 2 2 2 2
left_child=-1 -2 5 -4 -5 -3
right_child=1 2 3 4 -6 -7
leaf_value=0.099807042793356518 -0.099807042793356629 -0.099768531830163487 0.099768531830163432 -0.024953048247500217 0.059851947357317949 -0.019935362884472452
leaf_weight=1.5000000000000007 1.4999999999999989 1.2499999999999993 1.2499999999999998 2.0000000000000004 1.2499999999999998 1.2499999999999998
leaf_count=6 6 5 5 8 5 5
internal_value=0 -0.0176383 0 0.0333076 0.0076773 -0.0599259
internal_weight=0 8.5 7 4.5 3.25 2.5
internal_count=40 34 28 18 13 10
is_linear=0
shrinkage=0.05


Tree=1
num_leaves=6
num_cat=0
split_feature=1 3 13 11 12
split_gain=4.78587 6.82379 4.495 3.44422 0.428252
threshold=1.0000000180025095e-35 20545.016116748444 11197069.816868396 1.0000000180025095e-35 2340.5000000000005
decision_type=2 2 2 2 2
left_child=3 4 -3 -1 -2
right_child=1 2 -4 -5 -6
leaf_value=0.095915663854758013 -0.097250811755443811 -0.023115636104930396 0.097701999899603861 -0.0001724798366906434 -0.058548717906489814
leaf_weight=1.7462477236986162 1.7472276985645296 1.9973581433296206 1.2490660697221754 1.9967895597219465 1.2480870783329008
leaf_count=7 7 8 5 8 5
internal_value=0 -0.0268031 0.0234014 0.0446837 -0.0811991
internal_weight=0 6.24174 3.24642 3.74304 2.99531
internal_count=40 25 13 15 12
is_linear=0
shrinkage=0.05


Tree=2
num_leaves=6
num_cat=0
split_feature=10 1 3 10 5
split_gain=7.46841 4.16577 6.64139 2.33629 1.70458
threshold=168.00000000000003 1.0000000180025095e-35 20545.016116748444 1324.0000000000002 2040.5000000000002
decision_type=2 2 2 2 2
left_child=-1 4 -3 -4 -2
right_child=1 2 3 -5 -6
leaf_value=-0.093964812540814374 0.092880674911091643 -0.07255719435654788 0.09397098503210205 0.0012960530242755101 0.018239334844055908
leaf_weight=1.741700932383538 1.9853439331054672 2.2402391582727432 1.2446671128273012 1.4969354867935178 1.2474786043167112
leaf_count=7 8 9 5 6 5
internal_value=0 0.0199479 -0.00873235 0.0434296 0.064125
internal_weight=0 8.21466 4.98184 2.7416 3.23282
internal_count=40 33 20 11 13
is_linear=0
shrinkage=0.05


Tree=3
num_leaves=6
num_cat=0
split_feature=10 14 3 3 0
split_gain=6.79534 3.82703 2.5071 3.02692 2.28263
threshold=168.00000000000003 -112974424.11365533 17091.006263406376 18438.076696214968 0.66666666666666685
decision_type=2 2 2 2 2
left_child=-1 -2 -3 -4 -5
right_child=1 2 3 4 -6
leaf_value=-0.090018046271076901 0.091578450542036519 -0.044224772251194797 0.090123626602654897 -0.03118427354629107 0.053341766207887158
leaf_weight=1.727610886096955 1.4853206425905217 1.9817263633012761 1.2294067442417143 2.2398775666952138 1.2379525601863859
leaf_count=7 6 8 5 9 5
internal_value=0 0.0190516 0.0029129 0.0227773 -0.00107106
internal_weight=0 8.17428 6.68896 4.70724 3.47783
internal_count=40 33 27 19 14
is_linear=0
shrinkage=0.05


Tree=4
num_leaves=6
num_cat=0
split_feature=10 2 10 9 7
split_gain=6.20392 3.53694 2.49131 2.42036 1.64686
threshold=168.00000000000003 1.0000000180025095e-35 626.50000000000011 9550.0000000000018 176.50000000000003
decision_type=2 2 2 2 2
left_child=-1 2 -2 -4 -3
right_child=1 4 3 -5 -6
leaf_value=-0.086568302925950108 0.031146615229861549 0.087749244702818488 0.0026857889770559727 -0.091779921803067932 0.013891656771386113
leaf_weight=1.7072384804487235 2.2117854356765729 1.9557191878557207 1.4923870265483858 1.2389727234840391 1.2315574586391447
leaf_count=7 9 8 6 5 5
internal_value=0 0.018207 -0.00827151 -0.0402011 0.0592546
internal_weight=0 8.13042 4.94315 2.73136 3.18728
internal_count=40 33 20 11 13
is_linear=0
shrinkage=0.05


Tree=5
num_leaves=7
num_cat=0
split_feature=10 10 8 13 12 12
split_gain=5.74604 3.37015 1.9116 1.0119 0.366088 0.323474
threshold=266.00000000000006 1032.0000000000002 422.00000000000006 11197069.816868396 2139.0000000000005 1078.0000000000002
decision_type=2 2 2 2 2 2
left_child=5 3 -3 4 -2 -1
right_child=1 2 -4 -5 -6 -7
leaf_value=-0.048253400549829677 0.047501860360166077 -0.060446002364495412 0.023509714159682459 0.020800566089382612 0.085109017842025542 -0.08512061461000367
leaf_weight=1.2098049223423006 1.2003280818462374 1.479588121175766 1.2470341175794601 1.9693989008665083 1.452136695384979 1.2103881686925886
leaf_count=5 5 6 5 8 6 5
internal_value=0 0.0220125 -0.0220522 0.048012 0.0681648 -0.0667752
internal_weight=0 7.34849 2.72662 4.62186 2.65246 2.42019
internal_count=40 30 11 19 11 10
is_linear=0
shrinkage=0.05


Tree=6
num_leaves=7
num_cat=0
split_feature=14 14 3 3 14 6
split_gain=4.59403 3.72909 3.60181 1.98519 1.64119 1.37165
threshold=-112974424.11365533 -4911970.3749255734 17091.006263406376 18438.076696214968 16094832.832586424 1031.5000000000002
decision_type=2 2 2 2 2 2
left_child=-1 -2 5 -4 -5 -3
right_child=1 2 3 4 -6 -7
leaf_value=0.082575940225367517 -0.08687672047862563 -0.010073543058578341 0.083299318577875814 0.040754700965090686 -0.0310499375817852 -0.085319917088485339
leaf_weight=1.4327126443386085 1.4562317878007878 1.2142277359962457 1.1896092146635053 1.7251807302236559 1.4724477678537367 1.2092316448688505
leaf_count=6 6 5 5 7 6 5
internal_value=0 -0.014329 0.00120597 0.0282302 0.00768269 -0.0476824
internal_weight=0 8.26693 6.8107 4.38724 3.19763 2.42346
internal_count=40 34 28 18 13 10
is_linear=0
shrinkage=0.05


Tree=7
num_leaves=7
num_cat=0
split_feature=10 6 10 11 3 2
split_gain=5.07015 6.24973 2.81829 2.48379 0.312814 0.00759406
threshold=168.00000000000003 1172.0000000000002 1032.0000000000002 509.50000000000006 12561.649668615259 1.0000000180025095e-35
decision_type=2 2 2 2 2 2
left_child=-1 2 4 -3 -2 -6
right_child=1 3 -4 -5 5 -7
leaf_value=-0.080049620482139636 0.050353583744256275 0.0042665502103104106 -0.01520646782078222 -0.087566634826902218 0.085690211050700349 0.077722731757231447
leaf_weight=1.6376522630453108 1.2007012218236925 1.4800756424665453 1.2348491698503492 1.4610164314508436 1.2119810879230499 1.3779190182685852
leaf_count=7 5 6 5 6 5 6
internal_value=0 0.0164811 0.0503534 -0.04138 0.0717139 0.0815449
internal_weight=0 7.96654 5.02545 2.94109 3.7906 2.5899
internal_count=40 33 21 12 16 11
is_linear=0
shrinkage=0.05


Tree=8
num_leaves=7
num_cat=0
split_feature=10 6 10 11 9 0
split_gain=4.67158 5.7066 2.60156 2.28967 0.407053 0.00311661
threshold=168.00000000000003 1172.0000000000002 1032.0000000000002 509.50000000000006 11799.000000000002 0.4791666666666668
decision_type=2 2 2 2 2 2
left_child=-1 2 4 -3 5 -2
right_child=1 3 -4 -5 -6 -7
leaf_value=-0.077737238583488966 0.07714983399905509 0.0040528864886407714 -0.014459495591632199 -0.084436057345248047 0.04452089547294677 0.083913133714570709
leaf_weight=1.6030001789331434 1.3671915531158454 1.4803291857242586 1.2338692545890806 1.4400451034307478 1.1660623252391813 1.1986021399497984
leaf_count=7 6 6 5 6 5 5
internal_value=0 0.0158272 0.0484383 -0.0396079 0.0692376 0.0804026
internal_weight=0 7.8861 4.96573 2.92037 3.73186 2.56579
internal_count=40 33 21 12 16 11
is_linear=0
shrinkage=0.05


end of trees

feature_importances:
RiceCooker_midnight=11
day_cos=9
day_sin_*_Microwave_daytime=6
TV_daytime=4
AirConditioner_midnight=3
IH_daytime=3
age=2
edu_0=2
edu_1=2
ClothesWasher_midnight=2
Microwave_daytime=2
day_sin_*_AirConditioner_daytime=2
AirConditioner_daytime=1
ClothesWasher_daytime=1

parameters:
[boosting: gbdt]
[objective: binary]
[metric: roc_auc]
[tree_learner: serial]
[device_type: cpu]
[data_sample_strategy: bagging]
[data: ]
[valid: ]
[num_iterations: 10000]
[learning_rate: 0.05]
[num_leaves: 30]
[num_threads: 0]
[seed: 0]
[deterministic: 0]
[force_col_wise: 0]
[force_row_wise: 0]
[histogram_pool_size: -1]
[max_depth: -1]
[min_data_in_leaf: 5]
[min_sum_hessian_in_leaf: 0.001]
[bagging_fraction: 0.953542]
[pos_bagging_fraction: 1]
[neg_bagging_fraction: 1]
[bagging_freq: 4]
[bagging_seed: 3]
[feature_fraction: 0.516559]
[feature_fraction_bynode: 1]
[feature_fraction_seed: 2]
[extra_trees: 0]
[extra_seed: 6]
[early_stopping_round: 0]
[early_stopping_min_delta: 0]
[first_metric_only: 0]
[max_delta_step: 0]
[lambda_l1: 0.000574432]
[lambda_l2: 0.00261218]
[linear_lambda: 0]
[min_gain_to_split: 0]
[drop_rate: 0.1]
[max_drop: 50]
[skip_drop: 0.5]
[xgboost_dart_mode: 0]
[uniform_drop: 0]
[drop_seed: 4]
[top_rate: 0.2]
[other_rate: 0.1]
[min_data_per_group: 100]
[max_cat_threshold: 32]
[cat_l2: 10]
[cat_smooth: 10]
[max_cat_to_onehot: 4]
[top_k: 20]
[monotone_constraints: ]
[monotone_constraints_method: basic]
[monotone_penalty: 0]
[feature_contri: ]
[forcedsplits_filename: ]
[refit_decay_rate: 0.9]
[cegb_tradeoff: 1]
[cegb_penalty_split: 0]
[cegb_penalty_feature_lazy: ]
[cegb_penalty_feature_coupled: ]
[path_smooth: 0]
[interaction_constraints: ]
[verbosity: -1]
[saved_feature_importance_type: 0]
[use_quantized_grad: 0]
[num_grad_quant_bins: 4]
[quant_train_renew_leaf: 0]
[stochastic_rounding: 1]
[linear_tree: 0]
[max_bin: 255]
[max_bin_by_feature: ]
[min_data_in_bin: 3]
[bin_construct_sample_cnt: 200000]
[data_random_seed: 1]
[is_enable_sparse: 1]
[enable_bundle: 1]
[use_missing: 1]
[zero_as_missing: 0]
[feature_pre_filter: 1]
[pre_partition: 0]
[two_round: 0]
[header: 0]
[label_column: ]
[weight_column: ]
[group_column: ]
[ignore_column: ]
[categorical_feature: ]
[forcedbins_filename: ]
[precise_float_parser: 0]
[parser_config_file: ]
[objective_seed: 5]
[num_class: 1]
[is_unbalance: 0]
[scale_pos_weight: 1]
[sigmoid: 1]
[boost_from_average: 1]
[reg_sqrt: 0]
[alpha: 0.9]
[fair_c: 1]
[poisson_max_delta_step: 0.7]
[tweedie_variance_power: 1.5]
[lambdarank_truncation_level: 30]
[lambdarank_norm: 1]
[label_gain: ]
[lambdarank_position_bias_regularization: 0]
[eval_at: ]
[multi_error_top_k: 1]
[auc_mu_weights: ]
[num_machines: 1]
[local_listen_port: 12400]
[time_out: 120]
[machine_list_filename: ]
[machines: ]
[gpu_platform_id: -1]
[gpu_device_id: -1]
[gpu_use_dp: 0]
[num_gpu: 1]

end of parameters

pandas_categorical:null
