tree
version=v4
num_class=1
num_tree_per_iteration=1
label_index=0
max_feature_idx=14
objective=binary sigmoid:1
feature_names=age edu_0 edu_1 day_cos day_sin AirConditioner_daytime AirConditioner_midnight ClothesWasher_daytime ClothesWasher_midnight Microwave_daytime RiceCooker_midnight TV_daytime IH_daytime day_sin_*_AirConditioner_daytime day_sin_*_Microwave_daytime
feature_infos=[0.041666666666666963:1] [0:1] [0:1] [-28133.953770674965:24715.36126863764] [-28240.434342187116:28093.960052212762] [0:17626] [156:23590] [6:748] [6:3162] [1483:18857] [16:2924] [0:5998] [0:10541] [-282526842.84511024:251895321.31050965] [-245597830.52439517:416829834.01223606]
tree_sizes=659 878 724 1034 1099 1029 1023 1053 833 813 902

Tree=0
num_leaves=6
num_cat=0
split_feature=5 5 3 8 3
split_gain=7.55564 3.54817 2.51528 2.14321 0.167963
threshold=5158.0000000000009 110.00000000000001 23575.991601307604 331.50000000000006 12774.882194522599
decision_type=2 2 2 2 2
left_child=1 3 -3 4 -1
right_child=-2 2 -4 -5 -6
leaf_value=0 0.065703086504781738 -0.069745954622204051 0.012990082940930535 0.051792671467111598 -0.033927086065862498
leaf_weight=0.5 1.7499999999999998 3.75 0.74999999999999989 0.99999999999999989 0.5
leaf_count=2 7 15 3 4 2
internal_value=0 -0.0334423 -0.0552933 0.0160655 -0.0247535
internal_weight=0 6.5 4.5 2 1
internal_count=33 26 18 8 4
is_linear=0
shrinkage=0.05


Tree=1
num_leaves=8
num_cat=0
split_feature=1 7 7 11 3 7 3
split_gain=3.79591 4.00742 2.91399 0.761237 0.685436 0.890071 0.461937
threshold=1.0000000180025095e-35 188.00000000000003 47.000000000000007 155.50000000000003 -26681.322341829949 228.50000000000003 12774.882194522599
decision_type=2 2 2 2 2 2 2
left_child=1 3 -2 -1 -4 -6 -3
right_child=2 6 4 -5 5 -7 -8
leaf_value=0.067025277530027891 0.033978941083223385 0 0 0 -0.071103191734813095 0 -0.043284717101254533
leaf_weight=1.9985653162002566 0.49942660331726108 0.99942660331726052 0.49952863156795579 0.49942660331726063 2.4974258244037628 0.49952863156795491 0.74938187003135681
leaf_count=8 2 4 2 2 10 2 3
internal_value=0 0.0230676 -0.0386897 0.0570396 -0.0546535 -0.0618101 -0.0266139
internal_weight=0 4.2468 3.99591 2.49799 3.49648 2.99695 1.74881
internal_count=33 17 16 10 14 12 7
is_linear=0
shrinkage=0.05


Tree=2
num_leaves=6
num_cat=0
split_feature=5 5 14 3 9
split_gain=6.67848 3.16721 3.54695 1.70599 0.386344
threshold=5158.0000000000009 110.00000000000001 -80496210.661408052 12774.882194522599 5931.5000000000009
decision_type=2 2 2 2 2
left_child=1 3 -3 4 -1
right_child=-2 2 -4 -5 -6
leaf_value=0 0.062175584303200061 0.032464432068710365 -0.067112248046771628 -0.032015328505480035 0.049544279300456601
leaf_weight=0.49999999999999978 1.7444494664669035 0.49920055270194952 3.9871674478054051 0.49862360954284657 0.99790427088737488
leaf_count=2 7 2 16 2 4
internal_value=0 -0.0311256 -0.0518367 0.0155095 0.0389898
internal_weight=0 6.4829 4.48637 1.99653 1.4979
internal_count=33 26 18 8 6
is_linear=0
shrinkage=0.05


Tree=3
num_leaves=9
num_cat=0
split_feature=3 10 14 4 0 11 3 11
split_gain=1.97062 2.1633 1.98066 1.39741 1.1672 0.626176 0.570359 0.549618
threshold=12774.882194522599 495.50000000000006 -80496210.661408052 -22516.447317465925 0.4791666666666668 155.50000000000003 23575.991601307604 1.0000000180025095e-35
decision_type=2 2 2 2 2 2 2 2
left_child=1 4 6 -3 7 -5 -2 -1
right_child=2 3 -4 5 -6 -7 -8 -9
leaf_value=-0.011930694708289766 -0.012143545081944316 -0.011124952350522549 -0.059874655822109435 0.06146078206222258 -0.046900575381924298 0 0.031882329640301812 0.031252163170846094
leaf_weight=0.74883301556110404 0.74602940678596519 0.7455086708068851 1.7346388250589369 1.7374985665082934 0.99078214168548573 0.49781373143196095 0.49842187762260437 0.49721743166446686
leaf_count=3 3 3 7 7 4 2 2 2
internal_value=0 0.0114745 -0.0342484 0.0358024 -0.0205063 0.0515777 0.00925014 0.00896589
internal_weight=0 5.21765 2.97909 2.98082 2.23683 2.23531 1.24445 1.24605
internal_count=33 21 12 12 9 9 5 5
is_linear=0
shrinkage=0.05


Tree=4
num_leaves=10
num_cat=0
split_feature=2 7 7 11 8 7 11 14 7
split_gain=3.48502 3.65036 2.62169 1.38932 1.27276 1.05926 1.04745 0.244677 0.102627
threshold=1.0000000180025095e-35 284.50000000000006 83.500000000000014 155.50000000000003 443.00000000000006 115.50000000000001 862.50000000000011 50498103.815170728 47.000000000000007
decision_type=2 2 2 2 2 2 2 2 2
left_child=2 3 8 -2 -4 -6 -5 -3 -1
right_child=1 7 4 6 5 -7 -8 -9 -10
leaf_value=0.032962978814756017 0.067794206734848803 0 -0.064294210890916456 -0.031038456516241916 -0.031088992797948134 0.031637430173781837 0.03133293855624697 -0.0395094210673754 0
leaf_weight=0.49849714338779438 2.4735978692770009 0.49998220801353432 2.224616646766663 0.49673438072204579 0.49573227763175953 0.49784289300441742 0.49740470945835114 0.74132779240608215 0.49543935060501099
leaf_count=2 10 2 9 2 2 2 2 3 2
internal_value=0 0.0285908 -0.0287308 0.0522786 -0.0483906 0 0 -0.0299172 0.0255984
internal_weight=0 4.70905 4.21213 3.46774 3.21819 0.993575 0.994139 1.24131 0.993936
internal_count=36 19 17 14 13 4 4 5 4
is_linear=0
shrinkage=0.05


Tree=5
num_leaves=9
num_cat=0
split_feature=1 12 13 12 0 8 8 0
split_gain=3.20233 3.25219 2.06626 0.920145 1.39155 0.8854 1.02149 0.194903
threshold=1.0000000180025095e-35 582.00000000000011 -73890041.840181395 1840.0000000000002 0.60416666666666685 443.00000000000006 672.50000000000011 0.37500000000000028
decision_type=2 2 2 2 2 2 2 2
left_child=1 -1 -2 -3 7 -4 -7 -5
right_child=2 3 5 4 -6 6 -8 -9
leaf_value=-0.038882454932204602 0.03186846968509726 0.062665302699106404 -0.052658569549611137 0 0.041816423889888918 0.031079178437720602 -0.030547018881453215 -0.031901949484611274
leaf_weight=0.73860530555248249 0.49779565632343281 2.211174532771111 2.7032880783081059 0.49758622050285317 0.74212850630283356 0.49672633409500111 0.49440035223960876 0.49712951481342316
leaf_count=3 2 9 11 2 3 2 2 2
internal_value=0 0.0274591 -0.0275971 0.0454373 0.00849464 -0.0409985 0 -0.0218823
internal_weight=0 4.68662 4.19221 3.94802 1.73684 3.69441 0.991127 0.994716
internal_count=36 19 17 16 7 15 4 4
is_linear=0
shrinkage=0.05


Tree=6
num_leaves=9
num_cat=0
split_feature=5 1 5 8 8 8 5 14
split_gain=4.28214 2.09123 2.13878 2.05211 0.82594 0.985295 0.85004 0.53831
threshold=5158.0000000000009 1.0000000180025095e-35 670.00000000000011 17.500000000000004 443.00000000000006 672.50000000000011 670.00000000000011 -138108977.86131185
decision_type=2 2 2 2 2 2 2 2
left_child=1 2 3 -1 6 -6 -3 -5
right_child=-2 4 -4 7 5 -7 -8 -9
leaf_value=-0.028338076087583094 0.057434946715125404 -0.060925121716649593 -0.039411343023659832 0 0.03053667840858508 -0.030020107754730664 0.00084437492546541215 0.05813366717152222
leaf_weight=0.48753803968429643 1.7129277139902113 2.1928071975708017 0.74117617309093464 0.49987106025219041 0.49539218842983235 0.49286670982837677 0.49132157862186421 1.7152317762374871
leaf_count=2 7 9 3 2 2 2 2 7
internal_value=0 -0.0168495 0.00949556 0.0303137 -0.0396332 0 -0.0509366 0.0488778
internal_weight=0 7.1162 3.44382 2.70264 3.67239 0.988259 2.68413 2.2151
internal_count=36 29 14 11 15 4 11 9
is_linear=0
shrinkage=0.05


Tree=7
num_leaves=9
num_cat=0
split_feature=2 12 13 3 10 11 12 8
split_gain=2.72483 2.93157 1.83762 1.01645 0.955226 0.928713 0.907981 0.0214001
threshold=1.0000000180025095e-35 582.00000000000011 -73890041.840181395 -11866.615380202615 524.50000000000011 155.50000000000003 2510.0000000000005 443.00000000000006
decision_type=2 2 2 2 2 2 2 2
left_child=2 -2 -1 4 -4 -3 -7 -5
right_child=1 5 3 7 -6 6 -8 -9
leaf_value=0.030302224725163238 -0.037406920184961424 0.054031499244546255 -0.02734202347049149 -0.057034488772812399 0.032228126771286968 0.028906791217058976 -0.029300568089930246 -0.010600785380420995
leaf_weight=0.49429823458194722 0.73151671886444081 2.9156258702278142 0.48209923505783114 1.9294293671846392 0.49571985006332397 0.48993833363056172 0.49149799346923828 0.73905304074287403
leaf_count=2 3 12 2 8 2 2 2 3
internal_value=0 0.0254647 -0.0255841 -0.0383932 0.00148714 0.042738 0 -0.0510395
internal_weight=0 4.62858 4.1406 3.6463 0.977819 3.89706 0.981436 2.66848
internal_count=36 19 17 15 4 16 4 11
is_linear=0
shrinkage=0.05


Tree=8
num_leaves=7
num_cat=0
split_feature=2 9 3 6 0 10
split_gain=2.84711 1.66773 1.47166 1.44093 1.48782 0.257326
threshold=1.0000000180025095e-35 3622.5000000000005 -24294.306848227559 811.50000000000011 0.66666666666666685 662.50000000000011
decision_type=2 2 2 2 2 2
left_child=3 -2 -3 -1 5 -5
right_child=1 2 -4 4 -6 -7
leaf_value=-0.053086986524540192 -0.027258715223727366 -0.011097070390681009 0.052412287874648002 -0.035653570518042306 0.038685800531314915 0
leaf_weight=1.6705151200294497 0.48199757933616627 0.73185740411281619 2.8926857262849808 0.72042015194892861 0.73755288124084462 0.48650124669075012
leaf_count=7 2 3 12 3 3 2
internal_value=0 0.0270063 0.0389716 -0.0280235 0.00158737 -0.025642
internal_weight=0 4.10654 3.62454 3.61499 1.94447 1.20692
internal_count=32 17 15 15 8 5
is_linear=0
shrinkage=0.05


Tree=9
num_leaves=7
num_cat=0
split_feature=5 5 14 9 14 0
split_gain=4.75384 1.88275 2.25982 0.832588 0.614558 0.0380707
threshold=5158.0000000000009 110.00000000000001 -80496210.661408052 8467.0000000000018 50498103.815170728 0.4791666666666668
decision_type=2 2 2 2 2 2
left_child=1 4 -3 -4 5 -1
right_child=-2 2 3 -5 -6 -7
leaf_value=-0.011063395241037485 0.055881738693646425 0.026370506328955635 -0.062231013313789732 0 0.034870828690328509 0
leaf_weight=0.73850101232528664 1.9044470041990278 0.47662192583084095 2.8534985482692727 0.49009031057357777 0.71351788938045491 0.48656626045703888
leaf_count=3 8 2 12 2 3 2
internal_value=0 -0.0223009 -0.0401583 -0.0540701 0.0128865 -0.00691387
internal_weight=0 5.7588 3.82021 3.34359 1.93859 1.22507
internal_count=32 24 16 14 8 5
is_linear=0
shrinkage=0.05


Tree=10
num_leaves=8
num_cat=0
split_feature=1 8 8 4 3 4 13
split_gain=2.52014 2.71008 2.18003 0.507716 0.582287 0.121772 0.0739872
threshold=1.0000000180025095e-35 9.0000000000000018 443.00000000000006 -22516.447317465925 -24294.306848227559 1.0000000180025095e-35 -5048256.842111228
decision_type=2 2 2 2 2 2 2
left_child=1 -1 6 -3 -5 -4 -2
right_child=2 3 5 4 -6 -7 -8
leaf_value=-0.034774300481321067 -0.0081246115106526091 0 0.03007007916563198 0 0.05821681626670705 0 -0.053289317540341136
leaf_weight=0.71376176178455342 0.70630447566509302 0.49939925968647036 0.49396938085556019 0.48319798707962069 2.3431196659803391 0.48259317874908447 1.867924377322197
leaf_count=3 3 2 2 2 10 2 8
internal_value=0 0.0256209 -0.0265157 0.0440319 0.0504735 0.0223261 -0.047221
internal_weight=0 4.03948 3.55079 3.32572 2.82632 0.976563 2.57423
internal_count=32 17 15 14 12 4 11
is_linear=0
shrinkage=0.05


end of trees

feature_importances:
day_cos=10
ClothesWasher_midnight=10
AirConditioner_daytime=9
ClothesWasher_daytime=7
TV_daytime=6
day_sin_*_Microwave_daytime=6
age=5
edu_0=4
IH_daytime=4
edu_1=3
day_sin=3
Microwave_daytime=3
RiceCooker_midnight=3
day_sin_*_AirConditioner_daytime=3
AirConditioner_midnight=1

parameters:
[boosting: gbdt]
[objective: binary]
[metric: roc_auc]
[tree_learner: serial]
[device_type: cpu]
[data_sample_strategy: bagging]
[data: ]
[valid: ]
[num_iterations: 10000]
[learning_rate: 0.05]
[num_leaves: 17]
[num_threads: 0]
[seed: 0]
[deterministic: 0]
[force_col_wise: 0]
[force_row_wise: 0]
[histogram_pool_size: -1]
[max_depth: -1]
[min_data_in_leaf: 2]
[min_sum_hessian_in_leaf: 0.001]
[bagging_fraction: 0.858836]
[pos_bagging_fraction: 1]
[neg_bagging_fraction: 1]
[bagging_freq: 4]
[bagging_seed: 3]
[feature_fraction: 0.443234]
[feature_fraction_bynode: 1]
[feature_fraction_seed: 2]
[extra_trees: 0]
[extra_seed: 6]
[early_stopping_round: 0]
[early_stopping_min_delta: 0]
[first_metric_only: 0]
[max_delta_step: 0]
[lambda_l1: 0.0845337]
[lambda_l2: 0.849167]
[linear_lambda: 0]
[min_gain_to_split: 0]
[drop_rate: 0.1]
[max_drop: 50]
[skip_drop: 0.5]
[xgboost_dart_mode: 0]
[uniform_drop: 0]
[drop_seed: 4]
[top_rate: 0.2]
[other_rate: 0.1]
[min_data_per_group: 100]
[max_cat_threshold: 32]
[cat_l2: 10]
[cat_smooth: 10]
[max_cat_to_onehot: 4]
[top_k: 20]
[monotone_constraints: ]
[monotone_constraints_method: basic]
[monotone_penalty: 0]
[feature_contri: ]
[forcedsplits_filename: ]
[refit_decay_rate: 0.9]
[cegb_tradeoff: 1]
[cegb_penalty_split: 0]
[cegb_penalty_feature_lazy: ]
[cegb_penalty_feature_coupled: ]
[path_smooth: 0]
[interaction_constraints: ]
[verbosity: -1]
[saved_feature_importance_type: 0]
[use_quantized_grad: 0]
[num_grad_quant_bins: 4]
[quant_train_renew_leaf: 0]
[stochastic_rounding: 1]
[linear_tree: 0]
[max_bin: 255]
[max_bin_by_feature: ]
[min_data_in_bin: 3]
[bin_construct_sample_cnt: 200000]
[data_random_seed: 1]
[is_enable_sparse: 1]
[enable_bundle: 1]
[use_missing: 1]
[zero_as_missing: 0]
[feature_pre_filter: 1]
[pre_partition: 0]
[two_round: 0]
[header: 0]
[label_column: ]
[weight_column: ]
[group_column: ]
[ignore_column: ]
[categorical_feature: ]
[forcedbins_filename: ]
[precise_float_parser: 0]
[parser_config_file: ]
[objective_seed: 5]
[num_class: 1]
[is_unbalance: 0]
[scale_pos_weight: 1]
[sigmoid: 1]
[boost_from_average: 1]
[reg_sqrt: 0]
[alpha: 0.9]
[fair_c: 1]
[poisson_max_delta_step: 0.7]
[tweedie_variance_power: 1.5]
[lambdarank_truncation_level: 30]
[lambdarank_norm: 1]
[label_gain: ]
[lambdarank_position_bias_regularization: 0]
[eval_at: ]
[multi_error_top_k: 1]
[auc_mu_weights: ]
[num_machines: 1]
[local_listen_port: 12400]
[time_out: 120]
[machine_list_filename: ]
[machines: ]
[gpu_platform_id: -1]
[gpu_device_id: -1]
[gpu_use_dp: 0]
[num_gpu: 1]

end of parameters

pandas_categorical:null
