tree
version=v4
num_class=1
num_tree_per_iteration=1
label_index=0
max_feature_idx=14
objective=binary sigmoid:1
feature_names=age edu_0 edu_1 day_cos day_sin AirConditioner_daytime AirConditioner_midnight ClothesWasher_daytime ClothesWasher_midnight Microwave_daytime RiceCooker_midnight TV_daytime IH_daytime day_sin_*_AirConditioner_daytime day_sin_*_Microwave_daytime
feature_infos=[0.083333333333333481:0.95833333333333348] [0:1] [0:1] [-28133.953770688327:28199.866993667601] [-26325.235972451366:28263.474768540877] [0:17626] [70:4147] [5:470] [0:561] [66:17056] [140:2592] [0:5998] [0:9047] [-393023543.01611835:307357671.75955588] [-422550862.85317016:282410946.17179334]
tree_sizes=619 848 936 935 840 846 841 942 932

Tree=0
num_leaves=5
num_cat=0
split_feature=5 8 3 7
split_gain=9.95658 8.97029 5.7859 5.27284
threshold=3393.5000000000005 416.00000000000006 27054.764375543524 176.00000000000003
decision_type=2 2 2 2
left_child=1 2 -1 -2
right_child=3 -3 -4 -5
leaf_value=-0.096127164651933744 0.094015267148542844 0.083549590917069261 0.067123058829338819 -0.067123058829338819
leaf_weight=4.25 2.7500000000000004 0.99999999999999989 0.49999999999999989 0.49999999999999989
leaf_count=17 11 4 2 2
internal_value=0 -0.04497 -0.0754854 0.0641734
internal_weight=0 5.75 4.75 3.25
internal_count=36 23 19 13
is_linear=0
shrinkage=0.05


Tree=1
num_leaves=7
num_cat=0
split_feature=1 4 9 7 5 12
split_gain=11.4551 8.31368 2.31958 2.16543 1.51182 0.17929
threshold=1.0000000180025095e-35 -19423.591727188243 2454.5000000000005 26.000000000000004 1.0000000180025095e-35 1208.5000000000002
decision_type=2 2 2 2 2 2
left_child=2 -2 -1 -3 5 -5
right_child=1 3 -4 4 -6 -7
leaf_value=-0.029620802057395059 0.079029945955368844 0.029723121431476641 0.089874847181959511 0.030231013419715382 -0.09169434565522433 -0.029620802057395097
leaf_weight=0.24942335486412082 0.99779355525970448 0.24944838881492604 2.7448202669620514 0.24956423044204701 4.2407875657081604 0.24942335486412048
leaf_count=1 4 1 11 1 17 1
internal_value=0 -0.0450316 0.0744436 -0.0731351 -0.0820095 0
internal_weight=0 5.98702 2.99424 4.98922 4.73978 0.498988
internal_count=36 24 12 20 19 2
is_linear=0
shrinkage=0.05


Tree=2
num_leaves=8
num_cat=0
split_feature=1 5 7 5 9 5 0
split_gain=12.2676 6.19792 3.19496 1.33964 1.10317 0.24538 0.162124
threshold=1.0000000180025095e-35 3393.5000000000005 176.00000000000003 1.0000000180025095e-35 2454.5000000000005 10.000000000000002 0.64583333333333359
decision_type=2 2 2 2 2 2 2
left_child=4 3 -3 6 5 -1 -2
right_child=1 2 -4 -5 -6 -7 -8
leaf_value=-0.028191319026617659 -0.028191319026617707 0.079234463154095935 -0.059583942852802302 -0.08701187632883349 0.086986768311620527 0.040762589485537376 0.028767624917319941
leaf_weight=0.2490143179893497 0.24901431798934925 1.2415965199470518 0.49686032533645619 3.7171212583780289 2.9786784499883652 0.24901431798934937 0.24919261038303375
leaf_count=1 1 5 2 15 12 1 1
internal_value=0 -0.042751 0.0301273 -0.0766944 0.0754316 0 0
internal_weight=0 5.95379 1.73846 4.21533 3.47671 0.498029 0.498207
internal_count=38 24 7 17 14 2 2
is_linear=0
shrinkage=0.05


Tree=3
num_leaves=8
num_cat=0
split_feature=2 4 8 5 9 5 3
split_gain=11.1655 6.90582 1.90056 1.27329 1.01446 0.221333 0.115646
threshold=1.0000000180025095e-35 -19423.591727188243 501.00000000000006 8120.5000000000009 2454.5000000000005 10.000000000000002 27054.764375543524
decision_type=2 2 2 2 2 2 2
left_child=1 -1 3 -3 5 -2 -5
right_child=4 2 -4 6 -6 -7 -8
leaf_value=0.07214624209066435 -0.02683980833517945 -0.084466144791313438 0.027384922226047333 0.024506749711578294 0.083399813246172308 0.038645312959648903 -0.023776558799959789
leaf_weight=0.98425602912902821 0.24852475523948703 4.1756365448236465 0.24873429536819447 0.24744270741939534 2.9521259218454361 0.24954913556575775 0.24704234302043915
leaf_count=4 1 17 1 1 12 1 1
internal_value=0 -0.0409728 -0.0669466 -0.0754832 0.0722268 0 0
internal_weight=0 5.90311 4.91886 4.67012 3.4502 0.498074 0.494485
internal_count=38 24 20 19 14 2 2
is_linear=0
shrinkage=0.05


Tree=4
num_leaves=7
num_cat=0
split_feature=2 5 7 8 9 5
split_gain=10.1402 5.14895 2.71635 2.02113 0.938378 0.199786
threshold=1.0000000180025095e-35 3393.5000000000005 176.00000000000003 501.00000000000006 2454.5000000000005 10.000000000000002
decision_type=2 2 2 2 2 2
left_child=1 3 -3 -1 5 -2
right_child=4 2 -4 -5 -6 -7
leaf_value=-0.080951895389264172 -0.025560231714136846 0.073423347051261773 -0.054615167112020351 0.026076529009530003 0.080217474278799938 0.036670920528226784
leaf_weight=3.8780105710029602 0.24796850979328189 1.2209352850913999 0.49072337150573719 0.24820381402969349 2.9166873544454575 0.2498658299446106
leaf_count=16 1 5 2 1 12 1
internal_value=0 -0.0390937 0.0271365 -0.070539 0.0693538 0
internal_weight=0 5.83787 1.71166 4.12621 3.41452 0.497834
internal_count=38 24 7 17 14 2
is_linear=0
shrinkage=0.05


Tree=5
num_leaves=7
num_cat=0
split_feature=1 4 8 9 3 8
split_gain=9.25528 5.78667 1.68092 0.872443 0.475891 0.180448
threshold=1.0000000180025095e-35 -19423.591727188243 501.00000000000006 2454.5000000000005 -27523.328997024331 276.50000000000006
decision_type=2 2 2 2 2 2
left_child=3 -2 4 5 -3 -1
right_child=1 2 -4 -5 -6 -7
leaf_value=-0.024347276844836348 0.066491056886100006 -0.0034536733460009887 0.024836861274848739 0.077372746528229897 -0.078474163517348802 0.034824281202741551
leaf_weight=0.24735777080059085 0.9614499807357787 0.72487238049507086 0.24761405587196339 2.873829185962677 3.824044987559319 0.24999415874481201
leaf_count=1 4 3 1 12 16 1
internal_value=0 -0.0375289 -0.0618027 0.0667584 -0.0701245 0
internal_weight=0 5.75798 4.79653 3.37118 4.54892 0.497352
internal_count=38 24 20 14 19 2
is_linear=0
shrinkage=0.05


Tree=6
num_leaves=7
num_cat=0
split_feature=1 12 3 7 9 5
split_gain=8.46056 4.64277 2.17833 1.75382 0.814765 0.163067
threshold=1.0000000180025095e-35 682.00000000000011 20190.860420360903 26.000000000000004 2454.5000000000005 10.000000000000002
decision_type=2 2 2 2 2 2
left_child=4 2 -2 -3 5 -1
right_child=1 3 -4 -5 -6 -7
leaf_value=-0.023196258493461325 0.069460277044769966 0.020056339703603362 -0.044660254451863841 -0.076411624919566212 0.074812365866076938 0.033092595620922163
leaf_weight=0.24670325219631228 1.1949527561664579 0.24455077946186055 0.46781828999519337 3.7687935382127762 2.8248344361782074 0.24996045231819153
leaf_count=1 5 1 2 16 12 1
internal_value=0 -0.036041 0.0274946 -0.0664478 0.0643976 0
internal_weight=0 5.67612 1.66277 4.01334 3.3215 0.496664
internal_count=38 24 7 17 14 2
is_linear=0
shrinkage=0.05


Tree=7
num_leaves=8
num_cat=0
split_feature=1 13 8 5 12 3 3
split_gain=7.75112 4.89381 1.46553 1.02727 0.763882 0.147425 0.051438
threshold=1.0000000180025095e-35 -124106908.35183227 501.00000000000006 8120.5000000000009 564.00000000000011 -1.0000000180025095e-35 27054.764375543524
decision_type=2 2 2 2 2 2 2
left_child=4 -2 3 -3 5 -1 -5
right_child=1 2 -4 6 -6 -7 -8
leaf_value=0.031464891401330533 0.061685300344588689 -0.074113286805927922 0.020391394578092262 0.019116231289481648 0.072493435903276629 -0.022102977419017115 -0.012828992324051471
leaf_weight=0.2497880756855011 0.93201559782028187 3.9203175157308578 0.24480573832988728 0.24380375444889058 2.77082559466362 0.24601435661315951 0.23767049610614777
leaf_count=1 4 17 1 1 12 1 1
internal_value=0 -0.0347107 -0.0575791 -0.0656409 0.0622363 0 0
internal_weight=0 5.57861 4.6466 4.40179 3.26663 0.495802 0.481474
internal_count=38 24 20 19 14 2 2
is_linear=0
shrinkage=0.05


Tree=8
num_leaves=8
num_cat=0
split_feature=2 4 5 5 9 3 3
split_gain=7.08959 4.51109 0.798921 0.944987 0.718642 0.133334 0.0465855
threshold=1.0000000180025095e-35 -19423.591727188243 1.0000000180025095e-35 8120.5000000000009 2454.5000000000005 -1.0000000180025095e-35 27054.764375543524
decision_type=2 2 2 2 2 2 2
left_child=1 -1 -3 -4 5 -2 -5
right_child=4 2 3 6 -6 -7 -8
leaf_value=0.059631345349489544 0.029931755154107478 0 -0.071557199482680106 0.018220920845604269 0.070381000476581593 -0.021063712000658017 -0.012225567402956328
leaf_weight=0.91633689403533924 0.24949765205383301 0.47617223858833302 3.6036083251237869 0.24304948747158039 2.7127839773893356 0.24529927968978915 0.23698505759239197
leaf_count=4 1 2 16 1 12 1 1
internal_value=0 -0.0333164 -0.0555955 -0.0627711 0.0602458 0 0
internal_weight=0 5.47615 4.55982 4.08364 3.20758 0.494797 0.480035
internal_count=38 24 20 18 14 2 2
is_linear=0
shrinkage=0.05


end of trees

feature_importances:
AirConditioner_daytime=13
day_cos=8
Microwave_daytime=7
ClothesWasher_midnight=6
edu_0=5
ClothesWasher_daytime=5
day_sin=4
edu_1=3
IH_daytime=3
age=1
day_sin_*_AirConditioner_daytime=1

parameters:
[boosting: gbdt]
[objective: binary]
[metric: roc_auc]
[tree_learner: serial]
[device_type: cpu]
[data_sample_strategy: bagging]
[data: ]
[valid: ]
[num_iterations: 10000]
[learning_rate: 0.05]
[num_leaves: 32]
[num_threads: 0]
[seed: 0]
[deterministic: 0]
[force_col_wise: 0]
[force_row_wise: 0]
[histogram_pool_size: -1]
[max_depth: -1]
[min_data_in_leaf: 1]
[min_sum_hessian_in_leaf: 0.001]
[bagging_fraction: 0.913244]
[pos_bagging_fraction: 1]
[neg_bagging_fraction: 1]
[bagging_freq: 2]
[bagging_seed: 3]
[feature_fraction: 0.683355]
[feature_fraction_bynode: 1]
[feature_fraction_seed: 2]
[extra_trees: 0]
[extra_seed: 6]
[early_stopping_round: 0]
[early_stopping_min_delta: 0]
[first_metric_only: 0]
[max_delta_step: 0]
[lambda_l1: 0.327794]
[lambda_l2: 0.000726781]
[linear_lambda: 0]
[min_gain_to_split: 0]
[drop_rate: 0.1]
[max_drop: 50]
[skip_drop: 0.5]
[xgboost_dart_mode: 0]
[uniform_drop: 0]
[drop_seed: 4]
[top_rate: 0.2]
[other_rate: 0.1]
[min_data_per_group: 100]
[max_cat_threshold: 32]
[cat_l2: 10]
[cat_smooth: 10]
[max_cat_to_onehot: 4]
[top_k: 20]
[monotone_constraints: ]
[monotone_constraints_method: basic]
[monotone_penalty: 0]
[feature_contri: ]
[forcedsplits_filename: ]
[refit_decay_rate: 0.9]
[cegb_tradeoff: 1]
[cegb_penalty_split: 0]
[cegb_penalty_feature_lazy: ]
[cegb_penalty_feature_coupled: ]
[path_smooth: 0]
[interaction_constraints: ]
[verbosity: -1]
[saved_feature_importance_type: 0]
[use_quantized_grad: 0]
[num_grad_quant_bins: 4]
[quant_train_renew_leaf: 0]
[stochastic_rounding: 1]
[linear_tree: 0]
[max_bin: 255]
[max_bin_by_feature: ]
[min_data_in_bin: 3]
[bin_construct_sample_cnt: 200000]
[data_random_seed: 1]
[is_enable_sparse: 1]
[enable_bundle: 1]
[use_missing: 1]
[zero_as_missing: 0]
[feature_pre_filter: 1]
[pre_partition: 0]
[two_round: 0]
[header: 0]
[label_column: ]
[weight_column: ]
[group_column: ]
[ignore_column: ]
[categorical_feature: ]
[forcedbins_filename: ]
[precise_float_parser: 0]
[parser_config_file: ]
[objective_seed: 5]
[num_class: 1]
[is_unbalance: 0]
[scale_pos_weight: 1]
[sigmoid: 1]
[boost_from_average: 1]
[reg_sqrt: 0]
[alpha: 0.9]
[fair_c: 1]
[poisson_max_delta_step: 0.7]
[tweedie_variance_power: 1.5]
[lambdarank_truncation_level: 30]
[lambdarank_norm: 1]
[label_gain: ]
[lambdarank_position_bias_regularization: 0]
[eval_at: ]
[multi_error_top_k: 1]
[auc_mu_weights: ]
[num_machines: 1]
[local_listen_port: 12400]
[time_out: 120]
[machine_list_filename: ]
[machines: ]
[gpu_platform_id: -1]
[gpu_device_id: -1]
[gpu_use_dp: 0]
[num_gpu: 1]

end of parameters

pandas_categorical:null
