tree
version=v4
num_class=1
num_tree_per_iteration=1
label_index=0
max_feature_idx=14
objective=binary sigmoid:1
feature_names=age edu_0 edu_1 day_cos day_sin AirConditioner_daytime AirConditioner_midnight ClothesWasher_daytime ClothesWasher_midnight Microwave_daytime RiceCooker_midnight TV_daytime IH_daytime day_sin_*_AirConditioner_daytime day_sin_*_Microwave_daytime
feature_infos=[0.083333333333333481:0.95833333333333348] [0:1] [0:1] [-27467.261951863988:28233.366375315662] [-27437.955337222393:28284.42604292812] [0:14184] [169:2909] [25:571] [0:1222] [1487:13882] [86:8144] [0:4888] [32:9457] [-363884884.36380106:337640685.29708362] [-254134494.11363602:302684748.60421908]
tree_sizes=681 719 718 719 717 720 722 721 723 805 802 800 807 807 808 697

Tree=0
num_leaves=6
num_cat=0
split_feature=1 3 3 10 6
split_gain=8.2284 6.75328 4.01666 1.79317 0.842945
threshold=1.0000000180025095e-35 19670.524816437941 25159.234097104087 629.50000000000011 2434.5000000000005
decision_type=2 2 2 2 2
left_child=2 -2 -1 -3 -5
right_child=1 3 -4 4 -6
leaf_value=0.086562912096995265 -0.090401907489357614 0.066410451042267268 -0.032831468757192915 -0.055216283118757176 0
leaf_weight=2.5000000000000004 3.5 1.0000000000000002 0.49999999999999989 0.74999999999999978 0.75
leaf_count=10 14 4 2 3 3
internal_value=0 -0.0444023 0.0554707 0.00656795 -0.0109461
internal_weight=0 6 3 2.5 1.5
internal_count=36 24 12 10 6
is_linear=0
shrinkage=0.05


Tree=1
num_leaves=6
num_cat=0
split_feature=1 3 3 10 6
split_gain=7.33243 6.15015 3.70313 1.61231 0.771382
threshold=1.0000000180025095e-35 19670.524816437941 25159.234097104087 629.50000000000011 2434.5000000000005
decision_type=2 2 2 2 2
left_child=2 -2 -1 -3 -5
right_child=1 3 -4 4 -6
leaf_value=0.082391880556896974 -0.086060675737545361 0.063161247640724685 -0.031198959411571355 -0.052496733737816659 0
leaf_weight=2.4953226745128636 3.4928588569164276 0.99889820814132724 0.49986529350280751 0.74942864477634408 0.75
leaf_count=10 14 4 2 3 3
internal_value=0 -0.0420374 0.0522237 0.00607235 -0.00956985
internal_weight=0 5.99119 2.99519 2.49833 1.49943
internal_count=36 24 12 10 6
is_linear=0
shrinkage=0.05


Tree=2
num_leaves=6
num_cat=0
split_feature=1 3 3 10 6
split_gain=6.54796 5.62793 3.4283 1.45306 0.706474
threshold=1.0000000180025095e-35 19670.524816437941 25159.234097104087 629.50000000000011 2434.5000000000005
decision_type=2 2 2 2 2
left_child=2 -2 -1 -3 -5
right_child=1 3 -4 4 -6
leaf_value=0.078694641157124434 -0.082238873644907673 0.060193834500155044 -0.029662417939101984 -0.049981623305577254 0
leaf_weight=2.4822434782981877 3.4728940725326538 0.99581450223922763 0.49948787689208973 0.74782879650592782 0.75
leaf_count=10 14 4 2 3 3
internal_value=0 -0.0398971 0.0492815 0.00560859 -0.00826814
internal_weight=0 5.96654 2.98173 2.49364 1.49783
internal_count=36 24 12 10 6
is_linear=0
shrinkage=0.05


Tree=3
num_leaves=6
num_cat=0
split_feature=1 4 10 12 9
split_gain=8.05282 4.28386 1.41806 2.00909 1.12519
threshold=1.0000000180025095e-35 17305.573540903624 629.50000000000011 316.50000000000006 3665.0000000000005
decision_type=2 2 2 2 2
left_child=4 2 -2 -4 -1
right_child=1 -3 3 -5 -6
leaf_value=0 0.05746621563253617 -0.076570625169494366 0.019715206007777011 -0.063045413158174607 0.07766201395703741
leaf_weight=0.4956578612327579 0.99105101823806796 2.7070853859186172 0.99586331844329867 1.2344943583011625 2.9544684290885925
leaf_count=2 4 11 4 5 12
internal_value=0 -0.0295105 0 -0.0110393 0.0659519
internal_weight=0 5.92849 3.22141 2.23036 3.45013
internal_count=38 24 13 9 14
is_linear=0
shrinkage=0.05


Tree=4
num_leaves=6
num_cat=0
split_feature=1 4 10 12 9
split_gain=7.29518 3.95462 1.27449 1.84087 1.04088
threshold=1.0000000180025095e-35 17305.573540903624 629.50000000000011 316.50000000000006 3665.0000000000005
decision_type=2 2 2 2 2
left_child=4 2 -2 -4 -1
right_child=1 -3 3 -5 -6
leaf_value=0 0.05494436533576591 -0.073562308608284332 0.018719402185348673 -0.060375564964882569 0.0746193149441816
leaf_weight=0.4956578612327579 0.98487347364425692 2.677641972899437 0.99639119207859073 1.2248781919479368 2.9220085144042969
leaf_count=2 4 11 4 5 12
internal_value=0 -0.027973 0 -0.00978125 0.0632392
internal_weight=0 5.88378 3.20614 2.22127 3.41767
internal_count=38 24 13 9 14
is_linear=0
shrinkage=0.05


Tree=5
num_leaves=6
num_cat=0
split_feature=1 4 10 12 9
split_gain=6.62034 3.66119 1.1472 1.68875 0.967066
threshold=1.0000000180025095e-35 17305.573540903624 629.50000000000011 316.50000000000006 3665.0000000000005
decision_type=2 2 2 2 2
left_child=4 2 -2 -4 -1
right_child=1 -3 3 -5 -6
leaf_value=0 0.052600449571264855 -0.070836149728731812 0.017777637089707293 -0.057907408432266883 0.071867805315901062
leaf_weight=0.4956578612327579 0.97751533985137973 2.642546683549881 0.99671511352062259 1.2135248780250547 2.8831683397293091
leaf_count=2 4 11 4 5 12
internal_value=0 -0.0265422 0 -0.00858672 0.0607605
internal_weight=0 5.8303 3.18776 2.21024 3.37883
internal_count=38 24 13 9 14
is_linear=0
shrinkage=0.05


Tree=6
num_leaves=6
num_cat=0
split_feature=1 3 3 10 6
split_gain=3.68241 4.38603 2.83166 0.814966 0.0470212
threshold=1.0000000180025095e-35 19670.524816437941 25159.234097104087 629.50000000000011 2434.5000000000005
decision_type=2 2 2 2 2
left_child=2 -2 -1 -3 -5
right_child=1 3 -4 4 -6
leaf_value=0.068287051430894932 -0.070765828649899817 0.05041147252702697 -0.028213530401312942 -0.015578789516429182 0
leaf_weight=2.6024701446294789 2.853517547249794 0.96918189525604281 0.49890431761741627 0.48420011997222878 0.74940785765647888
leaf_count=11 12 4 2 2 3
internal_value=0 -0.0272384 0.0419362 0.0139057 0
internal_weight=0 5.05631 3.10137 2.20279 1.23361
internal_count=34 21 13 9 5
is_linear=0
shrinkage=0.05


Tree=7
num_leaves=6
num_cat=0
split_feature=1 3 3 10 6
split_gain=3.29333 4.05003 2.65741 0.749184 0.0425643
threshold=1.0000000180025095e-35 19670.524816437941 25159.234097104087 629.50000000000011 2434.5000000000005
decision_type=2 2 2 2 2
left_child=2 -2 -1 -3 -5
right_child=1 3 -4 4 -6
leaf_value=0.066007987417437047 -0.068363191446860067 0.048358351488035169 -0.026845062991045429 -0.014843030022933601 0
leaf_weight=2.5588226318359379 2.8072912842035294 0.96005320549011264 0.49814695119857777 0.48283492028713204 0.74940785765647888
leaf_count=11 12 4 2 2 3
internal_value=0 -0.025955 0.0398927 0.013035 0
internal_weight=0 4.99959 3.05697 2.1923 1.23224
internal_count=34 21 13 9 5
is_linear=0
shrinkage=0.05


Tree=8
num_leaves=6
num_cat=0
split_feature=1 3 9 10 6
split_gain=2.94472 3.74738 2.49853 0.689385 0.0385288
threshold=1.0000000180025095e-35 19670.524816437941 3665.0000000000005 629.50000000000011 2434.5000000000005
decision_type=2 2 2 2 2
left_child=2 -2 -1 -3 -5
right_child=1 3 -4 4 -6
leaf_value=-0.025550690397735526 -0.066154651924635322 0.046425111055749813 0.063903154102164392 -0.014141665392192039 0
leaf_weight=0.4972442984580997 2.7572370618581772 0.95028698444366488 2.5121419131755829 0.48148530721664407 0.74940785765647888
leaf_count=2 12 4 11 2 3
internal_value=0 -0.0247457 0.0379645 0.0122066 0
internal_weight=0 4.93842 3.00939 2.18118 1.23089
internal_count=34 21 13 9 5
is_linear=0
shrinkage=0.05


Tree=9
num_leaves=7
num_cat=0
split_feature=14 1 9 0 9 7
split_gain=2.96838 2.58378 1.88795 0.750428 0.745312 0.582073
threshold=25563375.891010489 1.0000000180025095e-35 3665.0000000000005 0.66666666666666685 8729.0000000000018 225.00000000000003
decision_type=2 2 2 2 2 2
left_child=2 -2 5 -3 -4 -1
right_child=1 3 4 -5 -6 -7
leaf_value=-0.043853128083620012 0.03022567408180515 -0.064746774739954854 0.070370685532413865 0 0 0.0088811554809274749
leaf_weight=0.73724623024463676 0.69006046652793918 2.717596292495728 2.0829959660768513 0.45783196389675129 0.44959543645381916 0.47001069784164429
leaf_count=3 3 12 9 2 2 2
internal_value=0 -0.0308887 0.0315918 -0.0547446 0.0577694 0
internal_weight=0 3.86549 3.73985 3.17543 2.53259 1.20726
internal_count=33 17 16 14 11 5
is_linear=0
shrinkage=0.05


Tree=10
num_leaves=7
num_cat=0
split_feature=14 1 9 6 9 7
split_gain=2.67355 2.41249 1.72861 0.734852 0.691682 0.528468
threshold=25563375.891010489 1.0000000180025095e-35 3665.0000000000005 1830.5000000000002 8729.0000000000018 225.00000000000003
decision_type=2 2 2 2 2 2
left_child=2 -2 5 -3 -4 -1
right_child=1 3 4 -5 -6 -7
leaf_value=-0.041907366832090759 0.028963656518508768 -0.062958573293842898 0.067858169344320471 0 0 0.0084562574418712046
leaf_weight=0.73301780223846458 0.68427830934524569 2.667772307991982 2.0528844147920613 0.45292368531227101 0.44959543645381916 0.46898084878921509
leaf_count=3 3 12 9 2 2 2
internal_value=0 -0.0293638 0.030308 -0.0529137 0.0555567 0
internal_weight=0 3.80497 3.70448 3.1207 2.50248 1.202
internal_count=33 17 16 14 11 5
is_linear=0
shrinkage=0.05


Tree=11
num_leaves=7
num_cat=0
split_feature=14 1 9 6 9 7
split_gain=2.40719 2.2545 1.585 0.694151 0.643645 0.480104
threshold=25563375.891010489 1.0000000180025095e-35 3665.0000000000005 1830.5000000000002 8729.0000000000018 225.00000000000003
decision_type=2 2 2 2 2 2
left_child=2 -2 5 -3 -4 -1
right_child=1 3 4 -5 -6 -7
leaf_value=-0.040073401988918761 0.027755373150826931 -0.06113894605982171 0.065533649808334551 0 0 0.0080511026912132716
leaf_weight=0.72836256027221702 0.67852000892162356 2.611257523298264 2.0202519446611409 0.45292368531227101 0.44959543645381916 0.46798625588417053
leaf_count=3 3 12 9 2 2 2
internal_value=0 -0.0278958 0.0291031 -0.0511778 0.0534928 0
internal_weight=0 3.7427 3.6662 3.06418 2.46985 1.19635
internal_count=33 17 16 14 11 5
is_linear=0
shrinkage=0.05


Tree=12
num_leaves=7
num_cat=0
split_feature=1 3 4 5 10 12
split_gain=3.12703 2.24163 1.94323 1.19061 0.390728 0.0338841
threshold=1.0000000180025095e-35 25159.234097104087 17305.573540903624 358.50000000000006 385.50000000000006 316.50000000000006
decision_type=2 2 2 2 2 2
left_child=1 -1 3 5 -5 -2
right_child=2 -3 -4 4 -6 -7
leaf_value=0.061192341741276468 0 -0.018347951649245176 -0.057397657749599477 0 0.054743694679651095 -0.036345171415454104
leaf_weight=2.7953320443630223 0.49164590239524864 0.48890671133995045 2.3211047202348709 0.46921104192733742 0.95998166501522064 0.87846532464027405
leaf_count=13 2 2 11 2 4 4
internal_value=0 0.0391275 -0.0233393 0 0.0364649 -0.0280213
internal_weight=0 3.28424 5.12041 2.7993 1.42919 1.37011
internal_count=38 15 23 12 6 6
is_linear=0
shrinkage=0.05


Tree=13
num_leaves=7
num_cat=0
split_feature=1 3 4 5 6 12
split_gain=2.83357 2.12767 1.80002 1.08832 0.370475 0.0258714
threshold=1.0000000180025095e-35 25159.234097104087 17305.573540903624 358.50000000000006 1066.5000000000002 316.50000000000006
decision_type=2 2 2 2 2 2
left_child=1 -1 3 5 -5 -2
right_child=2 -3 -4 4 -6 -7
leaf_value=0.059540793551285644 0 -0.017481250324165889 -0.055841791673183254 0.052699647762077785 0 -0.034982760635464259
leaf_weight=2.7308738529682164 0.49164590239524864 0.48753228783607472 2.2678512036800385 0.95403608679771401 0.46741083264350891 0.86733703315258026
leaf_count=13 2 2 11 4 2 4
internal_value=0 0.0374401 -0.0225726 0 0.0348225 -0.0270836
internal_weight=0 3.21841 5.04828 2.78043 1.42145 1.35898
internal_count=38 15 23 12 6 6
is_linear=0
shrinkage=0.05


Tree=14
num_leaves=7
num_cat=0
split_feature=1 3 4 5 10 12
split_gain=2.56732 2.02172 1.66825 0.995096 0.349788 0.0186639
threshold=1.0000000180025095e-35 25159.234097104087 17305.573540903624 358.50000000000006 385.50000000000006 316.50000000000006
decision_type=2 2 2 2 2 2
left_child=1 -1 3 5 -5 -2
right_child=2 -3 -4 4 -6 -7
leaf_value=0.05798578655828384 0 -0.016655830954122975 -0.054365606923008486 0 0.050730725512699575 -0.033673538260300381
leaf_weight=2.6655729562044148 0.49164590239524864 0.48615217208862294 2.2143305391073227 0.46592345833778359 0.94704592227935791 0.85629749298095703
leaf_count=13 2 2 11 2 4 4
internal_value=0 0.0358184 -0.0218463 0 0.0332602 -0.0261871
internal_weight=0 3.15173 4.97524 2.76091 1.41297 1.34794
internal_count=38 15 23 12 6 6
is_linear=0
shrinkage=0.05


Tree=15
num_leaves=6
num_cat=0
split_feature=1 3 10 10 6
split_gain=3.46898 2.171 0.669089 0.234543 0.013168
threshold=1.0000000180025095e-35 19670.524816437941 1157.5000000000002 629.50000000000011 2434.5000000000005
decision_type=2 2 2 2 2
left_child=2 -2 -1 -3 -5
right_child=1 3 -4 4 -6
leaf_value=0.055208538383838449 -0.057022232577300672 0.029188618300231409 0 -0.0084051853881227431 0
leaf_weight=2.3899780362844472 2.6101722717285156 0.68807561695575703 0.45226775109767903 0.46582201123237588 0.73746885359287262
leaf_count=12 13 3 2 2 3
internal_value=0 -0.0260723 0.0444355 0 0
internal_weight=0 4.50154 2.84225 1.89137 1.20329
internal_count=35 21 14 8 5
is_linear=0
shrinkage=0.05


end of trees

feature_importances:
edu_0=16
day_cos=15
RiceCooker_midnight=13
AirConditioner_midnight=10
Microwave_daytime=10
day_sin=6
IH_daytime=6
AirConditioner_daytime=3
ClothesWasher_daytime=3
day_sin_*_Microwave_daytime=3
age=1

parameters:
[boosting: gbdt]
[objective: binary]
[metric: roc_auc]
[tree_learner: serial]
[device_type: cpu]
[data_sample_strategy: bagging]
[data: ]
[valid: ]
[num_iterations: 10000]
[learning_rate: 0.05]
[num_leaves: 17]
[num_threads: 0]
[seed: 0]
[deterministic: 0]
[force_col_wise: 0]
[force_row_wise: 0]
[histogram_pool_size: -1]
[max_depth: -1]
[min_data_in_leaf: 2]
[min_sum_hessian_in_leaf: 0.001]
[bagging_fraction: 0.868496]
[pos_bagging_fraction: 1]
[neg_bagging_fraction: 1]
[bagging_freq: 3]
[bagging_seed: 3]
[feature_fraction: 0.97786]
[feature_fraction_bynode: 1]
[feature_fraction_seed: 2]
[extra_trees: 0]
[extra_seed: 6]
[early_stopping_round: 0]
[early_stopping_min_delta: 0]
[first_metric_only: 0]
[max_delta_step: 0]
[lambda_l1: 0.671582]
[lambda_l2: 0.000157341]
[linear_lambda: 0]
[min_gain_to_split: 0]
[drop_rate: 0.1]
[max_drop: 50]
[skip_drop: 0.5]
[xgboost_dart_mode: 0]
[uniform_drop: 0]
[drop_seed: 4]
[top_rate: 0.2]
[other_rate: 0.1]
[min_data_per_group: 100]
[max_cat_threshold: 32]
[cat_l2: 10]
[cat_smooth: 10]
[max_cat_to_onehot: 4]
[top_k: 20]
[monotone_constraints: ]
[monotone_constraints_method: basic]
[monotone_penalty: 0]
[feature_contri: ]
[forcedsplits_filename: ]
[refit_decay_rate: 0.9]
[cegb_tradeoff: 1]
[cegb_penalty_split: 0]
[cegb_penalty_feature_lazy: ]
[cegb_penalty_feature_coupled: ]
[path_smooth: 0]
[interaction_constraints: ]
[verbosity: -1]
[saved_feature_importance_type: 0]
[use_quantized_grad: 0]
[num_grad_quant_bins: 4]
[quant_train_renew_leaf: 0]
[stochastic_rounding: 1]
[linear_tree: 0]
[max_bin: 255]
[max_bin_by_feature: ]
[min_data_in_bin: 3]
[bin_construct_sample_cnt: 200000]
[data_random_seed: 1]
[is_enable_sparse: 1]
[enable_bundle: 1]
[use_missing: 1]
[zero_as_missing: 0]
[feature_pre_filter: 1]
[pre_partition: 0]
[two_round: 0]
[header: 0]
[label_column: ]
[weight_column: ]
[group_column: ]
[ignore_column: ]
[categorical_feature: ]
[forcedbins_filename: ]
[precise_float_parser: 0]
[parser_config_file: ]
[objective_seed: 5]
[num_class: 1]
[is_unbalance: 0]
[scale_pos_weight: 1]
[sigmoid: 1]
[boost_from_average: 1]
[reg_sqrt: 0]
[alpha: 0.9]
[fair_c: 1]
[poisson_max_delta_step: 0.7]
[tweedie_variance_power: 1.5]
[lambdarank_truncation_level: 30]
[lambdarank_norm: 1]
[label_gain: ]
[lambdarank_position_bias_regularization: 0]
[eval_at: ]
[multi_error_top_k: 1]
[auc_mu_weights: ]
[num_machines: 1]
[local_listen_port: 12400]
[time_out: 120]
[machine_list_filename: ]
[machines: ]
[gpu_platform_id: -1]
[gpu_device_id: -1]
[gpu_use_dp: 0]
[num_gpu: 1]

end of parameters

pandas_categorical:null
