tree
version=v4
num_class=1
num_tree_per_iteration=1
label_index=0
max_feature_idx=14
objective=binary sigmoid:1
feature_names=age edu_0 edu_1 day_cos day_sin AirConditioner_daytime AirConditioner_midnight ClothesWasher_daytime ClothesWasher_midnight Microwave_daytime RiceCooker_midnight TV_daytime IH_daytime day_sin_*_AirConditioner_daytime day_sin_*_Microwave_daytime
feature_infos=[0.041666666666666963:0.95833333333333348] [0:1] [0:1] [-28280.49728486091:28199.866993667601] [-28146.243218396394:28146.243218385243] [0:14825] [30:2686] [22:428] [0:1555] [584:16280] [100:2703] [0:4340] [95:5033] [-304116212.56039727:236787026.51792639] [-450274441.35134697:294972628.92867738]
tree_sizes=890 848 944 1050 949 1263 846 848

Tree=0
num_leaves=8
num_cat=0
split_feature=3 9 9 9 11 5 3
split_gain=3.1543 3.11602 4.62526 2.46459 2.6343 3.0575 2.84807
threshold=12552.341189990266 3335.0000000000005 1006.0000000000001 7245.5000000000009 603.00000000000011 2064.0000000000005 -22692.347077583221
decision_type=2 2 2 2 2 2 2
left_child=3 2 -2 -1 6 -6 -5
right_child=1 -3 -4 4 5 -7 -8
leaf_value=-0.098188377256378911 0.095590229532307058 0.097745635177493434 -0.097016497719572062 -0.091551327893288903 0.091551327893288958 -0.097745635177493434 0.097016497719572034
leaf_weight=1.2500000000000002 0.50000000000000022 0.99999999999999989 0.75 0.25 0.24999999999999989 0.99999999999999989 0.75000000000000022
leaf_count=5 2 4 3 1 1 4 3
internal_value=0 0.0329921 -0.0196311 -0.0425749 -0.0109943 -0.0589097 0.0488677
internal_weight=0 2.25 1.25 3.5 2.25 1.25 1
internal_count=23 9 5 14 9 5 4
is_linear=0
shrinkage=0.05


Tree=1
num_leaves=7
num_cat=0
split_feature=1 0 12 7 7 3
split_gain=2.86061 4.32182 3.16865 2.82732 4.19668 2.58283
threshold=1.0000000180025095e-35 0.77083333333333359 4602.5000000000009 187.00000000000003 108.50000000000001 12552.341189990266
decision_type=2 2 2 2 2 2
left_child=3 2 -2 4 -1 -3
right_child=1 5 -4 -5 -6 -7
leaf_value=0.091160741627412986 -0.094399952241138618 -0.08725070537604003 0.087529419559044516 0.093221141672252955 -0.092513613946138371 0.092523896355562199
leaf_weight=0.49882531166076682 2.2446945905685434 0.24939841032028187 0.24947687983512867 0.99765004217624653 0.74822911620140076 0.74823738634586334
leaf_count=2 9 1 1 4 3 3
internal_value=0 -0.0405771 -0.0755662 0.0314698 -0.0187153 0.0466202
internal_weight=0 3.49181 2.49417 2.2447 1.24705 0.997636
internal_count=23 14 10 9 5 4
is_linear=0
shrinkage=0.05


Tree=2
num_leaves=8
num_cat=0
split_feature=3 9 9 10 5 5 3
split_gain=2.60253 2.57319 3.82623 2.50487 3.84114 1.25557 1.51011
threshold=12552.341189990266 3335.0000000000005 1006.0000000000001 300.50000000000006 882.50000000000011 133.50000000000003 1.0000000180025095e-35
decision_type=2 2 2 2 2 2 2
left_child=3 2 -2 4 -1 6 -5
right_child=1 -3 -4 5 -6 -7 -8
leaf_value=-0.087455170220516271 0.087344478948421345 0.089244433276750079 -0.08859107391821705 -0.083463392479594209 0.088794313014288875 -0.09006420934905128 0.083553813304621874
leaf_weight=0.49571430683136009 0.49558635056018852 0.990970879793167 0.74326042830944061 0.24769611656665835 0.74360595643520355 1.7339594215154646 0.24775168299674988
leaf_count=2 2 4 3 1 3 7 1
internal_value=0 0.0301403 -0.0178931 -0.0388065 0.0179798 -0.07024 3.58866e-05
internal_weight=0 2.22982 1.23885 3.46873 1.23932 2.22941 0.495448
internal_count=23 9 5 14 5 9 2
is_linear=0
shrinkage=0.05


Tree=3
num_leaves=9
num_cat=0
split_feature=4 0 4 3 4 3 0 0
split_gain=2.70718 3.3678 2.43845 3.33414 2.15924 0.673396 0.448262 1.38349
threshold=25352.663361243871 0.60416666666666685 23404.827231617954 28124.57527528792 -27577.097538226706 25817.709101865792 0.43750000000000028 0.50000000000000033
decision_type=2 2 2 2 2 2 2 2
left_child=1 2 3 4 -1 -6 -7 -8
right_child=-2 -3 -4 -5 5 6 7 -9
leaf_value=0.080666546462440952 -0.085824585051951438 0.085879982769729704 0.083953496169813888 0.08383469228586593 -0.086618498166451313 -0.080300364883280462 0.08037034307163575 -0.08023331346372492
leaf_weight=0.24556827545166093 0.98084470629692067 0.98104955255985249 0.49053213000297535 0.49031224846839894 1.7161006331443793 0.24522718787193287 0.24529355764389038 0.24516306817531586
leaf_count=1 4 4 2 2 7 1 1 1
internal_value=0 0.0046798 -0.0173734 -0.0334581 -0.0553105 -0.069556 -0.0283244 7.15138e-05
internal_weight=0 4.65925 3.6782 3.18766 2.69735 2.45178 0.735684 0.490457
internal_count=23 19 15 13 11 10 3 2
is_linear=0
shrinkage=0.05


Tree=4
num_leaves=8
num_cat=0
split_feature=2 8 7 7 7 11 8
split_gain=2.18999 2.32441 2.16652 3.21609 1.78402 1.79665 1.74155
threshold=1.0000000180025095e-35 141.50000000000003 187.00000000000003 108.50000000000001 393.50000000000006 603.00000000000011 130.50000000000003
decision_type=2 2 2 2 2 2 2
left_child=1 4 3 -2 5 6 -1
right_child=2 -3 -4 -5 -6 -7 -8
leaf_value=-0.081015944599622136 0.080989057817052859 -0.083293418228974556 0.082870739541424654 -0.082153861960954686 -0.080893081432388061 0.082277855419544757 0.077447493976213588
leaf_weight=0.48413214087486289 0.48406374454498313 1.4504369944334028 0.96809984743595112 0.72577586770057678 0.48381391167640675 0.72623389959335327 0.24201400578022003
leaf_count=2 2 6 4 3 2 3 1
internal_value=0 -0.0359684 0.0280256 -0.0165783 3.88357e-05 0.027845 -0.0274334
internal_weight=0 3.38663 2.17794 1.20984 1.93619 1.45238 0.726146
internal_count=23 14 9 5 8 6 3
is_linear=0
shrinkage=0.05


Tree=5
num_leaves=11
num_cat=0
split_feature=13 8 8 10 2 10 13 12 1 12
split_gain=3.73842 3.25249 3.334 3.58453 0.728201 1.16856 0.249872 1.48376 1.41168 0.105731
threshold=-109222582.35779861 662.00000000000011 49.500000000000007 290.50000000000006 1.0000000180025095e-35 369.00000000000006 1.0000000180025095e-35 914.50000000000011 1.0000000180025095e-35 1598.5000000000002
decision_type=2 2 2 2 2 2 2 2 2 2
left_child=-1 2 3 -2 -5 -6 7 -4 -9 -8
right_child=1 -3 6 4 5 -7 9 8 -10 -11
leaf_value=-0.083669137542846425 -0.090916330821651972 -0.085162498380632973 0.10275567766774218 0.079566154713283654 0.074956703575424846 -0.074659029472393043 0.080831400930352737 0.074859893515677886 -0.087859542585388459 0.11557756917164352
leaf_weight=0.72467386722564686 0.72153913974761952 0.48758237063884724 0.73708377778530143 0.7145116329193113 0.23831108212471008 0.23780648410320282 1.4290500581264494 0.23814849555492401 0.24956221878528595 0.48399041593074787
leaf_count=3 3 2 3 3 1 1 6 1 1 2
internal_value=0 0.0354819 0.047465 -0.00459058 0.0484456 0.000210257 0.0789934 0.0590674 -0.00858987 0.0908937
internal_weight=0 5.53759 5.05 1.91217 1.19063 0.476118 3.13783 1.22479 0.487711 1.91304
internal_count=26 23 21 8 5 2 13 5 2 8
is_linear=0
shrinkage=0.05


Tree=6
num_leaves=7
num_cat=0
split_feature=14 12 8 6 12 12
split_gain=3.28092 4.34034 5.06552 2.80881 2.06506 0.0709751
threshold=5820247.5825668657 305.00000000000006 662.00000000000011 516.50000000000011 3583.0000000000005 632.50000000000011
decision_type=2 2 2 2 2 2
left_child=3 -2 5 -1 -5 -3
right_child=1 2 -4 4 -6 -7
leaf_value=0.076198274599912991 -0.091141073681735366 0.081394638657830753 -0.08210552411913899 -0.082335234938501811 0.072632590654765461 0.10445694509326685
leaf_weight=0.46856847405433688 0.48087750375270832 2.1303378492593774 0.48145602643489827 1.4285036176443098 0.23398761451244343 0.96867300570011128
leaf_count=2 2 9 2 6 1 4
internal_value=0 0.0468878 0.0658913 -0.0294192 -0.0598258 0.0893218
internal_weight=0 4.06134 3.58047 2.13106 1.66249 3.09901
internal_count=26 17 15 9 7 13
is_linear=0
shrinkage=0.05


Tree=7
num_leaves=7
num_cat=0
split_feature=3 2 8 8 12 8
split_gain=4.41024 4.59773 3.10171 2.03765 2.00434 0.000118275
threshold=12552.341189990266 1.0000000180025095e-35 23.000000000000004 78.000000000000014 4602.5000000000009 141.50000000000003
decision_type=2 2 2 2 2 2
left_child=1 4 -2 -3 -1 -4
right_child=2 3 5 -5 -6 -7
leaf_value=-0.080556841418479325 -0.096463857595901759 -0.070174158339952775 0.076376909519348335 0.090674937236969178 0.070698937390478486 0.093345128664382576
leaf_weight=1.8758659213781359 0.24934679269790683 0.22837677597999595 1.8283144980669024 0.95292095839977264 0.2296706736087798 0.7372290939092635
leaf_count=8 1 1 8 4 1 3
internal_value=0 -0.0194096 0.0655731 0.0588248 -0.0634685 0.0820415
internal_weight=0 3.28683 2.81489 1.1813 2.10554 2.56554
internal_count=26 14 12 5 9 11
is_linear=0
shrinkage=0.05


end of trees

feature_importances:
day_cos=8
ClothesWasher_midnight=8
IH_daytime=7
ClothesWasher_daytime=5
Microwave_daytime=5
age=4
edu_1=3
day_sin=3
AirConditioner_daytime=3
RiceCooker_midnight=3
edu_0=2
TV_daytime=2
day_sin_*_AirConditioner_daytime=2
AirConditioner_midnight=1
day_sin_*_Microwave_daytime=1

parameters:
[boosting: gbdt]
[objective: binary]
[metric: roc_auc]
[tree_learner: serial]
[device_type: cpu]
[data_sample_strategy: bagging]
[data: ]
[valid: ]
[num_iterations: 10000]
[learning_rate: 0.05]
[num_leaves: 32]
[num_threads: 0]
[seed: 0]
[deterministic: 0]
[force_col_wise: 0]
[force_row_wise: 0]
[histogram_pool_size: -1]
[max_depth: -1]
[min_data_in_leaf: 1]
[min_sum_hessian_in_leaf: 0.001]
[bagging_fraction: 0.586837]
[pos_bagging_fraction: 1]
[neg_bagging_fraction: 1]
[bagging_freq: 5]
[bagging_seed: 3]
[feature_fraction: 0.414691]
[feature_fraction_bynode: 1]
[feature_fraction_seed: 2]
[extra_trees: 0]
[extra_seed: 6]
[early_stopping_round: 0]
[early_stopping_min_delta: 0]
[first_metric_only: 0]
[max_delta_step: 0]
[lambda_l1: 0.000210233]
[lambda_l2: 0.022956]
[linear_lambda: 0]
[min_gain_to_split: 0]
[drop_rate: 0.1]
[max_drop: 50]
[skip_drop: 0.5]
[xgboost_dart_mode: 0]
[uniform_drop: 0]
[drop_seed: 4]
[top_rate: 0.2]
[other_rate: 0.1]
[min_data_per_group: 100]
[max_cat_threshold: 32]
[cat_l2: 10]
[cat_smooth: 10]
[max_cat_to_onehot: 4]
[top_k: 20]
[monotone_constraints: ]
[monotone_constraints_method: basic]
[monotone_penalty: 0]
[feature_contri: ]
[forcedsplits_filename: ]
[refit_decay_rate: 0.9]
[cegb_tradeoff: 1]
[cegb_penalty_split: 0]
[cegb_penalty_feature_lazy: ]
[cegb_penalty_feature_coupled: ]
[path_smooth: 0]
[interaction_constraints: ]
[verbosity: -1]
[saved_feature_importance_type: 0]
[use_quantized_grad: 0]
[num_grad_quant_bins: 4]
[quant_train_renew_leaf: 0]
[stochastic_rounding: 1]
[linear_tree: 0]
[max_bin: 255]
[max_bin_by_feature: ]
[min_data_in_bin: 3]
[bin_construct_sample_cnt: 200000]
[data_random_seed: 1]
[is_enable_sparse: 1]
[enable_bundle: 1]
[use_missing: 1]
[zero_as_missing: 0]
[feature_pre_filter: 1]
[pre_partition: 0]
[two_round: 0]
[header: 0]
[label_column: ]
[weight_column: ]
[group_column: ]
[ignore_column: ]
[categorical_feature: ]
[forcedbins_filename: ]
[precise_float_parser: 0]
[parser_config_file: ]
[objective_seed: 5]
[num_class: 1]
[is_unbalance: 0]
[scale_pos_weight: 1]
[sigmoid: 1]
[boost_from_average: 1]
[reg_sqrt: 0]
[alpha: 0.9]
[fair_c: 1]
[poisson_max_delta_step: 0.7]
[tweedie_variance_power: 1.5]
[lambdarank_truncation_level: 30]
[lambdarank_norm: 1]
[label_gain: ]
[lambdarank_position_bias_regularization: 0]
[eval_at: ]
[multi_error_top_k: 1]
[auc_mu_weights: ]
[num_machines: 1]
[local_listen_port: 12400]
[time_out: 120]
[machine_list_filename: ]
[machines: ]
[gpu_platform_id: -1]
[gpu_device_id: -1]
[gpu_use_dp: 0]
[num_gpu: 1]

end of parameters

pandas_categorical:null
