tree
version=v4
num_class=1
num_tree_per_iteration=1
label_index=0
max_feature_idx=14
objective=binary sigmoid:1
feature_names=age edu_0 edu_1 day_cos day_sin AirConditioner_daytime AirConditioner_midnight ClothesWasher_daytime ClothesWasher_midnight Microwave_daytime RiceCooker_midnight TV_daytime IH_daytime day_sin_*_AirConditioner_daytime day_sin_*_Microwave_daytime
feature_infos=[0:0.95833333333333348] [0:1] [0:1] [-28280.49728486091:28107.811945514353] [-28225.77551159553:28271.854657414911] [0:17757] [87:2827] [51:520] [6:540] [2471:19073] [89:6042] [0:8536] [0:7141] [-360454094.13673115:282141619.46977478] [-532649208.52518654:307767071.64104205]
tree_sizes=717 733 755 733 524 741 548 548 751 751 648 746 636 627 856 863 342 341 550 549 646 536 646 444 653 757

Tree=0
num_leaves=6
num_cat=0
split_feature=7 3 5 11 5
split_gain=1.48296 0.63418 0.776434 0.378401 0.0759766
threshold=162.50000000000003 -14038.661772971605 110.50000000000001 6298.0000000000009 27.500000000000004
decision_type=2 2 2 2 2
left_child=3 -2 -3 4 -1
right_child=1 2 -4 -5 -6
leaf_value=0 0.0050592105403511559 0.0050592105403511559 -0.034701018955360506 -0.0050592105403511568 0.020521421588726985
leaf_weight=0.49999999999999989 0.25000000000000033 0.25000000000000033 1.9999999999999998 0.24999999999999989 0.99999999999999989
leaf_count=2 1 1 8 1 4
internal_value=0 -0.0236692 -0.0289496 0.0129789 0.0185115
internal_weight=0 2.5 2.25 1.75 1.5
internal_count=17 10 9 7 6
is_linear=0
shrinkage=0.05


Tree=1
num_leaves=6
num_cat=0
split_feature=7 3 11 11 0
split_gain=1.42714 0.618462 0.758901 0.372967 0.0743391
threshold=162.50000000000003 -14038.661772971605 6.0000000000000009 6298.0000000000009 0.20833333333333351
decision_type=2 2 2 2 2
left_child=3 -2 -3 4 -1
right_child=1 2 -4 -5 -6
leaf_value=0 0.0050428084004714583 0.0050428084004714583 -0.034085648841878306 -0.0050428084004714591 0.020299083414290507
leaf_weight=0.49999999999999978 0.24999840557575259 0.24999840557575259 1.9993979930877683 0.24999840557575215 0.99989473819732666
leaf_count=2 1 1 8 1 4
internal_value=0 -0.0231239 -0.0283707 0.0127994 0.0183109
internal_weight=0 2.49939 2.2494 1.74989 1.49989
internal_count=17 10 9 7 6
is_linear=0
shrinkage=0.05


Tree=2
num_leaves=6
num_cat=0
split_feature=3 9 10 10 5
split_gain=0.883726 1.26611 0.754102 0.889219 0.292446
threshold=16684.015540711578 15364.500000000002 230.50000000000003 1386.0000000000002 12641.000000000002
decision_type=2 2 2 2 2
left_child=1 2 -1 -4 -2
right_child=4 -3 3 -5 -6
leaf_value=-0.0048366333797802766 -0.015370147208688754 -0.010423799205732699 0.039777369577509519 -0.0048366333797802774 0.0049270043297552331
leaf_weight=0.24970450997352678 0.74911352992057789 0.49940901994705189 2.4992495477199559 0.24970450997352589 0.24989588558673859
leaf_count=1 3 2 10 1 1
internal_value=0 0.0205899 0.0294581 0.034415 -0.00921683
internal_weight=0 3.49807 2.99866 2.74895 0.999009
internal_count=18 14 12 11 4
is_linear=0
shrinkage=0.05


Tree=3
num_leaves=6
num_cat=0
split_feature=3 8 8 14 8
split_gain=0.844494 0.509193 0.615258 0.362652 0.28895
threshold=16684.015540711578 22.500000000000004 525.50000000000011 -379100256.03146058 169.00000000000003
decision_type=2 2 2 2 2
left_child=1 -1 3 -3 -2
right_child=4 2 -4 -5 -6
leaf_value=-0.004821023446125383 0.0049110700043707772 0 -0.0048210234461253838 0.033704066695012705 -0.015239509159114567
leaf_weight=0.24966153502464328 0.24986924231052388 0.9990187883377083 0.24966153502464283 1.9977888464927671 0.74867360293865204
leaf_count=1 1 4 1 8 3
internal_value=0 0.0199494 0.0241909 0.0287531 -0.00910612
internal_weight=0 3.49613 3.24647 2.99681 0.998543
internal_count=18 14 13 12 4
is_linear=0
shrinkage=0.05


Tree=4
num_leaves=4
num_cat=0
split_feature=7 8 0
split_gain=3.63029 0.670957 0.232382
threshold=248.00000000000003 22.500000000000004 0.20833333333333351
decision_type=2 2 2
left_child=1 -1 -3
right_child=-2 2 -4
leaf_value=-0.004949620547303882 -0.030242463483939431 0 0.033652962775029209
leaf_weight=0.24992848932743106 1.7466062903404234 0.49980226159095797 1.997313857078552
leaf_count=1 7 2 8
internal_value=0 0.0256554 0.0307337
internal_weight=0 2.74704 2.49712
internal_count=18 11 10
is_linear=0
shrinkage=0.05


Tree=5
num_leaves=6
num_cat=0
split_feature=12 12 13 12 0
split_gain=1.13864 1.14155 0.314242 0.166333 0.00708195
threshold=720.00000000000011 1187.0000000000002 -1.0000000180025095e-35 3642.5000000000005 0.68750000000000033
decision_type=2 2 2 2 2
left_child=-1 -2 3 4 -3
right_child=1 2 -4 -5 -6
leaf_value=0.019409905775433778 -0.02675268571055164 0 0.015348018490059585 -0.010181150280707896 0.0046805555091282728
leaf_weight=0.99691683053970326 1.4952899962663653 0.49980226159095742 0.74868838489055622 0.49851590394973755 0.24914294481277466
leaf_count=4 6 2 3 2 1
internal_value=0 -0.0125223 0.00751409 -0.00396447 0.00391492
internal_weight=0 3.49144 1.99615 1.24746 0.748945
internal_count=18 14 8 5 3
is_linear=0
shrinkage=0.05


Tree=6
num_leaves=4
num_cat=0
split_feature=1 12 8
split_gain=2.14088 0.689979 0.452228
threshold=1.0000000180025095e-35 4134.0000000000009 525.50000000000011
decision_type=2 2 2
left_child=2 -2 -1
right_child=1 -3 -4
leaf_value=0.023010161363122839 -0.033012786231150427 0.004631259962069526 -0.0046753115540091672
leaf_weight=1.2441925257444384 1.9934499412775042 0.24890454113483418 0.24911898374557484
leaf_count=5 8 1 1
internal_value=0 -0.0276152 0.0172735
internal_weight=0 2.24235 1.49331
internal_count=15 9 6
is_linear=0
shrinkage=0.05


Tree=7
num_leaves=4
num_cat=0
split_feature=2 12 8
split_gain=2.06615 0.674808 0.444835
threshold=1.0000000180025095e-35 4134.0000000000009 525.50000000000011
decision_type=2 2 2
left_child=1 -1 -2
right_child=2 -3 -4
leaf_value=-0.032447117789583396 0.022724455205843604 0.0046164001240745055 -0.004660289394779288
leaf_weight=1.9897329956293108 1.2422181814908984 0.24882692098617543 0.24904848635196675
leaf_count=8 5 1 1
internal_value=0 -0.0270804 0.0170112
internal_weight=0 2.23856 1.49127
internal_count=15 9 6
is_linear=0
shrinkage=0.05


Tree=8
num_leaves=6
num_cat=0
split_feature=9 4 0 9 0
split_gain=2.03409 1.07582 0.647981 0.764709 0.581483
threshold=6405.0000000000009 26001.476022814601 1.0000000180025095e-35 15364.500000000002 0.85416666666666707
decision_type=2 2 2 2 2
left_child=4 2 -2 -4 -1
right_child=1 -3 3 -5 -6
leaf_value=-0.029564202074507662 -0.0048172244219880367 -0.01051512009139754 0.035641683464294416 -0.0047005512906458501 0.004374050249392792
leaf_weight=1.7364427149295805 0.24965062737464983 0.4996209293603896 2.2407486885786061 0.24923127889633168 0.24718312919139851
leaf_count=7 1 2 9 1 1
internal_value=0 0.0163667 0.0253245 0.0303101 -0.0242582
internal_weight=0 3.23925 2.73963 2.48998 1.98363
internal_count=21 13 11 10 8
is_linear=0
shrinkage=0.05


Tree=9
num_leaves=6
num_cat=0
split_feature=9 14 0 9 0
split_gain=1.93885 1.0433 0.63142 0.746743 0.569796
threshold=6405.0000000000009 232643475.79395238 1.0000000180025095e-35 15364.500000000002 0.85416666666666707
decision_type=2 2 2 2 2
left_child=4 2 -2 -4 -1
right_child=1 -3 3 -5 -6
leaf_value=-0.029104617437365549 -0.0048016844258697523 -0.010451530080703783 0.03498708779968026 -0.0046854364246317328 0.0043601514402766403
leaf_weight=1.7326897382736204 0.24960422515869218 0.49946618080139149 2.2361018955707554 0.24916495382785786 0.24706722795963276
leaf_count=7 1 2 9 1 1
internal_value=0 0.0158509 0.024733 0.0296881 -0.0238255
internal_weight=0 3.23434 2.73487 2.48527 1.97976
internal_count=21 13 11 10 8
is_linear=0
shrinkage=0.05


Tree=10
num_leaves=5
num_cat=0
split_feature=4 9 10 4
split_gain=1.4137 0.54045 0.436721 0.183227
threshold=21447.648706787775 15364.500000000002 1175.5000000000002 18506.188048108928
decision_type=2 2 2 2
left_child=1 -1 -2 -3
right_child=2 3 -4 -5
leaf_value=0.026166778434703736 -0.022388976200294688 -0.0098923711034540618 0.0046512069133455274 0.0052655665619287147
leaf_weight=1.4863783717155463 1.2356451153755186 0.49674704670906056 0.24900454282760609 0.24974769353866577
leaf_count=6 5 2 1 1
internal_value=0 0.0193472 -0.0166918 -0.00339715
internal_weight=0 2.23287 1.48465 0.746495
internal_count=15 9 6 3
is_linear=0
shrinkage=0.05


Tree=11
num_leaves=6
num_cat=0
split_feature=10 12 0 6 7
split_gain=1.00257 0.773885 0.209606 0.054102 0.0592435
threshold=793.00000000000011 1187.0000000000002 0.39583333333333354 2102.5000000000005 189.00000000000003
decision_type=2 2 2 2 2
left_child=1 -1 -3 -4 -5
right_child=-2 2 3 4 -6
leaf_value=-0.022115387078716645 0.020258388459425847 -0.0044018050513444261 0.013877348599104647 0.0041147745616309673 -0.0046386059233584935
leaf_weight=1.2330482453107841 0.99867931008338917 0.24740755558013905 0.73862880468368508 0.24463292956352234 0.24894192814826965
leaf_count=5 4 1 3 1 1
internal_value=0 -0.0104013 0.00703853 0.0120404 0
internal_weight=0 2.71266 1.47961 1.2322 0.493575
internal_count=15 11 6 5 2
is_linear=0
shrinkage=0.05


Tree=12
num_leaves=5
num_cat=0
split_feature=10 9 1 8
split_gain=1.68754 0.574607 0.154295 0.00626689
threshold=709.00000000000011 9689.5000000000018 1.0000000180025095e-35 486.50000000000006
decision_type=2 2 2 2
left_child=1 -1 -3 -4
right_child=-2 2 3 -5
leaf_value=0.022278843274696532 -0.025991611820047941 0.0042441868783771623 -0.010243515448416911 0
leaf_weight=1.2344315648078925 1.4843871295452116 0.24600836634635903 0.49862030148506165 0.49944412708282471
leaf_count=5 6 1 2 2
internal_value=0 0.0132258 -0.00450858 -0.00949428
internal_weight=0 2.4785 1.24407 0.998064
internal_count=16 10 5 4
is_linear=0
shrinkage=0.05


Tree=13
num_leaves=5
num_cat=0
split_feature=10 2 6 6
split_gain=1.64015 0.491257 0.177347 0.00611609
threshold=709.00000000000011 1.0000000180025095e-35 441.00000000000006 2556.0000000000005
decision_type=2 2 2 2
left_child=1 2 -1 -4
right_child=-2 -3 3 -5
leaf_value=0.0051279639623143716 -0.025629917510094122 0.02130670109455932 -0.01018195752716824 0
leaf_weight=0.24997192621231124 1.4810278564691541 1.227629616856575 0.49835549294948578 0.49944412708282471
leaf_count=1 6 5 2 2
internal_value=0 0.01304 -0.003747 -0.00943935
internal_weight=0 2.4754 1.24777 0.9978
internal_count=16 10 5 4
is_linear=0
shrinkage=0.05


Tree=14
num_leaves=7
num_cat=0
split_feature=6 7 12 12 4 4
split_gain=1.64875 0.948868 0.704126 0.263473 0.0267681 0.0585445
threshold=1700.5000000000002 248.00000000000003 1.0000000180025095e-35 5876.0000000000009 -18984.796093949048 22756.978447659832
decision_type=2 2 2 2 2 2
left_child=1 2 -1 -3 -2 -6
right_child=4 3 -4 -5 5 -7
leaf_value=-0.0049947531677408492 -0.019732415931324469 -0.013272061015826384 0.031794913874934626 0.0053504131529819561 0.003965669349289924 -0.0047193348989546984
leaf_weight=0.24997527897358018 0.99511896073818207 0.72984056174755085 2.724809929728508 0.24949829280376434 0.24279427528381325 0.24930986762046814
leaf_count=1 4 3 11 1 1 1
internal_value=0 0.0184672 0.0268254 -0.00685229 -0.0184011 0
internal_weight=0 3.95412 2.97479 0.979339 1.48722 0.492104
internal_count=22 16 12 4 6 2
is_linear=0
shrinkage=0.05


Tree=15
num_leaves=7
num_cat=0
split_feature=0 11 14 5 0 11
split_gain=1.20226 1.02516 0.552347 0.712808 0.342715 0.175318
threshold=0.77083333333333359 1.0000000180025095e-35 232643475.79395238 8958.5000000000018 0.52083333333333359 6298.0000000000009
decision_type=2 2 2 2 2 2
left_child=1 4 3 -3 -1 -5
right_child=-2 2 -4 5 -6 -7
leaf_value=0.017415168611269162 0.022993849094561803 -0.03150182739493939 0.0053330149622881637 0.0097868859823947926 -0.0049785779329748524 -0.0050532416701988296
leaf_weight=0.97835440933704354 1.2404209077358244 1.9717745780944831 0.24955631792545308 0.49234071373939503 0.24996130168437958 0.24999979138374329
leaf_count=4 5 8 1 2 1 1
internal_value=0 -0.00876987 -0.0196397 -0.0245381 0.0114066 0.00347893
internal_weight=0 4.19199 2.96367 2.71412 1.22832 0.742341
internal_count=22 17 12 11 5 3
is_linear=0
shrinkage=0.05


Tree=16
num_leaves=2
num_cat=0
split_feature=7
split_gain=2.10035
threshold=162.50000000000003
decision_type=2
left_child=-1
right_child=-2
leaf_value=0.028165766154428298 -0.018566297926501014
leaf_weight=1.7200826555490496 0.98600947856903065
leaf_count=7 4
internal_value=0
internal_weight=0
internal_count=11
is_linear=0
shrinkage=0.05


Tree=17
num_leaves=2
num_cat=0
split_feature=7
split_gain=2.04567
threshold=162.50000000000003
decision_type=2
left_child=-1
right_child=-2
leaf_value=0.027741212023540136 -0.018374123939792673
leaf_weight=1.714401423931122 0.98425537347793568
leaf_count=7 4
internal_value=0
internal_weight=0
internal_count=11
is_linear=0
shrinkage=0.05


Tree=18
num_leaves=4
num_cat=0
split_feature=2 6 3
split_gain=1.79016 0.807264 0.212621
threshold=1.0000000180025095e-35 1700.5000000000002 8938.4451200995263
decision_type=2 2 2
left_child=-1 -2 -3
right_child=1 2 -4
leaf_value=-0.031472652862332161 0.021520005195105191 0.0037098625513374522 -0.013887515001912619
leaf_weight=1.9640846103429792 1.2189954668283465 0.23900561034679402 0.73833270370960236
leaf_count=8 5 1 3
internal_value=0 0.00995551 -0.0088517
internal_weight=0 2.19633 0.977338
internal_count=17 9 4
is_linear=0
shrinkage=0.05


Tree=19
num_leaves=4
num_cat=0
split_feature=1 7 4
split_gain=1.73383 0.659561 0.463433
threshold=1.0000000180025095e-35 467.00000000000006 22756.978447659832
decision_type=2 2 2
left_child=1 2 -1
right_child=-2 -3 -4
leaf_value=0.024155950600851597 -0.030953499448557877 -0.0090862004948807085 -0.0044404817238239535
leaf_weight=1.4544235765933993 1.957796514034271 0.48933991789817799 0.24770466983318318
leaf_count=6 8 2 1
internal_value=0 0.00981862 0.0187694
internal_weight=0 2.19147 1.70213
internal_count=17 9 7
is_linear=0
shrinkage=0.05


Tree=20
num_leaves=5
num_cat=0
split_feature=9 10 14 9
split_gain=1.14313 0.520122 0.0633567 0.0646609
threshold=6405.0000000000009 1386.0000000000002 -379100256.03146058 15364.500000000002
decision_type=2 2 2 2
left_child=-1 2 3 -2
right_child=1 -3 -4 -5
leaf_value=-0.013333292838321796 0.0050301722595300991 -0.0045431113036329259 0.027724421634877056 -0.0040809205379055786
leaf_weight=0.72708639502525363 0.24999497830867845 0.24840499460697163 1.7096373438835142 0.24423934519290924
leaf_count=3 1 1 7 1
internal_value=0 0.0211359 0.0259996 0
internal_weight=0 2.45228 2.20387 0.494234
internal_count=13 10 9 2
is_linear=0
shrinkage=0.05


Tree=21
num_leaves=4
num_cat=0
split_feature=9 6 7
split_gain=1.11387 0.205066 0.289859
threshold=6405.0000000000009 2102.5000000000005 189.00000000000003
decision_type=2 2 2
left_child=-1 -2 -3
right_child=1 2 -4
leaf_value=-0.013226185771869193 0.024817548966309212 0.0093924086820009588 -0.0094217281399237053
leaf_weight=0.7255588918924335 1.4673369377851488 0.4860495626926421 0.49240069091320038
leaf_count=3 6 2 2
internal_value=0 0.0207748 0
internal_weight=0 2.44579 0.97845
internal_count=13 10 4
is_linear=0
shrinkage=0.05


Tree=22
num_leaves=5
num_cat=0
split_feature=8 0 11 11
split_gain=0.999377 1.06438 0.0529679 0.0471814
threshold=22.500000000000004 0.20833333333333351 1190.5000000000002 1457.0000000000002
decision_type=2 2 2 2
left_child=-1 -2 -3 -4
right_child=1 2 3 -5
leaf_value=-0.014195211104789128 -0.0099253537839822676 0.028299966838561848 -0.0033429588742851894 0.0044142238277542481
leaf_weight=0.73748590052127871 0.49706903100013766 1.7056289762258532 0.23217250406742085 0.24750494956970215
leaf_count=3 2 7 1 1
internal_value=0 0.0172184 0.0266772 0
internal_weight=0 2.68238 2.18531 0.479677
internal_count=14 11 9 2
is_linear=0
shrinkage=0.05


Tree=23
num_leaves=3
num_cat=0
split_feature=8 0
split_gain=0.972049 1.04169
threshold=22.500000000000004 0.20833333333333351
decision_type=2 2
left_child=-1 -2
right_child=1 -3
leaf_value=-0.014078398267721066 -0.0098661708623298486 0.026284639277597922
leaf_weight=0.7363657355308536 0.49668332934379611 2.1795140653848648
leaf_count=3 2 9
internal_value=0 0.0168885
internal_weight=0 2.6762
internal_count=14 11
is_linear=0
shrinkage=0.05


Tree=24
num_leaves=5
num_cat=0
split_feature=3 5 11 14
split_gain=1.31462 1.16168 0.594983 0.142332
threshold=-14038.661772971605 4163.5000000000009 1.0000000180025095e-35 232643475.79395238
decision_type=2 2 2 2
left_child=-1 2 3 -2
right_child=1 -3 -4 -5
leaf_value=0.019488455566086443 0.0084763855666627873 0.010349516638794229 -0.030977035673195093 -0.00479285828899529
leaf_weight=1.1855280250310896 0.47898833453655321 0.98016947507858265 1.9638402909040449 0.24957658350467682
leaf_count=5 2 4 8 1
internal_value=0 -0.0142098 -0.0248298 0.0024569
internal_weight=0 3.67257 2.69241 0.728565
internal_count=20 15 11 3
is_linear=0
shrinkage=0.05


Tree=25
num_leaves=6
num_cat=0
split_feature=3 5 11 12 9
split_gain=1.27172 1.12865 0.577799 0.222246 0.141032
threshold=-14038.661772971605 4163.5000000000009 1.0000000180025095e-35 966.00000000000011 13001.000000000002
decision_type=2 2 2 2 2
left_child=-1 2 4 -3 -2
right_child=1 3 -4 -5 -6
leaf_value=0.01926739755273486 -0.0047774068511839841 -0.0034423060347297816 -0.030470422839169738 0.015089665500362524 0.0084283836767424514
leaf_weight=1.1806578338146207 0.24952593445777971 0.23418529331684101 1.9567832201719282 0.74622528254985809 0.47818303108215332
leaf_count=5 1 1 8 3 2
internal_value=0 -0.0138966 -0.0244011 0.0102383 0.00242437
internal_weight=0 3.6649 2.68449 0.980411 0.727709
internal_count=20 15 11 4 3
is_linear=0
shrinkage=0.05


end of trees

feature_importances:
age=12
Microwave_daytime=11
ClothesWasher_daytime=9
ClothesWasher_midnight=9
TV_daytime=9
IH_daytime=9
day_cos=7
RiceCooker_midnight=7
day_sin=6
AirConditioner_daytime=6
AirConditioner_midnight=6
day_sin_*_Microwave_daytime=5
edu_0=3
edu_1=3
day_sin_*_AirConditioner_daytime=1

parameters:
[boosting: gbdt]
[objective: binary]
[metric: roc_auc]
[tree_learner: serial]
[device_type: cpu]
[data_sample_strategy: bagging]
[data: ]
[valid: ]
[num_iterations: 10000]
[learning_rate: 0.05]
[num_leaves: 31]
[num_threads: 0]
[seed: 0]
[deterministic: 0]
[force_col_wise: 0]
[force_row_wise: 0]
[histogram_pool_size: -1]
[max_depth: -1]
[min_data_in_leaf: 1]
[min_sum_hessian_in_leaf: 0.001]
[bagging_fraction: 0.427353]
[pos_bagging_fraction: 1]
[neg_bagging_fraction: 1]
[bagging_freq: 2]
[bagging_seed: 3]
[feature_fraction: 0.524357]
[feature_fraction_bynode: 1]
[feature_fraction_seed: 2]
[extra_trees: 0]
[extra_seed: 6]
[early_stopping_round: 0]
[early_stopping_min_delta: 0]
[first_metric_only: 0]
[max_delta_step: 0]
[lambda_l1: 0.109921]
[lambda_l2: 3.60514]
[linear_lambda: 0]
[min_gain_to_split: 0]
[drop_rate: 0.1]
[max_drop: 50]
[skip_drop: 0.5]
[xgboost_dart_mode: 0]
[uniform_drop: 0]
[drop_seed: 4]
[top_rate: 0.2]
[other_rate: 0.1]
[min_data_per_group: 100]
[max_cat_threshold: 32]
[cat_l2: 10]
[cat_smooth: 10]
[max_cat_to_onehot: 4]
[top_k: 20]
[monotone_constraints: ]
[monotone_constraints_method: basic]
[monotone_penalty: 0]
[feature_contri: ]
[forcedsplits_filename: ]
[refit_decay_rate: 0.9]
[cegb_tradeoff: 1]
[cegb_penalty_split: 0]
[cegb_penalty_feature_lazy: ]
[cegb_penalty_feature_coupled: ]
[path_smooth: 0]
[interaction_constraints: ]
[verbosity: -1]
[saved_feature_importance_type: 0]
[use_quantized_grad: 0]
[num_grad_quant_bins: 4]
[quant_train_renew_leaf: 0]
[stochastic_rounding: 1]
[linear_tree: 0]
[max_bin: 255]
[max_bin_by_feature: ]
[min_data_in_bin: 3]
[bin_construct_sample_cnt: 200000]
[data_random_seed: 1]
[is_enable_sparse: 1]
[enable_bundle: 1]
[use_missing: 1]
[zero_as_missing: 0]
[feature_pre_filter: 1]
[pre_partition: 0]
[two_round: 0]
[header: 0]
[label_column: ]
[weight_column: ]
[group_column: ]
[ignore_column: ]
[categorical_feature: ]
[forcedbins_filename: ]
[precise_float_parser: 0]
[parser_config_file: ]
[objective_seed: 5]
[num_class: 1]
[is_unbalance: 0]
[scale_pos_weight: 1]
[sigmoid: 1]
[boost_from_average: 1]
[reg_sqrt: 0]
[alpha: 0.9]
[fair_c: 1]
[poisson_max_delta_step: 0.7]
[tweedie_variance_power: 1.5]
[lambdarank_truncation_level: 30]
[lambdarank_norm: 1]
[label_gain: ]
[lambdarank_position_bias_regularization: 0]
[eval_at: ]
[multi_error_top_k: 1]
[auc_mu_weights: ]
[num_machines: 1]
[local_listen_port: 12400]
[time_out: 120]
[machine_list_filename: ]
[machines: ]
[gpu_platform_id: -1]
[gpu_device_id: -1]
[gpu_use_dp: 0]
[num_gpu: 1]

end of parameters

pandas_categorical:null
