tree
version=v4
num_class=1
num_tree_per_iteration=1
label_index=0
max_feature_idx=14
objective=binary sigmoid:1
feature_names=age edu_0 edu_1 day_cos day_sin AirConditioner_daytime AirConditioner_midnight ClothesWasher_daytime ClothesWasher_midnight Microwave_daytime RiceCooker_midnight TV_daytime IH_daytime day_sin_*_AirConditioner_daytime day_sin_*_Microwave_daytime
feature_infos=[0.083333333333333481:0.95833333333333348] [0:1] [0:1] [-28284.687966603502:26541.71172030488] [-28271.854657421831:28282.330682654036] [0:10130] [0:3332] [0:607] [6:2300] [804:21375] [43:8986] [0:2995] [170:10556] [-198641633.36876956:81139666.776188284] [-337719332.24916226:516510544.3787629]
tree_sizes=507 548 549 543 548 547 550 547 548 549 550 551 549 551 552 551 551 648 547 650 549 549 547 544 647 551 647 548 550 641 548 643 550 544 539 546 646 648 652 542 547 648 546 548 544 547 443 547 444 549 547 648 550 551 443 549 648 648 648 652 649 548 444 649 650 653 549 445 650 651 549 553 550 551 652 651 552 556 552 551 552 554 555 557 553 549 553 554 655 653

Tree=0
num_leaves=4
num_cat=0
split_feature=1 3 11
split_gain=14.4286 6.59082 2.68964
threshold=1.0000000180025095e-35 -12094.695603788758 41.500000000000007
decision_type=2 2 2
left_child=-1 -2 -3
right_child=1 2 -4
leaf_value=0.099902428373780688 0.042723383349454788 -0.024884496935366058 -0.09991868937775196
leaf_weight=2.5 1.7499999999999998 1.9999999999999998 3
leaf_count=10 7 8 12
internal_value=0 -0.0407061 -0.0699522
internal_weight=0 6.75 5
internal_count=37 27 20
is_linear=0
shrinkage=0.05


Tree=1
num_leaves=4
num_cat=0
split_feature=1 3 11
split_gain=13.0507 5.95834 2.4404
threshold=1.0000000180025095e-35 -12094.695603788758 41.500000000000007
decision_type=2 2 2
left_child=-1 -2 -3
right_child=1 2 -4
leaf_value=0.095148800244050979 0.040606269736508854 -0.023644100207834383 -0.095164308445888843
leaf_weight=2.4937725067138672 1.7492017298936842 1.9996904134750364 2.9925246834754944
leaf_count=10 7 8 12
internal_value=0 -0.0387219 -0.0665633
internal_weight=0 6.74142 4.99222
internal_count=37 27 20
is_linear=0
shrinkage=0.05


Tree=2
num_leaves=4
num_cat=0
split_feature=1 3 11
split_gain=11.8525 5.40235 2.23685
threshold=1.0000000180025095e-35 -12094.695603788758 41.500000000000007
decision_type=2 2 2
left_child=-1 -2 -3
right_child=1 2 -4
leaf_value=0.091041743049662283 0.038626687846411947 -0.022471973576855146 -0.091056747412266881
leaf_weight=2.4763718247413635 1.7469655722379682 1.9988229274749754 2.9716370701789856
leaf_count=10 7 8 12
internal_value=0 -0.0369237 -0.0635234
internal_weight=0 6.71743 4.97046
internal_count=37 27 20
is_linear=0
shrinkage=0.05


Tree=3
num_leaves=4
num_cat=0
split_feature=1 3 11
split_gain=10.8022 4.91057 2.06818
threshold=1.0000000180025095e-35 -12094.695603788758 41.500000000000007
decision_type=2 2 2
left_child=-1 -2 -3
right_child=1 2 -4
leaf_value=0.08746093420801497 0.036770083193361044 -0.021363162210131327 -0.08747562246494324
leaf_weight=2.4495340883731842 1.7435090094804762 1.99748158454895 2.9394214153289795
leaf_count=10 7 8 12
internal_value=0 -0.0352819 -0.060774
internal_weight=0 6.68041 4.9369
internal_count=37 27 20
is_linear=0
shrinkage=0.05


Tree=4
num_leaves=4
num_cat=0
split_feature=1 3 10
split_gain=10.5814 4.52562 0.38807
threshold=1.0000000180025095e-35 9319.0894179122533 898.00000000000011
decision_type=2 2 2
left_child=-1 -2 -3
right_child=1 2 -4
leaf_value=0.084323369235064408 0.0087872433984966681 -0.090746904331219735 -0.056473667305171886
leaf_weight=2.656252384185791 3.2118507027626038 1.7222945094108584 1.6983160525560377
leaf_count=11 13 7 7
internal_value=0 -0.0337729 -0.0738004
internal_weight=0 6.63246 3.42061
internal_count=38 27 14
is_linear=0
shrinkage=0.05


Tree=5
num_leaves=4
num_cat=0
split_feature=1 3 11
split_gain=9.69148 4.232 1.96261
threshold=1.0000000180025095e-35 -12094.695603788758 41.500000000000007
decision_type=2 2 2
left_child=-1 -2 -3
right_child=1 2 -4
leaf_value=0.081539038170573674 0.034609690419024279 -0.017924203887995312 -0.082721686138310713
leaf_weight=2.6107552796602249 1.7377806156873701 1.9889766275882719 2.8692835718393326
leaf_count=11 7 8 12
internal_value=0 -0.0322716 -0.0562418
internal_weight=0 6.59604 4.85826
internal_count=38 27 20
is_linear=0
shrinkage=0.05


Tree=6
num_leaves=4
num_cat=0
split_feature=1 3 14
split_gain=8.90516 3.92374 0.389296
threshold=1.0000000180025095e-35 9319.0894179122533 -29370568.532616422
decision_type=2 2 2
left_child=-1 -2 -3
right_child=1 2 -4
leaf_value=0.079060519739730231 0.0085966246987232275 -0.085941799067295946 -0.051245928246009313
leaf_weight=2.5592738837003708 3.193981796503067 1.6885998845100405 1.6517511904239652
leaf_count=11 13 7 7
internal_value=0 -0.0309636 -0.0688566
internal_weight=0 6.53433 3.34035
internal_count=38 27 14
is_linear=0
shrinkage=0.05


Tree=7
num_leaves=4
num_cat=0
split_feature=1 3 11
split_gain=8.19204 3.66589 1.88389
threshold=1.0000000180025095e-35 -12094.695603788758 41.500000000000007
decision_type=2 2 2
left_child=-1 -2 -3
right_child=1 2 -4
leaf_value=0.076842356851684668 0.032586264301208777 -0.014846542416728132 -0.07886540174555097
leaf_weight=2.5029219835996628 1.7307165563106535 1.9751273244619367 2.7814582884311676
leaf_count=11 7 8 12
internal_value=0 -0.0296414 -0.0523313
internal_weight=0 6.4873 4.75659
internal_count=38 27 20
is_linear=0
shrinkage=0.05


Tree=8
num_leaves=4
num_cat=0
split_feature=1 3 10
split_gain=7.55733 3.42884 0.387429
threshold=1.0000000180025095e-35 9319.0894179122533 898.00000000000011
decision_type=2 2 2
left_child=-1 -2 -3
right_child=1 2 -4
leaf_value=0.074847665343756711 0.008386493515072313 -0.081909027055479464 -0.04680595049513845
leaf_weight=2.4426727294921875 3.1740703731775284 1.6426032185554507 1.5992380529642103
leaf_count=11 13 7 7
internal_value=0 -0.0284908 -0.0646656
internal_weight=0 6.41591 3.24184
internal_count=38 27 14
is_linear=0
shrinkage=0.05


Tree=9
num_leaves=4
num_cat=0
split_feature=1 3 11
split_gain=6.97684 3.18753 1.82335
threshold=1.0000000180025095e-35 -12094.695603788758 41.500000000000007
decision_type=2 2 2
left_child=-1 -2 -3
right_child=1 2 -4
leaf_value=0.073046219196317735 0.030686860227990859 -0.012067222485517918 -0.075693387236075396
leaf_weight=2.3793751895427704 1.7225746810436247 1.9573990851640699 2.6816210001707077
leaf_count=11 7 8 12
internal_value=0 -0.0273117 -0.0488971
internal_weight=0 6.36159 4.63902
internal_count=38 27 20
is_linear=0
shrinkage=0.05


Tree=10
num_leaves=4
num_cat=0
split_feature=1 3 14
split_gain=6.45717 3.01464 0.395181
threshold=1.0000000180025095e-35 9319.0894179122533 -29370568.532616422
decision_type=2 2 2
left_child=-1 -2 -3
right_child=1 2 -4
leaf_value=0.071412977420600848 0.0081641232509607597 -0.078681923088135874 -0.042647791923366513
leaf_weight=2.3137692660093307 3.1525479257106781 1.591980889439583 1.5392159074544904
leaf_count=11 13 7 7
internal_value=0 -0.0262871 -0.0610442
internal_weight=0 6.28374 3.1312
internal_count=38 27 14
is_linear=0
shrinkage=0.05


Tree=11
num_leaves=4
num_cat=0
split_feature=1 3 10
split_gain=5.97858 2.78953 0.374499
threshold=1.0000000180025095e-35 9319.0894179122533 898.00000000000011
decision_type=2 2 2
left_child=-1 -2 -3
right_child=1 2 -4
leaf_value=0.069927038447072584 0.0077561190285714461 -0.076543207707122862 -0.041122672769998453
leaf_weight=2.2464988082647324 3.1524762362241745 1.5557471960783007 1.5167273283004759
leaf_count=11 13 7 7
internal_value=0 -0.0252239 -0.0591349
internal_weight=0 6.22495 3.07247
internal_count=38 27 14
is_linear=0
shrinkage=0.05


Tree=12
num_leaves=4
num_cat=0
split_feature=1 3 11
split_gain=5.54273 2.64685 1.82054
threshold=1.0000000180025095e-35 -12094.695603788758 41.500000000000007
decision_type=2 2 2
left_child=-1 -2 -3
right_child=1 2 -4
leaf_value=0.068570795033444584 0.02854511642099913 -0.0076554608760490616 -0.072367398247504808
leaf_weight=2.178122267127037 1.7116401642560957 1.9174580872058866 2.5348188430070877
leaf_count=11 7 8 12
internal_value=0 -0.0242156 -0.0445503
internal_weight=0 6.16392 4.45228
internal_count=38 27 20
is_linear=0
shrinkage=0.05


Tree=13
num_leaves=4
num_cat=0
split_feature=1 13 12
split_gain=5.14961 2.60157 2.44098
threshold=1.0000000180025095e-35 -18670418.546256382 2299.0000000000005
decision_type=2 2 2
left_child=-1 -2 -3
right_child=1 2 -4
leaf_value=0.067329320821627084 0.032440405744726154 -0.010120177028471448 -0.084253456427671403
leaf_weight=2.1091228574514389 1.5522546619176862 2.5541707575321198 1.9752931743860243
leaf_count=11 7 11 9
internal_value=0 -0.0233363 -0.0425016
internal_weight=0 6.08172 4.52946
internal_count=38 27 20
is_linear=0
shrinkage=0.05


Tree=14
num_leaves=4
num_cat=0
split_feature=1 3 14
split_gain=4.78073 2.46463 0.413448
threshold=1.0000000180025095e-35 9319.0894179122533 -29370568.532616422
decision_type=2 2 2
left_child=-1 -2 -3
right_child=1 2 -4
leaf_value=0.066189868707415195 0.0085029486156185698 -0.073808866183666541 -0.035708654543461886
leaf_weight=2.0399172455072403 3.1195304542779922 1.4998807460069659 1.4206612408161161
leaf_count=11 13 7 7
internal_value=0 -0.0223379 -0.0553563
internal_weight=0 6.04007 2.92054
internal_count=38 27 14
is_linear=0
shrinkage=0.05


Tree=15
num_leaves=4
num_cat=0
split_feature=1 13 12
split_gain=4.44655 2.39205 2.32798
threshold=1.0000000180025095e-35 -18670418.546256382 2299.0000000000005
decision_type=2 2 2
left_child=-1 -2 -3
right_child=1 2 -4
leaf_value=0.065141478168343231 0.032244696679064815 -0.008467607162389203 -0.081671851453485059
leaf_weight=1.9708637446165083 1.5359858721494672 2.5270246267318726 1.9149094671010969
leaf_count=11 7 11 9
internal_value=0 -0.0214575 -0.0400788
internal_weight=0 5.97792 4.44193
internal_count=38 27 20
is_linear=0
shrinkage=0.05


Tree=16
num_leaves=4
num_cat=0
split_feature=1 3 14
split_gain=4.13673 2.28673 0.421074
threshold=1.0000000180025095e-35 9319.0894179122533 -29370568.532616422
decision_type=2 2 2
left_child=-1 -2 -3
right_child=1 2 -4
leaf_value=0.064174702112077694 0.0089931541804996861 -0.071910006736129808 -0.032848023444485584
leaf_weight=1.902268052101135 3.1064283400774002 1.4599105566740034 1.3667835742235186
leaf_count=11 13 7 7
internal_value=0 -0.0205549 -0.0531058
internal_weight=0 5.93312 2.82669
internal_count=38 27 14
is_linear=0
shrinkage=0.05


Tree=17
num_leaves=5
num_cat=0
split_feature=1 7 14 9
split_gain=3.85465 2.26244 2.21104 0.419407
threshold=1.0000000180025095e-35 82.000000000000014 -158146208.58888605 9917.5000000000018
decision_type=2 2 2 2
left_child=-1 -2 -3 -4
right_child=1 2 3 -5
leaf_value=0.063281309387519261 0.031335899451356286 0.013474809725619132 -0.043913434996773859 -0.082372718827900246
leaf_weight=1.8343902975320814 1.5792399644851682 1.3769891858100884 1.4529112130403525 1.4617064595222471
leaf_count=11 7 6 7 7
internal_value=0 -0.01975 -0.0386021 -0.0632826
internal_weight=0 5.87085 4.29161 2.91462
internal_count=38 27 20 14
is_linear=0
shrinkage=0.05


Tree=18
num_leaves=4
num_cat=0
split_feature=1 3 6
split_gain=3.59281 2.17843 1.82
threshold=1.0000000180025095e-35 -12094.695603788758 1137.0000000000002
decision_type=2 2 2
left_child=-1 -2 -3
right_child=1 2 -4
leaf_value=0.06245412563055211 0.028558107385557946 -0.072628250990544693 -0.0060154239382351586
leaf_weight=1.7674504518508909 1.7027413100004194 2.0128437876701355 2.1065699607133865
leaf_count=11 7 10 10
internal_value=0 -0.0189345 -0.0386208
internal_weight=0 5.82216 4.11941
internal_count=38 27 20
is_linear=0
shrinkage=0.05


Tree=19
num_leaves=5
num_cat=0
split_feature=1 7 14 9
split_gain=3.35463 2.10004 2.06602 0.426279
threshold=1.0000000180025095e-35 82.000000000000014 -158146208.58888605 9917.5000000000018
decision_type=2 2 2 2
left_child=-1 -2 -3 -4
right_child=1 2 3 -5
leaf_value=0.061686847667204885 0.031076592620419549 0.013660064265473164 -0.041306038768818526 -0.080687994890869474
leaf_weight=1.7016322612762449 1.5664527118206022 1.3636435717344277 1.4041515588760383 1.4172351807355879
leaf_count=11 7 6 7 7
internal_value=0 -0.0182266 -0.0367354 -0.0611724
internal_weight=0 5.75148 4.18503 2.82139
internal_count=38 27 20 14
is_linear=0
shrinkage=0.05


Tree=20
num_leaves=4
num_cat=0
split_feature=1 3 14
split_gain=3.13184 2.04341 0.440283
threshold=1.0000000180025095e-35 9319.0894179122533 -29370568.532616422
decision_type=2 2 2
left_child=-1 -2 -3
right_child=1 2 -4
leaf_value=0.06097393858972007 0.010299062487390938 -0.069285016936950425 -0.02802146914394596
leaf_weight=1.6370883285999296 3.0568305402994156 1.3822173625230787 1.2625431865453722
leaf_count=11 13 7 7
internal_value=0 -0.0174819 -0.0496756
internal_weight=0 5.70159 2.64476
internal_count=38 27 14
is_linear=0
shrinkage=0.05


Tree=21
num_leaves=4
num_cat=0
split_feature=1 13 12
split_gain=2.92722 1.97563 2.08486
threshold=1.0000000180025095e-35 -18670418.546256382 2299.0000000000005
decision_type=2 2 2
left_child=-1 -2 -3
right_child=1 2 -4
leaf_value=0.060310495253239185 0.032958783415548268 -0.0044248351426984219 -0.07623486430721399
leaf_weight=1.5739432275295255 1.4700984358787534 2.4336017072200775 1.737491115927696
leaf_count=11 7 11 9
internal_value=0 -0.0168011 -0.034394
internal_weight=0 5.64119 4.17109
internal_count=38 27 20
is_linear=0
shrinkage=0.05


Tree=22
num_leaves=4
num_cat=0
split_feature=2 3 10
split_gain=2.73675 1.89813 0.41093
threshold=1.0000000180025095e-35 9319.0894179122533 898.00000000000011
decision_type=2 2 2
left_child=1 -1 -3
right_child=-2 2 -4
leaf_value=0.010539849523678877 0.059692155569331884 -0.067572785207239666 -0.027034272694543712
leaf_weight=3.0374503582715988 1.512297600507736 1.3087462782859804 1.2467059344053266
leaf_count=13 11 7 7
internal_value=0 -0.0161163 -0.0478875
internal_weight=0 5.5929 2.55545
internal_count=38 27 14
is_linear=0
shrinkage=0.05


Tree=23
num_leaves=4
num_cat=0
split_feature=1 3 6
split_gain=2.56136 1.81766 1.77264
threshold=1.0000000180025095e-35 -12094.695603788758 1137.0000000000002
decision_type=2 2 2
left_child=-1 -2 -3
right_child=1 2 -4
leaf_value=0.05911504903102454 0.027773708966847433 -0.069866519067922475 -0.0018325724866000228
leaf_weight=1.4522306174039838 1.683202803134918 1.8432414382696154 2.00676129758358
leaf_count=11 7 10 10
internal_value=0 -0.0154909 -0.0344653
internal_weight=0 5.53321 3.85
internal_count=38 27 20
is_linear=0
shrinkage=0.05


Tree=24
num_leaves=5
num_cat=0
split_feature=1 7 14 12
split_gain=2.39966 1.85205 1.95345 0.443456
threshold=1.0000000180025095e-35 82.000000000000014 -158146208.58888605 2299.0000000000005
decision_type=2 2 2 2
left_child=-1 -2 -3 -4
right_child=1 2 3 -5
leaf_value=0.058575693799125118 0.03176843285668645 0.016944625877089052 -0.03442257318457375 -0.076190228650026892
leaf_weight=1.393802762031555 1.5259950608015058 1.3008431792259214 1.1668007671833045 1.4713484197854994
leaf_count=11 7 6 6 8
internal_value=0 -0.0149181 -0.033063 -0.0578066
internal_weight=0 5.46499 3.93899 2.63815
internal_count=38 27 20 14
is_linear=0
shrinkage=0.05


Tree=25
num_leaves=4
num_cat=0
split_feature=1 13 12
split_gain=2.24799 1.70177 1.94192
threshold=1.0000000180025095e-35 -18670418.546256382 2299.0000000000005
decision_type=2 2 2
left_child=-1 -2 -3
right_child=1 2 -4
leaf_value=0.058070981555574032 0.032412341085402419 -0.0023276114599583291 -0.073571238393951757
leaf_weight=1.3370583727955816 1.4289120584726331 2.3769937306642537 1.6081688925623892
leaf_count=11 7 11 9
internal_value=0 -0.0143216 -0.031136
internal_weight=0 5.41407 3.98516
internal_count=38 27 20
is_linear=0
shrinkage=0.05


Tree=26
num_leaves=5
num_cat=0
split_feature=1 7 14 12
split_gain=2.10703 1.59199 1.74626 0.392277
threshold=1.0000000180025095e-35 82.000000000000014 -158146208.58888605 2299.0000000000005
decision_type=2 2 2 2
left_child=-1 -2 -3 -4
right_child=1 2 3 -5
leaf_value=0.057598112203365831 0.029228695692622798 0.016193815069367675 -0.033190917650002739 -0.07315778286628831
leaf_weight=1.2820272818207739 1.5335546880960462 1.2917339354753492 1.1543311029672629 1.3860689774155615
leaf_count=11 7 6 6 8
internal_value=0 -0.0137456 -0.0310029 -0.05509
internal_weight=0 5.36569 3.83213 2.5404
internal_count=38 27 20 14
is_linear=0
shrinkage=0.05


Tree=27
num_leaves=4
num_cat=0
split_feature=1 3 10
split_gain=1.97622 1.69959 0.440465
threshold=1.0000000180025095e-35 9319.0894179122533 898.00000000000011
decision_type=2 2 2
left_child=-1 -2 -3
right_child=1 2 -4
leaf_value=0.057154567508828746 0.012017119093977961 -0.065822372163967677 -0.022196984767170039
leaf_weight=1.2287273555994032 2.9532550126314163 1.220376141369343 1.1398254632949827
leaf_count=11 13 7 7
internal_value=0 -0.0132023 -0.0448533
internal_weight=0 5.31346 2.3602
internal_count=38 27 14
is_linear=0
shrinkage=0.05


Tree=28
num_leaves=4
num_cat=0
split_feature=1 3 6
split_gain=1.85468 1.61621 1.77534
threshold=1.0000000180025095e-35 -12094.695603788758 1137.0000000000002
decision_type=2 2 2
left_child=-1 -2 -3
right_child=1 2 -4
leaf_value=0.056738050113805463 0.028203901602787913 -0.068486199429372188 0.0016578345964666946
leaf_weight=1.1771655604243276 1.6514182686805723 1.7068392783403399 1.8999658375978468
leaf_count=11 7 10 10
internal_value=0 -0.0126886 -0.0314751
internal_weight=0 5.25822 3.60681
internal_count=38 27 20
is_linear=0
shrinkage=0.05


Tree=29
num_leaves=5
num_cat=0
split_feature=7 5 8 3
split_gain=3.29648 2.47115 2.2351 0.578428
threshold=59.500000000000007 3325.0000000000005 582.00000000000011 19318.657732720705
decision_type=2 2 2 2
left_child=-1 2 3 -2
right_child=1 -3 -4 -5
leaf_value=0.093526604610441225 -0.07238335765874826 0.051957524189617257 0.019706306632322181 -0.025224634677136176
leaf_weight=0.81996002048254002 1.9133904874324801 1.1284982934594152 1.4479327425360677 1.0117790177464483
leaf_count=4 10 7 9 8
internal_value=0 -0.0139282 -0.0309835 -0.0561517
internal_weight=0 5.5016 4.3731 2.92517
internal_count=38 34 27 18
is_linear=0
shrinkage=0.05


Tree=30
num_leaves=4
num_cat=0
split_feature=1 3 11
split_gain=1.70301 1.4268 1.53253
threshold=1.0000000180025095e-35 -12094.695603788758 41.500000000000007
decision_type=2 2 2
left_child=-1 -2 -3
right_child=1 2 -4
leaf_value=0.056204736224223645 0.026518779161541051 0.0039998268075331503 -0.062139663017863771
leaf_weight=1.1078620105981825 1.621760696172714 1.6854895949363711 1.8095718845725057
leaf_count=11 7 8 12
internal_value=0 -0.0121652 -0.0301805
internal_weight=0 5.11682 3.49506
internal_count=38 27 20
is_linear=0
shrinkage=0.05


Tree=31
num_leaves=5
num_cat=0
split_feature=13 4 6 12
split_gain=1.6209 2.15884 1.29308 0.552386
threshold=14215399.914766513 -19521.158156556197 1137.0000000000002 2299.0000000000005
decision_type=2 2 2 2
left_child=1 2 -1 -3
right_child=-2 3 -4 -5
leaf_value=-0.052128164754379508 -0.056969046580601049 0.064963348773107915 0.018075185830968364 0.015906308228626206
leaf_weight=1.4184368997812269 1.0362922400236128 1.4698008596897132 1.2136282473802564 0.96482323110103596
leaf_count=9 7 9 7 6
internal_value=0 0.0116563 -0.0196727 0.045618
internal_weight=0 5.06669 2.63207 2.43462
internal_count=38 31 16 15
is_linear=0
shrinkage=0.05


Tree=32
num_leaves=4
num_cat=0
split_feature=1 13 12
split_gain=1.57758 1.33854 1.66935
threshold=1.0000000180025095e-35 -18670418.546256382 2299.0000000000005
decision_type=2 2 2
left_child=-1 -2 -3
right_child=1 2 -4
leaf_value=0.055755524524998948 0.031222983542474048 -0.00059139474251228069 -0.070147862898348609
leaf_weight=1.048057287931442 1.326211020350456 2.2530063390731816 1.404339864850044
leaf_count=11 7 11 9
internal_value=0 -0.0117266 -0.0273636
internal_weight=0 4.98356 3.65735
internal_count=38 27 20
is_linear=0
shrinkage=0.05


Tree=33
num_leaves=4
num_cat=0
split_feature=11 4 6
split_gain=1.4415 1.7317 1.67341
threshold=41.500000000000007 -20763.298247982642 1417.5000000000002
decision_type=2 2 2
left_child=1 -1 -2
right_child=2 -3 -4
leaf_value=-0.0062460163713350635 0.0097687001051947747 0.074687405711514068 -0.062704743720592648
leaf_weight=1.6137474179267886 1.7692758440971377 1.1138865426182745 1.4419505000114439
leaf_count=9 11 9 9
internal_value=0 0.0267244 -0.0227054
internal_weight=0 2.72763 3.21123
internal_count=38 18 20
is_linear=0
shrinkage=0.05


Tree=34
num_leaves=4
num_cat=0
split_feature=11 10 4
split_gain=1.31965 2.158 1.63549
threshold=41.500000000000007 898.00000000000011 -20763.298247982642
decision_type=2 2 2
left_child=2 -2 -1
right_child=1 -3 -4
leaf_value=-0.0059385527577670823 0.0215041167413513 -0.0609379607348986 0.073549889631660773
leaf_weight=1.6124751567840578 1.5054146870970728 1.6723012775182722 1.0755360201001165
leaf_count=9 9 11 9
internal_value=0 -0.0218114 0.025785
internal_weight=0 3.17772 2.68801
internal_count=38 20 18
is_linear=0
shrinkage=0.05


Tree=35
num_leaves=4
num_cat=0
split_feature=11 10 4
split_gain=1.21044 2.00366 1.54514
threshold=41.500000000000007 898.00000000000011 -20763.298247982642
decision_type=2 2 2
left_child=2 -2 -1
right_child=1 -3 -4
leaf_value=-0.0056460434479480102 0.020443423085201886 -0.059521896280803802 0.072454359893044926
leaf_weight=1.6112546920776369 1.5043818280100825 1.6276296749711034 1.0381613001227377
leaf_count=9 9 11 9
internal_value=0 -0.0210412 0.0248744
internal_weight=0 3.13201 2.64942
internal_count=38 20 18
is_linear=0
shrinkage=0.05


Tree=36
num_leaves=5
num_cat=0
split_feature=5 11 6 9
split_gain=1.11978 2.19643 0.916381 0.38967
threshold=3325.0000000000005 41.500000000000007 1137.0000000000002 8845.5000000000018
decision_type=2 2 2 2
left_child=1 2 -1 -3
right_child=-2 3 -4 -5
leaf_value=-0.0017426425773407696 0.047714241686910831 -0.02477236135089721 0.060831155131954931 -0.067084791469419369
leaf_weight=1.5188756957650187 1.0112772062420843 1.0959543809294703 0.94475665688514698 1.1284053251147268
leaf_count=12 7 7 4 8
internal_value=0 -0.0102933 0.0221638 -0.0463427
internal_weight=0 4.68799 2.46363 2.22436
internal_count=38 31 16 15
is_linear=0
shrinkage=0.05


Tree=37
num_leaves=5
num_cat=0
split_feature=5 11 6 9
split_gain=1.02802 2.01991 0.824063 0.383573
threshold=3325.0000000000005 41.500000000000007 1137.0000000000002 8845.5000000000018
decision_type=2 2 2 2
left_child=1 2 -1 -3
right_child=-2 3 -4 -5
leaf_value=-0.0016550826370114694 0.046125745750890929 -0.023706109733374139 0.057620949435901514 -0.066133416314231308
leaf_weight=1.5192662030458453 0.9942449927330016 1.0881961584091189 0.94745361804962147 1.0884232595562933
leaf_count=12 7 7 4 8
internal_value=0 -0.00989164 0.021023 -0.0450297
internal_weight=0 4.64334 2.46672 2.17662
internal_count=38 31 16 15
is_linear=0
shrinkage=0.05


Tree=38
num_leaves=5
num_cat=0
split_feature=5 11 5 5
split_gain=0.943581 1.85802 0.753125 0.3864
threshold=3325.0000000000005 41.500000000000007 1.0000000180025095e-35 454.00000000000006
decision_type=2 2 2 2
left_child=1 2 -1 -3
right_child=-2 3 -4 -5
leaf_value=-0.0086031469382664896 0.044577262359711857 -0.019042575854413286 0.046540857571216079 -0.062460236720360301
leaf_weight=1.1859680414199831 0.97777517139911641 0.92309188097715411 1.2822906300425527 1.2068776935338972
leaf_count=8 7 6 8 9
internal_value=0 -0.00950728 0.0199542 -0.0437533
internal_weight=0 4.59823 2.46826 2.12997
internal_count=38 31 16 15
is_linear=0
shrinkage=0.05


Tree=39
num_leaves=4
num_cat=0
split_feature=3 7 6
split_gain=0.8817 1.60405 2.87576
threshold=-20551.867112263637 249.00000000000003 892.50000000000011
decision_type=2 2 2
left_child=-1 2 -2
right_child=1 -3 -4
leaf_value=0.039418730336885976 -0.031984970379257877 -0.053859951675405617 0.06751203085948726
leaf_weight=1.1264205053448675 1.6876549273729327 1.4212864786386488 1.2730153053998945
leaf_count=6 13 11 8
internal_value=0 -0.0101753 0.0107212
internal_weight=0 4.38196 2.96067
internal_count=38 32 21
is_linear=0
shrinkage=0.05


Tree=40
num_leaves=4
num_cat=0
split_feature=11 10 4
split_gain=0.831295 1.58949 1.44528
threshold=41.500000000000007 898.00000000000011 -20763.298247982642
decision_type=2 2 2
left_child=2 -2 -1
right_child=1 -3 -4
leaf_value=-0.0084815637297923872 0.01964053751452137 -0.054858419489196765 0.068714218673160646
leaf_weight=1.6011191308498385 1.3894275501370432 1.4703631401062009 0.97161289304494847
leaf_count=9 9 11 9
internal_value=0 -0.0185849 0.0205866
internal_weight=0 2.85979 2.57273
internal_count=38 20 18
is_linear=0
shrinkage=0.05


Tree=41
num_leaves=5
num_cat=0
split_feature=5 11 6 5
split_gain=0.81355 1.57455 0.662571 0.380929
threshold=3325.0000000000005 41.500000000000007 1137.0000000000002 454.00000000000006
decision_type=2 2 2 2
left_child=1 2 -1 -3
right_child=-2 3 -4 -5
leaf_value=-0.0023110610065262332 0.042788776965207553 -0.016949412565752386 0.051331281276220588 -0.061092464239550698
leaf_weight=1.4884619489312174 0.91876593232154835 0.8987686634063724 0.9308454543352126 1.1190300807356832
leaf_count=12 7 6 4 9
internal_value=0 -0.00889916 0.0182367 -0.0415457
internal_weight=0 4.43711 2.41931 2.0178
internal_count=38 31 16 15
is_linear=0
shrinkage=0.05


Tree=42
num_leaves=4
num_cat=0
split_feature=3 10 4
split_gain=0.779108 2.10598 1.13074
threshold=9319.0894179122533 898.00000000000011 -19521.158156556197
decision_type=2 2 2
left_child=1 -1 -2
right_child=2 -3 -4
leaf_value=0.057018360436347837 -0.052378656438773458 -0.028692056412829261 0.016230298447965193
leaf_weight=1.5554734840989115 1.3124603629112246 1.3250354900956152 1.1000111848115919
leaf_count=9 10 8 11
internal_value=0 0.0175135 -0.0210022
internal_weight=0 2.88051 2.41247
internal_count=38 17 21
is_linear=0
shrinkage=0.05


Tree=43
num_leaves=4
num_cat=0
split_feature=11 10 4
split_gain=0.737984 1.36096 1.35221
threshold=41.500000000000007 898.00000000000011 -20763.298247982642
decision_type=2 2 2
left_child=2 -2 -1
right_child=1 -3 -4
leaf_value=-0.0085626162606627192 0.017967999818436019 -0.052697695292653751 0.067315898313391478
leaf_weight=1.5772055089473727 1.3292281255126002 1.3906610533595083 0.93123655766248692
leaf_count=9 9 11 9
internal_value=0 -0.0180806 0.0195189
internal_weight=0 2.71989 2.50844
internal_count=38 20 18
is_linear=0
shrinkage=0.05


Tree=44
num_leaves=4
num_cat=0
split_feature=3 10 4
split_gain=0.730299 1.87922 1.03876
threshold=9319.0894179122533 898.00000000000011 -19521.158156556197
decision_type=2 2 2
left_child=1 -1 -2
right_child=2 -3 -4
leaf_value=0.054909096922062132 -0.051462173146604999 -0.026907632699383507 0.01532392729198878
leaf_weight=1.5189107395708563 1.2637133225798609 1.3004012703895567 1.072139225900173
leaf_count=9 10 8 11
internal_value=0 0.0170916 -0.0207119
internal_weight=0 2.81931 2.33585
internal_count=38 17 21
is_linear=0
shrinkage=0.05


Tree=45
num_leaves=4
num_cat=0
split_feature=11 4 3
split_gain=0.715479 1.25279 1.16588
threshold=41.500000000000007 -20763.298247982642 -12094.695603788758
decision_type=2 2 2
left_child=1 -1 -2
right_child=2 -3 -4
leaf_value=-0.0076192716962749669 0.017945242272484795 0.066466385832250785 -0.048645492759741393
leaf_weight=1.5540896058082583 1.2080506905913355 0.89749980345368374 1.4325329661369322
leaf_count=9 7 9 13
internal_value=0 0.019413 -0.0180956
internal_weight=0 2.45159 2.64058
internal_count=38 18 20
is_linear=0
shrinkage=0.05


Tree=46
num_leaves=3
num_cat=0
split_feature=8 8
split_gain=0.711001 1.70898
threshold=440.50000000000006 86.500000000000014
decision_type=2 2
left_child=1 -1
right_child=-2 -3
leaf_value=0.022221984224054386 0.024104753753955585 -0.051772713286072837
leaf_weight=1.5571610480546954 1.8962066322565077 1.55892963334918
leaf_count=12 13 13
internal_value=0 -0.0147244
internal_weight=0 3.11609
internal_count=38 25
is_linear=0
shrinkage=0.05


Tree=47
num_leaves=4
num_cat=0
split_feature=3 10 7
split_gain=0.652024 1.72857 0.940188
threshold=9319.0894179122533 898.00000000000011 181.50000000000003
decision_type=2 2 2
left_child=1 -1 -2
right_child=2 -3 -4
leaf_value=0.053474339410392459 0.016856982239181525 -0.026155682605045819 -0.048483342593916283
leaf_weight=1.4616906642913821 0.96731698140502009 1.2724557071924207 1.2659568190574644
leaf_count=9 10 8 11
internal_value=0 0.0163328 -0.0200813
internal_weight=0 2.73415 2.23327
internal_count=38 17 21
is_linear=0
shrinkage=0.05


Tree=48
num_leaves=3
num_cat=0
split_feature=8 8
split_gain=0.674455 1.52745
threshold=440.50000000000006 86.500000000000014
decision_type=2 2
left_child=1 -1
right_child=-2 -3
leaf_value=0.020675431777501106 0.023501056334674645 -0.050322760652182989
leaf_weight=1.5165831260383131 1.877407521009445 1.5080591216683386
leaf_count=12 13 13
internal_value=0 -0.0146495
internal_weight=0 3.02464
internal_count=38 25
is_linear=0
shrinkage=0.05


Tree=49
num_leaves=4
num_cat=0
split_feature=11 10 10
split_gain=0.622891 1.04501 0.681937
threshold=41.500000000000007 898.00000000000011 580.50000000000011
decision_type=2 2 2
left_child=2 -2 -1
right_child=1 -3 -4
leaf_value=-0.013046393940293636 0.015471593075474681 -0.049279267052063355 0.041126215059124976
leaf_weight=0.99653451517224345 1.2153081782162192 1.2704793736338613 1.3763967603445051
leaf_count=8 9 11 10
internal_value=0 -0.0175323 0.0182811
internal_weight=0 2.48579 2.37293
internal_count=38 20 18
is_linear=0
shrinkage=0.05


Tree=50
num_leaves=4
num_cat=0
split_feature=4 12 6
split_gain=0.618739 1.23958 0.883167
threshold=-19521.158156556197 2299.0000000000005 1137.0000000000002
decision_type=2 2 2
left_child=2 -2 -1
right_child=1 -3 -4
leaf_value=-0.046703453148741733 0.051368296980499023 -0.018142542190400745 0.016492780204769294
leaf_weight=1.2705801874399187 1.2880371473729613 1.2709454856812952 0.9716113507747649
leaf_count=9 10 12 7
internal_value=0 0.0167575 -0.0192183
internal_weight=0 2.55898 2.24219
internal_count=38 22 16
is_linear=0
shrinkage=0.05


Tree=51
num_leaves=5
num_cat=0
split_feature=3 10 4 11
split_gain=0.589296 1.51379 0.877587 1.28377
threshold=9319.0894179122533 898.00000000000011 -20763.298247982642 41.500000000000007
decision_type=2 2 2 2
left_child=1 -1 -2 -4
right_child=2 -3 3 -5
leaf_value=0.051395386349479558 -0.060465195511189479 -0.024653389537130185 0.062280752192049517 -0.037429254876743652
leaf_weight=1.3991421125829222 0.81251835078001056 1.2246462926268575 0.56798031553626038 0.74602195620536804
leaf_count=9 6 8 7 8
internal_value=0 0.0158141 -0.0196004 0.00550061
internal_weight=0 2.62379 2.12652 1.314
internal_count=38 17 21 15
is_linear=0
shrinkage=0.05


Tree=52
num_leaves=4
num_cat=0
split_feature=11 3 10
split_gain=0.573901 0.929781 0.573483
threshold=41.500000000000007 -12094.695603788758 580.50000000000011
decision_type=2 2 2
left_child=2 -2 -1
right_child=1 -3 -4
leaf_value=-0.011672467524214516 0.016727613990826683 -0.045973689386999805 0.039094383143868164
leaf_weight=0.94646541774272952 1.0846268869936468 1.2898162044584749 1.3305908367037771
leaf_count=8 7 13 10
internal_value=0 -0.0172376 0.0178941
internal_weight=0 2.37444 2.27706
internal_count=38 20 18
is_linear=0
shrinkage=0.05


Tree=53
num_leaves=4
num_cat=0
split_feature=3 11 6
split_gain=0.538577 1.29571 1.02167
threshold=-20551.867112263637 276.50000000000006 892.50000000000011
decision_type=2 2 2
left_child=-1 2 -2
right_child=1 -3 -4
leaf_value=0.034044197277092701 -0.025376939001768514 -0.057778877331875235 0.036731776292494057
leaf_weight=0.92507658153772343 1.1815975122153766 0.98304014652967442 1.5000479705631731
leaf_count=6 11 10 11
internal_value=0 -0.00864777 0.00928077
internal_weight=0 3.66469 2.68165
internal_count=38 32 22
is_linear=0
shrinkage=0.05


Tree=54
num_leaves=3
num_cat=0
split_feature=8 8
split_gain=0.545454 1.28453
threshold=440.50000000000006 86.500000000000014
decision_type=2 2
left_child=1 -1
right_child=-2 -3
leaf_value=0.01988941462776405 0.021676323793429611 -0.048240238821811679
leaf_weight=1.3879162892699244 1.763091195374727 1.3737774640321729
leaf_count=12 13 13
internal_value=0 -0.0139198
internal_weight=0 2.76169
internal_count=38 25
is_linear=0
shrinkage=0.05


Tree=55
num_leaves=4
num_cat=0
split_feature=6 7 9
split_gain=0.538795 1.87653 0.954121
threshold=419.50000000000006 59.500000000000007 8845.5000000000018
decision_type=2 2 2
left_child=-1 -2 -3
right_child=1 2 -4
leaf_value=0.034333156533905722 0.06788387693647939 0.0010327444459214002 -0.056017544462491312
leaf_weight=0.90830126404762257 0.65094702690839801 1.5384679138660433 1.3862640745937822
leaf_count=10 4 11 13
internal_value=0 -0.00878722 -0.0259321
internal_weight=0 3.57568 2.92473
internal_count=38 28 24
is_linear=0
shrinkage=0.05


Tree=56
num_leaves=5
num_cat=0
split_feature=4 9 12 0
split_gain=0.52509 1.00309 0.855073 0.150884
threshold=-19521.158156556197 8845.5000000000018 1393.0000000000002 0.2916666666666668
decision_type=2 2 2 2
left_child=2 -2 -1 -3
right_child=1 3 -4 -5
leaf_value=-0.04381374048552461 0.06064698473341406 -0.024009356710094833 0.021623362692770529 0.0076670315538657557
leaf_weight=1.2760477066040041 0.82417099177837405 0.74344579130411126 0.81463714689016331 0.74539316073060036
leaf_count=9 8 6 7 8
internal_value=0 0.0163655 -0.018208 -0.00799913
internal_weight=0 2.31301 2.09068 1.48884
internal_count=38 22 16 14
is_linear=0
shrinkage=0.05


Tree=57
num_leaves=5
num_cat=0
split_feature=6 7 8 3
split_gain=0.488053 1.7586 1.33948 0.0863405
threshold=419.50000000000006 59.500000000000007 582.00000000000011 14280.549737013789
decision_type=2 2 2 2
left_child=-1 -2 3 -3
right_child=1 2 -4 -5
leaf_value=0.033353190039893267 0.067035455875808975 -0.062298165892781802 0.017607417458935289 -0.038290204777484974
leaf_weight=0.87366960942745198 0.62938950210809741 1.0342387408018114 1.1030181758105753 0.69784329831600178
leaf_count=10 4 7 8 9
internal_value=0 -0.00846116 -0.0253044 -0.0527612
internal_weight=0 3.46449 2.8351 1.73208
internal_count=38 28 24 16
is_linear=0
shrinkage=0.05


Tree=58
num_leaves=5
num_cat=0
split_feature=3 7 12 9
split_gain=0.471624 1.64328 0.709701 1.5647
threshold=-20551.867112263637 59.500000000000007 1393.0000000000002 9917.5000000000018
decision_type=2 2 2 2
left_child=-1 -2 -3 -4
right_child=1 2 3 -5
leaf_value=0.03317968041554286 0.065942454460149 -0.051804275506675206 0.052721881955947694 -0.049792792126940585
leaf_weight=0.85350694134831417 0.60836673155427012 1.2942737936973574 0.70732330903410889 0.78506149724125862
leaf_count=6 4 12 7 9
internal_value=0 -0.00839452 -0.0247078 -0.00105307
internal_weight=0 3.39503 2.78666 1.49238
internal_count=38 32 28 16
is_linear=0
shrinkage=0.05


Tree=59
num_leaves=5
num_cat=0
split_feature=5 11 5 5
split_gain=0.455972 0.88479 0.422738 0.248364
threshold=3325.0000000000005 41.500000000000007 1.0000000180025095e-35 454.00000000000006
decision_type=2 2 2 2
left_child=1 2 -1 -3
right_child=-2 3 -4 -5
leaf_value=-0.008316778412768757 0.036799324845680631 -0.014955982774106376 0.037772390163801947 -0.05668634927673824
leaf_weight=1.005196522921324 0.6983203813433646 0.69973789900541283 0.97294041514396656 0.76827365159988403
leaf_count=8 7 6 8 9
internal_value=0 -0.00750354 0.0142387 -0.0369538
internal_weight=0 3.44615 1.97814 1.46801
internal_count=38 31 16 15
is_linear=0
shrinkage=0.05


Tree=60
num_leaves=5
num_cat=0
split_feature=4 9 12 6
split_gain=0.453202 0.88717 0.744915 0.216696
threshold=-19521.158156556197 8845.5000000000018 1393.0000000000002 1417.5000000000002
decision_type=2 2 2 2
left_child=2 -2 -1 -3
right_child=1 3 -4 -5
leaf_value=-0.042634443919894037 0.059360860262587689 0.013439411278756414 0.020485316306975063 -0.026075597957856675
leaf_weight=1.1750265285372732 0.75729376077652011 0.63605403527617432 0.7704964131116866 0.75193889439105988
leaf_count=9 8 7 7 7
internal_value=0 0.015802 -0.0175206 -0.00780492
internal_weight=0 2.14529 1.94552 1.38799
internal_count=38 22 16 14
is_linear=0
shrinkage=0.05


Tree=61
num_leaves=4
num_cat=0
split_feature=11 4 10
split_gain=0.417192 0.880173 0.710145
threshold=41.500000000000007 -20763.298247982642 898.00000000000011
decision_type=2 2 2
left_child=1 -1 -2
right_child=2 -3 -4
leaf_value=-0.008139472120494446 0.014289528142852035 0.060311353309436544 -0.045652060443786037
leaf_weight=1.337235823273659 0.95474757999181736 0.7200058065354823 1.0149198584258554
leaf_count=9 9 9 11
internal_value=0 0.0157102 -0.0164831
internal_weight=0 2.05724 1.96967
internal_count=38 18 20
is_linear=0
shrinkage=0.05


Tree=62
num_leaves=3
num_cat=0
split_feature=8 8
split_gain=0.41503 0.965288
threshold=440.50000000000006 86.500000000000014
decision_type=2 2
left_child=1 -1
right_child=-2 -3
leaf_value=0.017961539272916022 0.019744852168230187 -0.04565143866619073
leaf_weight=1.2087531350553042 1.5901367552578447 1.1709966324269769
leaf_count=12 13 13
internal_value=0 -0.0132461
internal_weight=0 2.37975
internal_count=38 25
is_linear=0
shrinkage=0.05


Tree=63
num_leaves=5
num_cat=0
split_feature=4 9 9 12
split_gain=0.406644 0.794233 1.32308 0.695727
threshold=-19521.158156556197 8845.5000000000018 17307.500000000004 1393.0000000000002
decision_type=2 2 2 2
left_child=3 -2 -3 -1
right_child=1 2 -4 -5
leaf_value=-0.041316472795915493 0.05841154802172302 -0.051595691660541454 0.048776941415005576 0.020403486707480503
leaf_weight=1.1441557332873347 0.70528523996472392 0.74261958897113778 0.58718276768922806 0.75408651679754246
leaf_count=9 8 9 5 7
internal_value=0 0.0154926 -0.00710446 -0.0166788
internal_weight=0 2.03509 1.3298 1.89824
internal_count=38 22 14 16
is_linear=0
shrinkage=0.05


Tree=64
num_leaves=5
num_cat=0
split_feature=3 10 4 7
split_gain=0.410951 1.10417 0.659099 0.859958
threshold=9319.0894179122533 898.00000000000011 -20763.298247982642 226.00000000000003
decision_type=2 2 2 2
left_child=1 -1 -2 -4
right_child=2 -3 3 -5
leaf_value=0.048483879010675482 -0.057774093166563026 -0.023122007829575228 0.057847812932625808 -0.033890119470971952
leaf_weight=1.1334532499313361 0.65472135692834887 1.0204953812062738 0.45443702116608553 0.58122104406356812
leaf_count=9 6 8 7 8
internal_value=0 0.0144541 -0.0184799 0.00614767
internal_weight=0 2.15395 1.69038 1.03566
internal_count=38 17 21 15
is_linear=0
shrinkage=0.05


Tree=65
num_leaves=5
num_cat=0
split_feature=3 4 7 13
split_gain=0.380675 0.623647 0.805596 0.591747
threshold=9319.0894179122533 -20763.298247982642 226.00000000000003 -547979.33243000286
decision_type=2 2 2 2
left_child=3 -2 -3 -1
right_child=1 2 -4 -5
leaf_value=0.044868320612974827 -0.057315705363109884 0.057429407101810971 -0.03278898812283336 -0.0084316438192467338
leaf_weight=0.89581727981567416 0.6276461482048038 0.43534490093588762 0.57097477093338966 1.2306473925709727
leaf_count=6 6 7 8 11
internal_value=0 -0.0181745 0.00601837 0.0139173
internal_weight=0 1.63397 1.00632 2.12646
internal_count=38 21 15 17
is_linear=0
shrinkage=0.05


Tree=66
num_leaves=4
num_cat=0
split_feature=11 3 5
split_gain=0.357332 0.559593 0.416352
threshold=41.500000000000007 -12094.695603788758 51.000000000000007
decision_type=2 2 2
left_child=2 -2 -1
right_child=1 -3 -4
leaf_value=-0.0019741512573327319 0.01407483693108693 -0.041904691873418526 0.046860699278984425
leaf_weight=1.2351788431406023 0.82089789211750031 0.96715473011136033 0.6679260842502116
leaf_count=10 7 13 8
internal_value=0 -0.0160787 0.0150488
internal_weight=0 1.78805 1.9031
internal_count=38 20 18
is_linear=0
shrinkage=0.05


Tree=67
num_leaves=3
num_cat=0
split_feature=8 8
split_gain=0.368709 0.815663
threshold=440.50000000000006 86.500000000000014
decision_type=2 2
left_child=1 -1
right_child=-2 -3
leaf_value=0.017003957975521379 0.01900936715419883 -0.044474331505828711
leaf_weight=1.0876472257077701 1.4985043630003927 1.0639744848012922
leaf_count=12 13 13
internal_value=0 -0.0132927
internal_weight=0 2.15162
internal_count=38 25
is_linear=0
shrinkage=0.05


Tree=68
num_leaves=5
num_cat=0
split_feature=4 9 9 12
split_gain=0.355498 0.726948 1.09521 0.632894
threshold=-19521.158156556197 8845.5000000000018 17307.500000000004 1393.0000000000002
decision_type=2 2 2 2
left_child=3 -2 -3 -1
right_child=1 2 -4 -5
leaf_value=-0.040694467425230009 0.057948565482107042 -0.04974273633414595 0.046195720287581246 0.020333625331162463
leaf_weight=1.0556437000632288 0.64886800944805134 0.67832634970545747 0.52836161106824875 0.70520940423011769
leaf_count=9 8 9 5 7
internal_value=0 0.0152375 -0.00754657 -0.0161248
internal_weight=0 1.85556 1.20669 1.76085
internal_count=38 22 14 16
is_linear=0
shrinkage=0.05


Tree=69
num_leaves=5
num_cat=0
split_feature=3 10 4 7
split_gain=0.339952 0.924519 0.566258 0.28798
threshold=9319.0894179122533 898.00000000000011 -20763.298247982642 249.00000000000003
decision_type=2 2 2 2
left_child=1 -1 -2 -4
right_child=2 -3 3 -5
leaf_value=0.046131775378861942 -0.05668973706375191 -0.021408600209469376 0.031639849134129372 -0.024105204425917473
leaf_weight=1.0453721433877952 0.58164476603269599 0.97791692614555348 0.50670235417783216 0.42353466898202896
leaf_count=9 6 8 8 7
internal_value=0 0.0133764 -0.0179618 0.00601582
internal_weight=0 2.02329 1.51188 0.930237
internal_count=38 17 21 15
is_linear=0
shrinkage=0.05


Tree=70
num_leaves=4
num_cat=0
split_feature=8 10 3
split_gain=0.326453 0.738473 1.14987
threshold=440.50000000000006 662.50000000000011 9319.0894179122533
decision_type=2 2 2
left_child=1 2 -1
right_child=-2 -3 -4
leaf_value=0.058951872188212767 0.018161508307752441 -0.05804429167068971 -0.032306252025088307
leaf_weight=0.60824712365865774 1.4421122893691061 0.62797322496771801 0.79556558281183243
leaf_count=6 13 7 12
internal_value=0 -0.0129432 0.00707517
internal_weight=0 2.03179 1.40381
internal_count=38 25 18
is_linear=0
shrinkage=0.05


Tree=71
num_leaves=4
num_cat=0
split_feature=1 3 6
split_gain=0.826893 0.536859 0.981628
threshold=1.0000000180025095e-35 -12094.695603788758 1137.0000000000002
decision_type=2 2 2
left_child=-1 -2 -3
right_child=1 2 -4
leaf_value=0.053760554806356164 0.021389541979296853 -0.06119879210044208 0.0095121666573567219
leaf_weight=0.590413382276893 0.86289057135582048 0.98069426417350702 0.97291975095868111
leaf_count=11 7 10 10
internal_value=0 -0.0113104 -0.0258702
internal_weight=0 2.8165 1.95361
internal_count=38 27 20
is_linear=0
shrinkage=0.05


Tree=72
num_leaves=4
num_cat=0
split_feature=8 10 3
split_gain=0.291197 0.693352 1.04754
threshold=440.50000000000006 662.50000000000011 9319.0894179122533
decision_type=2 2 2
left_child=1 2 -1
right_child=-2 -3 -4
leaf_value=0.058325812462393781 0.017218070714452468 -0.057496194676981242 -0.031237650256362499
leaf_weight=0.57381035946309589 1.4115524515509603 0.59649380296468724 0.75471091642975807
leaf_count=6 13 7 12
internal_value=0 -0.0126787 0.00727821
internal_weight=0 1.92502 1.32852
internal_count=38 25 18
is_linear=0
shrinkage=0.05


Tree=73
num_leaves=4
num_cat=0
split_feature=1 3 6
split_gain=0.77504 0.490722 0.844959
threshold=1.0000000180025095e-35 -20551.867112263637 892.50000000000011
decision_type=2 2 2
left_child=-1 -2 -3
right_child=1 2 -4
leaf_value=0.053466366228475296 0.02819382463941951 -0.061280952794080849 0.0032112639727866696
leaf_weight=0.56081784144043956 0.61056432127952653 0.8452065773308276 1.2567218393087385
leaf_count=11 5 9 13
internal_value=0 -0.011095 -0.0226167
internal_weight=0 2.71249 2.10193
internal_count=38 27 22
is_linear=0
shrinkage=0.05


Tree=74
num_leaves=5
num_cat=0
split_feature=6 7 8 3
split_gain=0.346901 1.09257 0.806681 0.0465522
threshold=419.50000000000006 59.500000000000007 582.00000000000011 14280.549737013789
decision_type=2 2 2 2
left_child=-1 -2 3 -3
right_child=1 2 -4 -5
leaf_value=0.034975968620908321 0.060451302744785745 -0.057722688308761032 0.012741322564676236 -0.036237435417720336
leaf_weight=0.57971093617379699 0.47833572700619731 0.73777924478054069 0.90348580479621876 0.50872397795319557
leaf_count=10 4 7 8 9
internal_value=0 -0.00774994 -0.0230326 -0.0491422
internal_weight=0 2.62832 2.14999 1.2465
internal_count=38 28 24 16
is_linear=0
shrinkage=0.05


Tree=75
num_leaves=5
num_cat=0
split_feature=6 7 8 3
split_gain=0.319428 1.02087 0.757897 0.048425
threshold=419.50000000000006 59.500000000000007 582.00000000000011 14280.549737013789
decision_type=2 2 2 2
left_child=-1 -2 3 -3
right_child=1 2 -4 -5
leaf_value=0.033845949407816413 0.059810975959571591 -0.057269725224384907 0.012141338027159032 -0.035135879576439738
leaf_weight=0.56938671879470382 0.45975634083151851 0.70720871165394805 0.90080533921718586 0.4987049326300621
leaf_count=10 4 7 8 9
internal_value=0 -0.00754503 -0.0223557 -0.0483106
internal_weight=0 2.56648 2.10672 1.20591
internal_count=38 28 24 16
is_linear=0
shrinkage=0.05


Tree=76
num_leaves=4
num_cat=0
split_feature=6 9 4
split_gain=0.29387 0.483867 0.326028
threshold=419.50000000000006 8845.5000000000018 17865.438813202523
decision_type=2 2 2
left_child=-1 -2 -3
right_child=1 2 -4
leaf_value=0.032720677227059076 0.011825252896743481 -0.056313705278112684 -0.00067002965311533649
leaf_weight=0.55977573618292842 1.4157200530171397 0.61842031031846978 0.47280564159154892
leaf_count=10 13 8 7
internal_value=0 -0.00734264 -0.0324161
internal_weight=0 2.50695 1.09123
internal_count=38 28 15
is_linear=0
shrinkage=0.05


Tree=77
num_leaves=4
num_cat=0
split_feature=11 3 5
split_gain=0.293029 0.376618 0.357465
threshold=41.500000000000007 -12094.695603788758 1.0000000180025095e-35
decision_type=2 2 2
left_child=2 -2 -1
right_child=1 -3 -4
leaf_value=-0.0087379920352229374 0.011772339046829833 -0.039883786967107329 0.038165408163345738
leaf_weight=0.80763851851224921 0.63279724307358265 0.78290511295199372 0.80493911541998386
leaf_count=8 7 13 10
internal_value=0 -0.0166355 0.0145354
internal_weight=0 1.4157 1.61258
internal_count=38 20 18
is_linear=0
shrinkage=0.05


Tree=78
num_leaves=4
num_cat=0
split_feature=6 7 6
split_gain=0.274063 0.420551 0.818235
threshold=419.50000000000006 249.00000000000003 892.50000000000011
decision_type=2 2 2
left_child=-1 2 -2
right_child=1 -3 -4
leaf_value=0.032086302609995079 -0.032094937196301729 -0.039072503490203997 0.037145969752061921
leaf_weight=0.54330761544406447 0.76800683885812782 0.72765112668275822 0.95659206807613373
leaf_count=10 7 11 10
internal_value=0 -0.00715725 0.00617969
internal_weight=0 2.45225 1.7246
internal_count=38 28 17
is_linear=0
shrinkage=0.05


Tree=79
num_leaves=4
num_cat=0
split_feature=4 12 12
split_gain=0.269889 0.579955 0.541847
threshold=-19521.158156556197 2299.0000000000005 1393.0000000000002
decision_type=2 2 2
left_child=2 -2 -1
right_child=1 -3 -4
leaf_value=-0.040313302989088792 0.045567042961343979 -0.016890724220112171 0.021436694058290014
leaf_weight=0.8752330467104914 0.76009609550237633 0.7203383706510067 0.59261567145586014
leaf_count=9 10 12 7
internal_value=0 0.0150253 -0.0152289
internal_weight=0 1.48043 1.46785
internal_count=38 22 16
is_linear=0
shrinkage=0.05


Tree=80
num_leaves=4
num_cat=0
split_feature=13 4 3
split_gain=0.255798 0.572486 0.399455
threshold=-547979.33243000286 17865.438813202523 9319.0894179122533
decision_type=2 2 2
left_child=2 -2 -1
right_child=1 -3 -4
leaf_value=0.043077431868634969 -0.040265407771611049 0.020094636418266667 -0.011740367955232128
leaf_weight=0.67759773135185264 0.88859434425830819 0.69841904193162918 0.64250939711928368
leaf_count=6 11 9 12
internal_value=0 -0.0135598 0.0162273
internal_weight=0 1.58701 1.32011
internal_count=38 20 18
is_linear=0
shrinkage=0.05


Tree=81
num_leaves=4
num_cat=0
split_feature=2 3 6
split_gain=0.679041 0.421844 0.684935
threshold=1.0000000180025095e-35 -20551.867112263637 892.50000000000011
decision_type=2 2 2
left_child=1 -1 -3
right_child=-2 2 -4
leaf_value=0.027323968012872013 0.053073026653150814 -0.059893489251298664 0.0022034617443884145
leaf_weight=0.54421831667423326 0.49764970131218422 0.73871134594082821 1.0962719321250913
leaf_count=5 11 9 13
internal_value=0 -0.0111416 -0.0226747
internal_weight=0 2.3792 1.83498
internal_count=38 27 22
is_linear=0
shrinkage=0.05


Tree=82
num_leaves=4
num_cat=0
split_feature=11 10 5
split_gain=0.276101 0.343631 0.28446
threshold=41.500000000000007 898.00000000000011 1.0000000180025095e-35
decision_type=2 2 2
left_child=2 -2 -1
right_child=1 -3 -4
leaf_value=-0.0065778910024418651 0.011143475956207185 -0.039993366204851159 0.036711931635135676
leaf_weight=0.76272068917751334 0.5929265785962341 0.72184304893016815 0.74103900045156479
leaf_count=8 9 11 10
internal_value=0 -0.0167611 0.0146059
internal_weight=0 1.31477 1.50376
internal_count=38 20 18
is_linear=0
shrinkage=0.05


Tree=83
num_leaves=4
num_cat=0
split_feature=11 10 5
split_gain=0.251886 0.318826 0.261498
threshold=41.500000000000007 898.00000000000011 1.0000000180025095e-35
decision_type=2 2 2
left_child=2 -2 -1
right_child=1 -3 -4
leaf_value=-0.0062457478720926241 0.010604683321472269 -0.038932355455318125 0.035400542638411657
leaf_weight=0.76311623677611373 0.59193381667137124 0.70488214120268822 0.73035065270960331
leaf_count=8 9 11 10
internal_value=0 -0.0161479 0.0139705
internal_weight=0 1.29682 1.49347
internal_count=38 20 18
is_linear=0
shrinkage=0.05


Tree=84
num_leaves=4
num_cat=0
split_feature=2 3 6
split_gain=0.644454 0.410755 0.635267
threshold=1.0000000180025095e-35 -20551.867112263637 892.50000000000011
decision_type=2 2 2
left_child=1 -1 -3
right_child=-2 2 -4
leaf_value=0.02746221260748917 0.053040123244608543 -0.059313679884368899 0.0017232296248144837
leaf_weight=0.52820987999439317 0.47380618564784516 0.70791933685541142 1.0538586303591726
leaf_count=5 11 9 13
internal_value=0 -0.011012 -0.0226774
internal_weight=0 2.28999 1.76178
internal_count=38 27 22
is_linear=0
shrinkage=0.05


Tree=85
num_leaves=4
num_cat=0
split_feature=4 12 12
split_gain=0.233535 0.526713 0.417258
threshold=-19521.158156556197 2299.0000000000005 1393.0000000000002
decision_type=2 2 2
left_child=2 -2 -1
right_child=1 -3 -4
leaf_value=-0.038040440150225785 0.04539065557533703 -0.016869644696382271 0.018113058394658883
leaf_weight=0.79586110636591934 0.68871543183922745 0.6633368507027626 0.5597420334815979
leaf_count=9 10 12 7
internal_value=0 0.0146789 -0.0146875
internal_weight=0 1.35205 1.3556
internal_count=38 22 16
is_linear=0
shrinkage=0.05


Tree=86
num_leaves=4
num_cat=0
split_feature=6 9 14
split_gain=0.235281 0.446052 0.270696
threshold=419.50000000000006 8845.5000000000018 190819426.9395954
decision_type=2 2 2
left_child=-1 -2 -3
right_child=1 2 -4
leaf_value=0.031873508895290205 0.012821701525371133 -0.055597570393290191 -0.0014060778477241057
leaf_weight=0.47517340257763896 1.2347418330609801 0.54763699695467938 0.41293418221175671
leaf_count=10 13 8 7
internal_value=0 -0.00692513 -0.0325419
internal_weight=0 2.19531 0.960571
internal_count=38 28 15
is_linear=0
shrinkage=0.05


Tree=87
num_leaves=4
num_cat=0
split_feature=11 10 5
split_gain=0.229337 0.295577 0.245836
threshold=41.500000000000007 898.00000000000011 1.0000000180025095e-35
decision_type=2 2 2
left_child=2 -2 -1
right_child=1 -3 -4
leaf_value=-0.0063985875034010308 0.010603411237248742 -0.03857459530664345 0.035047407044792082
leaf_weight=0.72638359107077144 0.55675553157925584 0.66224827989935875 0.69087966345250607
leaf_count=8 9 11 10
internal_value=0 -0.0159292 0.0136471
internal_weight=0 1.219 1.41726
internal_count=38 20 18
is_linear=0
shrinkage=0.05


Tree=88
num_leaves=5
num_cat=0
split_feature=4 9 12 0
split_gain=0.236959 0.476326 0.387385 0.120872
threshold=-19521.158156556197 8845.5000000000018 1393.0000000000002 0.37500000000000028
decision_type=2 2 2 2
left_child=2 -2 -1 -3
right_child=1 3 -4 -5
leaf_value=-0.037558842277562773 0.055780593814319802 -0.024424052884373014 0.017324095357079749 0.013866587629566614
leaf_weight=0.77983079105615638 0.46419764496386029 0.46331840381026268 0.54034943133592606 0.36357816495001316
leaf_count=9 8 7 7 7
internal_value=0 0.0151994 -0.0149242 -0.00731454
internal_weight=0 1.29109 1.32018 0.826897
internal_count=38 22 16 14
is_linear=0
shrinkage=0.05


Tree=89
num_leaves=5
num_cat=0
split_feature=4 9 6 0
split_gain=0.217614 0.452159 0.369641 0.110134
threshold=-19521.158156556197 8845.5000000000018 1137.0000000000002 0.37500000000000028
decision_type=2 2 2 2
left_child=2 -2 -1 -3
right_child=1 3 -4 -5
leaf_value=-0.038357992069781376 0.055435897531928395 -0.023435342482968746 0.014980766326909454 0.01321204628019703
leaf_weight=0.72152804210782073 0.44423567876219727 0.45884628593921661 0.58294752985239029 0.36254657059907913
leaf_count=9 8 7 7 7
internal_value=0 0.0147505 -0.0143492 -0.00698457
internal_weight=0 1.26563 1.30448 0.821393
internal_count=38 22 16 14
is_linear=0
shrinkage=0.05


end of trees

feature_importances:
day_cos=47
edu_0=32
TV_daytime=30
day_sin=25
AirConditioner_midnight=25
RiceCooker_midnight=24
IH_daytime=19
AirConditioner_daytime=16
ClothesWasher_daytime=16
ClothesWasher_midnight=16
Microwave_daytime=16
day_sin_*_Microwave_daytime=10
day_sin_*_AirConditioner_daytime=8
age=3
edu_1=3

parameters:
[boosting: gbdt]
[objective: binary]
[metric: roc_auc]
[tree_learner: serial]
[device_type: cpu]
[data_sample_strategy: bagging]
[data: ]
[valid: ]
[num_iterations: 10000]
[learning_rate: 0.05]
[num_leaves: 19]
[num_threads: 0]
[seed: 0]
[deterministic: 0]
[force_col_wise: 0]
[force_row_wise: 0]
[histogram_pool_size: -1]
[max_depth: -1]
[min_data_in_leaf: 7]
[min_sum_hessian_in_leaf: 0.001]
[bagging_fraction: 0.926418]
[pos_bagging_fraction: 1]
[neg_bagging_fraction: 1]
[bagging_freq: 4]
[bagging_seed: 3]
[feature_fraction: 0.959466]
[feature_fraction_bynode: 1]
[feature_fraction_seed: 2]
[extra_trees: 0]
[extra_seed: 6]
[early_stopping_round: 0]
[early_stopping_min_delta: 0]
[first_metric_only: 0]
[max_delta_step: 0]
[lambda_l1: 0.00453439]
[lambda_l2: 0.000172265]
[linear_lambda: 0]
[min_gain_to_split: 0]
[drop_rate: 0.1]
[max_drop: 50]
[skip_drop: 0.5]
[xgboost_dart_mode: 0]
[uniform_drop: 0]
[drop_seed: 4]
[top_rate: 0.2]
[other_rate: 0.1]
[min_data_per_group: 100]
[max_cat_threshold: 32]
[cat_l2: 10]
[cat_smooth: 10]
[max_cat_to_onehot: 4]
[top_k: 20]
[monotone_constraints: ]
[monotone_constraints_method: basic]
[monotone_penalty: 0]
[feature_contri: ]
[forcedsplits_filename: ]
[refit_decay_rate: 0.9]
[cegb_tradeoff: 1]
[cegb_penalty_split: 0]
[cegb_penalty_feature_lazy: ]
[cegb_penalty_feature_coupled: ]
[path_smooth: 0]
[interaction_constraints: ]
[verbosity: -1]
[saved_feature_importance_type: 0]
[use_quantized_grad: 0]
[num_grad_quant_bins: 4]
[quant_train_renew_leaf: 0]
[stochastic_rounding: 1]
[linear_tree: 0]
[max_bin: 255]
[max_bin_by_feature: ]
[min_data_in_bin: 3]
[bin_construct_sample_cnt: 200000]
[data_random_seed: 1]
[is_enable_sparse: 1]
[enable_bundle: 1]
[use_missing: 1]
[zero_as_missing: 0]
[feature_pre_filter: 1]
[pre_partition: 0]
[two_round: 0]
[header: 0]
[label_column: ]
[weight_column: ]
[group_column: ]
[ignore_column: ]
[categorical_feature: ]
[forcedbins_filename: ]
[precise_float_parser: 0]
[parser_config_file: ]
[objective_seed: 5]
[num_class: 1]
[is_unbalance: 0]
[scale_pos_weight: 1]
[sigmoid: 1]
[boost_from_average: 1]
[reg_sqrt: 0]
[alpha: 0.9]
[fair_c: 1]
[poisson_max_delta_step: 0.7]
[tweedie_variance_power: 1.5]
[lambdarank_truncation_level: 30]
[lambdarank_norm: 1]
[label_gain: ]
[lambdarank_position_bias_regularization: 0]
[eval_at: ]
[multi_error_top_k: 1]
[auc_mu_weights: ]
[num_machines: 1]
[local_listen_port: 12400]
[time_out: 120]
[machine_list_filename: ]
[machines: ]
[gpu_platform_id: -1]
[gpu_device_id: -1]
[gpu_use_dp: 0]
[num_gpu: 1]

end of parameters

pandas_categorical:null
