tree
version=v4
num_class=1
num_tree_per_iteration=1
label_index=0
max_feature_idx=14
objective=binary sigmoid:1
feature_names=age edu_0 edu_1 day_cos day_sin AirConditioner_daytime AirConditioner_midnight ClothesWasher_daytime ClothesWasher_midnight Microwave_daytime RiceCooker_midnight TV_daytime IH_daytime day_sin_*_AirConditioner_daytime day_sin_*_Microwave_daytime
feature_infos=[0:0.95833333333333348] [0:1] [0:1] [-28267.926481430419:28283.640276768856] [-28093.960052225535:27606.153876747259] [0:11885] [134:7462] [30:426] [0:572] [1569:14729] [97:10737] [0:2583] [136:4364] [-299851586.06315094:179977723.36035663] [-352976182.14376563:357057994.24184906]
tree_sizes=688 650 650 648 648 751 643 648 745 647 749 650 650 751 648 750 648 647 650 649 650 650 754 754 651 649 653 649 653 652 651 654 751 650 652 654 757 758 653 650 650 650 655 652 655 655 653 656 652 655 757 656 759 656 761 654 651 655 761 762 657 761 657 764 654 657 658 660 759 757 763 761 658 764 658 657 766 655 762 768 659 762 638 748 636 770 769

Tree=0
num_leaves=6
num_cat=0
split_feature=7 8 0 13 12
split_gain=10.5684 11.5576 4.93409 1.40534 1.79442
threshold=260.50000000000006 21.500000000000004 0.18750000000000025 3887050.8583231578 2416.5000000000005
decision_type=2 2 2 2 2
left_child=1 -1 -3 -4 -5
right_child=-2 2 3 4 -6
leaf_value=-0.082821725862781789 -0.087859661757109797 -0.061544056304420419 0.092347951059551237 -0.023348125790095535 0.070636687669892395
leaf_weight=1.4999999999999998 2.25 0.49999999999999989 3.75 0.74999999999999978 0.75
leaf_count=6 9 2 15 3 3
internal_value=0 0.029731 0.0618567 0.0764191 0.0274917
internal_weight=0 7.25 5.75 5.25 1.5
internal_count=38 29 23 21 6
is_linear=0
shrinkage=0.05


Tree=1
num_leaves=5
num_cat=0
split_feature=1 5 7 0
split_gain=16.7192 7.22331 4.41117 0.958026
threshold=1.0000000180025095e-35 2909.0000000000005 300.50000000000006 0.4791666666666668
decision_type=2 2 2 2
left_child=-1 -2 3 -3
right_child=1 2 -4 -5
leaf_value=0.087226602386047347 -0.088874515512039606 -0.00067993982942857623 -0.067615060214630388 0.077885661245448379
leaf_weight=3.2430806905031204 3.7440323233604431 0.49943368136882815 0.74855446815490712 1.2484989315271375
leaf_count=13 15 2 3 5
internal_value=0 -0.0475182 0.0173364 0.0585401
internal_weight=0 6.24052 2.49649 1.74793
internal_count=38 25 10 7
is_linear=0
shrinkage=0.05


Tree=2
num_leaves=5
num_cat=0
split_feature=1 5 7 0
split_gain=15.3031 6.60612 4.09648 0.888108
threshold=1.0000000180025095e-35 2909.0000000000005 300.50000000000006 0.4791666666666668
decision_type=2 2 2 2
left_child=-1 -2 3 -3
right_child=1 2 -4 -5
leaf_value=0.083704591802589018 -0.085204373144608728 -0.00065888842155782928 -0.065412903435555572 0.074987734420218846
leaf_weight=3.2239395081996918 3.7237437963485718 0.49943946301937137 0.74548588693141926 1.2438907921314237
leaf_count=13 15 2 3 5
internal_value=0 -0.0455307 0.0165574 0.0563126
internal_weight=0 6.21256 2.48882 1.74333
internal_count=38 25 10 7
is_linear=0
shrinkage=0.05


Tree=3
num_leaves=5
num_cat=0
split_feature=1 5 7 13
split_gain=14.0508 6.06393 3.81079 0.853605
threshold=1.0000000180025095e-35 2909.0000000000005 300.50000000000006 134896450.81736961
decision_type=2 2 2 2
left_child=-1 -2 3 -3
right_child=1 2 -4 -5
leaf_value=0.080575832160508398 -0.081955293747989766 0.072646939976613437 -0.063378230850002215 -0.0012342231856492753
leaf_weight=3.1943251192569733 3.6907859891653061 1.236472621560097 0.74092550575733174 0.49891628324985493
leaf_count=13 15 5 3 2
internal_value=0 -0.0437505 0.0158406 0.0542632
internal_weight=0 6.1671 2.47631 1.73539
internal_count=38 25 10 7
is_linear=0
shrinkage=0.05


Tree=4
num_leaves=5
num_cat=0
split_feature=1 5 7 0
split_gain=12.9369 5.58427 3.55016 0.820957
threshold=1.0000000180025095e-35 2909.0000000000005 300.50000000000006 0.4791666666666668
decision_type=2 2 2 2
left_child=-1 -2 3 -3
right_child=1 2 -4 -5
leaf_value=0.077777705519831764 -0.079058797454728616 -0.0017427556190512178 -0.061491564441103444 0.070487111042673009
leaf_weight=3.1557949930429459 3.6470494866371155 0.49829149246215854 0.73505039513111103 1.2265560179948805
leaf_count=13 15 2 3 5
internal_value=0 -0.0421442 0.0151745 0.0523587
internal_weight=0 6.10695 2.4599 1.72485
internal_count=38 25 10 7
is_linear=0
shrinkage=0.05


Tree=5
num_leaves=6
num_cat=0
split_feature=1 13 13 8 7
split_gain=11.9409 3.34584 1.37527 2.25239 1.3096
threshold=1.0000000180025095e-35 42478654.212652616 -33491351.563476045 83.500000000000014 166.50000000000003
decision_type=2 2 2 2 2
left_child=-1 2 3 -2 -3
right_child=1 4 -4 -5 -6
leaf_value=0.075260023735548937 -0.058426275527605043 0.059156051357507712 -0.076207227068142133 0.053825922460424447 -0.021515986018516273
leaf_weight=3.1097328364849091 0.72146315872669198 0.72534888982772805 3.3580970019102097 0.48917436599731445 0.74017344415187836
leaf_count=13 3 3 14 2 3
internal_value=0 -0.0406865 -0.0608212 -0.0111483 0.0215687
internal_weight=0 6.03426 4.56873 1.21064 1.46552
internal_count=38 25 19 5 6
is_linear=0
shrinkage=0.05


Tree=6
num_leaves=5
num_cat=0
split_feature=1 5 7 0
split_gain=11.0289 4.8248 3.13832 0.757092
threshold=1.0000000180025095e-35 2909.0000000000005 300.50000000000006 0.4791666666666668
decision_type=2 2 2 2
left_child=-1 -2 3 -3
right_child=1 2 -4 -5
leaf_value=0.072982057997536889 -0.07419389155086091 -0.002186456287179314 -0.05831152643643988 0.067066184525758257
leaf_weight=3.0573671907186508 3.5359665006399155 0.49696233868598971 0.72101050615310658 1.2032202035188673
leaf_count=13 15 2 3 5
internal_value=0 -0.0392495 0.014278 0.049432
internal_weight=0 5.95716 2.42119 1.70018
internal_count=38 25 10 7
is_linear=0
shrinkage=0.05


Tree=7
num_leaves=5
num_cat=0
split_feature=1 5 7 6
split_gain=10.2224 4.47737 2.93413 0.731009
threshold=1.0000000180025095e-35 2909.0000000000005 300.50000000000006 596.00000000000011
decision_type=2 2 2 2
left_child=-1 -2 3 -3
right_child=1 2 -4 -5
leaf_value=0.070910418454805585 -0.072060254752370545 -0.0025936278379839802 -0.056764377517225288 0.065327738374647851
leaf_weight=2.9997863471508026 3.4694099724292755 0.49614095687866244 0.71222676336765278 1.1878740787506101
leaf_count=13 15 2 3 5
internal_value=0 -0.038028 0.0137202 0.0478478
internal_weight=0 5.86565 2.39624 1.68402
internal_count=38 25 10 7
is_linear=0
shrinkage=0.05


Tree=8
num_leaves=6
num_cat=0
split_feature=1 5 0 9 3
split_gain=9.49226 4.16348 1.62635 0.5455 0.430788
threshold=1.0000000180025095e-35 2909.0000000000005 0.4791666666666668 13106.000000000002 26279.5014463687
decision_type=2 2 2 2 2
left_child=-1 -2 4 -4 -3
right_child=1 2 3 -5 -6
leaf_value=0.069017458985595151 -0.070115893468178092 -0.053934233911163046 0.061107450916157692 -0.00098560102827931055 0.0035391544516646702
leaf_weight=2.9379532635211945 3.397675409913063 0.48369555175304446 0.9408668130636213 0.46645539999008179 0.47800800204277039
leaf_count=13 15 2 4 2 2
internal_value=0 -0.0369034 0.013195 0.0438564 -0.031182
internal_weight=0 5.7667 2.36903 1.40732 0.961704
internal_count=38 25 10 6 4
is_linear=0
shrinkage=0.05


Tree=9
num_leaves=5
num_cat=0
split_feature=1 5 7 6
split_gain=8.82074 3.88701 2.67035 0.669501
threshold=1.0000000180025095e-35 2909.0000000000005 300.50000000000006 596.00000000000011
decision_type=2 2 2 2
left_child=-1 -2 3 -3
right_child=1 2 -4 -5
leaf_value=0.06728008760344438 -0.068335978960472443 -0.0026172781544422491 -0.054894157228581819 0.062571784978968842
leaf_weight=2.8727179616689682 3.3217916786670685 0.49362824857234988 0.6995113044977187 1.1580410897731779
leaf_count=13 15 2 3 5
internal_value=0 -0.0357822 0.0126757 0.0455751
internal_weight=0 5.67297 2.35118 1.65167
internal_count=38 25 10 7
is_linear=0
shrinkage=0.05


Tree=10
num_leaves=6
num_cat=0
split_feature=1 5 0 9 0
split_gain=8.21631 3.62765 1.47297 0.493815 0.410854
threshold=1.0000000180025095e-35 2909.0000000000005 0.4791666666666668 13106.000000000002 0.43750000000000028
decision_type=2 2 2 2 2
left_child=-1 -2 4 -4 -3
right_child=1 2 3 -5 -6
leaf_value=0.065678883509304758 -0.066699687055312595 0.0038865204731655225 0.0584288625517215 -0.0010583479408591693 -0.052354086915244548
leaf_weight=2.8048295378684998 3.2426643371582031 0.4695854485034946 0.91360789537429787 0.45905329287052155 0.47879013419151306
leaf_count=13 15 2 4 2 2
internal_value=0 -0.034814 0.012204 0.0417942 -0.0301218
internal_weight=0 5.5637 2.32104 1.37266 0.948376
internal_count=38 25 10 6 4
is_linear=0
shrinkage=0.05


Tree=11
num_leaves=5
num_cat=0
split_feature=1 5 7 6
split_gain=7.65639 3.39842 2.43742 0.615657
threshold=1.0000000180025095e-35 2909.0000000000005 300.50000000000006 596.00000000000011
decision_type=2 2 2 2
left_child=-1 -2 3 -3
right_child=1 2 -4 -5
leaf_value=0.064197359701748669 -0.065189417621554266 -0.0026212229009209241 -0.053163736953014108 0.060135904586354122
leaf_weight=2.7349462360143661 3.1610888838768005 0.49047921597957644 0.68581461906433094 1.1248846948146818
leaf_count=13 15 2 3 5
internal_value=0 -0.0338291 0.0117349 0.0435448
internal_weight=0 5.46227 2.30118 1.61536
internal_count=38 25 10 7
is_linear=0
shrinkage=0.05


Tree=12
num_leaves=5
num_cat=0
split_feature=1 5 7 0
split_gain=7.15049 3.18117 2.28828 0.611833
threshold=1.0000000180025095e-35 2909.0000000000005 300.50000000000006 0.4791666666666668
decision_type=2 2 2 2
left_child=-1 -2 3 -3
right_child=1 2 -4 -5
leaf_value=0.062821454786743267 -0.063790180492285284 -0.0033509469601615406 -0.051916782436636048 0.059023480278488444
leaf_weight=2.6636455208063126 3.0777622908353806 0.48812516033649478 0.67483231425285328 1.1059313416481016
leaf_count=13 15 2 3 5
internal_value=0 -0.0329838 0.0113084 0.0423044
internal_weight=0 5.34665 2.26889 1.59406
internal_count=38 25 10 7
is_linear=0
shrinkage=0.05


Tree=13
num_leaves=6
num_cat=0
split_feature=1 5 12 9 3
split_gain=6.68596 2.98147 1.26184 0.424823 0.386641
threshold=1.0000000180025095e-35 2909.0000000000005 1622.5000000000002 13106.000000000002 21681.49265763232
decision_type=2 2 2 2 2
left_child=-1 -2 4 -4 -3
right_child=1 2 3 -5 -6
leaf_value=0.061539082743367328 -0.062489142822558297 -0.050123668068223909 0.054760224452000898 -0.0012058877499833485 0.0045554675984514261
leaf_weight=2.5914318263530731 2.9932930916547775 0.46772497892379794 0.86691322922706582 0.44330655038356781 0.45775480568408966
leaf_count=13 15 2 4 2 2
internal_value=0 -0.032191 0.0109005 0.0389995 -0.0284312
internal_weight=0 5.22899 2.2357 1.31022 0.92548
internal_count=38 25 10 6 4
is_linear=0
shrinkage=0.05


Tree=14
num_leaves=5
num_cat=0
split_feature=1 5 7 0
split_gain=6.25154 2.80463 2.09716 0.565404
threshold=1.0000000180025095e-35 2909.0000000000005 300.50000000000006 0.4791666666666668
decision_type=2 2 2 2
left_child=-1 -2 3 -3
right_child=1 2 -4 -5
leaf_value=0.060339805166949326 -0.061275239367075157 -0.0033054003689351645 -0.050400971270140232 0.056964698670583486
leaf_weight=2.5187450796365738 2.9082115441560745 0.48423238098621402 0.65980432927608479 1.0697539448738096
leaf_count=13 15 2 3 5
internal_value=0 -0.0313597 0.0104945 0.0405711
internal_weight=0 5.122 2.21379 1.55399
internal_count=38 25 10 7
is_linear=0
shrinkage=0.05


Tree=15
num_leaves=6
num_cat=0
split_feature=1 5 12 12 8
split_gain=5.8575 2.6346 1.15143 0.388792 0.369204
threshold=1.0000000180025095e-35 2909.0000000000005 1622.5000000000002 3220.5000000000005 172.00000000000003
decision_type=2 2 2 2 2
left_child=-1 -2 4 -4 -3
right_child=1 2 3 -5 -6
leaf_value=0.059214559992143416 -0.060138881716983505 0.0048410743285915948 0.05275635225139455 -0.001249696394740108 -0.048786990541729656
leaf_weight=2.445966511964798 2.8229773640632629 0.44778604805469546 0.83502601087093331 0.43510466814041138 0.46152172982692719
leaf_count=13 15 2 4 2 2
internal_value=0 -0.0306548 0.010122 0.0374182 -0.0275689
internal_weight=0 5.00242 2.17944 1.27013 0.909308
internal_count=38 25 10 6 4
is_linear=0
shrinkage=0.05


Tree=16
num_leaves=5
num_cat=0
split_feature=1 5 7 0
split_gain=5.48706 2.48389 1.92635 0.523833
threshold=1.0000000180025095e-35 2909.0000000000005 300.50000000000006 0.4791666666666668
decision_type=2 2 2 2
left_child=-1 -2 3 -3
right_child=1 2 -4 -5
leaf_value=0.058155448310868788 -0.0590717163897908 -0.0032495241189350941 -0.048981840147054659 0.055101920103004291
leaf_weight=2.3734260201454163 2.7379879355430603 0.47989447414875064 0.64435450732707966 1.0325310975313184
leaf_count=13 15 2 3 5
internal_value=0 -0.0299014 0.00975169 0.038993
internal_weight=0 4.89477 2.15678 1.51243
internal_count=38 25 10 7
is_linear=0
shrinkage=0.05


Tree=17
num_leaves=5
num_cat=0
split_feature=1 5 7 6
split_gain=5.1504 2.33783 1.81414 0.512946
threshold=1.0000000180025095e-35 2909.0000000000005 300.50000000000006 596.00000000000011
decision_type=2 2 2 2
left_child=-1 -2 3 -3
right_child=1 2 -4 -5
leaf_value=0.057155528231724054 -0.058066431579423129 -0.0036020497473684535 -0.047943975582609273 0.054124438502051987
leaf_weight=2.30140720307827 2.6535845994949341 0.47819410264492068 0.63234595954418171 1.0112100094556806
leaf_count=13 15 2 3 5
internal_value=0 -0.0292679 0.00940999 0.0379704
internal_weight=0 4.77533 2.12175 1.4894
internal_count=38 25 10 7
is_linear=0
shrinkage=0.05


Tree=18
num_leaves=5
num_cat=0
split_feature=1 5 7 0
split_gain=4.83839 2.20216 1.70959 0.501699
threshold=1.0000000180025095e-35 2909.0000000000005 300.50000000000006 0.4791666666666668
decision_type=2 2 2 2
left_child=-1 -2 3 -3
right_child=1 2 -4 -5
leaf_value=0.056208702235563957 -0.057116606294160571 -0.0039118506652726665 -0.046953050402695554 0.053184139624560534
leaf_weight=2.2301522046327591 2.5700591206550598 0.47656786441803001 0.62020151317119587 0.98973104357719421
leaf_count=13 15 2 3 5
internal_value=0 -0.0286658 0.00908161 0.0369883
internal_weight=0 4.65656 2.0865 1.4663
internal_count=38 25 10 7
is_linear=0
shrinkage=0.05


Tree=19
num_leaves=5
num_cat=0
split_feature=1 5 7 12
split_gain=4.54878 2.07594 1.6121 0.491683
threshold=1.0000000180025095e-35 2909.0000000000005 300.50000000000006 1622.5000000000002
decision_type=2 2 2 2
left_child=-1 -2 3 -3
right_child=1 2 -4 -5
leaf_value=0.055309578966358457 -0.056216565926125617 -0.0042329734983516578 -0.046005151102882821 0.052299584979405601
leaf_weight=2.159867137670517 2.4876591265201569 0.4748034328222277 0.60797439515590657 0.96838624775409698
leaf_count=13 15 2 3 5
internal_value=0 -0.028092 0.00876561 0.0360439
internal_weight=0 4.53882 2.05116 1.44319
internal_count=38 25 10 7
is_linear=0
shrinkage=0.05


Tree=20
num_leaves=5
num_cat=0
split_feature=1 5 7 0
split_gain=4.2796 1.95833 1.52108 0.481261
threshold=1.0000000180025095e-35 2909.0000000000005 300.50000000000006 0.4791666666666668
decision_type=2 2 2 2
left_child=-1 -2 3 -3
right_child=1 2 -4 -5
leaf_value=0.054453388582875732 -0.055361289139900627 -0.0045134797274806867 -0.045096777660078288 0.051444343460420872
leaf_weight=2.0907247960567474 2.4065932035446167 0.4731266498565676 0.59571190178394307 0.94702860713005066
leaf_count=13 15 2 3 5
internal_value=0 -0.0275439 0.00846096 0.0351343
internal_weight=0 4.42246 2.01587 1.42016
internal_count=38 25 10 7
is_linear=0
shrinkage=0.05


Tree=21
num_leaves=5
num_cat=0
split_feature=1 5 7 13
split_gain=4.0291 1.84859 1.43603 0.471938
threshold=1.0000000180025095e-35 2909.0000000000005 300.50000000000006 134896450.81736961
decision_type=2 2 2 2
left_child=-1 -2 3 -3
right_child=1 2 -4 -5
leaf_value=0.053635879568520228 -0.05454630919450329 0.050637336934238247 -0.044224806697266285 -0.004805954446322265
leaf_weight=2.0228696912527084 2.3270349353551865 0.92594198882579781 0.58345578610897053 0.47131410241127014
leaf_count=13 15 5 3 2
internal_value=0 -0.0270192 0.00816695 0.0342573
internal_weight=0 4.30775 1.98071 1.39726
internal_count=38 25 10 7
is_linear=0
shrinkage=0.05


Tree=22
num_leaves=6
num_cat=0
split_feature=2 8 11 0 9
split_gain=3.79569 1.00391 1.08014 0.843261 0.377455
threshold=1.0000000180025095e-35 388.00000000000006 1128.5000000000002 0.18750000000000025 13106.000000000002
decision_type=2 2 2 2 2
left_child=1 2 4 -4 -1
right_child=-2 -3 3 -5 -6
leaf_value=-0.056842592379917713 0.05285326055137194 0.022862554657061496 -0.033186324793558285 0.045009560685268984 -0.0016176314482485488
leaf_weight=2.3792093992233285 1.9564205706119535 0.64192090928554524 0.33825910091400135 0.45182450115680695 0.38370856642723072
leaf_count=15 13 4 2 2 2
internal_value=0 -0.0265158 -0.0366281 0.0113279 -0.0502047
internal_weight=0 4.19492 3.553 0.790084 2.76292
internal_count=38 25 21 4 17
is_linear=0
shrinkage=0.05


Tree=23
num_leaves=6
num_cat=0
split_feature=1 8 11 9 9
split_gain=3.56453 0.947582 1.02061 0.803922 0.365061
threshold=1.0000000180025095e-35 388.00000000000006 1128.5000000000002 8451.0000000000018 13106.000000000002
decision_type=2 2 2 2 2
left_child=-1 2 4 -4 -2
right_child=1 -3 3 -5 -6
leaf_value=0.052102152972950358 -0.055978192721658104 0.022195718118241899 0.044055126670878471 -0.032642212190116697 -0.0015727059860463793
leaf_weight=1.891473516821861 2.3018617331981668 0.63749364018440235 0.44535467028617848 0.33198510110378265 0.38371552526950825
leaf_count=13 15 4 2 2 2
internal_value=0 -0.025837 -0.0358509 0.0110428 -0.0492691
internal_weight=0 4.10041 3.46292 0.77734 2.68558
internal_count=38 25 21 4 17
is_linear=0
shrinkage=0.05


Tree=24
num_leaves=5
num_cat=0
split_feature=1 5 7 10
split_gain=3.34937 1.61942 1.28022 0.429231
threshold=1.0000000180025095e-35 2909.0000000000005 300.50000000000006 586.00000000000011
decision_type=2 2 2 2
left_child=-1 -2 3 -3
right_child=1 2 -4 -5
leaf_value=0.051379520040726712 -0.052423828575998532 0.048924582279982781 -0.042335826095703036 -0.0046388144050929694
leaf_weight=1.8281046599149702 2.1095483005046844 0.88580173254013039 0.55399559438228596 0.45820580422878265
leaf_count=13 15 5 3 2
internal_value=0 -0.0251822 0.00804007 0.0330092
internal_weight=0 4.00755 1.898 1.34401
internal_count=38 25 10 7
is_linear=0
shrinkage=0.05


Tree=25
num_leaves=5
num_cat=0
split_feature=1 5 7 13
split_gain=3.16076 1.53157 1.21083 0.420944
threshold=1.0000000180025095e-35 2909.0000000000005 300.50000000000006 134896450.81736961
decision_type=2 2 2 2
left_child=-1 -2 3 -3
right_child=1 2 -4 -5
leaf_value=0.050682643303512111 -0.051729782963822316 0.048199821520265952 -0.041565786920658133 -0.0048936353135366284
leaf_weight=1.766372501850128 2.036926463246346 0.86540958285331704 0.54204347729682911 0.45624156296253204
leaf_count=13 15 5 3 2
internal_value=0 -0.0247381 0.007765 0.0322141
internal_weight=0 3.90062 1.86369 1.32165
internal_count=38 25 10 7
is_linear=0
shrinkage=0.05


Tree=26
num_leaves=5
num_cat=0
split_feature=1 5 7 10
split_gain=2.98435 1.44914 1.14577 0.412757
threshold=1.0000000180025095e-35 2909.0000000000005 300.50000000000006 586.00000000000011
decision_type=2 2 2 2
left_child=-1 -2 3 -3
right_child=1 2 -4 -5
leaf_value=0.050009063366005503 -0.051060269370641988 0.047500081547671325 -0.040821906860379065 -0.0051321626475618323
leaf_weight=1.7063206285238264 1.9662771224975588 0.84531487524509408 0.53022587299346913 0.45429347455501556
leaf_count=13 15 5 3 2
internal_value=0 -0.0243096 0.00749825 0.0314442
internal_weight=0 3.79611 1.82983 1.29961
internal_count=38 25 10 7
is_linear=0
shrinkage=0.05


Tree=27
num_leaves=5
num_cat=0
split_feature=1 5 7 6
split_gain=2.8192 1.37174 1.08474 0.404883
threshold=1.0000000180025095e-35 2909.0000000000005 300.50000000000006 596.00000000000011
decision_type=2 2 2 2
left_child=-1 -2 3 -3
right_child=1 2 -4 -5
leaf_value=0.049356589849794873 -0.050412922221414053 -0.0053635689659654023 -0.040102419842539927 0.046826951870616883
leaf_weight=1.647978290915489 1.8976388648152354 0.45231679081916787 0.51856248080730427 0.82559211552143097
leaf_count=13 15 2 3 5
internal_value=0 -0.0238953 0.0072394 0.0306981
internal_weight=0 3.69411 1.79647 1.27791
internal_count=38 25 10 7
is_linear=0
shrinkage=0.05


Tree=28
num_leaves=5
num_cat=0
split_feature=1 5 7 10
split_gain=2.66449 1.29899 1.02745 0.397083
threshold=1.0000000180025095e-35 2909.0000000000005 300.50000000000006 586.00000000000011
decision_type=2 2 2 2
left_child=-1 -2 3 -3
right_child=1 2 -4 -5
leaf_value=0.048723232110982916 -0.049785611645801114 0.046175023056068888 -0.039405725936554184 -0.0055797545408564145
leaf_weight=1.5913636013865469 1.8310357704758646 0.80621784925460793 0.50707016885280598 0.45036019384860992
leaf_count=13 15 5 3 2
internal_value=0 -0.0234942 0.00698801 0.0299745
internal_weight=0 3.59468 1.76365 1.25658
internal_count=38 25 10 7
is_linear=0
shrinkage=0.05


Tree=29
num_leaves=5
num_cat=0
split_feature=1 5 7 13
split_gain=2.51943 1.23057 0.973634 0.389563
threshold=1.0000000180025095e-35 2909.0000000000005 300.50000000000006 134896450.81736961
decision_type=2 2 2 2
left_child=-1 -2 3 -3
right_child=1 2 -4 -5
leaf_value=0.048107204499309372 -0.04917641289411321 0.045546216170382264 -0.038730379514907126 -0.0057896090486282588
leaf_weight=1.5364840179681776 1.7664792686700823 0.78725789487361886 0.49576309323310841 0.44837802648544312
leaf_count=13 15 5 3 2
internal_value=0 -0.0231054 0.00674374 0.0292722
internal_weight=0 3.49788 1.7314 1.23564
internal_count=38 25 10 7
is_linear=0
shrinkage=0.05


Tree=30
num_leaves=5
num_cat=0
split_feature=1 5 7 0
split_gain=2.38333 1.16616 0.923056 0.382101
threshold=1.0000000180025095e-35 2909.0000000000005 300.50000000000006 0.4791666666666668
decision_type=2 2 2 2
left_child=-1 -2 3 -3
right_child=1 2 -4 -5
leaf_value=0.047506878202512752 -0.048583584634384842 -0.0059852144234319605 -0.038075067505582892 0.044935493378258667
leaf_weight=1.4833384752273557 1.7039699107408526 0.44641897082328774 0.48465310037136067 0.76868002116680145
leaf_count=13 15 2 3 5
internal_value=0 -0.022728 0.00650624 0.0285903
internal_weight=0 3.40372 1.69975 1.2151
internal_count=38 25 10 7
is_linear=0
shrinkage=0.05


Tree=31
num_leaves=5
num_cat=0
split_feature=1 5 7 13
split_gain=2.25556 1.10549 0.875495 0.374892
threshold=1.0000000180025095e-35 2909.0000000000005 300.50000000000006 134896450.81736961
decision_type=2 2 2 2
left_child=-1 -2 3 -3
right_child=1 2 -4 -5
leaf_value=0.046920813456448669 -0.048005556067500184 0.044345033715937662 -0.037438600237001726 -0.0061751969913083037
leaf_weight=1.4319177716970442 1.6434989348053934 0.75054317712783791 0.47374989092349995 0.44443678855895996
leaf_count=13 15 5 3 2
internal_value=0 -0.0223611 0.00627524 0.0279277
internal_weight=0 3.31223 1.66873 1.19498
internal_count=38 25 10 7
is_linear=0
shrinkage=0.05


Tree=32
num_leaves=6
num_cat=0
split_feature=1 5 0 3 4
split_gain=2.13554 1.04831 0.570037 0.281665 0.194214
threshold=1.0000000180025095e-35 2909.0000000000005 0.4791666666666668 26279.5014463687 16811.690263556462
decision_type=2 2 2 2 2
left_child=-1 -2 3 -3 -4
right_child=1 2 4 -5 -6
leaf_value=0.046347688479149773 -0.047440900970191706 -0.040765039349343925 -0.0020004930950004297 0.0080898581483165935 0.040838862228396236
leaf_weight=1.382206507027149 1.5850495100021365 0.38790601491928078 0.31811830401420593 0.34915377199649811 0.58317157626152039
leaf_count=13 15 2 2 2 4
internal_value=0 -0.0220042 0.00605047 -0.0217519 0.0287955
internal_weight=0 3.2234 1.63835 0.73706 0.90129
internal_count=38 25 10 4 6
is_linear=0
shrinkage=0.05


Tree=33
num_leaves=5
num_cat=0
split_feature=1 5 7 13
split_gain=2.01926 0.998158 0.815443 0.350222
threshold=1.0000000180025095e-35 2909.0000000000005 300.50000000000006 134896450.81736961
decision_type=2 2 2 2
left_child=-1 -2 3 -3
right_child=1 2 -4 -5
leaf_value=0.045786323210409721 -0.04688833561007353 0.04328905687662201 -0.036638023865937799 -0.005952763332719796
leaf_weight=1.3341835662722585 1.5285978168249132 0.71936118602752663 0.45977285504341114 0.43886220455169678
leaf_count=13 15 5 3 2
internal_value=0 -0.0215695 0.00585415 0.0270816
internal_weight=0 3.14659 1.618 1.15822
internal_count=38 25 10 7
is_linear=0
shrinkage=0.05


Tree=34
num_leaves=5
num_cat=0
split_feature=1 5 7 10
split_gain=1.91332 0.947102 0.774303 0.349376
threshold=1.0000000180025095e-35 2909.0000000000005 300.50000000000006 586.00000000000011
decision_type=2 2 2 2
left_child=-1 -2 3 -3
right_child=1 2 -4 -5
leaf_value=0.045235647203589552 -0.046346695619905072 0.04284739105023469 -0.036040918307168546 -0.006369734400268611
leaf_weight=1.2878229916095731 1.4741142988204958 0.70388181507587411 0.44937683641910542 0.43537229299545288
leaf_count=13 15 5 3 2
internal_value=0 -0.0212318 0.00564265 0.026465
internal_weight=0 3.06275 1.58863 1.13925
internal_count=38 25 10 7
is_linear=0
shrinkage=0.05


Tree=35
num_leaves=5
num_cat=0
split_feature=1 5 7 13
split_gain=1.81367 0.898853 0.735516 0.337301
threshold=1.0000000180025095e-35 2909.0000000000005 300.50000000000006 134896450.81736961
decision_type=2 2 2 2
left_child=-1 -2 3 -3
right_child=1 2 -4 -5
leaf_value=0.044694708969150843 -0.045814932173099621 0.042205616464777385 -0.035459441081592942 -0.006291073370477432
leaf_weight=1.2430949509143827 1.4215644896030428 0.68583451211452462 0.43920709192752827 0.43488568067550659
leaf_count=13 15 5 3 2
internal_value=0 -0.0209031 0.00543561 0.0258637
internal_weight=0 2.98149 1.55993 1.12072
internal_count=38 25 10 7
is_linear=0
shrinkage=0.05


Tree=36
num_leaves=6
num_cat=0
split_feature=1 5 12 10 3
split_gain=1.71983 0.853321 0.481288 0.418428 0.266287
threshold=1.0000000180025095e-35 2909.0000000000005 1622.5000000000002 448.50000000000006 21681.49265763232
decision_type=2 2 2 2 2
left_child=-1 -2 4 -4 -3
right_child=1 2 3 -5 -6
leaf_value=0.044162647617755152 -0.045292100677506685 -0.039194954592164405 -0.020446707076097827 0.041532359575156698 0.0086127407333456661
leaf_weight=1.1999664157629011 1.3709098622202875 0.37066836655139901 0.15789538621902466 0.66755186021327972 0.33578291535377502
leaf_count=13 15 2 1 5 2
internal_value=0 -0.0205815 0.00523503 0.0270694 -0.0204404
internal_weight=0 2.90281 1.5319 0.825447 0.706451
internal_count=38 25 10 6 4
is_linear=0
shrinkage=0.05


Tree=37
num_leaves=6
num_cat=0
split_feature=1 11 6 0 4
split_gain=1.63335 0.519507 0.594393 0.444102 0.196405
threshold=1.0000000180025095e-35 1128.5000000000002 2614.5000000000005 0.18750000000000025 1.0000000180025095e-35
decision_type=2 2 2 2 2
left_child=-1 2 4 -3 -2
right_child=1 3 -4 -5 -6
leaf_value=0.043638693391921363 -0.002356002488033786 -0.023814402346410902 0.013001718498941099 0.037957509318788739 -0.049189256931373895
leaf_weight=1.158401355147362 0.30977034568786699 0.22424332052469242 0.4583325684070586 0.3932127058506012 1.4427394568920133
leaf_count=13 3 2 4 2 14
internal_value=0 -0.0202996 -0.0308095 0.0147262 -0.0426498
internal_weight=0 2.8283 2.21084 0.617456 1.75251
internal_count=38 25 21 4 17
is_linear=0
shrinkage=0.05


Tree=38
num_leaves=5
num_cat=0
split_feature=2 5 7 13
split_gain=1.54309 0.781617 0.664524 0.292803
threshold=1.0000000180025095e-35 2909.0000000000005 300.50000000000006 134896450.81736961
decision_type=2 2 2 2
left_child=1 -1 3 -3
right_child=-2 2 -4 -5
leaf_value=-0.044312760519301997 0.043122161571139496 0.04056900532605856 -0.034275223458447635 -0.0054203176100000887
leaf_weight=1.2788926586508753 1.1183618977665903 0.64327661693096139 0.41886250674724568 0.42534720897674561
leaf_count=15 13 5 3 2
internal_value=0 -0.0198131 0.0050574 0.0249142
internal_weight=0 2.76638 1.48749 1.06862
internal_count=38 25 10 7
is_linear=0
shrinkage=0.05


Tree=39
num_leaves=5
num_cat=0
split_feature=1 5 7 4
split_gain=1.46478 0.742558 0.632213 0.814057
threshold=1.0000000180025095e-35 2909.0000000000005 300.50000000000006 24544.834890966351
decision_type=2 2 2 2
left_child=-1 -2 3 -3
right_child=1 2 -4 -5
leaf_value=0.042612447049039659 -0.043811384126071204 0.044911720686647782 -0.03373782009806639 -0.03237759287173874
leaf_weight=1.079808332026005 1.2335214391350748 0.82309516519308068 0.40939413011074055 0.22845453023910522
leaf_count=13 15 6 3 1
internal_value=0 -0.0195147 0.00487183 0.0243647
internal_weight=0 2.69447 1.46094 1.05155
internal_count=38 25 10 7
is_linear=0
shrinkage=0.05


Tree=40
num_leaves=5
num_cat=0
split_feature=1 5 7 4
split_gain=1.39732 0.698086 0.598493 0.78092
threshold=1.0000000180025095e-35 2909.0000000000005 300.50000000000006 24544.834890966351
decision_type=2 2 2 2
left_child=-1 -2 3 -3
right_child=1 2 -4 -5
leaf_value=0.042108998798852028 -0.0433160903681402 0.044195266100365165 -0.033213174397281699 -0.031822214115045169
leaf_weight=1.0426997840404513 1.1898678094148638 0.80018176138401009 0.40015771985054005 0.22623933851718903
leaf_count=13 15 6 3 1
internal_value=0 -0.0193916 0.00452332 0.0237332
internal_weight=0 2.61645 1.42658 1.02642
internal_count=38 25 10 7
is_linear=0
shrinkage=0.05


Tree=41
num_leaves=5
num_cat=0
split_feature=2 5 7 4
split_gain=1.3335 0.656321 0.566802 0.749366
threshold=1.0000000180025095e-35 2909.0000000000005 300.50000000000006 24544.834890966351
decision_type=2 2 2 2
left_child=1 -1 3 -3
right_child=-2 2 -4 -5
leaf_value=-0.042826332626490562 0.041611352777029161 0.043498600955220366 -0.032700731327239108 -0.031283418450261821
leaf_weight=1.147882513701916 1.006994314491749 0.77783816307783105 0.39115229249000538 0.22397953271865845
leaf_count=15 13 6 3 1
internal_value=0 -0.0192732 0.00418442 0.0231211
internal_weight=0 2.54085 1.39297 1.00182
internal_count=38 25 10 7
is_linear=0
shrinkage=0.05


Tree=42
num_leaves=5
num_cat=0
split_feature=1 5 7 4
split_gain=1.27312 0.617089 0.537001 0.719303
threshold=1.0000000180025095e-35 2909.0000000000005 300.50000000000006 24544.834890966351
decision_type=2 2 2 2
left_child=-1 -2 3 -3
right_child=1 2 -4 -5
leaf_value=0.041119085517430418 -0.042341628928925873 0.042820411692566993 -0.032199982244433614 -0.030760414836929335
leaf_weight=0.97264949977397952 1.1075154319405558 0.75607110559940316 0.38237613439559937 0.22168193757534027
leaf_count=13 15 6 3 1
internal_value=0 -0.0191592 0.00385476 0.0225273
internal_weight=0 2.46764 1.36013 0.977753
internal_count=38 25 10 7
is_linear=0
shrinkage=0.05


Tree=43
num_leaves=5
num_cat=0
split_feature=1 5 7 4
split_gain=1.21593 0.580227 0.508961 0.69065
threshold=1.0000000180025095e-35 2909.0000000000005 300.50000000000006 24544.834890966351
decision_type=2 2 2 2
left_child=-1 -2 3 -3
right_child=1 2 -4 -5
leaf_value=0.040631837954188871 -0.041861559326522399 0.042159507294556919 -0.031710454234115851 -0.03025247638911148
leaf_weight=0.93962252885103259 1.0687159523367884 0.73488426953554131 0.3738270103931427 0.21935291588306427
leaf_count=13 15 6 3 1
internal_value=0 -0.0190491 0.00353402 0.0219509
internal_weight=0 2.39678 1.32806 0.954237
internal_count=38 25 10 7
is_linear=0
shrinkage=0.05


Tree=44
num_leaves=5
num_cat=0
split_feature=1 5 7 4
split_gain=1.16176 0.545585 0.482567 0.663327
threshold=1.0000000180025095e-35 2909.0000000000005 300.50000000000006 24544.834890966351
decision_type=2 2 2 2
left_child=-1 -2 3 -3
right_child=1 2 -4 -5
leaf_value=0.040149293610640222 -0.041385753221006426 0.041514811681281905 -0.031231716150498662 -0.029758913232336155
leaf_weight=0.90787068754434619 1.0314333811402323 0.71427865326404549 0.36550215631723404 0.21699833869934082
leaf_count=13 15 6 3 1
internal_value=0 -0.0189428 0.00322191 0.0213912
internal_weight=0 2.32821 1.29678 0.931277
internal_count=38 25 10 7
is_linear=0
shrinkage=0.05


Tree=45
num_leaves=5
num_cat=0
split_feature=1 5 7 4
split_gain=1.11042 0.513024 0.457709 0.637262
threshold=1.0000000180025095e-35 2909.0000000000005 300.50000000000006 24544.834890966351
decision_type=2 2 2 2
left_child=-1 -2 3 -3
right_child=1 2 -4 -5
leaf_value=0.039671188270162243 -0.040913896658335634 0.040885352626344906 -0.030763368257336134 -0.029279080665638682
leaf_weight=0.87735116481781039 0.99561697989702258 0.69425290077924706 0.3573983907699585 0.21462363004684448
leaf_count=13 15 6 3 1
internal_value=0 -0.0188398 0.00291815 0.0208472
internal_weight=0 2.26189 1.26627 0.908877
internal_count=38 25 10 7
is_linear=0
shrinkage=0.05


Tree=46
num_leaves=5
num_cat=0
split_feature=1 5 7 4
split_gain=1.06174 0.482412 0.434286 0.612389
threshold=1.0000000180025095e-35 2909.0000000000005 300.50000000000006 24544.834890966351
decision_type=2 2 2 2
left_child=-1 -2 3 -3
right_child=1 2 -4 -5
leaf_value=0.039197293425946425 -0.040445715314833229 0.040270250248977249 -0.030305035215803633 -0.028812380778486607
leaf_weight=0.84802163392305407 0.96121646463871036 0.67480355501174905 0.34951221942901611 0.21223384141921997
leaf_count=13 15 6 3 1
internal_value=0 -0.01874 0.0026225 0.0203184
internal_weight=0 2.19777 1.23655 0.887037
internal_count=38 25 10 7
is_linear=0
shrinkage=0.05


Tree=47
num_leaves=5
num_cat=0
split_feature=1 5 7 10
split_gain=1.01557 0.453629 0.412206 0.240468
threshold=1.0000000180025095e-35 2909.0000000000005 300.50000000000006 586.00000000000011
decision_type=2 2 2 2
left_child=-1 -2 3 -3
right_child=1 2 -4 -5
leaf_value=0.038727421932513793 -0.039980982973756844 0.035502871069107413 -0.029856375284983052 -0.0077663677165620273
leaf_weight=0.81984025239944491 0.92818196490407023 0.5025430768728254 0.34183978289365768 0.36321592330932617
leaf_count=13 15 5 3 2
internal_value=0 -0.0186431 0.00233473 0.0198042
internal_weight=0 2.13578 1.2076 0.865759
internal_count=38 25 10 7
is_linear=0
shrinkage=0.05


Tree=48
num_leaves=5
num_cat=0
split_feature=1 5 7 4
split_gain=0.967157 0.431686 0.393642 0.578348
threshold=1.0000000180025095e-35 2909.0000000000005 300.50000000000006 24544.834890966351
decision_type=2 2 2 2
left_child=-1 -2 3 -3
right_child=1 2 -4 -5
leaf_value=0.038261423885229871 -0.039519510025218613 0.03931810074652696 -0.029417064859793847 -0.02823668641306594
leaf_weight=0.79276556521654162 0.89646431803703341 0.643639415502548 0.33437702059745789 0.20917871594429016
leaf_count=13 15 6 3 1
internal_value=0 -0.0183849 0.00220956 0.0193877
internal_weight=0 2.08366 1.1872 0.852818
internal_count=38 25 10 7
is_linear=0
shrinkage=0.05


Tree=49
num_leaves=5
num_cat=0
split_feature=1 5 7 4
split_gain=0.925842 0.40591 0.373849 0.556116
threshold=1.0000000180025095e-35 2909.0000000000005 300.50000000000006 24544.834890966351
decision_type=2 2 2 2
left_child=-1 -2 3 -3
right_child=1 2 -4 -5
leaf_value=0.037799176710875793 -0.039061142614335215 0.038736068043008949 -0.028986808612016874 -0.027797772098511388
leaf_weight=0.76675703749060664 0.86601518467068705 0.62571887671947457 0.32711964845657349 0.20677119493484497
leaf_count=13 15 6 3 1
internal_value=0 -0.0182963 0.00193237 0.0188965
internal_weight=0 2.02562 1.15961 0.83249
internal_count=38 25 10 7
is_linear=0
shrinkage=0.05


Tree=50
num_leaves=6
num_cat=0
split_feature=1 11 8 14 0
split_gain=0.886614 0.320744 0.385576 0.26094 0.230377
threshold=1.0000000180025095e-35 1128.5000000000002 388.00000000000006 -131507384.51310672 0.18750000000000025
decision_type=2 2 2 2 2
left_child=-1 2 3 -2 -3
right_child=1 4 -4 -5 -6
leaf_value=0.037340580776847453 0.012190194100535422 -0.018046507021873139 0.013678270487118569 -0.044655474995761765 0.029807172637459169
leaf_weight=0.74177495762705814 0.093097195029258617 0.15782906115055095 0.2766996957361697 1.1412497162818906 0.30068367719650269
leaf_count=13 1 2 4 16 2
internal_value=0 -0.01821 -0.028152 -0.0385895 0.0122943
internal_weight=0 1.96956 1.51105 1.23435 0.458513
internal_count=38 25 21 17 4
is_linear=0
shrinkage=0.05


Tree=51
num_leaves=5
num_cat=0
split_feature=1 5 7 4
split_gain=0.837906 0.372017 0.343259 0.512917
threshold=1.0000000180025095e-35 2909.0000000000005 300.50000000000006 24544.834890966351
decision_type=2 2 2 2
left_child=-1 -2 3 -3
right_child=1 2 -4 -5
leaf_value=0.036885574202763921 -0.038159034007751003 0.037832190523535258 -0.028037362265961992 -0.026692812919408549
leaf_weight=0.71778029203414928 0.80885962024331104 0.59934069216251351 0.31139180064201355 0.20041897892951965
leaf_count=13 15 6 3 1
internal_value=0 -0.0177366 0.00195585 0.0184582
internal_weight=0 1.92001 1.11115 0.79976
internal_count=38 25 10 7
is_linear=0
shrinkage=0.05


Tree=52
num_leaves=6
num_cat=0
split_feature=1 11 8 13 0
split_gain=0.803049 0.290858 0.353325 0.242503 0.211525
threshold=1.0000000180025095e-35 1128.5000000000002 388.00000000000006 -58515794.577573456 0.18750000000000025
decision_type=2 2 2 2 2
left_child=-1 2 3 -2 -3
right_child=1 4 -4 -5 -6
leaf_value=0.036434107739451764 0.011726653866427135 -0.017455661663766373 0.013116714239976164 -0.043725227859210319 0.028774033002610302
leaf_weight=0.69473507255315792 0.089459449052810558 0.15149141103029262 0.26621611416339863 1.07241003960371 0.28792519867420197
leaf_count=13 1 2 4 16 2
internal_value=0 -0.0176603 -0.0273866 -0.0376826 0.0117921
internal_weight=0 1.8675 1.42809 1.16187 0.439417
internal_count=38 25 21 17 4
is_linear=0
shrinkage=0.05


Tree=53
num_leaves=5
num_cat=0
split_feature=1 5 7 4
split_gain=0.75932 0.341271 0.315786 0.473555
threshold=1.0000000180025095e-35 2909.0000000000005 300.50000000000006 24544.834890966351
decision_type=2 2 2 2
left_child=-1 -2 3 -3
right_child=1 2 -4 -5
leaf_value=0.035986159850935069 -0.037270224166762393 0.036963062112643268 -0.027127631647633189 -0.025647254914157442
leaf_weight=0.67260234802961361 0.75628178939223301 0.57427483052015282 0.29657358676195145 0.19404053688049316
leaf_count=13 15 6 3 1
internal_value=0 -0.0171994 0.00198157 0.0180495
internal_weight=0 1.82117 1.06489 0.768315
internal_count=38 25 10 7
is_linear=0
shrinkage=0.05


Tree=54
num_leaves=6
num_cat=0
split_feature=1 5 0 11 4
split_gain=0.728317 0.320975 0.255535 0.11011 0.0716466
threshold=1.0000000180025095e-35 2909.0000000000005 0.4791666666666668 1128.5000000000002 16811.690263556462
decision_type=2 2 2 2 2
left_child=-1 -2 3 -3 -4
right_child=1 2 4 -5 -6
leaf_value=0.035541718756980388 -0.036825830853183493 -0.030086320709527721 -0.0017965135058114147 0.0047868763679248848 0.029115280949047386
leaf_weight=0.65134618431329738 0.73147717118263256 0.28502288460731484 0.19102659821510315 0.22633570432662964 0.33815105259418488
leaf_count=13 15 2 2 2 4
internal_value=0 -0.0171324 0.0017196 -0.0182659 0.0210219
internal_weight=0 1.77201 1.04054 0.511359 0.529178
internal_count=38 25 10 4 6
is_linear=0
shrinkage=0.05


Tree=55
num_leaves=5
num_cat=0
split_feature=1 5 7 4
split_gain=0.693887 0.307267 0.29663 0.442119
threshold=1.0000000180025095e-35 2909.0000000000005 300.50000000000006 24544.834890966351
decision_type=2 2 2 2
left_child=-1 -2 3 -3
right_child=1 2 -4 -5
leaf_value=0.035100796255910109 -0.036384231100442581 0.036167133919322095 -0.026621144471627719 -0.024838836682948028
leaf_weight=0.630931567400694 0.70767290145158779 0.55060358345508553 0.28837340325117111 0.18887798488140106
leaf_count=13 15 6 3 1
internal_value=0 -0.0168382 0.00166198 0.0175682
internal_weight=0 1.73553 1.02785 0.739482
internal_count=38 25 10 7
is_linear=0
shrinkage=0.05


Tree=56
num_leaves=5
num_cat=0
split_feature=1 5 7 0
split_gain=0.666082 0.288995 0.285359 0.223609
threshold=1.0000000180025095e-35 2909.0000000000005 166.50000000000003 0.4791666666666668
decision_type=2 2 2 2
left_child=-1 -2 -3 -4
right_child=1 2 3 -5
leaf_value=0.03466341686697863 -0.03594544348487913 0.027841131594337633 -0.032768019951073361 0.010411322463518797
leaf_weight=0.61132464557886135 0.68482847884297382 0.31659571081399895 0.36620200425386429 0.3217407688498497
leaf_count=13 15 4 3 3
internal_value=0 -0.016778 0.00141019 -0.01528
internal_weight=0 1.68937 1.00454 0.687943
internal_count=38 25 10 6
is_linear=0
shrinkage=0.05


Tree=57
num_leaves=5
num_cat=0
split_feature=1 5 7 4
split_gain=0.634489 0.277418 0.276486 0.411512
threshold=1.0000000180025095e-35 2909.0000000000005 300.50000000000006 24544.834890966351
decision_type=2 2 2 2
left_child=-1 -2 3 -3
right_child=1 2 -4 -5
leaf_value=0.034229604389922112 -0.035509502571190323 0.035355706293191978 -0.02601458949986038 -0.024020434747302564
leaf_weight=0.59249272942543041 0.6629047617316246 0.52697670459747314 0.27855858206748962 0.18345993757247925
leaf_count=13 15 6 3 1
internal_value=0 -0.0164856 0.00141975 0.0170917
internal_weight=0 1.6519 0.988995 0.710437
internal_count=38 25 10 7
is_linear=0
shrinkage=0.05


Tree=58
num_leaves=6
num_cat=0
split_feature=1 5 9 8 5
split_gain=0.609542 0.260928 0.220147 0.239455 0.0317196
threshold=1.0000000180025095e-35 2909.0000000000005 5042.0000000000009 388.00000000000006 5234.0000000000009
decision_type=2 2 2 2 2
left_child=-1 -2 -3 4 -4
right_child=1 2 3 -5 -6
leaf_value=0.033799409714528383 -0.035076454907352748 0.02621347622949606 -0.0020466435872989598 0.018777004228225508 -0.031874502259746529
leaf_weight=0.57440409809350979 0.64186383783817291 0.25612888485193253 0.18209509551525116 0.17603328824043274 0.35252323001623154
leaf_count=13 15 2 2 3 3
internal_value=0 -0.0164315 0.00117659 -0.0127292 -0.0265424
internal_weight=0 1.60864 0.96678 0.710652 0.534618
internal_count=38 25 10 8 5
is_linear=0
shrinkage=0.05


Tree=59
num_leaves=6
num_cat=0
split_feature=1 5 9 8 0
split_gain=0.580072 0.251641 0.210919 0.230857 0.0306263
threshold=1.0000000180025095e-35 2909.0000000000005 5042.0000000000009 388.00000000000006 0.4791666666666668
decision_type=2 2 2 2 2
left_child=-1 -2 -3 4 -4
right_child=1 2 3 -5 -6
leaf_value=0.033372879721845376 -0.034646358689391699 0.025837111747058845 -0.031385107764889501 0.018548077801442922 -0.0020086720787202222
leaf_weight=0.55702809616923343 0.62166912481188774 0.25146235525608063 0.34510033577680588 0.17316177114844322 0.18207088112831116
leaf_count=13 15 2 3 3 2
internal_value=0 -0.0161083 0.00125252 -0.012452 -0.0260908
internal_weight=0 1.57346 0.951795 0.700333 0.527171
internal_count=38 25 10 8 5
is_linear=0
shrinkage=0.05


Tree=60
num_leaves=5
num_cat=0
split_feature=1 5 7 4
split_gain=0.552201 0.242716 0.251348 0.370872
threshold=1.0000000180025095e-35 2909.0000000000005 300.50000000000006 24544.834890966351
decision_type=2 2 2 2
left_child=-1 -2 3 -3
right_child=1 2 -4 -5
leaf_value=0.032950069108611812 -0.03421928273485085 0.034288427661175465 -0.025092351493211096 -0.022812753353450604
leaf_weight=0.54033527895808231 0.60228525102138519 0.49810713902115822 0.26392997056245804 0.17514100670814514
leaf_count=13 15 6 3 1
internal_value=0 -0.0157913 0.00132585 0.0166203
internal_weight=0 1.53946 0.937178 0.673248
internal_count=38 25 10 7
is_linear=0
shrinkage=0.05


Tree=61
num_leaves=6
num_cat=0
split_feature=1 11 8 13 0
split_gain=0.53115 0.206232 0.247524 0.18789 0.144415
threshold=1.0000000180025095e-35 1128.5000000000002 388.00000000000006 -58515794.577573456 0.18750000000000025
decision_type=2 2 2 2 2
left_child=-1 2 3 -2 -3
right_child=1 4 -4 -5 -6
leaf_value=0.032531045894645103 0.010327462221424985 -0.014700590107796353 0.011432990157073782 -0.040282910932922439 0.024984024326465046
leaf_weight=0.52429717034101497 0.078582808375358582 0.12305208295583736 0.21307342499494553 0.84445607289671876 0.24092134833335876
leaf_count=13 1 2 4 16 2
internal_value=0 -0.015749 -0.0248266 -0.0342163 0.0105132
internal_weight=0 1.50009 1.13611 0.923039 0.363973
internal_count=38 25 21 17 4
is_linear=0
shrinkage=0.05


Tree=62
num_leaves=5
num_cat=0
split_feature=1 5 7 4
split_gain=0.503206 0.223297 0.232772 0.343766
threshold=1.0000000180025095e-35 2909.0000000000005 300.50000000000006 24544.834890966351
decision_type=2 2 2 2
left_child=-1 -2 3 -3
right_child=1 2 -4 -5
leaf_value=0.032115870409193135 -0.033373396551951533 0.03353583230483332 -0.024303841175107508 -0.021963238869732428
leaf_weight=0.50888631120324124 0.56561513617634773 0.47815747931599617 0.25201435387134552 0.16908064484596252
leaf_count=13 15 6 3 1
internal_value=0 -0.0153269 0.00137401 0.0163061
internal_weight=0 1.46487 0.899252 0.647238
internal_count=38 25 10 7
is_linear=0
shrinkage=0.05


Tree=63
num_leaves=6
num_cat=0
split_feature=1 11 8 13 0
split_gain=0.484421 0.187768 0.228164 0.175453 0.133662
threshold=1.0000000180025095e-35 1128.5000000000002 388.00000000000006 -58515794.577573456 0.18750000000000025
decision_type=2 2 2 2 2
left_child=-1 2 3 -2 -3
right_child=1 4 -4 -5 -6
leaf_value=0.031704610385030134 0.0099615599158430004 -0.014254075128843552 0.010988549445566195 -0.039436598237565783 0.024167170101725116
leaf_weight=0.4940764047205447 0.075768485665321128 0.11866757646203052 0.20568681508302689 0.79700535908341408 0.23089297860860825
leaf_count=13 1 2 4 16 2
internal_value=0 -0.0152915 -0.0241532 -0.0334054 0.0100808
internal_weight=0 1.42802 1.07846 0.872774 0.349561
internal_count=38 25 21 17 4
is_linear=0
shrinkage=0.05


Tree=64
num_leaves=5
num_cat=0
split_feature=1 5 7 4
split_gain=0.459183 0.20563 0.215927 0.318975
threshold=1.0000000180025095e-35 2909.0000000000005 300.50000000000006 24544.834890966351
decision_type=2 2 2 2
left_child=-1 -2 3 -3
right_child=1 2 -4 -5
leaf_value=0.031297338613546825 -0.03254164847106495 0.0328074103139833 -0.023547232517041099 -0.021155040286568116
leaf_weight=0.47984202578663815 0.53185952454805374 0.45926165580749512 0.24081292003393173 0.16317345201969147
leaf_count=13 15 6 3 1
internal_value=0 -0.0148804 0.00142044 0.0160075
internal_weight=0 1.39511 0.863248 0.622435
internal_count=38 25 10 7
is_linear=0
shrinkage=0.05


Tree=65
num_leaves=5
num_cat=0
split_feature=1 5 7 4
split_gain=0.442404 0.193521 0.206146 0.308011
threshold=1.0000000180025095e-35 2909.0000000000005 300.50000000000006 24544.834890966351
decision_type=2 2 2 2
left_child=-1 -2 3 -3
right_child=1 2 -4 -5
leaf_value=0.030894119363607649 -0.032130752055096953 0.032345120161694739 -0.023230999410918288 -0.020880736947329573
leaf_weight=0.46615881472825993 0.5160602405667305 0.44723295792937279 0.23618759214878082 0.16114003956317902
leaf_count=13 15 6 3 1
internal_value=0 -0.0148515 0.00119073 0.0156287
internal_weight=0 1.36062 0.844561 0.608373
internal_count=38 25 10 7
is_linear=0
shrinkage=0.05


Tree=66
num_leaves=5
num_cat=0
split_feature=1 5 7 4
split_gain=0.426388 0.182115 0.196862 0.29749
threshold=1.0000000180025095e-35 2909.0000000000005 300.50000000000006 24544.834890966351
decision_type=2 2 2 2
left_child=-1 -2 3 -3
right_child=1 2 -4 -5
leaf_value=0.030495025928330199 -0.031723404180448084 0.031890423029641297 -0.022920670510891084 -0.020612063760849307
leaf_weight=0.45300342887639988 0.50088486075401306 0.43560701236128807 0.23169147968292236 0.15913532674312592
leaf_count=13 15 6 3 1
internal_value=0 -0.0148226 0.000967268 0.0152589
internal_weight=0 1.32732 0.826434 0.594742
internal_count=38 25 10 7
is_linear=0
shrinkage=0.05


Tree=67
num_leaves=5
num_cat=0
split_feature=2 5 7 0
split_gain=0.411095 0.171372 0.189039 0.143335
threshold=1.0000000180025095e-35 2909.0000000000005 166.50000000000003 0.4791666666666668
decision_type=2 2 2 2
left_child=1 -1 -3 -4
right_child=-2 2 3 -5
leaf_value=-0.031319697461517915 0.030100118405122285 0.023619905309637899 -0.028208300848727615 0.0084394267577885384
leaf_weight=0.48630649782717206 0.44035339727997791 0.24689513444900513 0.29799190908670425 0.26396393775939941
leaf_count=15 13 4 3 3
internal_value=0 -0.0147935 0.000749933 -0.0137361
internal_weight=0 1.29516 0.808851 0.561956
internal_count=38 25 10 6
is_linear=0
shrinkage=0.05


Tree=68
num_leaves=6
num_cat=0
split_feature=1 5 0 3 4
split_gain=0.393045 0.164926 0.151289 0.0620381 0.0439233
threshold=1.0000000180025095e-35 2909.0000000000005 0.4791666666666668 26279.5014463687 16811.690263556462
decision_type=2 2 2 2 2
left_child=-1 -2 3 -3 -4
right_child=1 2 4 -5 -6
leaf_value=0.029709466814465797 -0.030919725149372725 -0.024528056777832735 -0.0017111078937565669 0.0037419338403966908 0.02381538602502838
leaf_weight=0.42818716913461674 0.47229941375553608 0.22518692165613174 0.15581983327865601 0.16758838295936584 0.24875016883015633
leaf_count=13 15 2 2 2 4
internal_value=0 -0.0145467 0.0007723 -0.0156711 0.0170497
internal_weight=0 1.26964 0.797345 0.392775 0.40457
internal_count=38 25 10 4 6
is_linear=0
shrinkage=0.05


Tree=69
num_leaves=6
num_cat=0
split_feature=1 5 9 8 0
split_gain=0.376304 0.15832 0.147287 0.159124 0.0182527
threshold=1.0000000180025095e-35 2909.0000000000005 5042.0000000000009 388.00000000000006 0.4791666666666668
decision_type=2 2 2 2 2
left_child=-1 -2 -3 4 -4
right_child=1 2 3 -5 -6
leaf_value=0.0293231265317178 -0.030523573162259121 0.022118814436544114 -0.027526446331017581 0.01559508454049475 -0.0016823994649597922
leaf_weight=0.41648416221141804 0.45883893221616745 0.2061554342508316 0.2883789911866188 0.13819519802927971 0.15579982101917267
leaf_count=13 15 2 3 3 2
internal_value=0 -0.0143163 0.000744346 -0.011497 -0.0232733
internal_weight=0 1.24737 0.788529 0.582374 0.444179
internal_count=38 25 10 8 5
is_linear=0
shrinkage=0.05


Tree=70
num_leaves=6
num_cat=0
split_feature=1 5 9 8 0
split_gain=0.359412 0.153095 0.141615 0.154041 0.0176355
threshold=1.0000000180025095e-35 2909.0000000000005 5042.0000000000009 388.00000000000006 0.4791666666666668
decision_type=2 2 2 2 2
left_child=-1 -2 -3 4 -4
right_child=1 2 3 -5 -6
leaf_value=0.028941161571667751 -0.030131328887358144 0.021826282575927003 -0.02713026082751286 0.015421875535402321 -0.0016541723595586433
leaf_weight=0.40522449649870385 0.44590139202773571 0.20267993956804276 0.28259580582380295 0.13626081123948097 0.15578038245439529
leaf_count=13 15 2 3 3 2
internal_value=0 -0.0140435 0.000819293 -0.0112588 -0.0229099
internal_weight=0 1.22322 0.777317 0.574637 0.438376
internal_count=38 25 10 8 5
is_linear=0
shrinkage=0.05


Tree=71
num_leaves=6
num_cat=0
split_feature=7 8 4 0 0
split_gain=0.344605 0.196097 0.157679 0.114337 0.0735928
threshold=260.50000000000006 21.500000000000004 24544.834890966351 0.18750000000000025 0.43750000000000028
decision_type=2 2 2 2 2
left_child=1 -1 3 -3 -4
right_child=-2 2 4 -5 -6
leaf_value=-0.017545712453212976 -0.029336389760608473 -0.0077041161288818995 0.011006966488037118 0.034396112037056885 -0.019009384190264711
leaf_weight=0.16810344904661167 0.39206555671989929 0.061020080000161903 0.091012917459011078 0.73509677872061729 0.14694277942180634
leaf_count=6 9 2 3 17 1
internal_value=0 0.0131159 0.0212118 0.0296385 -0.00722148
internal_weight=0 1.20218 1.03407 0.796117 0.237956
internal_count=38 29 23 19 4
is_linear=0
shrinkage=0.05


Tree=72
num_leaves=5
num_cat=0
split_feature=1 5 7 4
split_gain=0.334269 0.141183 0.166366 0.245989
threshold=1.0000000180025095e-35 2909.0000000000005 300.50000000000006 24544.834890966351
decision_type=2 2 2 2
left_child=-1 -2 3 -3
right_child=1 2 -4 -5
leaf_value=0.028185526695678954 -0.029519373597237327 0.030072278917569487 -0.02150944902955703 -0.018777815996023357
leaf_weight=0.38381899707019318 0.42645586095750332 0.39130271971225739 0.21146419644355774 0.14515256881713867
leaf_count=13 15 6 3 1
internal_value=0 -0.0139167 0.000689415 0.0144583
internal_weight=0 1.17438 0.747919 0.536455
internal_count=38 25 10 7
is_linear=0
shrinkage=0.05


Tree=73
num_leaves=6
num_cat=0
split_feature=1 11 6 7 0
split_gain=0.323036 0.133282 0.141309 0.134387 0.0888456
threshold=1.0000000180025095e-35 1128.5000000000002 1472.5000000000002 260.50000000000006 0.18750000000000025
decision_type=2 2 2 2 2
left_child=-1 2 -2 -4 -3
right_child=1 4 3 -5 -6
leaf_value=0.027817053244817203 -0.033606716153152215 -0.011751911481809147 0.019683032433738396 -0.017520646539245142 0.020703032966877283
leaf_weight=0.37378434650599945 0.50613904371857643 0.095171544700860977 0.19205767661333084 0.16450100019574165 0.18949484080076218
leaf_count=13 12 2 4 5 2
internal_value=0 -0.0138997 -0.0220298 0.00188216 0.0088556
internal_weight=0 1.14736 0.862698 0.356559 0.284666
internal_count=38 25 21 9 4
is_linear=0
shrinkage=0.05


Tree=74
num_leaves=5
num_cat=0
split_feature=1 5 7 4
split_gain=0.309305 0.128722 0.155092 0.228968
threshold=1.0000000180025095e-35 2909.0000000000005 300.50000000000006 24544.834890966351
decision_type=2 2 2 2
left_child=-1 -2 3 -3
right_child=1 2 -4 -5
leaf_value=0.027453146134505516 -0.028776184814863159 0.029374124742533342 -0.020943628742734192 -0.01814820632180407
leaf_weight=0.36412183567881573 0.40400005877017975 0.37512603402137756 0.20382880419492722 0.14025568962097168
leaf_count=13 15 6 3 1
internal_value=0 -0.0136763 0.000576494 0.0141125
internal_weight=0 1.12321 0.719211 0.515382
internal_count=38 25 10 7
is_linear=0
shrinkage=0.05


Tree=75
num_leaves=5
num_cat=0
split_feature=1 5 7 4
split_gain=0.299131 0.121195 0.148458 0.22161
threshold=1.0000000180025095e-35 2909.0000000000005 300.50000000000006 24544.834890966351
decision_type=2 2 2 2
left_child=-1 -2 3 -3
right_child=1 2 -4 -5
leaf_value=0.027093839773043828 -0.028402650530109454 0.028967636722143711 -0.020675492113440636 -0.017932990466792427
leaf_weight=0.35481558367609967 0.39316508546471596 0.36591744050383568 0.20022588223218918 0.13857296109199524
leaf_count=13 15 6 3 1
internal_value=0 -0.0136614 0.000381101 0.0137874
internal_weight=0 1.09788 0.704716 0.50449
internal_count=38 25 10 7
is_linear=0
shrinkage=0.05


Tree=76
num_leaves=6
num_cat=0
split_feature=2 11 8 12 0
split_gain=0.289388 0.119205 0.143007 0.119279 0.0793979
threshold=1.0000000180025095e-35 1128.5000000000002 388.00000000000006 3777.5000000000005 0.18750000000000025
decision_type=2 2 2 2 2
left_child=1 2 3 -1 -3
right_child=-2 4 -4 -5 -6
leaf_value=-0.035139270694795631 0.026739168053041225 -0.011212752070042908 0.0089106749167820569 0.0080180155263105454 0.019699624100599139
leaf_weight=0.59231951460242249 0.3458504006266595 0.09031527116894722 0.15173692628741264 0.061071570962667465 0.17795047909021378
leaf_count=16 13 2 4 1 2
internal_value=0 -0.0136458 -0.021522 -0.0295049 0.00831836
internal_weight=0 1.07339 0.805128 0.653391 0.268266
internal_count=38 25 21 17 4
is_linear=0
shrinkage=0.05


Tree=77
num_leaves=5
num_cat=0
split_feature=7 8 4 0
split_gain=0.275835 0.151685 0.131213 0.0926807
threshold=260.50000000000006 21.500000000000004 24544.834890966351 0.18750000000000025
decision_type=2 2 2 2
left_child=1 -1 3 -3
right_child=-2 2 -4 -5
leaf_value=-0.01555540379220976 -0.027290463070455226 -0.0067679608593210726 -0.0068579591512345694 0.032466990664939299
leaf_weight=0.14270573481917359 0.3421633578836919 0.053579866886138916 0.21284845285117626 0.6367864366620779
leaf_count=6 9 2 4 17
internal_value=0 0.0123426 0.0198393 0.0279613
internal_weight=0 1.04592 0.903215 0.690366
internal_count=38 29 23 19
is_linear=0
shrinkage=0.05


Tree=78
num_leaves=6
num_cat=0
split_feature=2 11 8 12 0
split_gain=0.270098 0.109723 0.133103 0.112076 0.0741033
threshold=1.0000000180025095e-35 1128.5000000000002 388.00000000000006 3777.5000000000005 0.18750000000000025
decision_type=2 2 2 2 2
left_child=1 2 3 -1 -3
right_child=-2 4 -4 -5 -6
leaf_value=-0.034482630310961132 0.026087019068894358 -0.010926724868663824 0.0085485615174465644 0.007732753811398309 0.019050966301348456
leaf_weight=0.566500164568424 0.32990647852420818 0.087817484512925148 0.146759282797575 0.058953747153282166 0.1706148236989975
leaf_count=16 13 2 4 1 2
internal_value=0 -0.013456 -0.0211121 -0.0289311 0.00790881
internal_weight=0 1.03065 0.772213 0.625454 0.258432
internal_count=38 25 21 17 4
is_linear=0
shrinkage=0.05


Tree=79
num_leaves=6
num_cat=0
split_feature=1 11 8 12 0
split_gain=0.256984 0.104157 0.128322 0.109351 0.0722877
threshold=1.0000000180025095e-35 1128.5000000000002 388.00000000000006 3777.5000000000005 0.18750000000000025
decision_type=2 2 2 2 2
left_child=-1 2 3 -2 -3
right_child=1 4 -4 -5 -6
leaf_value=0.02574578859057311 -0.034032970264849714 -0.010829385213290197 0.0084223321230394565 0.0076790656862762699 0.018816800783648086
leaf_weight=0.32184350304305542 0.54977206513285637 0.086960639804601669 0.14613305404782295 0.058556370437145233 0.16799230873584747
leaf_count=13 16 2 4 1 2
internal_value=0 -0.0130932 -0.0206392 -0.0284461 0.00775586
internal_weight=0 1.00941 0.754461 0.608328 0.254953
internal_count=38 25 21 17 4
is_linear=0
shrinkage=0.05


Tree=80
num_leaves=5
num_cat=0
split_feature=7 8 4 0
split_gain=0.248668 0.134885 0.117215 0.0852874
threshold=260.50000000000006 21.500000000000004 24544.834890966351 0.18750000000000025
decision_type=2 2 2 2
left_child=1 -1 3 -3
right_child=-2 2 -4 -5
leaf_value=-0.014631736455713458 -0.026234944019789416 -0.0064548148332251353 -0.0063727011967095945 0.031600023195947673
leaf_weight=0.13171659409999847 0.31872010417282581 0.051136938855051994 0.20275391265749931 0.59866189211606979
leaf_count=6 9 2 4 17
internal_value=0 0.0121566 0.0193456 0.0271671
internal_weight=0 0.984269 0.852553 0.649799
internal_count=38 29 23 19
is_linear=0
shrinkage=0.05


Tree=81
num_leaves=6
num_cat=0
split_feature=1 5 0 3 5
split_gain=0.240345 0.0976483 0.100359 0.0383164 0.0242892
threshold=1.0000000180025095e-35 2909.0000000000005 0.4791666666666668 26279.5014463687 4675.0000000000009
decision_type=2 2 2 2 2
left_child=-1 -2 3 -3 -4
right_child=1 2 4 -5 -6
leaf_value=0.025118353825543012 -0.026523413096767146 -0.0205880852488785 -0.00087381216018970987 0.0029981293331842861 0.019814032633980579
leaf_weight=0.30746947415173054 0.3426403496414423 0.18234287574887276 0.12511100992560387 0.12899749726057053 0.19135241210460663
leaf_count=13 15 2 2 2 4
internal_value=0 -0.0129207 0.000445549 -0.0136747 0.0147323
internal_weight=0 0.970444 0.627804 0.31134 0.316463
internal_count=38 25 10 4 6
is_linear=0
shrinkage=0.05


Tree=82
num_leaves=5
num_cat=0
split_feature=7 8 13 7
split_gain=0.231454 0.125234 0.0957491 0.0340716
threshold=260.50000000000006 21.500000000000004 134896450.81736961 187.50000000000003
decision_type=2 2 2 2
left_child=1 -1 3 -3
right_child=-2 2 -4 -5
leaf_value=-0.014190623817258167 -0.02569084132722569 0.029296233400558338 -0.0048799085167142821 0
leaf_weight=0.12663524597883224 0.30691276304423809 0.52172154746949673 0.20592347532510757 0.094701871275901794
leaf_count=6 9 17 2 4
internal_value=0 0.0117528 0.0187989 0.0260398
internal_weight=0 0.948982 0.822347 0.616423
internal_count=38 29 23 21
is_linear=0
shrinkage=0.05


Tree=83
num_leaves=6
num_cat=0
split_feature=1 9 6 0 4
split_gain=0.224908 0.0955724 0.0911421 0.0631878 0.0385806
threshold=1.0000000180025095e-35 4458.5000000000009 2614.5000000000005 0.18750000000000025 -14380.926569959227
decision_type=2 2 2 2 2
left_child=-1 3 4 -2 -3
right_child=1 2 -4 -5 -6
leaf_value=0.024467044182930095 -0.01003705587906447 0 0.0053316424360912154 0.01792430457604656 -0.031133058164950229
leaf_weight=0.29318074509501457 0.082783620804548264 0.10893649235367775 0.15330551564693451 0.15811460465192795 0.43817912600934505
leaf_count=13 4 2 4 2 13
internal_value=0 -0.012761 -0.0202046 0.00750426 -0.0270705
internal_weight=0 0.941319 0.700421 0.240898 0.547116
internal_count=38 25 19 6 15
is_linear=0
shrinkage=0.05


Tree=84
num_leaves=5
num_cat=0
split_feature=7 8 13 7
split_gain=0.216821 0.117653 0.0887777 0.0315648
threshold=260.50000000000006 21.500000000000004 134896450.81736961 187.50000000000003
decision_type=2 2 2 2
left_child=1 -1 3 -3
right_child=-2 2 -4 -5
leaf_value=-0.01379053601280017 -0.025128849117669869 0.028669442326158014 -0.0045875022592500687 0
leaf_weight=0.12211393937468529 0.29528947733342648 0.50110041536390781 0.20189881324768066 0.09221707284450531
leaf_count=6 9 17 2 4
internal_value=0 0.0114973 0.0184262 0.0254983
internal_weight=0 0.91733 0.795216 0.593317
internal_count=38 29 23 21
is_linear=0
shrinkage=0.05


Tree=85
num_leaves=6
num_cat=0
split_feature=1 9 8 12 0
split_gain=0.209657 0.0911742 0.107782 0.0639734 0.0600815
threshold=1.0000000180025095e-35 4458.5000000000009 388.00000000000006 3777.5000000000005 0.18750000000000025
decision_type=2 2 2 2 2
left_child=-1 4 3 -3 -2
right_child=1 2 -4 -5 -6
leaf_value=0.023834548817210061 -0.0097887982366775539 -0.031942257963684002 0.007684273747574525 0.0029478350434935467 0.01757683482830141
leaf_weight=0.27986696548759937 0.080497771501541138 0.46665067598223686 0.13026220910251141 0.080908160656690598 0.15430309623479843
leaf_count=13 4 13 4 2 2
internal_value=0 -0.0125183 -0.0198847 -0.0272142 0.00738668
internal_weight=0 0.912622 0.677821 0.547559 0.234801
internal_count=38 25 19 15 6
is_linear=0
shrinkage=0.05


Tree=86
num_leaves=6
num_cat=0
split_feature=1 0 5 11 12
split_gain=0.200219 0.0905647 0.0946253 0.0832293 0.0459457
threshold=1.0000000180025095e-35 0.4791666666666668 4675.0000000000009 1610.5000000000002 3777.5000000000005
decision_type=2 2 2 2 2
left_child=-1 3 4 -2 -3
right_child=1 2 -4 -5 -6
leaf_value=0.023525689707351291 -0.029291446510192911 -0.018597448718776371 0.01894202807600804 0.0054448681424130833 0.0070120227731370376
leaf_weight=0.27355941571295261 0.38255101442337036 0.18097265437245369 0.17951729893684387 0.099569769576191902 0.053651869297027588
leaf_count=13 11 7 4 2 1
internal_value=0 -0.0122084 0.00370345 -0.022394 -0.011508
internal_weight=0 0.896263 0.414142 0.482121 0.234625
internal_count=38 25 12 13 8
is_linear=0
shrinkage=0.05


end of trees

feature_importances:
edu_0=75
AirConditioner_daytime=69
ClothesWasher_daytime=63
age=40
day_sin=30
ClothesWasher_midnight=22
day_sin_*_AirConditioner_daytime=16
TV_daytime=13
Microwave_daytime=12
IH_daytime=11
AirConditioner_midnight=8
edu_1=6
day_cos=6
RiceCooker_midnight=6
day_sin_*_Microwave_daytime=1

parameters:
[boosting: gbdt]
[objective: binary]
[metric: roc_auc]
[tree_learner: serial]
[device_type: cpu]
[data_sample_strategy: bagging]
[data: ]
[valid: ]
[num_iterations: 10000]
[learning_rate: 0.05]
[num_leaves: 19]
[num_threads: 0]
[seed: 0]
[deterministic: 0]
[force_col_wise: 0]
[force_row_wise: 0]
[histogram_pool_size: -1]
[max_depth: -1]
[min_data_in_leaf: 2]
[min_sum_hessian_in_leaf: 0.001]
[bagging_fraction: 0.960382]
[pos_bagging_fraction: 1]
[neg_bagging_fraction: 1]
[bagging_freq: 1]
[bagging_seed: 3]
[feature_fraction: 0.868021]
[feature_fraction_bynode: 1]
[feature_fraction_seed: 2]
[extra_trees: 0]
[extra_seed: 6]
[early_stopping_round: 0]
[early_stopping_min_delta: 0]
[first_metric_only: 0]
[max_delta_step: 0]
[lambda_l1: 0.00626272]
[lambda_l2: 0.307338]
[linear_lambda: 0]
[min_gain_to_split: 0]
[drop_rate: 0.1]
[max_drop: 50]
[skip_drop: 0.5]
[xgboost_dart_mode: 0]
[uniform_drop: 0]
[drop_seed: 4]
[top_rate: 0.2]
[other_rate: 0.1]
[min_data_per_group: 100]
[max_cat_threshold: 32]
[cat_l2: 10]
[cat_smooth: 10]
[max_cat_to_onehot: 4]
[top_k: 20]
[monotone_constraints: ]
[monotone_constraints_method: basic]
[monotone_penalty: 0]
[feature_contri: ]
[forcedsplits_filename: ]
[refit_decay_rate: 0.9]
[cegb_tradeoff: 1]
[cegb_penalty_split: 0]
[cegb_penalty_feature_lazy: ]
[cegb_penalty_feature_coupled: ]
[path_smooth: 0]
[interaction_constraints: ]
[verbosity: -1]
[saved_feature_importance_type: 0]
[use_quantized_grad: 0]
[num_grad_quant_bins: 4]
[quant_train_renew_leaf: 0]
[stochastic_rounding: 1]
[linear_tree: 0]
[max_bin: 255]
[max_bin_by_feature: ]
[min_data_in_bin: 3]
[bin_construct_sample_cnt: 200000]
[data_random_seed: 1]
[is_enable_sparse: 1]
[enable_bundle: 1]
[use_missing: 1]
[zero_as_missing: 0]
[feature_pre_filter: 1]
[pre_partition: 0]
[two_round: 0]
[header: 0]
[label_column: ]
[weight_column: ]
[group_column: ]
[ignore_column: ]
[categorical_feature: ]
[forcedbins_filename: ]
[precise_float_parser: 0]
[parser_config_file: ]
[objective_seed: 5]
[num_class: 1]
[is_unbalance: 0]
[scale_pos_weight: 1]
[sigmoid: 1]
[boost_from_average: 1]
[reg_sqrt: 0]
[alpha: 0.9]
[fair_c: 1]
[poisson_max_delta_step: 0.7]
[tweedie_variance_power: 1.5]
[lambdarank_truncation_level: 30]
[lambdarank_norm: 1]
[label_gain: ]
[lambdarank_position_bias_regularization: 0]
[eval_at: ]
[multi_error_top_k: 1]
[auc_mu_weights: ]
[num_machines: 1]
[local_listen_port: 12400]
[time_out: 120]
[machine_list_filename: ]
[machines: ]
[gpu_platform_id: -1]
[gpu_device_id: -1]
[gpu_use_dp: 0]
[num_gpu: 1]

end of parameters

pandas_categorical:null
