tree
version=v4
num_class=1
num_tree_per_iteration=1
label_index=0
max_feature_idx=14
objective=binary sigmoid:1
feature_names=age edu_0 edu_1 day_cos day_sin AirConditioner_daytime AirConditioner_midnight ClothesWasher_daytime ClothesWasher_midnight Microwave_daytime RiceCooker_midnight TV_daytime IH_daytime day_sin_*_AirConditioner_daytime day_sin_*_Microwave_daytime
feature_infos=[0.083333333333333481:0.91666666666666696] [0:1] [0:1] [-28246.979281314128:27823.910424243033] [-28240.434342187116:28263.474768540877] [0:15941] [124:23590] [37:411] [0:812] [52:18911] [18:2677] [0:4920] [0:10200] [-346918535.88523012:147222411.06744415] [-376472225.85023499:514100376.8255586]
tree_sizes=890 1010 1148 1160 854 952 744 747

Tree=0
num_leaves=8
num_cat=0
split_feature=8 3 5 8 0 5 3
split_gain=4.86646 4.18789 4.83702 4.46453 4.14364 1.39148 1.29141
threshold=549.50000000000011 -9431.7109864532595 4619.5000000000009 222.50000000000003 0.72916666666666685 1.0000000180025095e-35 21912.67438235052
decision_type=2 2 2 2 2 2 2
left_child=1 2 3 5 -3 -1 -2
right_child=6 4 -4 -5 -6 -7 -8
leaf_value=0 0.098112400427087298 -0.099305455166913068 0.098112400427087298 0.096293112420765686 0.03245996821315357 -0.098484334118262892 0
leaf_weight=0.50000000000000078 0.99999999999999989 2.7500000000000004 0.99999999999999989 0.49999999999999989 0.74999999999999989 1.2499999999999998 0.49999999999999989
leaf_count=2 4 11 4 2 3 5 2
internal_value=0 -0.0332341 0.00763417 -0.0330374 -0.0710345 -0.0706446 0.0658125
internal_weight=0 6.75 3.25 2.25 3.5 1.75 1.5
internal_count=33 27 13 9 14 7 6
is_linear=0
shrinkage=0.05


Tree=1
num_leaves=9
num_cat=0
split_feature=5 3 0 1 3 7 3 3
split_gain=4.23689 6.93242 3.73176 4.94526 1.36634 1.17269 1.52409 0.000226412
threshold=242.00000000000003 -26251.410276653663 0.4791666666666668 1.0000000180025095e-35 -14282.136825517437 247.00000000000003 21912.67438235052 -2551.2258771886104
decision_type=2 2 2 2 2 2 2 2
left_child=2 -2 3 -1 -4 -3 7 -7
right_child=1 5 4 -5 -6 6 -8 -9
leaf_value=0.094079628861114567 0.092934418418700454 -0.095179300550159898 0 -0.095802344186702873 0.095407914538893523 0 -0.092881558474762482 0.001522841687016835
leaf_weight=0.49942137300968192 0.74819800257682789 2.2450417578220372 0.49879410862922657 0.99877943098545074 1.4975535273551939 0.49878399074077606 0.74815396964550018 0.49931880831718423
leaf_count=2 3 9 2 4 6 2 3 2
internal_value=0 -0.045095 0.027308 -0.0320946 0.0717943 -0.071295 -0.0398769 0.00079051
internal_weight=0 4.7395 3.49455 1.4982 1.99635 3.9913 1.74626 0.998103
internal_count=33 19 14 6 8 16 7 4
is_linear=0
shrinkage=0.05


Tree=2
num_leaves=10
num_cat=0
split_feature=9 10 11 5 5 7 11 1 3
split_gain=3.25932 4.93231 6.16696 3.86202 3.18894 1.76338 1.3286 0.871707 0.00057011
threshold=14875.500000000002 402.00000000000006 27.000000000000004 2391.0000000000005 16.000000000000004 85.500000000000014 1.0000000180025095e-35 1.0000000180025095e-35 -1.0000000180025095e-35
decision_type=2 2 2 2 2 2 2 2 2
left_child=1 3 6 4 7 -4 8 -1 -3
right_child=-2 2 5 -5 -6 -7 -8 -9 -10
leaf_value=0.09190986712097704 0.090518366760672667 0 0.0093194205319618671 0.093298016076703072 -0.088869886510409182 -0.092743175461376864 0.08893757959511793 -0.00061974691760698531 0.0023143399455638493
leaf_weight=0.49886900186538541 0.99250757694244462 0.49882657825946808 0.49532127380371127 1.7407139986753462 0.7429768294095993 2.7338129132986069 0.74309629201889038 0.49837566912174225 0.49706776440143563
leaf_count=2 4 2 2 7 3 11 3 2 2
internal_value=0 -0.004454 -0.0363817 0.0410521 -0.0116207 -0.0771102 0.0392371 0.0464661 0.00114818
internal_weight=0 8.44906 4.96812 3.48094 1.74022 3.22913 1.73899 0.997245 0.995894
internal_count=38 34 20 14 7 13 7 4 4
is_linear=0
shrinkage=0.05


Tree=3
num_leaves=10
num_cat=0
split_feature=4 0 3 11 10 3 9 9 3
split_gain=3.02547 5.37162 4.94416 4.68727 1.712 2.42042 1.31326 0.703014 0.562839
threshold=-27933.233201880401 0.72916666666666685 9319.0894179122533 1.0000000180025095e-35 732.50000000000011 -9431.7109864532595 11963.000000000002 3464.0000000000005 -1.0000000180025095e-35
decision_type=2 2 2 2 2 2 2 2 2
left_child=-1 2 3 -2 7 -6 -4 -5 -7
right_child=1 -3 6 4 5 8 -8 -9 -10
leaf_value=-0.089960305475511593 -0.090479976568003925 0.091921042378689352 -0.087674461471883153 0.028388697048632963 -0.086200867879948115 0.0090141165491260927 0.0044264984707313082 0.087795132533171227 0.084371720753238247
leaf_weight=0.74469999969005662 0.74386949837207605 1.7381845712661741 1.7203460484743121 0.7351046949625023 0.49283052980899811 0.49561420083045959 0.49439790844917286 1.7210293561220167 0.49015831947326638
leaf_count=3 3 7 7 3 2 2 2 7 2
internal_value=0 0.0138732 -0.00599651 0.0231331 0.0449511 0.00232106 -0.0672299 0.0703838 0.0474063
internal_weight=0 8.63154 6.89335 4.67861 3.93474 1.4786 2.21474 2.45613 0.985773
internal_count=38 35 28 19 16 6 9 10 4
is_linear=0
shrinkage=0.05


Tree=4
num_leaves=7
num_cat=0
split_feature=5 8 10 8 0 14
split_gain=4.93907 6.44826 4.06215 3.91051 1.26546 0.780848
threshold=242.00000000000003 156.50000000000003 833.00000000000011 156.50000000000003 0.4791666666666668 1.0000000180025095e-35
decision_type=2 2 2 2 2 2
left_child=3 2 -2 5 -5 -1
right_child=1 -3 -4 4 -6 -7
leaf_value=7.1365113624727633e-05 0.085382969825063049 -0.086844995408576875 -0.082980456118674231 -0.0020983277591401736 0.086742218415958028 -0.088007713605348536
leaf_weight=0.49052038788795504 1.2193717360496519 2.6895018219947815 0.48689784109592427 0.48705413937568698 2.1974750310182571 0.49561066925525665
leaf_count=2 5 11 2 2 9 2
internal_value=0 -0.0388363 0.0369324 0.0395459 0.0707044 -0.0449673
internal_weight=0 4.39577 1.70627 3.67066 2.68453 0.986131
internal_count=33 18 7 15 11 4
is_linear=0
shrinkage=0.05


Tree=5
num_leaves=8
num_cat=0
split_feature=1 13 8 0 13 12 10
split_gain=3.81458 3.46284 2.52061 2.27081 2.91597 1.50322 0.522905
threshold=1.0000000180025095e-35 -189991.4022317841 655.00000000000011 0.72916666666666685 -72006744.873071179 350.50000000000006 1090.0000000000002
decision_type=2 2 2 2 2 2 2
left_child=1 -1 3 4 -2 -5 -3
right_child=2 6 -4 5 -6 -7 -8
leaf_value=-0.078384154881496484 0.027097100547516663 0.082506341959237062 0.078567307302400816 0.084075030834881992 -0.085305740971044389 -0.02737636095867424 0.030451884534668541
leaf_weight=0.47451457381248507 0.72402936220169056 1.6785214394330981 0.47514078021049488 0.48956291377544381 2.6719154715538029 0.73069094121456146 0.7221228927373885
leaf_count=2 3 7 2 2 11 3 3
internal_value=0 0.0428252 -0.0290181 -0.040375 -0.0613104 0.0178973 0.0672248
internal_weight=0 2.87516 5.09134 4.6162 3.39594 1.22025 2.40064
internal_count=33 12 21 19 14 5 10
is_linear=0
shrinkage=0.05


Tree=6
num_leaves=6
num_cat=0
split_feature=1 5 8 6 9
split_gain=3.95737 5.37726 2.71346 2.5305 2.11194
threshold=1.0000000180025095e-35 2391.0000000000005 549.50000000000011 3193.5000000000005 8878.0000000000018
decision_type=2 2 2 2 2
left_child=3 2 -2 -1 -3
right_child=1 4 -4 -5 -6
leaf_value=0.084996379455625451 -0.082914765471068144 0.082091819071799702 0.025126557205497592 -0.027231067058793614 -0.025536843291872668
leaf_weight=1.6653120666742327 2.8756953477859502 1.2004381865262983 0.71705465018749226 0.70427000522613514 0.71555256843566883
leaf_count=7 12 5 3 3 3
internal_value=0 -0.0253504 -0.0613203 0.05167 0.0420151
internal_weight=0 5.50874 3.59275 2.36958 1.91599
internal_count=33 23 15 10 8
is_linear=0
shrinkage=0.05


Tree=7
num_leaves=6
num_cat=0
split_feature=2 13 10 8 6
split_gain=3.62358 5.06286 3.5202 2.53107 2.33482
threshold=1.0000000180025095e-35 -44996686.652754672 833.00000000000011 549.50000000000011 3193.5000000000005
decision_type=2 2 2 2 2
left_child=1 2 -1 -3 -2
right_child=4 3 -4 -5 -6
leaf_value=0.080365361871911609 0.082191589537774265 -0.080649734524298217 -0.075834592478572146 0.023956149685455567 -0.025959249385398404
leaf_weight=1.4210237860679624 1.6373753100633623 2.8314587920904164 0.46455581486225117 0.71544155478477467 0.70279310643672932
leaf_count=6 7 12 2 3 3
internal_value=0 -0.0244309 0.0414897 -0.059522 0.0497446
internal_weight=0 5.43248 1.88558 3.5469 2.34017
internal_count=33 23 8 15 10
is_linear=0
shrinkage=0.05


end of trees

feature_importances:
day_cos=10
AirConditioner_daytime=7
ClothesWasher_midnight=7
age=5
RiceCooker_midnight=5
edu_0=4
Microwave_daytime=4
TV_daytime=3
day_sin_*_AirConditioner_daytime=3
AirConditioner_midnight=2
ClothesWasher_daytime=2
edu_1=1
day_sin=1
IH_daytime=1
day_sin_*_Microwave_daytime=1

parameters:
[boosting: gbdt]
[objective: binary]
[metric: roc_auc]
[tree_learner: serial]
[device_type: cpu]
[data_sample_strategy: bagging]
[data: ]
[valid: ]
[num_iterations: 10000]
[learning_rate: 0.05]
[num_leaves: 31]
[num_threads: 0]
[seed: 0]
[deterministic: 0]
[force_col_wise: 0]
[force_row_wise: 0]
[histogram_pool_size: -1]
[max_depth: -1]
[min_data_in_leaf: 2]
[min_sum_hessian_in_leaf: 0.001]
[bagging_fraction: 0.850843]
[pos_bagging_fraction: 1]
[neg_bagging_fraction: 1]
[bagging_freq: 2]
[bagging_seed: 3]
[feature_fraction: 0.633004]
[feature_fraction_bynode: 1]
[feature_fraction_seed: 2]
[extra_trees: 0]
[extra_seed: 6]
[early_stopping_round: 0]
[early_stopping_min_delta: 0]
[first_metric_only: 0]
[max_delta_step: 0]
[lambda_l1: 0.00091224]
[lambda_l2: 0.0187743]
[linear_lambda: 0]
[min_gain_to_split: 0]
[drop_rate: 0.1]
[max_drop: 50]
[skip_drop: 0.5]
[xgboost_dart_mode: 0]
[uniform_drop: 0]
[drop_seed: 4]
[top_rate: 0.2]
[other_rate: 0.1]
[min_data_per_group: 100]
[max_cat_threshold: 32]
[cat_l2: 10]
[cat_smooth: 10]
[max_cat_to_onehot: 4]
[top_k: 20]
[monotone_constraints: ]
[monotone_constraints_method: basic]
[monotone_penalty: 0]
[feature_contri: ]
[forcedsplits_filename: ]
[refit_decay_rate: 0.9]
[cegb_tradeoff: 1]
[cegb_penalty_split: 0]
[cegb_penalty_feature_lazy: ]
[cegb_penalty_feature_coupled: ]
[path_smooth: 0]
[interaction_constraints: ]
[verbosity: -1]
[saved_feature_importance_type: 0]
[use_quantized_grad: 0]
[num_grad_quant_bins: 4]
[quant_train_renew_leaf: 0]
[stochastic_rounding: 1]
[linear_tree: 0]
[max_bin: 255]
[max_bin_by_feature: ]
[min_data_in_bin: 3]
[bin_construct_sample_cnt: 200000]
[data_random_seed: 1]
[is_enable_sparse: 1]
[enable_bundle: 1]
[use_missing: 1]
[zero_as_missing: 0]
[feature_pre_filter: 1]
[pre_partition: 0]
[two_round: 0]
[header: 0]
[label_column: ]
[weight_column: ]
[group_column: ]
[ignore_column: ]
[categorical_feature: ]
[forcedbins_filename: ]
[precise_float_parser: 0]
[parser_config_file: ]
[objective_seed: 5]
[num_class: 1]
[is_unbalance: 0]
[scale_pos_weight: 1]
[sigmoid: 1]
[boost_from_average: 1]
[reg_sqrt: 0]
[alpha: 0.9]
[fair_c: 1]
[poisson_max_delta_step: 0.7]
[tweedie_variance_power: 1.5]
[lambdarank_truncation_level: 30]
[lambdarank_norm: 1]
[label_gain: ]
[lambdarank_position_bias_regularization: 0]
[eval_at: ]
[multi_error_top_k: 1]
[auc_mu_weights: ]
[num_machines: 1]
[local_listen_port: 12400]
[time_out: 120]
[machine_list_filename: ]
[machines: ]
[gpu_platform_id: -1]
[gpu_device_id: -1]
[gpu_use_dp: 0]
[num_gpu: 1]

end of parameters

pandas_categorical:null
